<?xml version="1.0"?>
<MethodSetup Method="BDT::BDT_sans_top_mass_C_eta_lj_mass_bj">
  <GeneralInfo>
    <Info name="TMVA Release" value="4.1.2 [262402]"/>
    <Info name="ROOT Release" value="5.32/00 [335872]"/>
    <Info name="Creator" value="mario"/>
    <Info name="Date" value="Wed Jul 31 01:11:51 2013"/>
    <Info name="Host" value="Linux lxbuild168.cern.ch 2.6.18-308.16.1.el5 #1 SMP Thu Oct 4 14:02:28 CEST 2012 x86_64 x86_64 x86_64 GNU/Linux"/>
    <Info name="Dir" value="/home/mario/Summer13/stpol/mvatools"/>
    <Info name="Training events" value="43399"/>
    <Info name="TrainingTime" value="1.43109028e+02"/>
    <Info name="AnalysisType" value="Classification"/>
  </GeneralInfo>
  <Options>
    <Option name="V" modified="Yes">False</Option>
    <Option name="VerbosityLevel" modified="No">Default</Option>
    <Option name="VarTransform" modified="No">None</Option>
    <Option name="H" modified="Yes">False</Option>
    <Option name="CreateMVAPdfs" modified="No">False</Option>
    <Option name="IgnoreNegWeightsInTraining" modified="No">False</Option>
    <Option name="NTrees" modified="Yes">2000</Option>
    <Option name="RenormByClass" modified="No">False</Option>
    <Option name="BoostType" modified="Yes">Grad</Option>
    <Option name="AdaBoostR2Loss" modified="No">quadratic</Option>
    <Option name="UseBaggedGrad" modified="Yes">False</Option>
    <Option name="GradBaggingFraction" modified="No">6.000000e-01</Option>
    <Option name="Shrinkage" modified="Yes">1.000000e-01</Option>
    <Option name="AdaBoostBeta" modified="No">1.000000e+00</Option>
    <Option name="UseRandomisedTrees" modified="No">False</Option>
    <Option name="UseNvars" modified="Yes">4</Option>
    <Option name="UsePoissonNvars" modified="No">True</Option>
    <Option name="UseNTrainEvents" modified="No">43399</Option>
    <Option name="UseWeightedTrees" modified="No">True</Option>
    <Option name="UseYesNoLeaf" modified="No">True</Option>
    <Option name="NodePurityLimit" modified="No">5.000000e-01</Option>
    <Option name="SeparationType" modified="No">giniindex</Option>
    <Option name="nEventsMin" modified="Yes">100</Option>
    <Option name="nCuts" modified="Yes">2000</Option>
    <Option name="UseFisherCuts" modified="No">False</Option>
    <Option name="MinLinCorrForFisher" modified="No">8.000000e-01</Option>
    <Option name="UseExclusiveVars" modified="No">False</Option>
    <Option name="PruneStrength" modified="Yes">5.000000e+00</Option>
    <Option name="PruneMethod" modified="Yes">costcomplexity</Option>
    <Option name="PruneBeforeBoost" modified="No">False</Option>
    <Option name="PruningValFraction" modified="No">5.000000e-01</Option>
    <Option name="NNodesMax" modified="Yes">5</Option>
    <Option name="MaxDepth" modified="Yes">6</Option>
    <Option name="DoBoostMonitor" modified="No">False</Option>
    <Option name="NegWeightTreatment" modified="No">ignorenegweights</Option>
  </Options>
  <Variables NVar="5">
    <Variable VarIndex="0" Expression="met" Label="met" Title="met" Unit="" Internal="met" Type="D" Min="4.50004005e+01" Max="6.79641846e+02"/>
    <Variable VarIndex="1" Expression="mt_el" Label="mt_el" Title="mt_el" Unit="" Internal="mt_el" Type="D" Min="3.57115129e-03" Max="8.94303345e+02"/>
    <Variable VarIndex="2" Expression="mass_lj" Label="mass_lj" Title="mass_lj" Unit="" Internal="mass_lj" Type="D" Min="1.78667796e+00" Max="2.15385056e+02"/>
    <Variable VarIndex="3" Expression="el_pt" Label="el_pt" Title="el_pt" Unit="" Internal="el_pt" Type="D" Min="3.00002575e+01" Max="6.75364624e+02"/>
    <Variable VarIndex="4" Expression="pt_bj" Label="pt_bj" Title="pt_bj" Unit="" Internal="pt_bj" Type="D" Min="4.00018005e+01" Max="8.76732727e+02"/>
  </Variables>
  <Spectators NSpec="0"/>
  <Classes NClass="2">
    <Class Name="Background" Index="0"/>
    <Class Name="Signal" Index="1"/>
  </Classes>
  <Transformations NTransformations="0"/>
  <MVAPdfs/>
  <Weights NTrees="2000" AnalysisType="1">
    <BinaryTree type="DecisionTree" boostWeight="1.0000000000000000e+00" itree="0">
      <Node pos="s" depth="0" NCoef="0" IVar="3" Cut="5.9027141571044922e+01" cType="1" res="-3.6052224040031433e-01" rms="3.4644439816474915e-01" purity="1.3947774469852448e-01" nType="0">
        <Node pos="l" depth="1" NCoef="0" IVar="-1" Cut="0.0000000000000000e+00" cType="1" res="-1.3400740921497345e-02" rms="3.7852668762207031e-01" purity="1.7332349717617035e-01" nType="-99"/>
        <Node pos="r" depth="1" NCoef="0" IVar="4" Cut="7.2621147155761719e+01" cType="1" res="-4.1171085834503174e-01" rms="2.8371495008468628e-01" purity="8.8289164006710052e-02" nType="0">
          <Node pos="l" depth="2" NCoef="0" IVar="-1" Cut="0.0000000000000000e+00" cType="1" res="-1.7805771902203560e-02" rms="3.3991819620132446e-01" purity="1.3331809639930725e-01" nType="-99"/>
          <Node pos="r" depth="2" NCoef="0" IVar="-1" Cut="0.0000000000000000e+00" cType="1" res="-1.4921644702553749e-02" rms="2.3843148350715637e-01" purity="6.0511171817779541e-02" nType="-99"/>
        </Node>
      </Node>
    </BinaryTree>
    <BinaryTree type="DecisionTree" boostWeight="1.0000000000000000e+00" itree="1">
      <Node pos="s" depth="0" NCoef="0" IVar="3" Cut="5.9027141571044922e+01" cType="1" res="-3.5330072045326233e-01" rms="3.4639665484428406e-01" purity="1.3947774469852448e-01" nType="0">
        <Node pos="l" depth="1" NCoef="0" IVar="-1" Cut="0.0000000000000000e+00" cType="1" res="-1.3128255493938923e-02" rms="3.7852668762207031e-01" purity="1.7332349717617035e-01" nType="-99"/>
        <Node pos="r" depth="1" NCoef="0" IVar="4" Cut="7.2621147155761719e+01" cType="1" res="-4.0370053052902222e-01" rms="2.8380310535430908e-01" purity="8.8289164006710052e-02" nType="0">
          <Node pos="l" depth="2" NCoef="0" IVar="-1" Cut="0.0000000000000000e+00" cType="1" res="-1.7379008233547211e-02" rms="3.3991819620132446e-01" purity="1.3331809639930725e-01" nType="-99"/>
          <Node pos="r" depth="2" NCoef="0" IVar="-1" Cut="0.0000000000000000e+00" cType="1" res="-1.4671618118882179e-02" rms="2.3843148350715637e-01" purity="6.0511171817779541e-02" nType="-99"/>
        </Node>
      </Node>
    </BinaryTree>
    <BinaryTree type="DecisionTree" boostWeight="1.0000000000000000e+00" itree="2">
      <Node pos="s" depth="0" NCoef="0" IVar="3" Cut="5.0641597747802734e+01" cType="1" res="-3.4622740745544434e-01" rms="3.4635019302368164e-01" purity="1.3947774469852448e-01" nType="0">
        <Node pos="l" depth="1" NCoef="0" IVar="-1" Cut="0.0000000000000000e+00" cType="1" res="-1.3179481029510498e-02" rms="3.8743996620178223e-01" purity="1.8394577503204346e-01" nType="-99"/>
        <Node pos="r" depth="1" NCoef="0" IVar="4" Cut="8.0984237670898438e+01" cType="1" res="-3.8389304280281067e-01" rms="3.0125924944877625e-01" purity="1.0091592371463776e-01" nType="0">
          <Node pos="l" depth="2" NCoef="0" IVar="-1" Cut="0.0000000000000000e+00" cType="1" res="-1.5602065250277519e-02" rms="3.4842768311500549e-01" purity="1.4147461950778961e-01" nType="-99"/>
          <Node pos="r" depth="2" NCoef="0" IVar="-1" Cut="0.0000000000000000e+00" cType="1" res="-1.3479578308761120e-02" rms="2.4342599511146545e-01" purity="6.3276864588260651e-02" nType="-99"/>
        </Node>
      </Node>
    </BinaryTree>
    <BinaryTree type="DecisionTree" boostWeight="1.0000000000000000e+00" itree="3">
      <Node pos="s" depth="0" NCoef="0" IVar="3" Cut="5.9027141571044922e+01" cType="1" res="-3.3929276466369629e-01" rms="3.4634485840797424e-01" purity="1.3947774469852448e-01" nType="0">
        <Node pos="l" depth="1" NCoef="0" IVar="-1" Cut="0.0000000000000000e+00" cType="1" res="-1.2600230053067207e-02" rms="3.7852638959884644e-01" purity="1.7332349717617035e-01" nType="-99"/>
        <Node pos="r" depth="1" NCoef="0" IVar="4" Cut="7.2621147155761719e+01" cType="1" res="-3.8863259553909302e-01" rms="2.8395426273345947e-01" purity="8.8289164006710052e-02" nType="0">
          <Node pos="l" depth="2" NCoef="0" IVar="-1" Cut="0.0000000000000000e+00" cType="1" res="-1.6616532579064369e-02" rms="3.3991819620132446e-01" purity="1.3331809639930725e-01" nType="-99"/>
          <Node pos="r" depth="2" NCoef="0" IVar="-1" Cut="0.0000000000000000e+00" cType="1" res="-1.4212700538337231e-02" rms="2.3844908177852631e-01" purity="6.0511171817779541e-02" nType="-99"/>
        </Node>
      </Node>
    </BinaryTree>
    <BinaryTree type="DecisionTree" boostWeight="1.0000000000000000e+00" itree="4">
      <Node pos="s" depth="0" NCoef="0" IVar="3" Cut="5.0641597747802734e+01" cType="1" res="-3.3250632882118225e-01" rms="3.4629905223846436e-01" purity="1.3947774469852448e-01" nType="0">
        <Node pos="l" depth="1" NCoef="0" IVar="-1" Cut="0.0000000000000000e+00" cType="1" res="-1.2644992209970951e-02" rms="3.8743996620178223e-01" purity="1.8394577503204346e-01" nType="-99"/>
        <Node pos="r" depth="1" NCoef="0" IVar="4" Cut="8.0984237670898438e+01" cType="1" res="-3.6943319439888000e-01" rms="3.0134645104408264e-01" purity="1.0091592371463776e-01" nType="0">
          <Node pos="l" depth="2" NCoef="0" IVar="-1" Cut="0.0000000000000000e+00" cType="1" res="-1.4946031384170055e-02" rms="3.4839138388633728e-01" purity="1.4147461950778961e-01" nType="-99"/>
          <Node pos="r" depth="2" NCoef="0" IVar="-1" Cut="0.0000000000000000e+00" cType="1" res="-1.3074678368866444e-02" rms="2.4340876936912537e-01" purity="6.3276864588260651e-02" nType="-99"/>
        </Node>
      </Node>
    </BinaryTree>
    <BinaryTree type="DecisionTree" boostWeight="1.0000000000000000e+00" itree="5">
      <Node pos="s" depth="0" NCoef="0" IVar="3" Cut="5.0641597747802734e+01" cType="1" res="-3.2585442066192627e-01" rms="3.4629109501838684e-01" purity="1.3947774469852448e-01" nType="0">
        <Node pos="l" depth="1" NCoef="0" IVar="-1" Cut="0.0000000000000000e+00" cType="1" res="-1.2388521805405617e-02" rms="3.8743996620178223e-01" purity="1.8394577503204346e-01" nType="-99"/>
        <Node pos="r" depth="1" NCoef="0" IVar="4" Cut="8.0984237670898438e+01" cType="1" res="-3.6247673630714417e-01" rms="3.0140933394432068e-01" purity="1.0091592371463776e-01" nType="0">
          <Node pos="l" depth="2" NCoef="0" IVar="-1" Cut="0.0000000000000000e+00" cType="1" res="-1.4636777341365814e-02" rms="3.4839162230491638e-01" purity="1.4147461950778961e-01" nType="-99"/>
          <Node pos="r" depth="2" NCoef="0" IVar="-1" Cut="0.0000000000000000e+00" cType="1" res="-1.2887421064078808e-02" rms="2.4340884387493134e-01" purity="6.3276864588260651e-02" nType="-99"/>
        </Node>
      </Node>
    </BinaryTree>
    <BinaryTree type="DecisionTree" boostWeight="1.0000000000000000e+00" itree="6">
      <Node pos="s" depth="0" NCoef="0" IVar="3" Cut="5.9027141571044922e+01" cType="1" res="-3.1933954358100891e-01" rms="3.4628155827522278e-01" purity="1.3947774469852448e-01" nType="0">
        <Node pos="l" depth="1" NCoef="0" IVar="-1" Cut="0.0000000000000000e+00" cType="1" res="-1.1870319023728371e-02" rms="3.7852248549461365e-01" purity="1.7332349717617035e-01" nType="-99"/>
        <Node pos="r" depth="1" NCoef="0" IVar="4" Cut="7.2621147155761719e+01" cType="1" res="-3.6734965443611145e-01" rms="2.8414684534072876e-01" purity="8.8289164006710052e-02" nType="0">
          <Node pos="l" depth="2" NCoef="0" IVar="-1" Cut="0.0000000000000000e+00" cType="1" res="-1.5604205429553986e-02" rms="3.3991819620132446e-01" purity="1.3331809639930725e-01" nType="-99"/>
          <Node pos="r" depth="2" NCoef="0" IVar="-1" Cut="0.0000000000000000e+00" cType="1" res="-1.3593852519989014e-02" rms="2.3848007619380951e-01" purity="6.0511171817779541e-02" nType="-99"/>
        </Node>
      </Node>
    </BinaryTree>
    <BinaryTree type="DecisionTree" boostWeight="1.0000000000000000e+00" itree="7">
      <Node pos="s" depth="0" NCoef="0" IVar="4" Cut="9.8961853027343750e+01" cType="1" res="-3.1296074390411377e-01" rms="3.4623581171035767e-01" purity="1.3947774469852448e-01" nType="0">
        <Node pos="l" depth="1" NCoef="0" IVar="-1" Cut="0.0000000000000000e+00" cType="1" res="-1.2857101857662201e-02" rms="3.7088695168495178e-01" purity="1.6503547132015228e-01" nType="-99"/>
        <Node pos="r" depth="1" NCoef="0" IVar="3" Cut="4.9997142791748047e+01" cType="1" res="-3.7047952413558960e-01" rms="2.7580884099006653e-01" purity="8.3092696964740753e-02" nType="0">
          <Node pos="l" depth="2" NCoef="0" IVar="-1" Cut="0.0000000000000000e+00" cType="1" res="-1.4702479355037212e-02" rms="3.3956179022789001e-01" purity="1.3298800587654114e-01" nType="-99"/>
          <Node pos="r" depth="2" NCoef="0" IVar="-1" Cut="0.0000000000000000e+00" cType="1" res="-1.1320716701447964e-02" rms="2.2802178561687469e-01" purity="5.5040728300809860e-02" nType="-99"/>
        </Node>
      </Node>
    </BinaryTree>
    <BinaryTree type="DecisionTree" boostWeight="1.0000000000000000e+00" itree="8">
      <Node pos="s" depth="0" NCoef="0" IVar="3" Cut="5.0641597747802734e+01" cType="1" res="-3.0664804577827454e-01" rms="3.4627074003219604e-01" purity="1.3947774469852448e-01" nType="0">
        <Node pos="l" depth="1" NCoef="0" IVar="-1" Cut="0.0000000000000000e+00" cType="1" res="-1.1647085659205914e-02" rms="3.8741341233253479e-01" purity="1.8394577503204346e-01" nType="-99"/>
        <Node pos="r" depth="1" NCoef="0" IVar="4" Cut="8.0984237670898438e+01" cType="1" res="-3.4277924895286560e-01" rms="3.0152291059494019e-01" purity="1.0091592371463776e-01" nType="0">
          <Node pos="l" depth="2" NCoef="0" IVar="-1" Cut="0.0000000000000000e+00" cType="1" res="-1.3802022673189640e-02" rms="3.4835863113403320e-01" purity="1.4147461950778961e-01" nType="-99"/>
          <Node pos="r" depth="2" NCoef="0" IVar="-1" Cut="0.0000000000000000e+00" cType="1" res="-1.2367212213575840e-02" rms="2.4341025948524475e-01" purity="6.3276864588260651e-02" nType="-99"/>
        </Node>
      </Node>
    </BinaryTree>
    <BinaryTree type="DecisionTree" boostWeight="1.0000000000000000e+00" itree="9">
      <Node pos="s" depth="0" NCoef="0" IVar="4" Cut="9.8961853027343750e+01" cType="1" res="-3.0052837729454041e-01" rms="3.4625557065010071e-01" purity="1.3947774469852448e-01" nType="0">
        <Node pos="l" depth="1" NCoef="0" IVar="-1" Cut="0.0000000000000000e+00" cType="1" res="-1.2362787500023842e-02" rms="3.7085962295532227e-01" purity="1.6503547132015228e-01" nType="-99"/>
        <Node pos="r" depth="1" NCoef="0" IVar="3" Cut="4.9997142791748047e+01" cType="1" res="-3.5829839110374451e-01" rms="2.7589312195777893e-01" purity="8.3092696964740753e-02" nType="0">
          <Node pos="l" depth="2" NCoef="0" IVar="-1" Cut="0.0000000000000000e+00" cType="1" res="-1.4184241183102131e-02" rms="3.3956179022789001e-01" purity="1.3298800587654114e-01" nType="-99"/>
          <Node pos="r" depth="2" NCoef="0" IVar="-1" Cut="0.0000000000000000e+00" cType="1" res="-1.1043014004826546e-02" rms="2.2802153229713440e-01" purity="5.5040728300809860e-02" nType="-99"/>
        </Node>
      </Node>
    </BinaryTree>
    <BinaryTree type="DecisionTree" boostWeight="1.0000000000000000e+00" itree="10">
      <Node pos="s" depth="0" NCoef="0" IVar="4" Cut="9.8961853027343750e+01" cType="1" res="-2.9447475075721741e-01" rms="3.4628558158874512e-01" purity="1.3947774469852448e-01" nType="0">
        <Node pos="l" depth="1" NCoef="0" IVar="-1" Cut="0.0000000000000000e+00" cType="1" res="-1.2126767076551914e-02" rms="3.7086063623428345e-01" purity="1.6503547132015228e-01" nType="-99"/>
        <Node pos="r" depth="1" NCoef="0" IVar="3" Cut="4.9997142791748047e+01" cType="1" res="-3.5230401158332825e-01" rms="2.7599281072616577e-01" purity="8.3092696964740753e-02" nType="0">
          <Node pos="l" depth="2" NCoef="0" IVar="-1" Cut="0.0000000000000000e+00" cType="1" res="-1.3912128284573555e-02" rms="3.3956179022789001e-01" purity="1.3298800587654114e-01" nType="-99"/>
          <Node pos="r" depth="2" NCoef="0" IVar="-1" Cut="0.0000000000000000e+00" cType="1" res="-1.0917154140770435e-02" rms="2.2802163660526276e-01" purity="5.5040728300809860e-02" nType="-99"/>
        </Node>
      </Node>
    </BinaryTree>
    <BinaryTree type="DecisionTree" boostWeight="1.0000000000000000e+00" itree="11">
      <Node pos="s" depth="0" NCoef="0" IVar="4" Cut="9.8961853027343750e+01" cType="1" res="-2.8854763507843018e-01" rms="3.4631329774856567e-01" purity="1.3947774469852448e-01" nType="0">
        <Node pos="l" depth="1" NCoef="0" IVar="-1" Cut="0.0000000000000000e+00" cType="1" res="-1.1898042634129524e-02" rms="3.7086170911788940e-01" purity="1.6503547132015228e-01" nType="-99"/>
        <Node pos="r" depth="1" NCoef="0" IVar="3" Cut="4.9997142791748047e+01" cType="1" res="-3.4641617536544800e-01" rms="2.7608910202980042e-01" purity="8.3092696964740753e-02" nType="0">
          <Node pos="l" depth="2" NCoef="0" IVar="-1" Cut="0.0000000000000000e+00" cType="1" res="-1.3649623841047287e-02" rms="3.3956176042556763e-01" purity="1.3298800587654114e-01" nType="-99"/>
          <Node pos="r" depth="2" NCoef="0" IVar="-1" Cut="0.0000000000000000e+00" cType="1" res="-1.0794953443109989e-02" rms="2.2802172601222992e-01" purity="5.5040728300809860e-02" nType="-99"/>
        </Node>
      </Node>
    </BinaryTree>
    <BinaryTree type="DecisionTree" boostWeight="1.0000000000000000e+00" itree="12">
      <Node pos="s" depth="0" NCoef="0" IVar="3" Cut="5.0641597747802734e+01" cType="1" res="-2.8274419903755188e-01" rms="3.4633871912956238e-01" purity="1.3947774469852448e-01" nType="0">
        <Node pos="l" depth="1" NCoef="0" IVar="-1" Cut="0.0000000000000000e+00" cType="1" res="-1.0713843628764153e-02" rms="3.8733872771263123e-01" purity="1.8394577503204346e-01" nType="-99"/>
        <Node pos="r" depth="1" NCoef="0" IVar="4" Cut="8.0984237670898438e+01" cType="1" res="-3.1917297840118408e-01" rms="3.0167472362518311e-01" purity="1.0091592371463776e-01" nType="0">
          <Node pos="l" depth="2" NCoef="0" IVar="-1" Cut="0.0000000000000000e+00" cType="1" res="-1.2851038947701454e-02" rms="3.4836047887802124e-01" purity="1.4147461950778961e-01" nType="-99"/>
          <Node pos="r" depth="2" NCoef="0" IVar="-1" Cut="0.0000000000000000e+00" cType="1" res="-1.1773304082453251e-02" rms="2.4345695972442627e-01" purity="6.3276864588260651e-02" nType="-99"/>
        </Node>
      </Node>
    </BinaryTree>
    <BinaryTree type="DecisionTree" boostWeight="1.0000000000000000e+00" itree="13">
      <Node pos="s" depth="0" NCoef="0" IVar="4" Cut="9.8961853027343750e+01" cType="1" res="-2.7711638808250427e-01" rms="3.4631338715553284e-01" purity="1.3947774469852448e-01" nType="0">
        <Node pos="l" depth="1" NCoef="0" IVar="-1" Cut="0.0000000000000000e+00" cType="1" res="-1.1461621150374413e-02" rms="3.7083175778388977e-01" purity="1.6503547132015228e-01" nType="-99"/>
        <Node pos="r" depth="1" NCoef="0" IVar="3" Cut="4.9997142791748047e+01" cType="1" res="-3.3508694171905518e-01" rms="2.7614718675613403e-01" purity="8.3092696964740753e-02" nType="0">
          <Node pos="l" depth="2" NCoef="0" IVar="-1" Cut="0.0000000000000000e+00" cType="1" res="-1.3199775479733944e-02" rms="3.3956179022789001e-01" purity="1.3298800587654114e-01" nType="-99"/>
          <Node pos="r" depth="2" NCoef="0" IVar="-1" Cut="0.0000000000000000e+00" cType="1" res="-1.0549348779022694e-02" rms="2.2802136838436127e-01" purity="5.5040728300809860e-02" nType="-99"/>
        </Node>
      </Node>
    </BinaryTree>
    <BinaryTree type="DecisionTree" boostWeight="1.0000000000000000e+00" itree="14">
      <Node pos="s" depth="0" NCoef="0" IVar="4" Cut="9.8961853027343750e+01" cType="1" res="-2.7155032753944397e-01" rms="3.4633424878120422e-01" purity="1.3947774469852448e-01" nType="0">
        <Node pos="l" depth="1" NCoef="0" IVar="-1" Cut="0.0000000000000000e+00" cType="1" res="-1.1252329684793949e-02" rms="3.7083312869071960e-01" purity="1.6503547132015228e-01" nType="-99"/>
        <Node pos="r" depth="1" NCoef="0" IVar="3" Cut="4.9997142791748047e+01" cType="1" res="-3.2950079441070557e-01" rms="2.7623316645622253e-01" purity="8.3092696964740753e-02" nType="0">
          <Node pos="l" depth="2" NCoef="0" IVar="-1" Cut="0.0000000000000000e+00" cType="1" res="-1.2960982508957386e-02" rms="3.3956179022789001e-01" purity="1.3298800587654114e-01" nType="-99"/>
          <Node pos="r" depth="2" NCoef="0" IVar="-1" Cut="0.0000000000000000e+00" cType="1" res="-1.0437436401844025e-02" rms="2.2802148759365082e-01" purity="5.5040728300809860e-02" nType="-99"/>
        </Node>
      </Node>
    </BinaryTree>
    <BinaryTree type="DecisionTree" boostWeight="1.0000000000000000e+00" itree="15">
      <Node pos="s" depth="0" NCoef="0" IVar="3" Cut="5.0641597747802734e+01" cType="1" res="-2.6610016822814941e-01" rms="3.4635299444198608e-01" purity="1.3947774469852448e-01" nType="0">
        <Node pos="l" depth="1" NCoef="0" IVar="-1" Cut="0.0000000000000000e+00" cType="1" res="-1.0088085196912289e-02" rms="3.8729298114776611e-01" purity="1.8394577503204346e-01" nType="-99"/>
        <Node pos="r" depth="1" NCoef="0" IVar="4" Cut="8.0984237670898438e+01" cType="1" res="-3.0252510309219360e-01" rms="3.0175721645355225e-01" purity="1.0091592371463776e-01" nType="0">
          <Node pos="l" depth="2" NCoef="0" IVar="-1" Cut="0.0000000000000000e+00" cType="1" res="-1.2206442654132843e-02" rms="3.4836214780807495e-01" purity="1.4147461950778961e-01" nType="-99"/>
          <Node pos="r" depth="2" NCoef="0" IVar="-1" Cut="0.0000000000000000e+00" cType="1" res="-1.1371353641152382e-02" rms="2.4347953498363495e-01" purity="6.3276864588260651e-02" nType="-99"/>
        </Node>
      </Node>
    </BinaryTree>
    <BinaryTree type="DecisionTree" boostWeight="1.0000000000000000e+00" itree="16">
      <Node pos="s" depth="0" NCoef="0" IVar="4" Cut="9.8961853027343750e+01" cType="1" res="-2.6081377267837524e-01" rms="3.4632128477096558e-01" purity="1.3947774469852448e-01" nType="0">
        <Node pos="l" depth="1" NCoef="0" IVar="-1" Cut="0.0000000000000000e+00" cType="1" res="-1.0851183906197548e-02" rms="3.7080192565917969e-01" purity="1.6503547132015228e-01" nType="-99"/>
        <Node pos="r" depth="1" NCoef="0" IVar="3" Cut="4.9997142791748047e+01" cType="1" res="-3.1876674294471741e-01" rms="2.7627259492874146e-01" purity="8.3092696964740753e-02" nType="0">
          <Node pos="l" depth="2" NCoef="0" IVar="-1" Cut="0.0000000000000000e+00" cType="1" res="-1.2551699765026569e-02" rms="3.3956176042556763e-01" purity="1.3298800587654114e-01" nType="-99"/>
          <Node pos="r" depth="2" NCoef="0" IVar="-1" Cut="0.0000000000000000e+00" cType="1" res="-1.0212175548076630e-02" rms="2.2802108526229858e-01" purity="5.5040728300809860e-02" nType="-99"/>
        </Node>
      </Node>
    </BinaryTree>
    <BinaryTree type="DecisionTree" boostWeight="1.0000000000000000e+00" itree="17">
      <Node pos="s" depth="0" NCoef="0" IVar="4" Cut="9.8961853027343750e+01" cType="1" res="-2.5558596849441528e-01" rms="3.4633579850196838e-01" purity="1.3947774469852448e-01" nType="0">
        <Node pos="l" depth="1" NCoef="0" IVar="-1" Cut="0.0000000000000000e+00" cType="1" res="-1.0658298619091511e-02" rms="3.7080359458923340e-01" purity="1.6503547132015228e-01" nType="-99"/>
        <Node pos="r" depth="1" NCoef="0" IVar="3" Cut="4.9997142791748047e+01" cType="1" res="-3.1346547603607178e-01" rms="2.7634838223457336e-01" purity="8.3092696964740753e-02" nType="0">
          <Node pos="l" depth="2" NCoef="0" IVar="-1" Cut="0.0000000000000000e+00" cType="1" res="-1.2332675978541374e-02" rms="3.3956176042556763e-01" purity="1.3298800587654114e-01" nType="-99"/>
          <Node pos="r" depth="2" NCoef="0" IVar="-1" Cut="0.0000000000000000e+00" cType="1" res="-1.0109156370162964e-02" rms="2.2802121937274933e-01" purity="5.5040728300809860e-02" nType="-99"/>
        </Node>
      </Node>
    </BinaryTree>
    <BinaryTree type="DecisionTree" boostWeight="1.0000000000000000e+00" itree="18">
      <Node pos="s" depth="0" NCoef="0" IVar="3" Cut="5.0641597747802734e+01" cType="1" res="-2.5046673417091370e-01" rms="3.4634828567504883e-01" purity="1.3947774469852448e-01" nType="0">
        <Node pos="l" depth="1" NCoef="0" IVar="-1" Cut="0.0000000000000000e+00" cType="1" res="-9.5099676400423050e-03" rms="3.8725006580352783e-01" purity="1.8394577503204346e-01" nType="-99"/>
        <Node pos="r" depth="1" NCoef="0" IVar="4" Cut="8.0984237670898438e+01" cType="1" res="-2.8682154417037964e-01" rms="3.0181312561035156e-01" purity="1.0091592371463776e-01" nType="0">
          <Node pos="l" depth="2" NCoef="0" IVar="-1" Cut="0.0000000000000000e+00" cType="1" res="-1.1614402756094933e-02" rms="3.4836405515670776e-01" purity="1.4147461950778961e-01" nType="-99"/>
          <Node pos="r" depth="2" NCoef="0" IVar="-1" Cut="0.0000000000000000e+00" cType="1" res="-1.1002780869603157e-02" rms="2.4349483847618103e-01" purity="6.3276864588260651e-02" nType="-99"/>
        </Node>
      </Node>
    </BinaryTree>
    <BinaryTree type="DecisionTree" boostWeight="1.0000000000000000e+00" itree="19">
      <Node pos="s" depth="0" NCoef="0" IVar="4" Cut="9.8961853027343750e+01" cType="1" res="-2.4550035595893860e-01" rms="3.4631088376045227e-01" purity="1.3947774469852448e-01" nType="0">
        <Node pos="l" depth="1" NCoef="0" IVar="-1" Cut="0.0000000000000000e+00" cType="1" res="-1.0287079028785229e-02" rms="3.7077134847640991e-01" purity="1.6503547132015228e-01" nType="-99"/>
        <Node pos="r" depth="1" NCoef="0" IVar="3" Cut="4.9997142791748047e+01" cType="1" res="-3.0329346656799316e-01" rms="2.7637001872062683e-01" purity="8.3092696964740753e-02" nType="0">
          <Node pos="l" depth="2" NCoef="0" IVar="-1" Cut="0.0000000000000000e+00" cType="1" res="-1.1957507580518723e-02" rms="3.3956179022789001e-01" purity="1.3298800587654114e-01" nType="-99"/>
          <Node pos="r" depth="2" NCoef="0" IVar="-1" Cut="0.0000000000000000e+00" cType="1" res="-9.9015096202492714e-03" rms="2.2802080214023590e-01" purity="5.5040728300809860e-02" nType="-99"/>
        </Node>
      </Node>
    </BinaryTree>
    <BinaryTree type="DecisionTree" boostWeight="1.0000000000000000e+00" itree="20">
      <Node pos="s" depth="0" NCoef="0" IVar="4" Cut="9.8961853027343750e+01" cType="1" res="-2.4058954417705536e-01" rms="3.4631952643394470e-01" purity="1.3947774469852448e-01" nType="0">
        <Node pos="l" depth="1" NCoef="0" IVar="-1" Cut="0.0000000000000000e+00" cType="1" res="-1.0108192451298237e-02" rms="3.7077325582504272e-01" purity="1.6503547132015228e-01" nType="-99"/>
        <Node pos="r" depth="1" NCoef="0" IVar="3" Cut="4.9997142791748047e+01" cType="1" res="-2.9826137423515320e-01" rms="2.7643591165542603e-01" purity="8.3092696964740753e-02" nType="0">
          <Node pos="l" depth="2" NCoef="0" IVar="-1" Cut="0.0000000000000000e+00" cType="1" res="-1.1755129322409630e-02" rms="3.3956179022789001e-01" purity="1.3298800587654114e-01" nType="-99"/>
          <Node pos="r" depth="2" NCoef="0" IVar="-1" Cut="0.0000000000000000e+00" cType="1" res="-9.8062213510274887e-03" rms="2.2802095115184784e-01" purity="5.5040728300809860e-02" nType="-99"/>
        </Node>
      </Node>
    </BinaryTree>
    <BinaryTree type="DecisionTree" boostWeight="1.0000000000000000e+00" itree="21">
      <Node pos="s" depth="0" NCoef="0" IVar="3" Cut="5.0641597747802734e+01" cType="1" res="-2.3578050732612610e-01" rms="3.4632632136344910e-01" purity="1.3947774469852448e-01" nType="0">
        <Node pos="l" depth="1" NCoef="0" IVar="-1" Cut="0.0000000000000000e+00" cType="1" res="-8.9725125581026077e-03" rms="3.8720971345901489e-01" purity="1.8394577503204346e-01" nType="-99"/>
        <Node pos="r" depth="1" NCoef="0" IVar="4" Cut="8.0984237670898438e+01" cType="1" res="-2.7200591564178467e-01" rms="3.0184447765350342e-01" purity="1.0091592371463776e-01" nType="0">
          <Node pos="l" depth="2" NCoef="0" IVar="-1" Cut="0.0000000000000000e+00" cType="1" res="-1.1066976003348827e-02" rms="3.4836605191230774e-01" purity="1.4147461950778961e-01" nType="-99"/>
          <Node pos="r" depth="2" NCoef="0" IVar="-1" Cut="0.0000000000000000e+00" cType="1" res="-1.0663103312253952e-02" rms="2.4350327253341675e-01" purity="6.3276864588260651e-02" nType="-99"/>
        </Node>
      </Node>
    </BinaryTree>
    <BinaryTree type="DecisionTree" boostWeight="1.0000000000000000e+00" itree="22">
      <Node pos="s" depth="0" NCoef="0" IVar="4" Cut="9.8961853027343750e+01" cType="1" res="-2.3111413419246674e-01" rms="3.4628391265869141e-01" purity="1.3947774469852448e-01" nType="0">
        <Node pos="l" depth="1" NCoef="0" IVar="-1" Cut="0.0000000000000000e+00" cType="1" res="-9.7626214846968651e-03" rms="3.7074017524719238e-01" purity="1.6503547132015228e-01" nType="-99"/>
        <Node pos="r" depth="1" NCoef="0" IVar="3" Cut="4.9997142791748047e+01" cType="1" res="-2.8862020373344421e-01" rms="2.7644088864326477e-01" purity="8.3092696964740753e-02" nType="0">
          <Node pos="l" depth="2" NCoef="0" IVar="-1" Cut="0.0000000000000000e+00" cType="1" res="-1.1408934369683266e-02" rms="3.3956176042556763e-01" purity="1.3298800587654114e-01" nType="-99"/>
          <Node pos="r" depth="2" NCoef="0" IVar="-1" Cut="0.0000000000000000e+00" cType="1" res="-9.6139051020145416e-03" rms="2.2802053391933441e-01" purity="5.5040728300809860e-02" nType="-99"/>
        </Node>
      </Node>
    </BinaryTree>
    <BinaryTree type="DecisionTree" boostWeight="1.0000000000000000e+00" itree="23">
      <Node pos="s" depth="0" NCoef="0" IVar="3" Cut="5.9027141571044922e+01" cType="1" res="-2.2650046646595001e-01" rms="3.4628722071647644e-01" purity="1.3947774469852448e-01" nType="0">
        <Node pos="l" depth="1" NCoef="0" IVar="-1" Cut="0.0000000000000000e+00" cType="1" res="-8.5968496277928352e-03" rms="3.7839865684509277e-01" purity="1.7332349717617035e-01" nType="-99"/>
        <Node pos="r" depth="1" NCoef="0" IVar="4" Cut="7.2621147155761719e+01" cType="1" res="-2.7402529120445251e-01" rms="2.8454875946044922e-01" purity="8.8289164006710052e-02" nType="0">
          <Node pos="l" depth="2" NCoef="0" IVar="-1" Cut="0.0000000000000000e+00" cType="1" res="-1.1767259798943996e-02" rms="3.3991819620132446e-01" purity="1.3331809639930725e-01" nType="-99"/>
          <Node pos="r" depth="2" NCoef="0" IVar="-1" Cut="0.0000000000000000e+00" cType="1" res="-1.1181522160768509e-02" rms="2.3862910270690918e-01" purity="6.0511171817779541e-02" nType="-99"/>
        </Node>
      </Node>
    </BinaryTree>
    <BinaryTree type="DecisionTree" boostWeight="1.0000000000000000e+00" itree="24">
      <Node pos="s" depth="0" NCoef="0" IVar="4" Cut="9.8961853027343750e+01" cType="1" res="-2.2200754284858704e-01" rms="3.4622347354888916e-01" purity="1.3947774469852448e-01" nType="0">
        <Node pos="l" depth="1" NCoef="0" IVar="-1" Cut="0.0000000000000000e+00" cType="1" res="-9.4318911433219910e-03" rms="3.7068876624107361e-01" purity="1.6503547132015228e-01" nType="-99"/>
        <Node pos="r" depth="1" NCoef="0" IVar="3" Cut="4.9997142791748047e+01" cType="1" res="-2.7926981449127197e-01" rms="2.7642387151718140e-01" purity="8.3092696964740753e-02" nType="0">
          <Node pos="l" depth="2" NCoef="0" IVar="-1" Cut="0.0000000000000000e+00" cType="1" res="-1.1079871095716953e-02" rms="3.3956176042556763e-01" purity="1.3298800587654114e-01" nType="-99"/>
          <Node pos="r" depth="2" NCoef="0" IVar="-1" Cut="0.0000000000000000e+00" cType="1" res="-9.4290403649210930e-03" rms="2.2800900042057037e-01" purity="5.5040728300809860e-02" nType="-99"/>
        </Node>
      </Node>
    </BinaryTree>
    <BinaryTree type="DecisionTree" boostWeight="1.0000000000000000e+00" itree="25">
      <Node pos="s" depth="0" NCoef="0" IVar="4" Cut="9.8961853027343750e+01" cType="1" res="-2.1758139133453369e-01" rms="3.4622368216514587e-01" purity="1.3947774469852448e-01" nType="0">
        <Node pos="l" depth="1" NCoef="0" IVar="-1" Cut="0.0000000000000000e+00" cType="1" res="-9.2722307890653610e-03" rms="3.7069121003150940e-01" purity="1.6503547132015228e-01" nType="-99"/>
        <Node pos="r" depth="1" NCoef="0" IVar="3" Cut="4.9997142791748047e+01" cType="1" res="-2.7465257048606873e-01" rms="2.7647486329078674e-01" purity="8.3092696964740753e-02" nType="0">
          <Node pos="l" depth="2" NCoef="0" IVar="-1" Cut="0.0000000000000000e+00" cType="1" res="-1.0899575427174568e-02" rms="3.3956179022789001e-01" purity="1.3298800587654114e-01" nType="-99"/>
          <Node pos="r" depth="2" NCoef="0" IVar="-1" Cut="0.0000000000000000e+00" cType="1" res="-9.3446243554353714e-03" rms="2.2800920903682709e-01" purity="5.5040728300809860e-02" nType="-99"/>
        </Node>
      </Node>
    </BinaryTree>
    <BinaryTree type="DecisionTree" boostWeight="1.0000000000000000e+00" itree="26">
      <Node pos="s" depth="0" NCoef="0" IVar="3" Cut="5.0641597747802734e+01" cType="1" res="-2.1324665844440460e-01" rms="3.4622231125831604e-01" purity="1.3947774469852448e-01" nType="0">
        <Node pos="l" depth="1" NCoef="0" IVar="-1" Cut="0.0000000000000000e+00" cType="1" res="-8.1606311723589897e-03" rms="3.8715356588363647e-01" purity="1.8394577503204346e-01" nType="-99"/>
        <Node pos="r" depth="1" NCoef="0" IVar="4" Cut="8.0984237670898438e+01" cType="1" res="-2.4894875288009644e-01" rms="3.0181837081909180e-01" purity="1.0091592371463776e-01" nType="0">
          <Node pos="l" depth="2" NCoef="0" IVar="-1" Cut="0.0000000000000000e+00" cType="1" res="-1.0229144245386124e-02" rms="3.4833416342735291e-01" purity="1.4147461950778961e-01" nType="-99"/>
          <Node pos="r" depth="2" NCoef="0" IVar="-1" Cut="0.0000000000000000e+00" cType="1" res="-1.0146933607757092e-02" rms="2.4347855150699615e-01" purity="6.3276864588260651e-02" nType="-99"/>
        </Node>
      </Node>
    </BinaryTree>
    <BinaryTree type="DecisionTree" boostWeight="1.0000000000000000e+00" itree="27">
      <Node pos="s" depth="0" NCoef="0" IVar="4" Cut="9.8961853027343750e+01" cType="1" res="-2.0903928577899933e-01" rms="3.4617367386817932e-01" purity="1.3947774469852448e-01" nType="0">
        <Node pos="l" depth="1" NCoef="0" IVar="-1" Cut="0.0000000000000000e+00" cType="1" res="-8.9620687067508698e-03" rms="3.7065777182579041e-01" purity="1.6503547132015228e-01" nType="-99"/>
        <Node pos="r" depth="1" NCoef="0" IVar="3" Cut="4.9997142791748047e+01" cType="1" res="-2.6583057641983032e-01" rms="2.7645677328109741e-01" purity="8.3092696964740753e-02" nType="0">
          <Node pos="l" depth="2" NCoef="0" IVar="-1" Cut="0.0000000000000000e+00" cType="1" res="-1.0592358186841011e-02" rms="3.3956179022789001e-01" purity="1.3298800587654114e-01" nType="-99"/>
          <Node pos="r" depth="2" NCoef="0" IVar="-1" Cut="0.0000000000000000e+00" cType="1" res="-9.1738980263471603e-03" rms="2.2800895571708679e-01" purity="5.5040728300809860e-02" nType="-99"/>
        </Node>
      </Node>
    </BinaryTree>
    <BinaryTree type="DecisionTree" boostWeight="1.0000000000000000e+00" itree="28">
      <Node pos="s" depth="0" NCoef="0" IVar="4" Cut="9.8961853027343750e+01" cType="1" res="-2.0488007366657257e-01" rms="3.4616944193840027e-01" purity="1.3947774469852448e-01" nType="0">
        <Node pos="l" depth="1" NCoef="0" IVar="-1" Cut="0.0000000000000000e+00" cType="1" res="-8.8120363652706146e-03" rms="3.7066042423248291e-01" purity="1.6503547132015228e-01" nType="-99"/>
        <Node pos="r" depth="1" NCoef="0" IVar="3" Cut="4.9997142791748047e+01" cType="1" res="-2.6144513487815857e-01" rms="2.7649930119514465e-01" purity="8.3092696964740753e-02" nType="0">
          <Node pos="l" depth="2" NCoef="0" IVar="-1" Cut="0.0000000000000000e+00" cType="1" res="-1.0423095896840096e-02" rms="3.3956179022789001e-01" purity="1.3298800587654114e-01" nType="-99"/>
          <Node pos="r" depth="2" NCoef="0" IVar="-1" Cut="0.0000000000000000e+00" cType="1" res="-9.0949116274714470e-03" rms="2.2800917923450470e-01" purity="5.5040728300809860e-02" nType="-99"/>
        </Node>
      </Node>
    </BinaryTree>
    <BinaryTree type="DecisionTree" boostWeight="1.0000000000000000e+00" itree="29">
      <Node pos="s" depth="0" NCoef="0" IVar="3" Cut="5.0641597747802734e+01" cType="1" res="-2.0080658793449402e-01" rms="3.4616380929946899e-01" purity="1.3947774469852448e-01" nType="0">
        <Node pos="l" depth="1" NCoef="0" IVar="-1" Cut="0.0000000000000000e+00" cType="1" res="-7.7068642713129520e-03" rms="3.8711836934089661e-01" purity="1.8394577503204346e-01" nType="-99"/>
        <Node pos="r" depth="1" NCoef="0" IVar="4" Cut="8.0984237670898438e+01" cType="1" res="-2.3625902831554413e-01" rms="3.0179560184478760e-01" purity="1.0091592371463776e-01" nType="0">
          <Node pos="l" depth="2" NCoef="0" IVar="-1" Cut="0.0000000000000000e+00" cType="1" res="-9.7729135304689407e-03" rms="3.4833687543869019e-01" purity="1.4147461950778961e-01" nType="-99"/>
          <Node pos="r" depth="2" NCoef="0" IVar="-1" Cut="0.0000000000000000e+00" cType="1" res="-9.8678208887577057e-03" rms="2.4347183108329773e-01" purity="6.3276864588260651e-02" nType="-99"/>
        </Node>
      </Node>
    </BinaryTree>
    <BinaryTree type="DecisionTree" boostWeight="1.0000000000000000e+00" itree="30">
      <Node pos="s" depth="0" NCoef="0" IVar="4" Cut="9.8961853027343750e+01" cType="1" res="-1.9685208797454834e-01" rms="3.4611177444458008e-01" purity="1.3947774469852448e-01" nType="0">
        <Node pos="l" depth="1" NCoef="0" IVar="-1" Cut="0.0000000000000000e+00" cType="1" res="-8.5197072476148605e-03" rms="3.7062647938728333e-01" purity="1.6503547132015228e-01" nType="-99"/>
        <Node pos="r" depth="1" NCoef="0" IVar="3" Cut="4.9997142791748047e+01" cType="1" res="-2.5307971239089966e-01" rms="2.7646827697753906e-01" purity="8.3092696964740753e-02" nType="0">
          <Node pos="l" depth="2" NCoef="0" IVar="-1" Cut="0.0000000000000000e+00" cType="1" res="-1.0135557502508163e-02" rms="3.3956179022789001e-01" purity="1.3298800587654114e-01" nType="-99"/>
          <Node pos="r" depth="2" NCoef="0" IVar="-1" Cut="0.0000000000000000e+00" cType="1" res="-8.9349886402487755e-03" rms="2.2800898551940918e-01" purity="5.5040728300809860e-02" nType="-99"/>
        </Node>
      </Node>
    </BinaryTree>
    <BinaryTree type="DecisionTree" boostWeight="1.0000000000000000e+00" itree="31">
      <Node pos="s" depth="0" NCoef="0" IVar="3" Cut="5.9994705200195312e+01" cType="1" res="-1.9294324517250061e-01" rms="3.4610363841056824e-01" purity="1.3947774469852448e-01" nType="0">
        <Node pos="l" depth="1" NCoef="0" IVar="-1" Cut="0.0000000000000000e+00" cType="1" res="-7.4317362159490585e-03" rms="3.7733885645866394e-01" purity="1.7222915589809418e-01" nType="-99"/>
        <Node pos="r" depth="1" NCoef="0" IVar="4" Cut="7.2621147155761719e+01" cType="1" res="-2.4071922898292542e-01" rms="2.8259479999542236e-01" purity="8.6979359388351440e-02" nType="0">
          <Node pos="l" depth="2" NCoef="0" IVar="-1" Cut="0.0000000000000000e+00" cType="1" res="-1.0928672738373280e-02" rms="3.3907118439674377e-01" purity="1.3253474235534668e-01" nType="-99"/>
          <Node pos="r" depth="2" NCoef="0" IVar="-1" Cut="0.0000000000000000e+00" cType="1" res="-1.0456157848238945e-02" rms="2.3632194101810455e-01" purity="5.9283200651407242e-02" nType="-99"/>
        </Node>
      </Node>
    </BinaryTree>
    <BinaryTree type="DecisionTree" boostWeight="1.0000000000000000e+00" itree="32">
      <Node pos="s" depth="0" NCoef="0" IVar="4" Cut="9.8961853027343750e+01" cType="1" res="-1.8911527097225189e-01" rms="3.4603521227836609e-01" purity="1.3947774469852448e-01" nType="0">
        <Node pos="l" depth="1" NCoef="0" IVar="-1" Cut="0.0000000000000000e+00" cType="1" res="-8.2362648099660873e-03" rms="3.7057429552078247e-01" purity="1.6503547132015228e-01" nType="-99"/>
        <Node pos="r" depth="1" NCoef="0" IVar="3" Cut="4.9997142791748047e+01" cType="1" res="-2.4498154222965240e-01" rms="2.7642187476158142e-01" purity="8.3092696964740753e-02" nType="0">
          <Node pos="l" depth="2" NCoef="0" IVar="-1" Cut="0.0000000000000000e+00" cType="1" res="-9.8592508584260941e-03" rms="3.3956179022789001e-01" purity="1.3298800587654114e-01" nType="-99"/>
          <Node pos="r" depth="2" NCoef="0" IVar="-1" Cut="0.0000000000000000e+00" cType="1" res="-8.7807653471827507e-03" rms="2.2799541056156158e-01" purity="5.5040728300809860e-02" nType="-99"/>
        </Node>
      </Node>
    </BinaryTree>
    <BinaryTree type="DecisionTree" boostWeight="1.0000000000000000e+00" itree="33">
      <Node pos="s" depth="0" NCoef="0" IVar="4" Cut="9.8961853027343750e+01" cType="1" res="-1.8536512553691864e-01" rms="3.4602484107017517e-01" purity="1.3947774469852448e-01" nType="0">
        <Node pos="l" depth="1" NCoef="0" IVar="-1" Cut="0.0000000000000000e+00" cType="1" res="-8.0999461933970451e-03" rms="3.7057742476463318e-01" purity="1.6503547132015228e-01" nType="-99"/>
        <Node pos="r" depth="1" NCoef="0" IVar="3" Cut="4.9997142791748047e+01" cType="1" res="-2.4095335602760315e-01" rms="2.7645236253738403e-01" purity="8.3092696964740753e-02" nType="0">
          <Node pos="l" depth="2" NCoef="0" IVar="-1" Cut="0.0000000000000000e+00" cType="1" res="-9.7050443291664124e-03" rms="3.3956179022789001e-01" purity="1.3298800587654114e-01" nType="-99"/>
          <Node pos="r" depth="2" NCoef="0" IVar="-1" Cut="0.0000000000000000e+00" cType="1" res="-8.7095052003860474e-03" rms="2.2799570858478546e-01" purity="5.5040728300809860e-02" nType="-99"/>
        </Node>
      </Node>
    </BinaryTree>
    <BinaryTree type="DecisionTree" boostWeight="1.0000000000000000e+00" itree="34">
      <Node pos="s" depth="0" NCoef="0" IVar="3" Cut="5.0641597747802734e+01" cType="1" res="-1.8169200420379639e-01" rms="3.4601333737373352e-01" purity="1.3947774469852448e-01" nType="0">
        <Node pos="l" depth="1" NCoef="0" IVar="-1" Cut="0.0000000000000000e+00" cType="1" res="-7.0119267329573631e-03" rms="3.8706940412521362e-01" purity="1.8394577503204346e-01" nType="-99"/>
        <Node pos="r" depth="1" NCoef="0" IVar="4" Cut="8.0984237670898438e+01" cType="1" res="-2.1646153926849365e-01" rms="3.0169892311096191e-01" purity="1.0091592371463776e-01" nType="0">
          <Node pos="l" depth="2" NCoef="0" IVar="-1" Cut="0.0000000000000000e+00" cType="1" res="-9.0583302080631256e-03" rms="3.4830313920974731e-01" purity="1.4147461950778961e-01" nType="-99"/>
          <Node pos="r" depth="2" NCoef="0" IVar="-1" Cut="0.0000000000000000e+00" cType="1" res="-9.4379484653472900e-03" rms="2.4342270195484161e-01" purity="6.3276864588260651e-02" nType="-99"/>
        </Node>
      </Node>
    </BinaryTree>
    <BinaryTree type="DecisionTree" boostWeight="1.0000000000000000e+00" itree="35">
      <Node pos="s" depth="0" NCoef="0" IVar="4" Cut="9.8961853027343750e+01" cType="1" res="-1.7812518775463104e-01" rms="3.4595745801925659e-01" purity="1.3947774469852448e-01" nType="0">
        <Node pos="l" depth="1" NCoef="0" IVar="-1" Cut="0.0000000000000000e+00" cType="1" res="-7.8331306576728821e-03" rms="3.7054359912872314e-01" purity="1.6503547132015228e-01" nType="-99"/>
        <Node pos="r" depth="1" NCoef="0" IVar="3" Cut="4.9997142791748047e+01" cType="1" res="-2.3329231142997742e-01" rms="2.7640467882156372e-01" purity="8.3092696964740753e-02" nType="0">
          <Node pos="l" depth="2" NCoef="0" IVar="-1" Cut="0.0000000000000000e+00" cType="1" res="-9.4447964802384377e-03" rms="3.3956179022789001e-01" purity="1.3298800587654114e-01" nType="-99"/>
          <Node pos="r" depth="2" NCoef="0" IVar="-1" Cut="0.0000000000000000e+00" cType="1" res="-8.5649667307734489e-03" rms="2.2799576818943024e-01" purity="5.5040728300809860e-02" nType="-99"/>
        </Node>
      </Node>
    </BinaryTree>
    <BinaryTree type="DecisionTree" boostWeight="1.0000000000000000e+00" itree="36">
      <Node pos="s" depth="0" NCoef="0" IVar="4" Cut="9.8961853027343750e+01" cType="1" res="-1.7460009455680847e-01" rms="3.4594398736953735e-01" purity="1.3947774469852448e-01" nType="0">
        <Node pos="l" depth="1" NCoef="0" IVar="-1" Cut="0.0000000000000000e+00" cType="1" res="-7.7038961462676525e-03" rms="3.7054690718650818e-01" purity="1.6503547132015228e-01" nType="-99"/>
        <Node pos="r" depth="1" NCoef="0" IVar="3" Cut="4.9997142791748047e+01" cType="1" res="-2.2946415841579437e-01" rms="2.7642846107482910e-01" purity="8.3092696964740753e-02" nType="0">
          <Node pos="l" depth="2" NCoef="0" IVar="-1" Cut="0.0000000000000000e+00" cType="1" res="-9.2983460053801537e-03" rms="3.3956179022789001e-01" purity="1.3298800587654114e-01" nType="-99"/>
          <Node pos="r" depth="2" NCoef="0" IVar="-1" Cut="0.0000000000000000e+00" cType="1" res="-8.4976227954030037e-03" rms="2.2799608111381531e-01" purity="5.5040728300809860e-02" nType="-99"/>
        </Node>
      </Node>
    </BinaryTree>
    <BinaryTree type="DecisionTree" boostWeight="1.0000000000000000e+00" itree="37">
      <Node pos="s" depth="0" NCoef="0" IVar="3" Cut="5.0641597747802734e+01" cType="1" res="-1.7114730179309845e-01" rms="3.4592953324317932e-01" purity="1.3947774469852448e-01" nType="0">
        <Node pos="l" depth="1" NCoef="0" IVar="-1" Cut="0.0000000000000000e+00" cType="1" res="-6.6189221106469631e-03" rms="3.8703826069831848e-01" purity="1.8394577503204346e-01" nType="-99"/>
        <Node pos="r" depth="1" NCoef="0" IVar="4" Cut="8.0984237670898438e+01" cType="1" res="-2.0558045804500580e-01" rms="3.0163720250129700e-01" purity="1.0091592371463776e-01" nType="0">
          <Node pos="l" depth="2" NCoef="0" IVar="-1" Cut="0.0000000000000000e+00" cType="1" res="-8.6665842682123184e-03" rms="3.4830647706985474e-01" purity="1.4147461950778961e-01" nType="-99"/>
          <Node pos="r" depth="2" NCoef="0" IVar="-1" Cut="0.0000000000000000e+00" cType="1" res="-9.2019634321331978e-03" rms="2.4340571463108063e-01" purity="6.3276864588260651e-02" nType="-99"/>
        </Node>
      </Node>
    </BinaryTree>
    <BinaryTree type="DecisionTree" boostWeight="1.0000000000000000e+00" itree="38">
      <Node pos="s" depth="0" NCoef="0" IVar="1" Cut="1.1754521942138672e+02" cType="1" res="-1.6779379546642303e-01" rms="3.4587168693542480e-01" purity="1.3947774469852448e-01" nType="0">
        <Node pos="l" depth="1" NCoef="0" IVar="-1" Cut="0.0000000000000000e+00" cType="1" res="-6.7548095248639584e-03" rms="3.5993638634681702e-01" purity="1.5341898798942566e-01" nType="-99"/>
        <Node pos="r" depth="1" NCoef="0" IVar="0" Cut="8.9984291076660156e+01" cType="1" res="-2.6891869306564331e-01" rms="1.8187339603900909e-01" purity="3.4192945808172226e-02" nType="0">
          <Node pos="l" depth="2" NCoef="0" IVar="-1" Cut="0.0000000000000000e+00" cType="1" res="-1.5527808107435703e-02" rms="2.3161809146404266e-01" purity="5.6894179433584213e-02" nType="-99"/>
          <Node pos="r" depth="2" NCoef="0" IVar="-1" Cut="0.0000000000000000e+00" cType="1" res="-7.2340443730354309e-02" rms="1.0851569473743439e-01" purity="1.1957202106714249e-02" nType="-99"/>
        </Node>
      </Node>
    </BinaryTree>
    <BinaryTree type="DecisionTree" boostWeight="1.0000000000000000e+00" itree="39">
      <Node pos="s" depth="0" NCoef="0" IVar="4" Cut="9.8961853027343750e+01" cType="1" res="-1.6312544047832489e-01" rms="3.4531038999557495e-01" purity="1.3947774469852448e-01" nType="0">
        <Node pos="l" depth="1" NCoef="0" IVar="-1" Cut="0.0000000000000000e+00" cType="1" res="-7.2572678327560425e-03" rms="3.6992609500885010e-01" purity="1.6503547132015228e-01" nType="-99"/>
        <Node pos="r" depth="1" NCoef="0" IVar="3" Cut="4.9997142791748047e+01" cType="1" res="-2.1728377044200897e-01" rms="2.7592468261718750e-01" purity="8.3092696964740753e-02" nType="0">
          <Node pos="l" depth="2" NCoef="0" IVar="-1" Cut="0.0000000000000000e+00" cType="1" res="-8.8892048224806786e-03" rms="3.3920785784721375e-01" purity="1.3298800587654114e-01" nType="-99"/>
          <Node pos="r" depth="2" NCoef="0" IVar="-1" Cut="0.0000000000000000e+00" cType="1" res="-8.2331178709864616e-03" rms="2.2763207554817200e-01" purity="5.5040728300809860e-02" nType="-99"/>
        </Node>
      </Node>
    </BinaryTree>
    <BinaryTree type="DecisionTree" boostWeight="1.0000000000000000e+00" itree="40">
      <Node pos="s" depth="0" NCoef="0" IVar="4" Cut="9.8961853027343750e+01" cType="1" res="-1.5991503000259399e-01" rms="3.4529620409011841e-01" purity="1.3947774469852448e-01" nType="0">
        <Node pos="l" depth="1" NCoef="0" IVar="-1" Cut="0.0000000000000000e+00" cType="1" res="-7.1376455016434193e-03" rms="3.6993274092674255e-01" purity="1.6503547132015228e-01" nType="-99"/>
        <Node pos="r" depth="1" NCoef="0" IVar="3" Cut="4.9997142791748047e+01" cType="1" res="-2.1373769640922546e-01" rms="2.7594360709190369e-01" purity="8.3092696964740753e-02" nType="0">
          <Node pos="l" depth="2" NCoef="0" IVar="-1" Cut="0.0000000000000000e+00" cType="1" res="-8.7523376569151878e-03" rms="3.3921024203300476e-01" purity="1.3298800587654114e-01" nType="-99"/>
          <Node pos="r" depth="2" NCoef="0" IVar="-1" Cut="0.0000000000000000e+00" cType="1" res="-8.1707937642931938e-03" rms="2.2763405740261078e-01" purity="5.5040728300809860e-02" nType="-99"/>
        </Node>
      </Node>
    </BinaryTree>
    <BinaryTree type="DecisionTree" boostWeight="1.0000000000000000e+00" itree="41">
      <Node pos="s" depth="0" NCoef="0" IVar="4" Cut="9.8961853027343750e+01" cType="1" res="-1.5677024424076080e-01" rms="3.4528124332427979e-01" purity="1.3947774469852448e-01" nType="0">
        <Node pos="l" depth="1" NCoef="0" IVar="-1" Cut="0.0000000000000000e+00" cType="1" res="-7.0199500769376755e-03" rms="3.6993929743766785e-01" purity="1.6503547132015228e-01" nType="-99"/>
        <Node pos="r" depth="1" NCoef="0" IVar="3" Cut="4.9997142791748047e+01" cType="1" res="-2.1025286614894867e-01" rms="2.7596014738082886e-01" purity="8.3092696964740753e-02" nType="0">
          <Node pos="l" depth="2" NCoef="0" IVar="-1" Cut="0.0000000000000000e+00" cType="1" res="-8.6177326738834381e-03" rms="3.3921259641647339e-01" purity="1.3298800587654114e-01" nType="-99"/>
          <Node pos="r" depth="2" NCoef="0" IVar="-1" Cut="0.0000000000000000e+00" cType="1" res="-8.1094680353999138e-03" rms="2.2763603925704956e-01" purity="5.5040728300809860e-02" nType="-99"/>
        </Node>
      </Node>
    </BinaryTree>
    <BinaryTree type="DecisionTree" boostWeight="1.0000000000000000e+00" itree="42">
      <Node pos="s" depth="0" NCoef="0" IVar="3" Cut="5.0641597747802734e+01" cType="1" res="-1.5368968248367310e-01" rms="3.4526553750038147e-01" purity="1.3947774469852448e-01" nType="0">
        <Node pos="l" depth="1" NCoef="0" IVar="-1" Cut="0.0000000000000000e+00" cType="1" res="-5.9656794182956219e-03" rms="3.8663884997367859e-01" purity="1.8394577503204346e-01" nType="-99"/>
        <Node pos="r" depth="1" NCoef="0" IVar="4" Cut="8.0984237670898438e+01" cType="1" res="-1.8707969784736633e-01" rms="3.0091255903244019e-01" purity="1.0091592371463776e-01" nType="0">
          <Node pos="l" depth="2" NCoef="0" IVar="-1" Cut="0.0000000000000000e+00" cType="1" res="-7.9563492909073830e-03" rms="3.4750247001647949e-01" purity="1.4147461950778961e-01" nType="-99"/>
          <Node pos="r" depth="2" NCoef="0" IVar="-1" Cut="0.0000000000000000e+00" cType="1" res="-8.7707061320543289e-03" rms="2.4297775328159332e-01" purity="6.3276864588260651e-02" nType="-99"/>
        </Node>
      </Node>
    </BinaryTree>
    <BinaryTree type="DecisionTree" boostWeight="1.0000000000000000e+00" itree="43">
      <Node pos="s" depth="0" NCoef="0" IVar="4" Cut="9.8961853027343750e+01" cType="1" res="-1.5069743990898132e-01" rms="3.4520930051803589e-01" purity="1.3947774469852448e-01" nType="0">
        <Node pos="l" depth="1" NCoef="0" IVar="-1" Cut="0.0000000000000000e+00" cType="1" res="-6.7881550639867783e-03" rms="3.6991235613822937e-01" purity="1.6503547132015228e-01" nType="-99"/>
        <Node pos="r" depth="1" NCoef="0" IVar="3" Cut="4.9997142791748047e+01" cType="1" res="-2.0365925133228302e-01" rms="2.7589729428291321e-01" purity="8.3092696964740753e-02" nType="0">
          <Node pos="l" depth="2" NCoef="0" IVar="-1" Cut="0.0000000000000000e+00" cType="1" res="-8.3936816081404686e-03" rms="3.3921661972999573e-01" purity="1.3298800587654114e-01" nType="-99"/>
          <Node pos="r" depth="2" NCoef="0" IVar="-1" Cut="0.0000000000000000e+00" cType="1" res="-7.9847648739814758e-03" rms="2.2763985395431519e-01" purity="5.5040728300809860e-02" nType="-99"/>
        </Node>
      </Node>
    </BinaryTree>
    <BinaryTree type="DecisionTree" boostWeight="1.0000000000000000e+00" itree="44">
      <Node pos="s" depth="0" NCoef="0" IVar="3" Cut="5.9027141571044922e+01" cType="1" res="-1.4774031937122345e-01" rms="3.4519237279891968e-01" purity="1.3947774469852448e-01" nType="0">
        <Node pos="l" depth="1" NCoef="0" IVar="-1" Cut="0.0000000000000000e+00" cType="1" res="-5.8857435360550880e-03" rms="3.7771621346473694e-01" purity="1.7332349717617035e-01" nType="-99"/>
        <Node pos="r" depth="1" NCoef="0" IVar="4" Cut="7.2621147155761719e+01" cType="1" res="-1.9143792986869812e-01" rms="2.8359541296958923e-01" purity="8.8289164006710052e-02" nType="0">
          <Node pos="l" depth="2" NCoef="0" IVar="-1" Cut="0.0000000000000000e+00" cType="1" res="-8.5908407345414162e-03" rms="3.3902356028556824e-01" purity="1.3331809639930725e-01" nType="-99"/>
          <Node pos="r" depth="2" NCoef="0" IVar="-1" Cut="0.0000000000000000e+00" cType="1" res="-9.2554129660129547e-03" rms="2.3804742097854614e-01" purity="6.0511171817779541e-02" nType="-99"/>
        </Node>
      </Node>
    </BinaryTree>
    <BinaryTree type="DecisionTree" boostWeight="1.0000000000000000e+00" itree="45">
      <Node pos="s" depth="0" NCoef="0" IVar="4" Cut="9.8961853027343750e+01" cType="1" res="-1.4484098553657532e-01" rms="3.4512975811958313e-01" purity="1.3947774469852448e-01" nType="0">
        <Node pos="l" depth="1" NCoef="0" IVar="-1" Cut="0.0000000000000000e+00" cType="1" res="-6.5615149214863777e-03" rms="3.6987391114234924e-01" purity="1.6503547132015228e-01" nType="-99"/>
        <Node pos="r" depth="1" NCoef="0" IVar="3" Cut="4.9997142791748047e+01" cType="1" res="-1.9729377329349518e-01" rms="2.7583327889442444e-01" purity="8.3092696964740753e-02" nType="0">
          <Node pos="l" depth="2" NCoef="0" IVar="-1" Cut="0.0000000000000000e+00" cType="1" res="-8.1744212657213211e-03" rms="3.3922061324119568e-01" purity="1.3298800587654114e-01" nType="-99"/>
          <Node pos="r" depth="2" NCoef="0" IVar="-1" Cut="0.0000000000000000e+00" cType="1" res="-7.8642982989549637e-03" rms="2.2763381898403168e-01" purity="5.5040728300809860e-02" nType="-99"/>
        </Node>
      </Node>
    </BinaryTree>
    <BinaryTree type="DecisionTree" boostWeight="1.0000000000000000e+00" itree="46">
      <Node pos="s" depth="0" NCoef="0" IVar="4" Cut="9.8961853027343750e+01" cType="1" res="-1.4200298488140106e-01" rms="3.4511172771453857e-01" purity="1.3947774469852448e-01" nType="0">
        <Node pos="l" depth="1" NCoef="0" IVar="-1" Cut="0.0000000000000000e+00" cType="1" res="-6.4528072252869606e-03" rms="3.6988064646720886e-01" purity="1.6503547132015228e-01" nType="-99"/>
        <Node pos="r" depth="1" NCoef="0" IVar="3" Cut="4.9997142791748047e+01" cType="1" res="-1.9408747553825378e-01" rms="2.7584245800971985e-01" purity="8.3092696964740753e-02" nType="0">
          <Node pos="l" depth="2" NCoef="0" IVar="-1" Cut="0.0000000000000000e+00" cType="1" res="-8.0488873645663261e-03" rms="3.3922290802001953e-01" purity="1.3298800587654114e-01" nType="-99"/>
          <Node pos="r" depth="2" NCoef="0" IVar="-1" Cut="0.0000000000000000e+00" cType="1" res="-7.8075742349028587e-03" rms="2.2763589024543762e-01" purity="5.5040728300809860e-02" nType="-99"/>
        </Node>
      </Node>
    </BinaryTree>
    <BinaryTree type="DecisionTree" boostWeight="1.0000000000000000e+00" itree="47">
      <Node pos="s" depth="0" NCoef="0" IVar="3" Cut="5.0641597747802734e+01" cType="1" res="-1.3922275602817535e-01" rms="3.4509316086769104e-01" purity="1.3947774469852448e-01" nType="0">
        <Node pos="l" depth="1" NCoef="0" IVar="-1" Cut="0.0000000000000000e+00" cType="1" res="-5.4076630622148514e-03" rms="3.8660770654678345e-01" purity="1.8394577503204346e-01" nType="-99"/>
        <Node pos="r" depth="1" NCoef="0" IVar="4" Cut="8.0984237670898438e+01" cType="1" res="-1.7183938622474670e-01" rms="3.0076065659523010e-01" purity="1.0091592371463776e-01" nType="0">
          <Node pos="l" depth="2" NCoef="0" IVar="-1" Cut="0.0000000000000000e+00" cType="1" res="-7.3896953836083412e-03" rms="3.4749835729598999e-01" purity="1.4147461950778961e-01" nType="-99"/>
          <Node pos="r" depth="2" NCoef="0" IVar="-1" Cut="0.0000000000000000e+00" cType="1" res="-8.4356712177395821e-03" rms="2.4292774498462677e-01" purity="6.3276864588260651e-02" nType="-99"/>
        </Node>
      </Node>
    </BinaryTree>
    <BinaryTree type="DecisionTree" boostWeight="1.0000000000000000e+00" itree="48">
      <Node pos="s" depth="0" NCoef="0" IVar="4" Cut="9.7289222717285156e+01" cType="1" res="-1.3652148842811584e-01" rms="3.4503591060638428e-01" purity="1.3947774469852448e-01" nType="0">
        <Node pos="l" depth="1" NCoef="0" IVar="-1" Cut="0.0000000000000000e+00" cType="1" res="-6.1654997989535332e-03" rms="3.7043711543083191e-01" purity="1.6567313671112061e-01" nType="-99"/>
        <Node pos="r" depth="1" NCoef="0" IVar="3" Cut="4.9997142791748047e+01" cType="1" res="-1.8665927648544312e-01" rms="2.7814781665802002e-01" purity="8.4753826260566711e-02" nType="0">
          <Node pos="l" depth="2" NCoef="0" IVar="-1" Cut="0.0000000000000000e+00" cType="1" res="-7.9370746389031410e-03" rms="3.4309619665145874e-01" purity="1.3677348196506500e-01" nType="-99"/>
          <Node pos="r" depth="2" NCoef="0" IVar="-1" Cut="0.0000000000000000e+00" cType="1" res="-7.7788857743144035e-03" rms="2.2815568745136261e-01" purity="5.5302768945693970e-02" nType="-99"/>
        </Node>
      </Node>
    </BinaryTree>
    <BinaryTree type="DecisionTree" boostWeight="1.0000000000000000e+00" itree="49">
      <Node pos="s" depth="0" NCoef="0" IVar="3" Cut="5.9027141571044922e+01" cType="1" res="-1.3385330140590668e-01" rms="3.4501332044601440e-01" purity="1.3947774469852448e-01" nType="0">
        <Node pos="l" depth="1" NCoef="0" IVar="-1" Cut="0.0000000000000000e+00" cType="1" res="-5.3814607672393322e-03" rms="3.7764811515808105e-01" purity="1.7332349717617035e-01" nType="-99"/>
        <Node pos="r" depth="1" NCoef="0" IVar="4" Cut="7.2621147155761719e+01" cType="1" res="-1.7646139860153198e-01" rms="2.8346043825149536e-01" purity="8.8289164006710052e-02" nType="0">
          <Node pos="l" depth="2" NCoef="0" IVar="-1" Cut="0.0000000000000000e+00" cType="1" res="-8.0094980075955391e-03" rms="3.3905088901519775e-01" purity="1.3331809639930725e-01" nType="-99"/>
          <Node pos="r" depth="2" NCoef="0" IVar="-1" Cut="0.0000000000000000e+00" cType="1" res="-8.9125782251358032e-03" rms="2.3800748586654663e-01" purity="6.0511171817779541e-02" nType="-99"/>
        </Node>
      </Node>
    </BinaryTree>
    <BinaryTree type="DecisionTree" boostWeight="1.0000000000000000e+00" itree="50">
      <Node pos="s" depth="0" NCoef="0" IVar="4" Cut="9.3107658386230469e+01" cType="1" res="-1.3123124837875366e-01" rms="3.4495207667350769e-01" purity="1.3947774469852448e-01" nType="0">
        <Node pos="l" depth="1" NCoef="0" IVar="-1" Cut="0.0000000000000000e+00" cType="1" res="-5.8403727598488331e-03" rms="3.7200319766998291e-01" purity="1.6745424270629883e-01" nType="-99"/>
        <Node pos="r" depth="1" NCoef="0" IVar="3" Cut="4.9997142791748047e+01" cType="1" res="-1.7725741863250732e-01" rms="2.8422412276268005e-01" purity="8.9115187525749207e-02" nType="0">
          <Node pos="l" depth="2" NCoef="0" IVar="-1" Cut="0.0000000000000000e+00" cType="1" res="-7.6072346419095993e-03" rms="3.4863525629043579e-01" purity="1.4228583872318268e-01" nType="-99"/>
          <Node pos="r" depth="2" NCoef="0" IVar="-1" Cut="0.0000000000000000e+00" cType="1" res="-7.7669974416494370e-03" rms="2.3259916901588440e-01" purity="5.7645756751298904e-02" nType="-99"/>
        </Node>
      </Node>
    </BinaryTree>
    <BinaryTree type="DecisionTree" boostWeight="1.0000000000000000e+00" itree="51">
      <Node pos="s" depth="0" NCoef="0" IVar="3" Cut="5.0641597747802734e+01" cType="1" res="-1.2867397069931030e-01" rms="3.4492385387420654e-01" purity="1.3947774469852448e-01" nType="0">
        <Node pos="l" depth="1" NCoef="0" IVar="-1" Cut="0.0000000000000000e+00" cType="1" res="-4.9999156035482883e-03" rms="3.8658779859542847e-01" purity="1.8394577503204346e-01" nType="-99"/>
        <Node pos="r" depth="1" NCoef="0" IVar="4" Cut="8.0984237670898438e+01" cType="1" res="-1.6045992076396942e-01" rms="3.0061164498329163e-01" purity="1.0091592371463776e-01" nType="0">
          <Node pos="l" depth="2" NCoef="0" IVar="-1" Cut="0.0000000000000000e+00" cType="1" res="-6.9622686132788658e-03" rms="3.4748864173889160e-01" purity="1.4147461950778961e-01" nType="-99"/>
          <Node pos="r" depth="2" NCoef="0" IVar="-1" Cut="0.0000000000000000e+00" cType="1" res="-8.1795314326882362e-03" rms="2.4288688600063324e-01" purity="6.3276864588260651e-02" nType="-99"/>
        </Node>
      </Node>
    </BinaryTree>
    <BinaryTree type="DecisionTree" boostWeight="1.0000000000000000e+00" itree="52">
      <Node pos="s" depth="0" NCoef="0" IVar="4" Cut="9.8961853027343750e+01" cType="1" res="-1.2618398666381836e-01" rms="3.4486711025238037e-01" purity="1.3947774469852448e-01" nType="0">
        <Node pos="l" depth="1" NCoef="0" IVar="-1" Cut="0.0000000000000000e+00" cType="1" res="-5.8263200335204601e-03" rms="3.6978459358215332e-01" purity="1.6503547132015228e-01" nType="-99"/>
        <Node pos="r" depth="1" NCoef="0" IVar="3" Cut="4.9997142791748047e+01" cType="1" res="-1.7648866772651672e-01" rms="2.7562564611434937e-01" purity="8.3092696964740753e-02" nType="0">
          <Node pos="l" depth="2" NCoef="0" IVar="-1" Cut="0.0000000000000000e+00" cType="1" res="-7.4427505023777485e-03" rms="3.3923426270484924e-01" purity="1.3298800587654114e-01" nType="-99"/>
          <Node pos="r" depth="2" NCoef="0" IVar="-1" Cut="0.0000000000000000e+00" cType="1" res="-7.4693858623504639e-03" rms="2.2763995826244354e-01" purity="5.5040728300809860e-02" nType="-99"/>
        </Node>
      </Node>
    </BinaryTree>
    <BinaryTree type="DecisionTree" boostWeight="1.0000000000000000e+00" itree="53">
      <Node pos="s" depth="0" NCoef="0" IVar="3" Cut="5.9994705200195312e+01" cType="1" res="-1.2372396141290665e-01" rms="3.4484645724296570e-01" purity="1.3947774469852448e-01" nType="0">
        <Node pos="l" depth="1" NCoef="0" IVar="-1" Cut="0.0000000000000000e+00" cType="1" res="-5.0052595324814320e-03" rms="3.7662443518638611e-01" purity="1.7222915589809418e-01" nType="-99"/>
        <Node pos="r" depth="1" NCoef="0" IVar="4" Cut="7.2621147155761719e+01" cType="1" res="-1.6644015908241272e-01" rms="2.8143513202667236e-01" purity="8.6979359388351440e-02" nType="0">
          <Node pos="l" depth="2" NCoef="0" IVar="-1" Cut="0.0000000000000000e+00" cType="1" res="-7.9244365915656090e-03" rms="3.3820775151252747e-01" purity="1.3253474235534668e-01" nType="-99"/>
          <Node pos="r" depth="2" NCoef="0" IVar="-1" Cut="0.0000000000000000e+00" cType="1" res="-8.7307412177324295e-03" rms="2.3571334779262543e-01" purity="5.9283200651407242e-02" nType="-99"/>
        </Node>
      </Node>
    </BinaryTree>
    <BinaryTree type="DecisionTree" boostWeight="1.0000000000000000e+00" itree="54">
      <Node pos="s" depth="0" NCoef="0" IVar="4" Cut="9.8961853027343750e+01" cType="1" res="-1.2129449844360352e-01" rms="3.4478664398193359e-01" purity="1.3947774469852448e-01" nType="0">
        <Node pos="l" depth="1" NCoef="0" IVar="-1" Cut="0.0000000000000000e+00" cType="1" res="-5.6263287551701069e-03" rms="3.6974793672561646e-01" purity="1.6503547132015228e-01" nType="-99"/>
        <Node pos="r" depth="1" NCoef="0" IVar="3" Cut="4.9997142791748047e+01" cType="1" res="-1.7105083167552948e-01" rms="2.7555602788925171e-01" purity="8.3092696964740753e-02" nType="0">
          <Node pos="l" depth="2" NCoef="0" IVar="-1" Cut="0.0000000000000000e+00" cType="1" res="-7.2503001429140568e-03" rms="3.3923792839050293e-01" purity="1.3298800587654114e-01" nType="-99"/>
          <Node pos="r" depth="2" NCoef="0" IVar="-1" Cut="0.0000000000000000e+00" cType="1" res="-7.3638912290334702e-03" rms="2.2763425111770630e-01" purity="5.5040728300809860e-02" nType="-99"/>
        </Node>
      </Node>
    </BinaryTree>
    <BinaryTree type="DecisionTree" boostWeight="1.0000000000000000e+00" itree="55">
      <Node pos="s" depth="0" NCoef="0" IVar="3" Cut="5.0641597747802734e+01" cType="1" res="-1.1893349885940552e-01" rms="3.4476539492607117e-01" purity="1.3947774469852448e-01" nType="0">
        <Node pos="l" depth="1" NCoef="0" IVar="-1" Cut="0.0000000000000000e+00" cType="1" res="-4.6145580708980560e-03" rms="3.8657090067863464e-01" purity="1.8394577503204346e-01" nType="-99"/>
        <Node pos="r" depth="1" NCoef="0" IVar="4" Cut="8.0984237670898438e+01" cType="1" res="-1.4990194141864777e-01" rms="3.0047476291656494e-01" purity="1.0091592371463776e-01" nType="0">
          <Node pos="l" depth="2" NCoef="0" IVar="-1" Cut="0.0000000000000000e+00" cType="1" res="-6.5516359172761440e-03" rms="3.4747818112373352e-01" purity="1.4147461950778961e-01" nType="-99"/>
          <Node pos="r" depth="2" NCoef="0" IVar="-1" Cut="0.0000000000000000e+00" cType="1" res="-7.9403650015592575e-03" rms="2.4284420907497406e-01" purity="6.3276864588260651e-02" nType="-99"/>
        </Node>
      </Node>
    </BinaryTree>
    <BinaryTree type="DecisionTree" boostWeight="1.0000000000000000e+00" itree="56">
      <Node pos="s" depth="0" NCoef="0" IVar="4" Cut="9.8961853027343750e+01" cType="1" res="-1.1663843691349030e-01" rms="3.4470930695533752e-01" purity="1.3947774469852448e-01" nType="0">
        <Node pos="l" depth="1" NCoef="0" IVar="-1" Cut="0.0000000000000000e+00" cType="1" res="-5.4351012222468853e-03" rms="3.6972254514694214e-01" purity="1.6503547132015228e-01" nType="-99"/>
        <Node pos="r" depth="1" NCoef="0" IVar="3" Cut="4.9997142791748047e+01" cType="1" res="-1.6577774286270142e-01" rms="2.7548182010650635e-01" purity="8.3092696964740753e-02" nType="0">
          <Node pos="l" depth="2" NCoef="0" IVar="-1" Cut="0.0000000000000000e+00" cType="1" res="-7.0662903599441051e-03" rms="3.3924141526222229e-01" purity="1.3298800587654114e-01" nType="-99"/>
          <Node pos="r" depth="2" NCoef="0" IVar="-1" Cut="0.0000000000000000e+00" cType="1" res="-7.2601623833179474e-03" rms="2.2763903439044952e-01" purity="5.5040728300809860e-02" nType="-99"/>
        </Node>
      </Node>
    </BinaryTree>
    <BinaryTree type="DecisionTree" boostWeight="1.0000000000000000e+00" itree="57">
      <Node pos="s" depth="0" NCoef="0" IVar="4" Cut="9.3107658386230469e+01" cType="1" res="-1.1437128484249115e-01" rms="3.4468761086463928e-01" purity="1.3947774469852448e-01" nType="0">
        <Node pos="l" depth="1" NCoef="0" IVar="-1" Cut="0.0000000000000000e+00" cType="1" res="-5.1596960984170437e-03" rms="3.7193474173545837e-01" purity="1.6745424270629883e-01" nType="-99"/>
        <Node pos="r" depth="1" NCoef="0" IVar="3" Cut="4.9997142791748047e+01" cType="1" res="-1.5842381119728088e-01" rms="2.8397339582443237e-01" purity="8.9115187525749207e-02" nType="0">
          <Node pos="l" depth="2" NCoef="0" IVar="-1" Cut="0.0000000000000000e+00" cType="1" res="-6.8817236460745335e-03" rms="3.4863051772117615e-01" purity="1.4228583872318268e-01" nType="-99"/>
          <Node pos="r" depth="2" NCoef="0" IVar="-1" Cut="0.0000000000000000e+00" cType="1" res="-7.3852241039276123e-03" rms="2.3258084058761597e-01" purity="5.7645756751298904e-02" nType="-99"/>
        </Node>
      </Node>
    </BinaryTree>
    <BinaryTree type="DecisionTree" boostWeight="1.0000000000000000e+00" itree="58">
      <Node pos="s" depth="0" NCoef="0" IVar="3" Cut="5.9027141571044922e+01" cType="1" res="-1.1215408146381378e-01" rms="3.4465816617012024e-01" purity="1.3947774469852448e-01" nType="0">
        <Node pos="l" depth="1" NCoef="0" IVar="-1" Cut="0.0000000000000000e+00" cType="1" res="-4.5667621307075024e-03" rms="3.7752023339271545e-01" purity="1.7332349717617035e-01" nType="-99"/>
        <Node pos="r" depth="1" NCoef="0" IVar="4" Cut="7.2621147155761719e+01" cType="1" res="-1.5250036120414734e-01" rms="2.8318226337432861e-01" purity="8.8289164006710052e-02" nType="0">
          <Node pos="l" depth="2" NCoef="0" IVar="-1" Cut="0.0000000000000000e+00" cType="1" res="-7.0532807148993015e-03" rms="3.3909490704536438e-01" purity="1.3331809639930725e-01" nType="-99"/>
          <Node pos="r" depth="2" NCoef="0" IVar="-1" Cut="0.0000000000000000e+00" cType="1" res="-8.3506032824516296e-03" rms="2.3792873322963715e-01" purity="6.0511171817779541e-02" nType="-99"/>
        </Node>
      </Node>
    </BinaryTree>
    <BinaryTree type="DecisionTree" boostWeight="1.0000000000000000e+00" itree="59">
      <Node pos="s" depth="0" NCoef="0" IVar="4" Cut="9.8961853027343750e+01" cType="1" res="-1.0996383428573608e-01" rms="3.4460103511810303e-01" purity="1.3947774469852448e-01" nType="0">
        <Node pos="l" depth="1" NCoef="0" IVar="-1" Cut="0.0000000000000000e+00" cType="1" res="-5.1579251885414124e-03" rms="3.6968964338302612e-01" purity="1.6503547132015228e-01" nType="-99"/>
        <Node pos="r" depth="1" NCoef="0" IVar="3" Cut="4.4191772460937500e+01" cType="1" res="-1.5808516740798950e-01" rms="2.7540609240531921e-01" purity="8.3092696964740753e-02" nType="0">
          <Node pos="l" depth="2" NCoef="0" IVar="-1" Cut="0.0000000000000000e+00" cType="1" res="-6.4073200337588787e-03" rms="3.5150805115699768e-01" purity="1.4471751451492310e-01" nType="-99"/>
          <Node pos="r" depth="2" NCoef="0" IVar="-1" Cut="0.0000000000000000e+00" cType="1" res="-7.1619022637605667e-03" rms="2.3838347196578979e-01" purity="6.0742538422346115e-02" nType="-99"/>
        </Node>
      </Node>
    </BinaryTree>
    <BinaryTree type="DecisionTree" boostWeight="1.0000000000000000e+00" itree="60">
      <Node pos="s" depth="0" NCoef="0" IVar="3" Cut="5.0641597747802734e+01" cType="1" res="-1.0783484578132629e-01" rms="3.4457734227180481e-01" purity="1.3947774469852448e-01" nType="0">
        <Node pos="l" depth="1" NCoef="0" IVar="-1" Cut="0.0000000000000000e+00" cType="1" res="-4.1552735492587090e-03" rms="3.8654205203056335e-01" purity="1.8394577503204346e-01" nType="-99"/>
        <Node pos="r" depth="1" NCoef="0" IVar="4" Cut="8.0984237670898438e+01" cType="1" res="-1.3795839250087738e-01" rms="3.0028906464576721e-01" purity="1.0091592371463776e-01" nType="0">
          <Node pos="l" depth="2" NCoef="0" IVar="-1" Cut="0.0000000000000000e+00" cType="1" res="-6.0839331708848476e-03" rms="3.4747403860092163e-01" purity="1.4147461950778961e-01" nType="-99"/>
          <Node pos="r" depth="2" NCoef="0" IVar="-1" Cut="0.0000000000000000e+00" cType="1" res="-7.6605817303061485e-03" rms="2.4279662966728210e-01" purity="6.3276864588260651e-02" nType="-99"/>
        </Node>
      </Node>
    </BinaryTree>
    <BinaryTree type="DecisionTree" boostWeight="1.0000000000000000e+00" itree="61">
      <Node pos="s" depth="0" NCoef="0" IVar="4" Cut="8.8926094055175781e+01" cType="1" res="-1.0576121509075165e-01" rms="3.4452211856842041e-01" purity="1.3947774469852448e-01" nType="0">
        <Node pos="l" depth="1" NCoef="0" IVar="-1" Cut="0.0000000000000000e+00" cType="1" res="-4.6470891684293747e-03" rms="3.7361279129981995e-01" purity="1.6937664151191711e-01" nType="-99"/>
        <Node pos="r" depth="1" NCoef="0" IVar="3" Cut="4.9997142791748047e+01" cType="1" res="-1.4541910588741302e-01" rms="2.8982284665107727e-01" purity="9.3533985316753387e-02" nType="0">
          <Node pos="l" depth="2" NCoef="0" IVar="-1" Cut="0.0000000000000000e+00" cType="1" res="-6.2445509247481823e-03" rms="3.5447686910629272e-01" purity="1.4824147522449493e-01" nType="-99"/>
          <Node pos="r" depth="2" NCoef="0" IVar="-1" Cut="0.0000000000000000e+00" cType="1" res="-7.3670861311256886e-03" rms="2.3618613183498383e-01" purity="5.9616088867187500e-02" nType="-99"/>
        </Node>
      </Node>
    </BinaryTree>
    <BinaryTree type="DecisionTree" boostWeight="1.0000000000000000e+00" itree="62">
      <Node pos="s" depth="0" NCoef="0" IVar="3" Cut="5.9994705200195312e+01" cType="1" res="-1.0372141003608704e-01" rms="3.4448507428169250e-01" purity="1.3947774469852448e-01" nType="0">
        <Node pos="l" depth="1" NCoef="0" IVar="-1" Cut="0.0000000000000000e+00" cType="1" res="-4.2445841245353222e-03" rms="3.7648925185203552e-01" purity="1.7222915589809418e-01" nType="-99"/>
        <Node pos="r" depth="1" NCoef="0" IVar="4" Cut="7.2621147155761719e+01" cType="1" res="-1.4406903088092804e-01" rms="2.8114056587219238e-01" purity="8.6979359388351440e-02" nType="0">
          <Node pos="l" depth="2" NCoef="0" IVar="-1" Cut="0.0000000000000000e+00" cType="1" res="-6.9865891709923744e-03" rms="3.3825221657752991e-01" purity="1.3253474235534668e-01" nType="-99"/>
          <Node pos="r" depth="2" NCoef="0" IVar="-1" Cut="0.0000000000000000e+00" cType="1" res="-8.1973001360893250e-03" rms="2.3564255237579346e-01" purity="5.9283200651407242e-02" nType="-99"/>
        </Node>
      </Node>
    </BinaryTree>
    <BinaryTree type="DecisionTree" boostWeight="1.0000000000000000e+00" itree="63">
      <Node pos="s" depth="0" NCoef="0" IVar="4" Cut="9.8961853027343750e+01" cType="1" res="-1.0169001668691635e-01" rms="3.4443005919456482e-01" purity="1.3947774469852448e-01" nType="0">
        <Node pos="l" depth="1" NCoef="0" IVar="-1" Cut="0.0000000000000000e+00" cType="1" res="-4.8042144626379013e-03" rms="3.6961969733238220e-01" purity="1.6503547132015228e-01" nType="-99"/>
        <Node pos="r" depth="1" NCoef="0" IVar="3" Cut="4.4191772460937500e+01" cType="1" res="-1.4856801927089691e-01" rms="2.7523908019065857e-01" purity="8.3092696964740753e-02" nType="0">
          <Node pos="l" depth="2" NCoef="0" IVar="-1" Cut="0.0000000000000000e+00" cType="1" res="-6.0414373874664307e-03" rms="3.5151433944702148e-01" purity="1.4471751451492310e-01" nType="-99"/>
          <Node pos="r" depth="2" NCoef="0" IVar="-1" Cut="0.0000000000000000e+00" cType="1" res="-6.9611570797860622e-03" rms="2.3833853006362915e-01" purity="6.0742538422346115e-02" nType="-99"/>
        </Node>
      </Node>
    </BinaryTree>
    <BinaryTree type="DecisionTree" boostWeight="1.0000000000000000e+00" itree="64">
      <Node pos="s" depth="0" NCoef="0" IVar="1" Cut="1.1754521942138672e+02" cType="1" res="-9.9727228283882141e-02" rms="3.4440609812736511e-01" purity="1.3947774469852448e-01" nType="0">
        <Node pos="l" depth="1" NCoef="0" IVar="-1" Cut="0.0000000000000000e+00" cType="1" res="-4.5072641223669052e-03" rms="3.5898515582084656e-01" purity="1.5341898798942566e-01" nType="-99"/>
        <Node pos="r" depth="1" NCoef="0" IVar="1" Cut="1.3695536804199219e+02" cType="1" res="-1.8646478652954102e-01" rms="1.8069730699062347e-01" purity="3.4192945808172226e-02" nType="0">
          <Node pos="l" depth="2" NCoef="0" IVar="-1" Cut="0.0000000000000000e+00" cType="1" res="-1.6129817813634872e-02" rms="2.4033121764659882e-01" purity="6.1843551695346832e-02" nType="-99"/>
          <Node pos="r" depth="2" NCoef="0" IVar="-1" Cut="0.0000000000000000e+00" cType="1" res="-3.0546460300683975e-02" rms="1.1798861622810364e-01" purity="1.4214185066521168e-02" nType="-99"/>
        </Node>
      </Node>
    </BinaryTree>
    <BinaryTree type="DecisionTree" boostWeight="1.0000000000000000e+00" itree="65">
      <Node pos="s" depth="0" NCoef="0" IVar="4" Cut="9.8961853027343750e+01" cType="1" res="-9.7307652235031128e-02" rms="3.4421002864837646e-01" purity="1.3947774469852448e-01" nType="0">
        <Node pos="l" depth="1" NCoef="0" IVar="-1" Cut="0.0000000000000000e+00" cType="1" res="-4.6021523885428905e-03" rms="3.6940497159957886e-01" purity="1.6503547132015228e-01" nType="-99"/>
        <Node pos="r" depth="1" NCoef="0" IVar="3" Cut="4.4191772460937500e+01" cType="1" res="-1.4374832808971405e-01" rms="2.7510026097297668e-01" purity="8.3092696964740753e-02" nType="0">
          <Node pos="l" depth="2" NCoef="0" IVar="-1" Cut="0.0000000000000000e+00" cType="1" res="-5.8423727750778198e-03" rms="3.5145187377929688e-01" purity="1.4471751451492310e-01" nType="-99"/>
          <Node pos="r" depth="2" NCoef="0" IVar="-1" Cut="0.0000000000000000e+00" cType="1" res="-6.8450910039246082e-03" rms="2.3824894428253174e-01" purity="6.0742538422346115e-02" nType="-99"/>
        </Node>
      </Node>
    </BinaryTree>
    <BinaryTree type="DecisionTree" boostWeight="1.0000000000000000e+00" itree="66">
      <Node pos="s" depth="0" NCoef="0" IVar="4" Cut="8.8926094055175781e+01" cType="1" res="-9.5436088740825653e-02" rms="3.4418627619743347e-01" purity="1.3947774469852448e-01" nType="0">
        <Node pos="l" depth="1" NCoef="0" IVar="-1" Cut="0.0000000000000000e+00" cType="1" res="-4.1961544193327427e-03" rms="3.7337315082550049e-01" purity="1.6937664151191711e-01" nType="-99"/>
        <Node pos="r" depth="1" NCoef="0" IVar="3" Cut="4.1934127807617188e+01" cType="1" res="-1.3388779759407043e-01" rms="2.8955340385437012e-01" purity="9.3533985316753387e-02" nType="0">
          <Node pos="l" depth="2" NCoef="0" IVar="-1" Cut="0.0000000000000000e+00" cType="1" res="-5.0470069982111454e-03" rms="3.7306872010231018e-01" purity="1.6810724139213562e-01" nType="-99"/>
          <Node pos="r" depth="2" NCoef="0" IVar="-1" Cut="0.0000000000000000e+00" cType="1" res="-7.0271766744554043e-03" rms="2.5420492887496948e-01" purity="7.0092156529426575e-02" nType="-99"/>
        </Node>
      </Node>
    </BinaryTree>
    <BinaryTree type="DecisionTree" boostWeight="1.0000000000000000e+00" itree="67">
      <Node pos="s" depth="0" NCoef="0" IVar="3" Cut="5.0641597747802734e+01" cType="1" res="-9.3610286712646484e-02" rms="3.4414756298065186e-01" purity="1.3947774469852448e-01" nType="0">
        <Node pos="l" depth="1" NCoef="0" IVar="-1" Cut="0.0000000000000000e+00" cType="1" res="-3.5540293902158737e-03" rms="3.8641911745071411e-01" purity="1.8394577503204346e-01" nType="-99"/>
        <Node pos="r" depth="1" NCoef="0" IVar="4" Cut="8.0984237670898438e+01" cType="1" res="-1.2233116477727890e-01" rms="2.9980152845382690e-01" purity="1.0091592371463776e-01" nType="0">
          <Node pos="l" depth="2" NCoef="0" IVar="-1" Cut="0.0000000000000000e+00" cType="1" res="-5.4311882704496384e-03" rms="3.4711834788322449e-01" purity="1.4147461950778961e-01" nType="-99"/>
          <Node pos="r" depth="2" NCoef="0" IVar="-1" Cut="0.0000000000000000e+00" cType="1" res="-7.2667608037590981e-03" rms="2.4262326955795288e-01" purity="6.3276864588260651e-02" nType="-99"/>
        </Node>
      </Node>
    </BinaryTree>
    <BinaryTree type="DecisionTree" boostWeight="1.0000000000000000e+00" itree="68">
      <Node pos="s" depth="0" NCoef="0" IVar="4" Cut="9.9380004882812500e+01" cType="1" res="-9.1822765767574310e-02" rms="3.4409549832344055e-01" purity="1.3947774469852448e-01" nType="0">
        <Node pos="l" depth="1" NCoef="0" IVar="-1" Cut="0.0000000000000000e+00" cType="1" res="-4.3799029663205147e-03" rms="3.6913934350013733e-01" purity="1.6478045284748077e-01" nType="-99"/>
        <Node pos="r" depth="1" NCoef="0" IVar="3" Cut="4.4191772460937500e+01" cType="1" res="-1.3754439353942871e-01" rms="2.7440762519836426e-01" purity="8.2702159881591797e-02" nType="0">
          <Node pos="l" depth="2" NCoef="0" IVar="-1" Cut="0.0000000000000000e+00" cType="1" res="-5.5690505541861057e-03" rms="3.5062789916992188e-01" purity="1.4391225576400757e-01" nType="-99"/>
          <Node pos="r" depth="2" NCoef="0" IVar="-1" Cut="0.0000000000000000e+00" cType="1" res="-6.6865179687738419e-03" rms="2.3793521523475647e-01" purity="6.0574665665626526e-02" nType="-99"/>
        </Node>
      </Node>
    </BinaryTree>
    <BinaryTree type="DecisionTree" boostWeight="1.0000000000000000e+00" itree="69">
      <Node pos="s" depth="0" NCoef="0" IVar="0" Cut="7.9253913879394531e+01" cType="1" res="-9.0060293674468994e-02" rms="3.4407266974449158e-01" purity="1.3947774469852448e-01" nType="0">
        <Node pos="l" depth="1" NCoef="0" IVar="-1" Cut="0.0000000000000000e+00" cType="1" res="-3.4147251863032579e-03" rms="3.7055966258049011e-01" purity="1.6607975959777832e-01" nType="-99"/>
        <Node pos="r" depth="1" NCoef="0" IVar="4" Cut="7.6799560546875000e+01" cType="1" res="-1.2858906388282776e-01" rms="2.9248881340026855e-01" purity="9.6713848412036896e-02" nType="0">
          <Node pos="l" depth="2" NCoef="0" IVar="-1" Cut="0.0000000000000000e+00" cType="1" res="-7.0143616758286953e-03" rms="3.5466542840003967e-01" purity="1.5077996253967285e-01" nType="-99"/>
          <Node pos="r" depth="2" NCoef="0" IVar="-1" Cut="0.0000000000000000e+00" cType="1" res="-9.1812722384929657e-03" rms="2.3529921472072601e-01" purity="5.9642598032951355e-02" nType="-99"/>
        </Node>
      </Node>
    </BinaryTree>
    <BinaryTree type="DecisionTree" boostWeight="1.0000000000000000e+00" itree="70">
      <Node pos="s" depth="0" NCoef="0" IVar="3" Cut="5.9027141571044922e+01" cType="1" res="-8.8210262358188629e-02" rms="3.4399673342704773e-01" purity="1.3947774469852448e-01" nType="0">
        <Node pos="l" depth="1" NCoef="0" IVar="-1" Cut="0.0000000000000000e+00" cType="1" res="-3.6011212505400181e-03" rms="3.7718287110328674e-01" purity="1.7332349717617035e-01" nType="-99"/>
        <Node pos="r" depth="1" NCoef="0" IVar="4" Cut="7.2621147155761719e+01" cType="1" res="-1.2558820843696594e-01" rms="2.8251749277114868e-01" purity="8.8289164006710052e-02" nType="0">
          <Node pos="l" depth="2" NCoef="0" IVar="-1" Cut="0.0000000000000000e+00" cType="1" res="-5.8879926800727844e-03" rms="3.3866465091705322e-01" purity="1.3331809639930725e-01" nType="-99"/>
          <Node pos="r" depth="2" NCoef="0" IVar="-1" Cut="0.0000000000000000e+00" cType="1" res="-7.6633905991911888e-03" rms="2.3765510320663452e-01" purity="6.0511171817779541e-02" nType="-99"/>
        </Node>
      </Node>
    </BinaryTree>
    <BinaryTree type="DecisionTree" boostWeight="1.0000000000000000e+00" itree="71">
      <Node pos="s" depth="0" NCoef="0" IVar="3" Cut="5.0641597747802734e+01" cType="1" res="-8.6498744785785675e-02" rms="3.4394663572311401e-01" purity="1.3947774469852448e-01" nType="0">
        <Node pos="l" depth="1" NCoef="0" IVar="-1" Cut="0.0000000000000000e+00" cType="1" res="-3.2437024638056755e-03" rms="3.8633742928504944e-01" purity="1.8394577503204346e-01" nType="-99"/>
        <Node pos="r" depth="1" NCoef="0" IVar="4" Cut="8.0984237670898438e+01" cType="1" res="-1.1445049196481705e-01" rms="2.9961881041526794e-01" purity="1.0091592371463776e-01" nType="0">
          <Node pos="l" depth="2" NCoef="0" IVar="-1" Cut="0.0000000000000000e+00" cType="1" res="-5.0961589440703392e-03" rms="3.4706881642341614e-01" purity="1.4147461950778961e-01" nType="-99"/>
          <Node pos="r" depth="2" NCoef="0" IVar="-1" Cut="0.0000000000000000e+00" cType="1" res="-7.0652300491929054e-03" rms="2.4253803491592407e-01" purity="6.3276864588260651e-02" nType="-99"/>
        </Node>
      </Node>
    </BinaryTree>
    <BinaryTree type="DecisionTree" boostWeight="1.0000000000000000e+00" itree="72">
      <Node pos="s" depth="0" NCoef="0" IVar="4" Cut="9.8961853027343750e+01" cType="1" res="-8.4852762520313263e-02" rms="3.4389629960060120e-01" purity="1.3947774469852448e-01" nType="0">
        <Node pos="l" depth="1" NCoef="0" IVar="-1" Cut="0.0000000000000000e+00" cType="1" res="-4.0416331030428410e-03" rms="3.6927238106727600e-01" purity="1.6503547132015228e-01" nType="-99"/>
        <Node pos="r" depth="1" NCoef="0" IVar="3" Cut="4.1934127807617188e+01" cType="1" res="-1.2911453843116760e-01" rms="2.7475675940513611e-01" purity="8.3092696964740753e-02" nType="0">
          <Node pos="l" depth="2" NCoef="0" IVar="-1" Cut="0.0000000000000000e+00" cType="1" res="-4.8688948154449463e-03" rms="3.5812625288963318e-01" purity="1.5158829092979431e-01" nType="-99"/>
          <Node pos="r" depth="2" NCoef="0" IVar="-1" Cut="0.0000000000000000e+00" cType="1" res="-6.5421992912888527e-03" rms="2.4285711348056793e-01" purity="6.3386738300323486e-02" nType="-99"/>
        </Node>
      </Node>
    </BinaryTree>
    <BinaryTree type="DecisionTree" boostWeight="1.0000000000000000e+00" itree="73">
      <Node pos="s" depth="0" NCoef="0" IVar="3" Cut="8.4506294250488281e+01" cType="1" res="-8.3232350647449493e-02" rms="3.4387177228927612e-01" purity="1.3947774469852448e-01" nType="0">
        <Node pos="l" depth="1" NCoef="0" IVar="-1" Cut="0.0000000000000000e+00" cType="1" res="-4.0935762226581573e-03" rms="3.6108285188674927e-01" purity="1.5619963407516479e-01" nType="-99"/>
        <Node pos="r" depth="1" NCoef="0" IVar="4" Cut="5.8537002563476562e+01" cType="1" res="-1.4940705895423889e-01" rms="2.2917370498180389e-01" purity="5.6138209998607635e-02" nType="0">
          <Node pos="l" depth="2" NCoef="0" IVar="-1" Cut="0.0000000000000000e+00" cType="1" res="-8.0421846359968185e-03" rms="2.9988428950309753e-01" purity="1.0113572329282761e-01" nType="-99"/>
          <Node pos="r" depth="2" NCoef="0" IVar="-1" Cut="0.0000000000000000e+00" cType="1" res="-8.0191539600491524e-03" rms="2.0901897549629211e-01" purity="4.6085000038146973e-02" nType="-99"/>
        </Node>
      </Node>
    </BinaryTree>
    <BinaryTree type="DecisionTree" boostWeight="1.0000000000000000e+00" itree="74">
      <Node pos="s" depth="0" NCoef="0" IVar="0" Cut="7.9253913879394531e+01" cType="1" res="-8.1607669591903687e-02" rms="3.4384158253669739e-01" purity="1.3947774469852448e-01" nType="0">
        <Node pos="l" depth="1" NCoef="0" IVar="-1" Cut="0.0000000000000000e+00" cType="1" res="-3.0886996537446976e-03" rms="3.7040674686431885e-01" purity="1.6607975959777832e-01" nType="-99"/>
        <Node pos="r" depth="1" NCoef="0" IVar="4" Cut="7.6799560546875000e+01" cType="1" res="-1.1902429163455963e-01" rms="2.9232573509216309e-01" purity="9.6713848412036896e-02" nType="0">
          <Node pos="l" depth="2" NCoef="0" IVar="-1" Cut="0.0000000000000000e+00" cType="1" res="-6.4456053078174591e-03" rms="3.5464176535606384e-01" purity="1.5077996253967285e-01" nType="-99"/>
          <Node pos="r" depth="2" NCoef="0" IVar="-1" Cut="0.0000000000000000e+00" cType="1" res="-8.9105973020195961e-03" rms="2.3523542284965515e-01" purity="5.9642598032951355e-02" nType="-99"/>
        </Node>
      </Node>
    </BinaryTree>
    <BinaryTree type="DecisionTree" boostWeight="1.0000000000000000e+00" itree="75">
      <Node pos="s" depth="0" NCoef="0" IVar="3" Cut="5.0641597747802734e+01" cType="1" res="-7.9930603504180908e-02" rms="3.4376984834671021e-01" purity="1.3947774469852448e-01" nType="0">
        <Node pos="l" depth="1" NCoef="0" IVar="-1" Cut="0.0000000000000000e+00" cType="1" res="-2.9391192365437746e-03" rms="3.8625773787498474e-01" purity="1.8394577503204346e-01" nType="-99"/>
        <Node pos="r" depth="1" NCoef="0" IVar="4" Cut="8.0984237670898438e+01" cType="1" res="-1.0732812434434891e-01" rms="2.9943922162055969e-01" purity="1.0091592371463776e-01" nType="0">
          <Node pos="l" depth="2" NCoef="0" IVar="-1" Cut="0.0000000000000000e+00" cType="1" res="-4.7825695946812630e-03" rms="3.4700170159339905e-01" purity="1.4147461950778961e-01" nType="-99"/>
          <Node pos="r" depth="2" NCoef="0" IVar="-1" Cut="0.0000000000000000e+00" cType="1" res="-6.8797091953456402e-03" rms="2.4244575202465057e-01" purity="6.3276864588260651e-02" nType="-99"/>
        </Node>
      </Node>
    </BinaryTree>
    <BinaryTree type="DecisionTree" boostWeight="1.0000000000000000e+00" itree="76">
      <Node pos="s" depth="0" NCoef="0" IVar="1" Cut="1.1754521942138672e+02" cType="1" res="-7.8415416181087494e-02" rms="3.4372055530548096e-01" purity="1.3947774469852448e-01" nType="0">
        <Node pos="l" depth="1" NCoef="0" IVar="-1" Cut="0.0000000000000000e+00" cType="1" res="-3.6947063636034727e-03" rms="3.5849046707153320e-01" purity="1.5341898798942566e-01" nType="-99"/>
        <Node pos="r" depth="1" NCoef="0" IVar="0" Cut="7.3402069091796875e+01" cType="1" res="-1.5849873423576355e-01" rms="1.8042869865894318e-01" purity="3.4192945808172226e-02" nType="0">
          <Node pos="l" depth="2" NCoef="0" IVar="-1" Cut="0.0000000000000000e+00" cType="1" res="-9.7639402374625206e-03" rms="2.4785320460796356e-01" purity="6.5990656614303589e-02" nType="-99"/>
          <Node pos="r" depth="2" NCoef="0" IVar="-1" Cut="0.0000000000000000e+00" cType="1" res="-3.6479134112596512e-02" rms="1.4054650068283081e-01" purity="2.0492400974035263e-02" nType="-99"/>
        </Node>
      </Node>
    </BinaryTree>
    <BinaryTree type="DecisionTree" boostWeight="1.0000000000000000e+00" itree="77">
      <Node pos="s" depth="0" NCoef="0" IVar="4" Cut="9.9380004882812500e+01" cType="1" res="-7.6291903853416443e-02" rms="3.4351909160614014e-01" purity="1.3947774469852448e-01" nType="0">
        <Node pos="l" depth="1" NCoef="0" IVar="-1" Cut="0.0000000000000000e+00" cType="1" res="-3.6345154512673616e-03" rms="3.6870980262756348e-01" purity="1.6478045284748077e-01" nType="-99"/>
        <Node pos="r" depth="1" NCoef="0" IVar="3" Cut="4.1934127807617188e+01" cType="1" res="-1.1994060128927231e-01" rms="2.7384820580482483e-01" purity="8.2702159881591797e-02" nType="0">
          <Node pos="l" depth="2" NCoef="0" IVar="-1" Cut="0.0000000000000000e+00" cType="1" res="-4.4468874111771584e-03" rms="3.5697451233863831e-01" purity="1.5066042542457581e-01" nType="-99"/>
          <Node pos="r" depth="2" NCoef="0" IVar="-1" Cut="0.0000000000000000e+00" cType="1" res="-6.2869875691831112e-03" rms="2.4239309132099152e-01" purity="6.3236609101295471e-02" nType="-99"/>
        </Node>
      </Node>
    </BinaryTree>
    <BinaryTree type="DecisionTree" boostWeight="1.0000000000000000e+00" itree="78">
      <Node pos="s" depth="0" NCoef="0" IVar="4" Cut="8.8926094055175781e+01" cType="1" res="-7.4846602976322174e-02" rms="3.4349530935287476e-01" purity="1.3947774469852448e-01" nType="0">
        <Node pos="l" depth="1" NCoef="0" IVar="-1" Cut="0.0000000000000000e+00" cType="1" res="-3.2440023496747017e-03" rms="3.7297916412353516e-01" purity="1.6937664151191711e-01" nType="-99"/>
        <Node pos="r" depth="1" NCoef="0" IVar="3" Cut="4.1934127807617188e+01" cType="1" res="-1.1064977198839188e-01" rms="2.8881195187568665e-01" purity="9.3533985316753387e-02" nType="0">
          <Node pos="l" depth="2" NCoef="0" IVar="-1" Cut="0.0000000000000000e+00" cType="1" res="-3.8829254917800426e-03" rms="3.7264817953109741e-01" purity="1.6810724139213562e-01" nType="-99"/>
          <Node pos="r" depth="2" NCoef="0" IVar="-1" Cut="0.0000000000000000e+00" cType="1" res="-6.4163575880229473e-03" rms="2.5379192829132080e-01" purity="7.0092156529426575e-02" nType="-99"/>
        </Node>
      </Node>
    </BinaryTree>
    <BinaryTree type="DecisionTree" boostWeight="1.0000000000000000e+00" itree="79">
      <Node pos="s" depth="0" NCoef="0" IVar="3" Cut="5.9027141571044922e+01" cType="1" res="-7.3435530066490173e-02" rms="3.4345874190330505e-01" purity="1.3947774469852448e-01" nType="0">
        <Node pos="l" depth="1" NCoef="0" IVar="-1" Cut="0.0000000000000000e+00" cType="1" res="-2.9634165111929178e-03" rms="3.7686619162559509e-01" purity="1.7332349717617035e-01" nType="-99"/>
        <Node pos="r" depth="1" NCoef="0" IVar="4" Cut="7.2621147155761719e+01" cType="1" res="-1.0858237743377686e-01" rms="2.8198736906051636e-01" purity="8.8289164006710052e-02" nType="0">
          <Node pos="l" depth="2" NCoef="0" IVar="-1" Cut="0.0000000000000000e+00" cType="1" res="-5.0810836255550385e-03" rms="3.3820879459381104e-01" purity="1.3331809639930725e-01" nType="-99"/>
          <Node pos="r" depth="2" NCoef="0" IVar="-1" Cut="0.0000000000000000e+00" cType="1" res="-7.1850074455142021e-03" rms="2.3743024468421936e-01" purity="6.0511171817779541e-02" nType="-99"/>
        </Node>
      </Node>
    </BinaryTree>
    <BinaryTree type="DecisionTree" boostWeight="1.0000000000000000e+00" itree="80">
      <Node pos="s" depth="0" NCoef="0" IVar="4" Cut="9.8961853027343750e+01" cType="1" res="-7.2020478546619415e-02" rms="3.4341397881507874e-01" purity="1.3947774469852448e-01" nType="0">
        <Node pos="l" depth="1" NCoef="0" IVar="-1" Cut="0.0000000000000000e+00" cType="1" res="-3.4177326597273350e-03" rms="3.6891999840736389e-01" purity="1.6503547132015228e-01" nType="-99"/>
        <Node pos="r" depth="1" NCoef="0" IVar="3" Cut="4.1934127807617188e+01" cType="1" res="-1.1425749957561493e-01" rms="2.7432987093925476e-01" purity="8.3092696964740753e-02" nType="0">
          <Node pos="l" depth="2" NCoef="0" IVar="-1" Cut="0.0000000000000000e+00" cType="1" res="-4.2226286605000496e-03" rms="3.5788708925247192e-01" purity="1.5158829092979431e-01" nType="-99"/>
          <Node pos="r" depth="2" NCoef="0" IVar="-1" Cut="0.0000000000000000e+00" cType="1" res="-6.1698746867477894e-03" rms="2.4264699220657349e-01" purity="6.3386738300323486e-02" nType="-99"/>
        </Node>
      </Node>
    </BinaryTree>
    <BinaryTree type="DecisionTree" boostWeight="1.0000000000000000e+00" itree="81">
      <Node pos="s" depth="0" NCoef="0" IVar="3" Cut="8.4506294250488281e+01" cType="1" res="-7.0659868419170380e-02" rms="3.4339016675949097e-01" purity="1.3947774469852448e-01" nType="0">
        <Node pos="l" depth="1" NCoef="0" IVar="-1" Cut="0.0000000000000000e+00" cType="1" res="-3.5274084657430649e-03" rms="3.6070886254310608e-01" purity="1.5619963407516479e-01" nType="-99"/>
        <Node pos="r" depth="1" NCoef="0" IVar="4" Cut="5.8537002563476562e+01" cType="1" res="-1.3362568616867065e-01" rms="2.2887319326400757e-01" purity="5.6138209998607635e-02" nType="0">
          <Node pos="l" depth="2" NCoef="0" IVar="-1" Cut="0.0000000000000000e+00" cType="1" res="-7.3523507453501225e-03" rms="2.9941228032112122e-01" purity="1.0113572329282761e-01" nType="-99"/>
          <Node pos="r" depth="2" NCoef="0" IVar="-1" Cut="0.0000000000000000e+00" cType="1" res="-7.6388265006244183e-03" rms="2.0887474715709686e-01" purity="4.6085000038146973e-02" nType="-99"/>
        </Node>
      </Node>
    </BinaryTree>
    <BinaryTree type="DecisionTree" boostWeight="1.0000000000000000e+00" itree="82">
      <Node pos="s" depth="0" NCoef="0" IVar="4" Cut="8.8926094055175781e+01" cType="1" res="-6.9287024438381195e-02" rms="3.4336319565773010e-01" purity="1.3947774469852448e-01" nType="0">
        <Node pos="l" depth="1" NCoef="0" IVar="-1" Cut="0.0000000000000000e+00" cType="1" res="-2.9806480742990971e-03" rms="3.7294507026672363e-01" purity="1.6937664151191711e-01" nType="-99"/>
        <Node pos="r" depth="1" NCoef="0" IVar="3" Cut="4.1934127807617188e+01" cType="1" res="-1.0413986444473267e-01" rms="2.8867298364639282e-01" purity="9.3533985316753387e-02" nType="0">
          <Node pos="l" depth="2" NCoef="0" IVar="-1" Cut="0.0000000000000000e+00" cType="1" res="-3.5573770292103291e-03" rms="3.7266078591346741e-01" purity="1.6810724139213562e-01" nType="-99"/>
          <Node pos="r" depth="2" NCoef="0" IVar="-1" Cut="0.0000000000000000e+00" cType="1" res="-6.2376996502280235e-03" rms="2.5374329090118408e-01" purity="7.0092156529426575e-02" nType="-99"/>
        </Node>
      </Node>
    </BinaryTree>
    <BinaryTree type="DecisionTree" boostWeight="1.0000000000000000e+00" itree="83">
      <Node pos="s" depth="0" NCoef="0" IVar="3" Cut="5.0641597747802734e+01" cType="1" res="-6.7985899746417999e-02" rms="3.4332755208015442e-01" purity="1.3947774469852448e-01" nType="0">
        <Node pos="l" depth="1" NCoef="0" IVar="-1" Cut="0.0000000000000000e+00" cType="1" res="-2.3861273657530546e-03" rms="3.8608524203300476e-01" purity="1.8394577503204346e-01" nType="-99"/>
        <Node pos="r" depth="1" NCoef="0" IVar="4" Cut="8.0984237670898438e+01" cType="1" res="-9.3959853053092957e-02" rms="2.9895734786987305e-01" purity="1.0091592371463776e-01" nType="0">
          <Node pos="l" depth="2" NCoef="0" IVar="-1" Cut="0.0000000000000000e+00" cType="1" res="-4.1654477827250957e-03" rms="3.4662869572639465e-01" purity="1.4147461950778961e-01" nType="-99"/>
          <Node pos="r" depth="2" NCoef="0" IVar="-1" Cut="0.0000000000000000e+00" cType="1" res="-6.4936433918774128e-03" rms="2.4229213595390320e-01" purity="6.3276864588260651e-02" nType="-99"/>
        </Node>
      </Node>
    </BinaryTree>
    <BinaryTree type="DecisionTree" boostWeight="1.0000000000000000e+00" itree="84">
      <Node pos="s" depth="0" NCoef="0" IVar="0" Cut="7.9253913879394531e+01" cType="1" res="-6.6709928214550018e-02" rms="3.4328189492225647e-01" purity="1.3947774469852448e-01" nType="0">
        <Node pos="l" depth="1" NCoef="0" IVar="-1" Cut="0.0000000000000000e+00" cType="1" res="-2.4831618648022413e-03" rms="3.7008041143417358e-01" purity="1.6607975959777832e-01" nType="-99"/>
        <Node pos="r" depth="1" NCoef="0" IVar="4" Cut="7.6799560546875000e+01" cType="1" res="-1.0197533667087555e-01" rms="2.9170814156532288e-01" purity="9.6713848412036896e-02" nType="0">
          <Node pos="l" depth="2" NCoef="0" IVar="-1" Cut="0.0000000000000000e+00" cType="1" res="-5.3560687229037285e-03" rms="3.5408338904380798e-01" purity="1.5077996253967285e-01" nType="-99"/>
          <Node pos="r" depth="2" NCoef="0" IVar="-1" Cut="0.0000000000000000e+00" cType="1" res="-8.3697875961661339e-03" rms="2.3498798906803131e-01" purity="5.9642598032951355e-02" nType="-99"/>
        </Node>
      </Node>
    </BinaryTree>
    <BinaryTree type="DecisionTree" boostWeight="1.0000000000000000e+00" itree="85">
      <Node pos="s" depth="0" NCoef="0" IVar="3" Cut="5.9027141571044922e+01" cType="1" res="-6.5341763198375702e-02" rms="3.4321847558021545e-01" purity="1.3947774469852448e-01" nType="0">
        <Node pos="l" depth="1" NCoef="0" IVar="-1" Cut="0.0000000000000000e+00" cType="1" res="-2.5974654126912355e-03" rms="3.7674018740653992e-01" purity="1.7332349717617035e-01" nType="-99"/>
        <Node pos="r" depth="1" NCoef="0" IVar="4" Cut="7.2621147155761719e+01" cType="1" res="-9.9198922514915466e-02" rms="2.8176912665367126e-01" purity="8.8289164006710052e-02" nType="0">
          <Node pos="l" depth="2" NCoef="0" IVar="-1" Cut="0.0000000000000000e+00" cType="1" res="-4.6465406194329262e-03" rms="3.3816909790039062e-01" purity="1.3331809639930725e-01" nType="-99"/>
          <Node pos="r" depth="2" NCoef="0" IVar="-1" Cut="0.0000000000000000e+00" cType="1" res="-6.9128735922276974e-03" rms="2.3734803497791290e-01" purity="6.0511171817779541e-02" nType="-99"/>
        </Node>
      </Node>
    </BinaryTree>
    <BinaryTree type="DecisionTree" boostWeight="1.0000000000000000e+00" itree="86">
      <Node pos="s" depth="0" NCoef="0" IVar="4" Cut="9.9380004882812500e+01" cType="1" res="-6.4086161553859711e-02" rms="3.4317660331726074e-01" purity="1.3947774469852448e-01" nType="0">
        <Node pos="l" depth="1" NCoef="0" IVar="-1" Cut="0.0000000000000000e+00" cType="1" res="-3.0383337289094925e-03" rms="3.6856314539909363e-01" purity="1.6478045284748077e-01" nType="-99"/>
        <Node pos="r" depth="1" NCoef="0" IVar="3" Cut="4.1934127807617188e+01" cType="1" res="-1.0506626963615417e-01" rms="2.7349409461021423e-01" purity="8.2702159881591797e-02" nType="0">
