<?xml version="1.0"?>
<MethodSetup Method="BDT::BDT_with_top_mass_C_eta_lj_el_pt_mt_el_pt_bj">
  <GeneralInfo>
    <Info name="TMVA Release" value="4.1.2 [262402]"/>
    <Info name="ROOT Release" value="5.32/00 [335872]"/>
    <Info name="Creator" value="mario"/>
    <Info name="Date" value="Wed Jul 31 02:13:49 2013"/>
    <Info name="Host" value="Linux lxbuild168.cern.ch 2.6.18-308.16.1.el5 #1 SMP Thu Oct 4 14:02:28 CEST 2012 x86_64 x86_64 x86_64 GNU/Linux"/>
    <Info name="Dir" value="/home/mario/Summer13/stpol/mvatools"/>
    <Info name="Training events" value="43399"/>
    <Info name="TrainingTime" value="1.90734326e+02"/>
    <Info name="AnalysisType" value="Classification"/>
  </GeneralInfo>
  <Options>
    <Option name="V" modified="Yes">False</Option>
    <Option name="VerbosityLevel" modified="No">Default</Option>
    <Option name="VarTransform" modified="No">None</Option>
    <Option name="H" modified="Yes">False</Option>
    <Option name="CreateMVAPdfs" modified="No">False</Option>
    <Option name="IgnoreNegWeightsInTraining" modified="No">False</Option>
    <Option name="NTrees" modified="Yes">2000</Option>
    <Option name="RenormByClass" modified="No">False</Option>
    <Option name="BoostType" modified="Yes">Grad</Option>
    <Option name="AdaBoostR2Loss" modified="No">quadratic</Option>
    <Option name="UseBaggedGrad" modified="Yes">False</Option>
    <Option name="GradBaggingFraction" modified="No">6.000000e-01</Option>
    <Option name="Shrinkage" modified="Yes">1.000000e-01</Option>
    <Option name="AdaBoostBeta" modified="No">1.000000e+00</Option>
    <Option name="UseRandomisedTrees" modified="No">False</Option>
    <Option name="UseNvars" modified="Yes">4</Option>
    <Option name="UsePoissonNvars" modified="No">True</Option>
    <Option name="UseNTrainEvents" modified="No">43399</Option>
    <Option name="UseWeightedTrees" modified="No">True</Option>
    <Option name="UseYesNoLeaf" modified="No">True</Option>
    <Option name="NodePurityLimit" modified="No">5.000000e-01</Option>
    <Option name="SeparationType" modified="No">giniindex</Option>
    <Option name="nEventsMin" modified="Yes">100</Option>
    <Option name="nCuts" modified="Yes">2000</Option>
    <Option name="UseFisherCuts" modified="No">False</Option>
    <Option name="MinLinCorrForFisher" modified="No">8.000000e-01</Option>
    <Option name="UseExclusiveVars" modified="No">False</Option>
    <Option name="PruneStrength" modified="Yes">5.000000e+00</Option>
    <Option name="PruneMethod" modified="Yes">costcomplexity</Option>
    <Option name="PruneBeforeBoost" modified="No">False</Option>
    <Option name="PruningValFraction" modified="No">5.000000e-01</Option>
    <Option name="NNodesMax" modified="Yes">5</Option>
    <Option name="MaxDepth" modified="Yes">6</Option>
    <Option name="DoBoostMonitor" modified="No">False</Option>
    <Option name="NegWeightTreatment" modified="No">ignorenegweights</Option>
  </Options>
  <Variables NVar="6">
    <Variable VarIndex="0" Expression="top_mass" Label="top_mass" Title="top_mass" Unit="" Internal="top_mass" Type="D" Min="9.20942841e+01" Max="1.44257947e+03"/>
    <Variable VarIndex="1" Expression="C" Label="C" Title="C" Unit="" Internal="C" Type="D" Min="1.00044766e-03" Max="9.87326562e-01"/>
    <Variable VarIndex="2" Expression="eta_lj" Label="eta_lj" Title="eta_lj" Unit="" Internal="eta_lj" Type="D" Min="-4.83760929e+00" Max="4.80754375e+00"/>
    <Variable VarIndex="3" Expression="el_pt" Label="el_pt" Title="el_pt" Unit="" Internal="el_pt" Type="D" Min="3.00002575e+01" Max="6.75364624e+02"/>
    <Variable VarIndex="4" Expression="mt_el" Label="mt_el" Title="mt_el" Unit="" Internal="mt_el" Type="D" Min="3.57115129e-03" Max="8.94303345e+02"/>
    <Variable VarIndex="5" Expression="pt_bj" Label="pt_bj" Title="pt_bj" Unit="" Internal="pt_bj" Type="D" Min="4.00018005e+01" Max="8.76732727e+02"/>
  </Variables>
  <Spectators NSpec="0"/>
  <Classes NClass="2">
    <Class Name="Background" Index="0"/>
    <Class Name="Signal" Index="1"/>
  </Classes>
  <Transformations NTransformations="0"/>
  <MVAPdfs/>
  <Weights NTrees="2000" AnalysisType="1">
    <BinaryTree type="DecisionTree" boostWeight="1.0000000000000000e+00" itree="0">
      <Node pos="s" depth="0" NCoef="0" IVar="1" Cut="1.0007668286561966e-01" cType="1" res="-3.6052224040031433e-01" rms="3.4644439816474915e-01" purity="1.3947774469852448e-01" nType="0">
        <Node pos="l" depth="1" NCoef="0" IVar="-1" Cut="0.0000000000000000e+00" cType="1" res="-2.0062243565917015e-03" rms="4.9825468659400940e-01" purity="4.5825952291488647e-01" nType="-99"/>
        <Node pos="r" depth="1" NCoef="0" IVar="0" Cut="2.0711825561523438e+02" cType="1" res="-4.0071353316307068e-01" rms="2.9904624819755554e-01" purity="9.9286451935768127e-02" nType="0">
          <Node pos="l" depth="2" NCoef="0" IVar="-1" Cut="0.0000000000000000e+00" cType="1" res="-1.7489096149802208e-02" rms="3.5368201136589050e-01" purity="1.4657530188560486e-01" nType="-99"/>
          <Node pos="r" depth="2" NCoef="0" IVar="-1" Cut="0.0000000000000000e+00" cType="1" res="-1.4313945546746254e-02" rms="2.0610056817531586e-01" purity="4.4453565031290054e-02" nType="-99"/>
        </Node>
      </Node>
    </BinaryTree>
    <BinaryTree type="DecisionTree" boostWeight="1.0000000000000000e+00" itree="1">
      <Node pos="s" depth="0" NCoef="0" IVar="1" Cut="7.9867102205753326e-02" cType="1" res="-3.5329791903495789e-01" rms="3.4583327174186707e-01" purity="1.3947774469852448e-01" nType="0">
        <Node pos="l" depth="1" NCoef="0" IVar="-1" Cut="0.0000000000000000e+00" cType="1" res="1.4921389811206609e-04" rms="4.9999615550041199e-01" purity="5.0195991992950439e-01" nType="-99"/>
        <Node pos="r" depth="1" NCoef="0" IVar="0" Cut="2.0711825561523438e+02" cType="1" res="-3.8790783286094666e-01" rms="3.0562230944633484e-01" purity="1.0426343977451324e-01" nType="0">
          <Node pos="l" depth="2" NCoef="0" IVar="-1" Cut="0.0000000000000000e+00" cType="1" res="-1.6863746568560600e-02" rms="3.6096060276031494e-01" purity="1.5417578816413879e-01" nType="-99"/>
          <Node pos="r" depth="2" NCoef="0" IVar="-1" Cut="0.0000000000000000e+00" cType="1" res="-1.3961320742964745e-02" rms="2.1013490855693817e-01" purity="4.6324118971824646e-02" nType="-99"/>
        </Node>
      </Node>
    </BinaryTree>
    <BinaryTree type="DecisionTree" boostWeight="1.0000000000000000e+00" itree="2">
      <Node pos="s" depth="0" NCoef="0" IVar="1" Cut="1.0007668286561966e-01" cType="1" res="-3.4623554348945618e-01" rms="3.4523022174835205e-01" purity="1.3947774469852448e-01" nType="0">
        <Node pos="l" depth="1" NCoef="0" IVar="-1" Cut="0.0000000000000000e+00" cType="1" res="-1.8828294705599546e-03" rms="4.9776828289031982e-01" purity="4.5825952291488647e-01" nType="-99"/>
        <Node pos="r" depth="1" NCoef="0" IVar="0" Cut="2.0711825561523438e+02" cType="1" res="-3.8494965434074402e-01" rms="2.9930773377418518e-01" purity="9.9286451935768127e-02" nType="0">
          <Node pos="l" depth="2" NCoef="0" IVar="-1" Cut="0.0000000000000000e+00" cType="1" res="-1.6659105196595192e-02" rms="3.5368201136589050e-01" purity="1.4657530188560486e-01" nType="-99"/>
          <Node pos="r" depth="2" NCoef="0" IVar="-1" Cut="0.0000000000000000e+00" cType="1" res="-1.3880929909646511e-02" rms="2.0610056817531586e-01" purity="4.4453565031290054e-02" nType="-99"/>
        </Node>
      </Node>
    </BinaryTree>
    <BinaryTree type="DecisionTree" boostWeight="1.0000000000000000e+00" itree="3">
      <Node pos="s" depth="0" NCoef="0" IVar="1" Cut="7.9867102205753326e-02" cType="1" res="-3.3931529521942139e-01" rms="3.4465938806533813e-01" purity="1.3947774469852448e-01" nType="0">
        <Node pos="l" depth="1" NCoef="0" IVar="-1" Cut="0.0000000000000000e+00" cType="1" res="1.9286767928861082e-04" rms="4.9999615550041199e-01" purity="5.0195991992950439e-01" nType="-99"/>
        <Node pos="r" depth="1" NCoef="0" IVar="0" Cut="2.0711825561523438e+02" cType="1" res="-3.7265107035636902e-01" rms="3.0576696991920471e-01" purity="1.0426343977451324e-01" nType="0">
          <Node pos="l" depth="2" NCoef="0" IVar="-1" Cut="0.0000000000000000e+00" cType="1" res="-1.6072761267423630e-02" rms="3.6081543564796448e-01" purity="1.5417578816413879e-01" nType="-99"/>
          <Node pos="r" depth="2" NCoef="0" IVar="-1" Cut="0.0000000000000000e+00" cType="1" res="-1.3552038930356503e-02" rms="2.1008931100368500e-01" purity="4.6324118971824646e-02" nType="-99"/>
        </Node>
      </Node>
    </BinaryTree>
    <BinaryTree type="DecisionTree" boostWeight="1.0000000000000000e+00" itree="4">
      <Node pos="s" depth="0" NCoef="0" IVar="1" Cut="1.0007668286561966e-01" cType="1" res="-3.3255094289779663e-01" rms="3.4409484267234802e-01" purity="1.3947774469852448e-01" nType="0">
        <Node pos="l" depth="1" NCoef="0" IVar="-1" Cut="0.0000000000000000e+00" cType="1" res="-1.7666058847680688e-03" rms="4.9731448292732239e-01" purity="4.5825952291488647e-01" nType="-99"/>
        <Node pos="r" depth="1" NCoef="0" IVar="0" Cut="2.0711825561523438e+02" cType="1" res="-3.6984550952911377e-01" rms="2.9954034090042114e-01" purity="9.9286451935768127e-02" nType="0">
          <Node pos="l" depth="2" NCoef="0" IVar="-1" Cut="0.0000000000000000e+00" cType="1" res="-1.5903105959296227e-02" rms="3.5368204116821289e-01" purity="1.4657530188560486e-01" nType="-99"/>
          <Node pos="r" depth="2" NCoef="0" IVar="-1" Cut="0.0000000000000000e+00" cType="1" res="-1.3481384143233299e-02" rms="2.0610058307647705e-01" purity="4.4453565031290054e-02" nType="-99"/>
        </Node>
      </Node>
    </BinaryTree>
    <BinaryTree type="DecisionTree" boostWeight="1.0000000000000000e+00" itree="5">
      <Node pos="s" depth="0" NCoef="0" IVar="1" Cut="7.9867102205753326e-02" cType="1" res="-3.2592087984085083e-01" rms="3.4356054663658142e-01" purity="1.3947774469852448e-01" nType="0">
        <Node pos="l" depth="1" NCoef="0" IVar="-1" Cut="0.0000000000000000e+00" cType="1" res="2.3249581863638014e-04" rms="4.9999615550041199e-01" purity="5.0195991992950439e-01" nType="-99"/>
        <Node pos="r" depth="1" NCoef="0" IVar="0" Cut="2.0711825561523438e+02" cType="1" res="-3.5803183913230896e-01" rms="3.0589050054550171e-01" purity="1.0426343977451324e-01" nType="0">
          <Node pos="l" depth="2" NCoef="0" IVar="-1" Cut="0.0000000000000000e+00" cType="1" res="-1.5349132940173149e-02" rms="3.6068096756935120e-01" purity="1.5417578816413879e-01" nType="-99"/>
          <Node pos="r" depth="2" NCoef="0" IVar="-1" Cut="0.0000000000000000e+00" cType="1" res="-1.3173477724194527e-02" rms="2.1004900336265564e-01" purity="4.6324118971824646e-02" nType="-99"/>
        </Node>
      </Node>
    </BinaryTree>
    <BinaryTree type="DecisionTree" boostWeight="1.0000000000000000e+00" itree="6">
      <Node pos="s" depth="0" NCoef="0" IVar="1" Cut="1.0007668286561966e-01" cType="1" res="-3.1944084167480469e-01" rms="3.4303095936775208e-01" purity="1.3947774469852448e-01" nType="0">
        <Node pos="l" depth="1" NCoef="0" IVar="-1" Cut="0.0000000000000000e+00" cType="1" res="-1.6570196021348238e-03" rms="4.9689042568206787e-01" purity="4.5825952291488647e-01" nType="-99"/>
        <Node pos="r" depth="1" NCoef="0" IVar="0" Cut="2.0711825561523438e+02" cType="1" res="-3.5537129640579224e-01" rms="2.9974412918090820e-01" purity="9.9286451935768127e-02" nType="0">
          <Node pos="l" depth="2" NCoef="0" IVar="-1" Cut="0.0000000000000000e+00" cType="1" res="-1.5209963545203209e-02" rms="3.5368201136589050e-01" purity="1.4657530188560486e-01" nType="-99"/>
          <Node pos="r" depth="2" NCoef="0" IVar="-1" Cut="0.0000000000000000e+00" cType="1" res="-1.3111420907080173e-02" rms="2.0610058307647705e-01" purity="4.4453565031290054e-02" nType="-99"/>
        </Node>
      </Node>
    </BinaryTree>
    <BinaryTree type="DecisionTree" boostWeight="1.0000000000000000e+00" itree="7">
      <Node pos="s" depth="0" NCoef="0" IVar="1" Cut="6.5572522580623627e-02" cType="1" res="-3.1308782100677490e-01" rms="3.4252983331680298e-01" purity="1.3947774469852448e-01" nType="0">
        <Node pos="l" depth="1" NCoef="0" IVar="-1" Cut="0.0000000000000000e+00" cType="1" res="2.4140200112015009e-03" rms="4.9812194705009460e-01" purity="5.4329556226730347e-01" nType="-99"/>
        <Node pos="r" depth="1" NCoef="0" IVar="0" Cut="2.0711825561523438e+02" cType="1" res="-3.4051334857940674e-01" rms="3.1102529168128967e-01" purity="1.0869290679693222e-01" nType="0">
          <Node pos="l" depth="2" NCoef="0" IVar="-1" Cut="0.0000000000000000e+00" cType="1" res="-1.4389740303158760e-02" rms="3.6578553915023804e-01" purity="1.6057144105434418e-01" nType="-99"/>
          <Node pos="r" depth="2" NCoef="0" IVar="-1" Cut="0.0000000000000000e+00" cType="1" res="-1.2844054028391838e-02" rms="2.1326301991939545e-01" purity="4.7967154532670975e-02" nType="-99"/>
        </Node>
      </Node>
    </BinaryTree>
    <BinaryTree type="DecisionTree" boostWeight="1.0000000000000000e+00" itree="8">
      <Node pos="s" depth="0" NCoef="0" IVar="1" Cut="1.0007668286561966e-01" cType="1" res="-3.0689635872840881e-01" rms="3.4200498461723328e-01" purity="1.3947774469852448e-01" nType="0">
        <Node pos="l" depth="1" NCoef="0" IVar="-1" Cut="0.0000000000000000e+00" cType="1" res="-1.5333908377215266e-03" rms="4.9612164497375488e-01" purity="4.5825952291488647e-01" nType="-99"/>
        <Node pos="r" depth="1" NCoef="0" IVar="0" Cut="2.0711825561523438e+02" cType="1" res="-3.4157124161720276e-01" rms="2.9990521073341370e-01" purity="9.9286451935768127e-02" nType="0">
          <Node pos="l" depth="2" NCoef="0" IVar="-1" Cut="0.0000000000000000e+00" cType="1" res="-1.4576815068721771e-02" rms="3.5368201136589050e-01" purity="1.4657530188560486e-01" nType="-99"/>
          <Node pos="r" depth="2" NCoef="0" IVar="-1" Cut="0.0000000000000000e+00" cType="1" res="-1.2767439708113670e-02" rms="2.0610056817531586e-01" purity="4.4453565031290054e-02" nType="-99"/>
        </Node>
      </Node>
    </BinaryTree>
    <BinaryTree type="DecisionTree" boostWeight="1.0000000000000000e+00" itree="9">
      <Node pos="s" depth="0" NCoef="0" IVar="1" Cut="6.5572522580623627e-02" cType="1" res="-3.0080735683441162e-01" rms="3.4153226017951965e-01" purity="1.3947774469852448e-01" nType="0">
        <Node pos="l" depth="1" NCoef="0" IVar="-1" Cut="0.0000000000000000e+00" cType="1" res="2.3912161123007536e-03" rms="4.9812194705009460e-01" purity="5.4329556226730347e-01" nType="-99"/>
        <Node pos="r" depth="1" NCoef="0" IVar="0" Cut="2.0711825561523438e+02" cType="1" res="-3.2726314663887024e-01" rms="3.1103047728538513e-01" purity="1.0869290679693222e-01" nType="0">
          <Node pos="l" depth="2" NCoef="0" IVar="-1" Cut="0.0000000000000000e+00" cType="1" res="-1.3783168978989124e-02" rms="3.6559039354324341e-01" purity="1.6057144105434418e-01" nType="-99"/>
          <Node pos="r" depth="2" NCoef="0" IVar="-1" Cut="0.0000000000000000e+00" cType="1" res="-1.2516980990767479e-02" rms="2.1320934593677521e-01" purity="4.7967154532670975e-02" nType="-99"/>
        </Node>
      </Node>
    </BinaryTree>
    <BinaryTree type="DecisionTree" boostWeight="1.0000000000000000e+00" itree="10">
      <Node pos="s" depth="0" NCoef="0" IVar="1" Cut="1.0007668286561966e-01" cType="1" res="-2.9487422108650208e-01" rms="3.4103608131408691e-01" purity="1.3947774469852448e-01" nType="0">
        <Node pos="l" depth="1" NCoef="0" IVar="-1" Cut="0.0000000000000000e+00" cType="1" res="-1.4170221984386444e-03" rms="4.9540001153945923e-01" purity="4.5825952291488647e-01" nType="-99"/>
        <Node pos="r" depth="1" NCoef="0" IVar="0" Cut="2.0711825561523438e+02" cType="1" res="-3.2834064960479736e-01" rms="3.0003935098648071e-01" purity="9.9286451935768127e-02" nType="0">
          <Node pos="l" depth="2" NCoef="0" IVar="-1" Cut="0.0000000000000000e+00" cType="1" res="-1.3989390805363655e-02" rms="3.5368201136589050e-01" purity="1.4657530188560486e-01" nType="-99"/>
          <Node pos="r" depth="2" NCoef="0" IVar="-1" Cut="0.0000000000000000e+00" cType="1" res="-1.2446899898350239e-02" rms="2.0610056817531586e-01" purity="4.4453565031290054e-02" nType="-99"/>
        </Node>
      </Node>
    </BinaryTree>
    <BinaryTree type="DecisionTree" boostWeight="1.0000000000000000e+00" itree="11">
      <Node pos="s" depth="0" NCoef="0" IVar="1" Cut="7.9867102205753326e-02" cType="1" res="-2.8903746604919434e-01" rms="3.4058943390846252e-01" purity="1.3947774469852448e-01" nType="0">
        <Node pos="l" depth="1" NCoef="0" IVar="-1" Cut="0.0000000000000000e+00" cType="1" res="3.8277168641798198e-04" rms="4.9901458621025085e-01" purity="5.0195991992950439e-01" nType="-99"/>
        <Node pos="r" depth="1" NCoef="0" IVar="0" Cut="2.0711825561523438e+02" cType="1" res="-3.1785497069358826e-01" rms="3.0610513687133789e-01" purity="1.0426343977451324e-01" nType="0">
          <Node pos="l" depth="2" NCoef="0" IVar="-1" Cut="0.0000000000000000e+00" cType="1" res="-1.3503746129572392e-02" rms="3.6033400893211365e-01" purity="1.5417578816413879e-01" nType="-99"/>
          <Node pos="r" depth="2" NCoef="0" IVar="-1" Cut="0.0000000000000000e+00" cType="1" res="-1.2189132161438465e-02" rms="2.0995628833770752e-01" purity="4.6324118971824646e-02" nType="-99"/>
        </Node>
      </Node>
    </BinaryTree>
    <BinaryTree type="DecisionTree" boostWeight="1.0000000000000000e+00" itree="12">
      <Node pos="s" depth="0" NCoef="0" IVar="1" Cut="1.0007668286561966e-01" cType="1" res="-2.8333488106727600e-01" rms="3.4014391899108887e-01" purity="1.3947774469852448e-01" nType="0">
        <Node pos="l" depth="1" NCoef="0" IVar="-1" Cut="0.0000000000000000e+00" cType="1" res="-1.3265573652461171e-03" rms="4.9504661560058594e-01" purity="4.5825952291488647e-01" nType="-99"/>
        <Node pos="r" depth="1" NCoef="0" IVar="0" Cut="2.0711825561523438e+02" cType="1" res="-3.1558537483215332e-01" rms="3.0016171932220459e-01" purity="9.9286451935768127e-02" nType="0">
          <Node pos="l" depth="2" NCoef="0" IVar="-1" Cut="0.0000000000000000e+00" cType="1" res="-1.3436052948236465e-02" rms="3.5368201136589050e-01" purity="1.4657530188560486e-01" nType="-99"/>
          <Node pos="r" depth="2" NCoef="0" IVar="-1" Cut="0.0000000000000000e+00" cType="1" res="-1.2147600762546062e-02" rms="2.0610056817531586e-01" purity="4.4453565031290054e-02" nType="-99"/>
        </Node>
      </Node>
    </BinaryTree>
    <BinaryTree type="DecisionTree" boostWeight="1.0000000000000000e+00" itree="13">
      <Node pos="s" depth="0" NCoef="0" IVar="1" Cut="6.5572522580623627e-02" cType="1" res="-2.7773964405059814e-01" rms="3.3972275257110596e-01" purity="1.3947774469852448e-01" nType="0">
        <Node pos="l" depth="1" NCoef="0" IVar="-1" Cut="0.0000000000000000e+00" cType="1" res="2.3904289118945599e-03" rms="4.9812194705009460e-01" purity="5.4329556226730347e-01" nType="-99"/>
        <Node pos="r" depth="1" NCoef="0" IVar="0" Cut="2.0711825561523438e+02" cType="1" res="-3.0243572592735291e-01" rms="3.1094050407409668e-01" purity="1.0869290679693222e-01" nType="0">
          <Node pos="l" depth="2" NCoef="0" IVar="-1" Cut="0.0000000000000000e+00" cType="1" res="-1.2691048905253410e-02" rms="3.6515569686889648e-01" purity="1.6057144105434418e-01" nType="-99"/>
          <Node pos="r" depth="2" NCoef="0" IVar="-1" Cut="0.0000000000000000e+00" cType="1" res="-1.1928614228963852e-02" rms="2.1310053765773773e-01" purity="4.7967154532670975e-02" nType="-99"/>
        </Node>
      </Node>
    </BinaryTree>
    <BinaryTree type="DecisionTree" boostWeight="1.0000000000000000e+00" itree="14">
      <Node pos="s" depth="0" NCoef="0" IVar="1" Cut="1.0007668286561966e-01" cType="1" res="-2.7228996157646179e-01" rms="3.3927425742149353e-01" purity="1.3947774469852448e-01" nType="0">
        <Node pos="l" depth="1" NCoef="0" IVar="-1" Cut="0.0000000000000000e+00" cType="1" res="-1.2233463348820806e-03" rms="4.9439355731010437e-01" purity="4.5825952291488647e-01" nType="-99"/>
        <Node pos="r" depth="1" NCoef="0" IVar="0" Cut="2.0711825561523438e+02" cType="1" res="-3.0342075228691101e-01" rms="3.0024495720863342e-01" purity="9.9286451935768127e-02" nType="0">
          <Node pos="l" depth="2" NCoef="0" IVar="-1" Cut="0.0000000000000000e+00" cType="1" res="-1.2923382222652435e-02" rms="3.5368201136589050e-01" purity="1.4657530188560486e-01" nType="-99"/>
          <Node pos="r" depth="2" NCoef="0" IVar="-1" Cut="0.0000000000000000e+00" cType="1" res="-1.1866817250847816e-02" rms="2.0610058307647705e-01" purity="4.4453565031290054e-02" nType="-99"/>
        </Node>
      </Node>
    </BinaryTree>
    <BinaryTree type="DecisionTree" boostWeight="1.0000000000000000e+00" itree="15">
      <Node pos="s" depth="0" NCoef="0" IVar="1" Cut="6.5572522580623627e-02" cType="1" res="-2.6692506670951843e-01" rms="3.3887511491775513e-01" purity="1.3947774469852448e-01" nType="0">
        <Node pos="l" depth="1" NCoef="0" IVar="-1" Cut="0.0000000000000000e+00" cType="1" res="2.3602137807756662e-03" rms="4.9812194705009460e-01" purity="5.4329556226730347e-01" nType="-99"/>
        <Node pos="r" depth="1" NCoef="0" IVar="0" Cut="2.0711825561523438e+02" cType="1" res="-2.9075223207473755e-01" rms="3.1090223789215088e-01" purity="1.0869290679693222e-01" nType="0">
          <Node pos="l" depth="2" NCoef="0" IVar="-1" Cut="0.0000000000000000e+00" cType="1" res="-1.2193867936730385e-02" rms="3.6500373482704163e-01" purity="1.6057144105434418e-01" nType="-99"/>
          <Node pos="r" depth="2" NCoef="0" IVar="-1" Cut="0.0000000000000000e+00" cType="1" res="-1.1659984476864338e-02" rms="2.1306772530078888e-01" purity="4.7967154532670975e-02" nType="-99"/>
        </Node>
      </Node>
    </BinaryTree>
    <BinaryTree type="DecisionTree" boostWeight="1.0000000000000000e+00" itree="16">
      <Node pos="s" depth="0" NCoef="0" IVar="1" Cut="1.2718710303306580e-01" cType="1" res="-2.6170074939727783e-01" rms="3.3844950795173645e-01" purity="1.3947774469852448e-01" nType="0">
        <Node pos="l" depth="1" NCoef="0" IVar="-1" Cut="0.0000000000000000e+00" cType="1" res="-2.5868047960102558e-03" rms="4.8063370585441589e-01" purity="4.0183103084564209e-01" nType="-99"/>
        <Node pos="r" depth="1" NCoef="0" IVar="0" Cut="2.0699885559082031e+02" cType="1" res="-2.9687702655792236e-01" rms="2.9332572221755981e-01" purity="9.4193503260612488e-02" nType="0">
          <Node pos="l" depth="2" NCoef="0" IVar="-1" Cut="0.0000000000000000e+00" cType="1" res="-1.3044578954577446e-02" rms="3.4625282883644104e-01" purity="1.3929378986358643e-01" nType="-99"/>
          <Node pos="r" depth="2" NCoef="0" IVar="-1" Cut="0.0000000000000000e+00" cType="1" res="-1.1660791002213955e-02" rms="2.0165491104125977e-01" purity="4.2464822530746460e-02" nType="-99"/>
        </Node>
      </Node>
    </BinaryTree>
    <BinaryTree type="DecisionTree" boostWeight="1.0000000000000000e+00" itree="17">
      <Node pos="s" depth="0" NCoef="0" IVar="1" Cut="6.5572522580623627e-02" cType="1" res="-2.5649344921112061e-01" rms="3.3808556199073792e-01" purity="1.3947774469852448e-01" nType="0">
        <Node pos="l" depth="1" NCoef="0" IVar="-1" Cut="0.0000000000000000e+00" cType="1" res="2.3660797160118818e-03" rms="4.9812197685241699e-01" purity="5.4329556226730347e-01" nType="-99"/>
        <Node pos="r" depth="1" NCoef="0" IVar="0" Cut="2.0711825561523438e+02" cType="1" res="-2.7953398227691650e-01" rms="3.1081411242485046e-01" purity="1.0869290679693222e-01" nType="0">
          <Node pos="l" depth="2" NCoef="0" IVar="-1" Cut="0.0000000000000000e+00" cType="1" res="-1.1719464324414730e-02" rms="3.6479279398918152e-01" purity="1.6057144105434418e-01" nType="-99"/>
          <Node pos="r" depth="2" NCoef="0" IVar="-1" Cut="0.0000000000000000e+00" cType="1" res="-1.1409146711230278e-02" rms="2.1300667524337769e-01" purity="4.7967154532670975e-02" nType="-99"/>
        </Node>
      </Node>
    </BinaryTree>
    <BinaryTree type="DecisionTree" boostWeight="1.0000000000000000e+00" itree="18">
      <Node pos="s" depth="0" NCoef="0" IVar="1" Cut="1.0007668286561966e-01" cType="1" res="-2.5148677825927734e-01" rms="3.3767908811569214e-01" purity="1.3947774469852448e-01" nType="0">
        <Node pos="l" depth="1" NCoef="0" IVar="-1" Cut="0.0000000000000000e+00" cType="1" res="-9.9950388539582491e-04" rms="4.9319827556610107e-01" purity="4.5825952291488647e-01" nType="-99"/>
        <Node pos="r" depth="1" NCoef="0" IVar="0" Cut="2.0711825561523438e+02" cType="1" res="-2.8058564662933350e-01" rms="3.0028808116912842e-01" purity="9.9286451935768127e-02" nType="0">
          <Node pos="l" depth="2" NCoef="0" IVar="-1" Cut="0.0000000000000000e+00" cType="1" res="-1.1982672847807407e-02" rms="3.5358679294586182e-01" purity="1.4657530188560486e-01" nType="-99"/>
          <Node pos="r" depth="2" NCoef="0" IVar="-1" Cut="0.0000000000000000e+00" cType="1" res="-1.1357359588146210e-02" rms="2.0605979859828949e-01" purity="4.4453565031290054e-02" nType="-99"/>
        </Node>
      </Node>
    </BinaryTree>
    <BinaryTree type="DecisionTree" boostWeight="1.0000000000000000e+00" itree="19">
      <Node pos="s" depth="0" NCoef="0" IVar="1" Cut="1.2718710303306580e-01" cType="1" res="-2.4655485153198242e-01" rms="3.3731690049171448e-01" purity="1.3947774469852448e-01" nType="0">
        <Node pos="l" depth="1" NCoef="0" IVar="-1" Cut="0.0000000000000000e+00" cType="1" res="-2.3594782687723637e-03" rms="4.7970440983772278e-01" purity="4.0183103084564209e-01" nType="-99"/>
        <Node pos="r" depth="1" NCoef="0" IVar="0" Cut="2.0699885559082031e+02" cType="1" res="-2.8003552556037903e-01" rms="2.9340654611587524e-01" purity="9.4193503260612488e-02" nType="0">
          <Node pos="l" depth="2" NCoef="0" IVar="-1" Cut="0.0000000000000000e+00" cType="1" res="-1.2350933626294136e-02" rms="3.4625282883644104e-01" purity="1.3929378986358643e-01" nType="-99"/>
          <Node pos="r" depth="2" NCoef="0" IVar="-1" Cut="0.0000000000000000e+00" cType="1" res="-1.1293518356978893e-02" rms="2.0165504515171051e-01" purity="4.2464822530746460e-02" nType="-99"/>
        </Node>
      </Node>
    </BinaryTree>
    <BinaryTree type="DecisionTree" boostWeight="1.0000000000000000e+00" itree="20">
      <Node pos="s" depth="0" NCoef="0" IVar="1" Cut="3.9940860122442245e-02" cType="1" res="-2.4166500568389893e-01" rms="3.3697909116744995e-01" purity="1.3947774469852448e-01" nType="0">
        <Node pos="l" depth="1" NCoef="0" IVar="-1" Cut="0.0000000000000000e+00" cType="1" res="9.9870245903730392e-03" rms="4.7991907596588135e-01" purity="6.4027714729309082e-01" nType="-99"/>
        <Node pos="r" depth="1" NCoef="0" IVar="0" Cut="2.0711825561523438e+02" cType="1" res="-2.5813683867454529e-01" rms="3.1929072737693787e-01" purity="1.1804498732089996e-01" nType="0">
          <Node pos="l" depth="2" NCoef="0" IVar="-1" Cut="0.0000000000000000e+00" cType="1" res="-1.0666379705071449e-02" rms="3.7309256196022034e-01" purity="1.7436081171035767e-01" nType="-99"/>
          <Node pos="r" depth="2" NCoef="0" IVar="-1" Cut="0.0000000000000000e+00" cType="1" res="-1.0889912955462933e-02" rms="2.1892726421356201e-01" purity="5.1316004246473312e-02" nType="-99"/>
        </Node>
      </Node>
    </BinaryTree>
    <BinaryTree type="DecisionTree" boostWeight="1.0000000000000000e+00" itree="21">
      <Node pos="s" depth="0" NCoef="0" IVar="1" Cut="1.2718710303306580e-01" cType="1" res="-2.3705147206783295e-01" rms="3.3650943636894226e-01" purity="1.3947774469852448e-01" nType="0">
        <Node pos="l" depth="1" NCoef="0" IVar="-1" Cut="0.0000000000000000e+00" cType="1" res="-2.2069569677114487e-03" rms="4.7856292128562927e-01" purity="4.0183103084564209e-01" nType="-99"/>
        <Node pos="r" depth="1" NCoef="0" IVar="0" Cut="2.0699885559082031e+02" cType="1" res="-2.6950287818908691e-01" rms="2.9342669248580933e-01" purity="9.4193503260612488e-02" nType="0">
          <Node pos="l" depth="2" NCoef="0" IVar="-1" Cut="0.0000000000000000e+00" cType="1" res="-1.1925688013434410e-02" rms="3.4625282883644104e-01" purity="1.3929378986358643e-01" nType="-99"/>
          <Node pos="r" depth="2" NCoef="0" IVar="-1" Cut="0.0000000000000000e+00" cType="1" res="-1.1067311279475689e-02" rms="2.0165488123893738e-01" purity="4.2464822530746460e-02" nType="-99"/>
        </Node>
      </Node>
    </BinaryTree>
    <BinaryTree type="DecisionTree" boostWeight="1.0000000000000000e+00" itree="22">
      <Node pos="s" depth="0" NCoef="0" IVar="1" Cut="6.0150440782308578e-02" cType="1" res="-2.3236007988452911e-01" rms="3.3618643879890442e-01" purity="1.3947774469852448e-01" nType="0">
        <Node pos="l" depth="1" NCoef="0" IVar="-1" Cut="0.0000000000000000e+00" cType="1" res="2.9973753262311220e-03" rms="4.9570891261100769e-01" purity="5.5655312538146973e-01" nType="-99"/>
        <Node pos="r" depth="1" NCoef="0" IVar="0" Cut="2.0711825561523438e+02" cType="1" res="-2.5273582339286804e-01" rms="3.1208023428916931e-01" purity="1.1035547405481339e-01" nType="0">
          <Node pos="l" depth="2" NCoef="0" IVar="-1" Cut="0.0000000000000000e+00" cType="1" res="-1.0595555417239666e-02" rms="3.6573046445846558e-01" purity="1.6274476051330566e-01" nType="-99"/>
          <Node pos="r" depth="2" NCoef="0" IVar="-1" Cut="0.0000000000000000e+00" cType="1" res="-1.0866150259971619e-02" rms="2.1424145996570587e-01" purity="4.8758994787931442e-02" nType="-99"/>
        </Node>
      </Node>
    </BinaryTree>
    <BinaryTree type="DecisionTree" boostWeight="1.0000000000000000e+00" itree="23">
      <Node pos="s" depth="0" NCoef="0" IVar="0" Cut="2.0682815551757812e+02" cType="1" res="-2.2784502804279327e-01" rms="3.3581474423408508e-01" purity="1.3947774469852448e-01" nType="0">
        <Node pos="l" depth="1" NCoef="0" IVar="-1" Cut="0.0000000000000000e+00" cType="1" res="-8.9476862922310829e-03" rms="3.8889339566230774e-01" purity="2.0570011436939240e-01" nType="-99"/>
        <Node pos="r" depth="1" NCoef="0" IVar="1" Cut="2.6299195364117622e-02" cType="1" res="-3.1222113966941833e-01" rms="2.2950693964958191e-01" purity="5.8265853673219681e-02" nType="0">
          <Node pos="l" depth="2" NCoef="0" IVar="-1" Cut="0.0000000000000000e+00" cType="1" res="2.9887338168919086e-03" rms="4.9844929575920105e-01" purity="5.3934848308563232e-01" nType="-99"/>
          <Node pos="r" depth="2" NCoef="0" IVar="-1" Cut="0.0000000000000000e+00" cType="1" res="-1.0564574971795082e-02" rms="2.2240482270717621e-01" purity="5.3423922508955002e-02" nType="-99"/>
        </Node>
      </Node>
    </BinaryTree>
    <BinaryTree type="DecisionTree" boostWeight="1.0000000000000000e+00" itree="24">
      <Node pos="s" depth="0" NCoef="0" IVar="0" Cut="2.0682815551757812e+02" cType="1" res="-2.2341920435428619e-01" rms="3.3572870492935181e-01" purity="1.3947774469852448e-01" nType="0">
        <Node pos="l" depth="1" NCoef="0" IVar="-1" Cut="0.0000000000000000e+00" cType="1" res="-8.7612131610512733e-03" rms="3.8893198966979980e-01" purity="2.0570011436939240e-01" nType="-99"/>
        <Node pos="r" depth="1" NCoef="0" IVar="1" Cut="2.6299195364117622e-02" cType="1" res="-3.0739375948905945e-01" rms="2.2941379249095917e-01" purity="5.8265853673219681e-02" nType="0">
          <Node pos="l" depth="2" NCoef="0" IVar="-1" Cut="0.0000000000000000e+00" cType="1" res="2.8678113594651222e-03" rms="4.9844929575920105e-01" purity="5.3934848308563232e-01" nType="-99"/>
          <Node pos="r" depth="2" NCoef="0" IVar="-1" Cut="0.0000000000000000e+00" cType="1" res="-1.0458756238222122e-02" rms="2.2240772843360901e-01" purity="5.3423922508955002e-02" nType="-99"/>
        </Node>
      </Node>
    </BinaryTree>
    <BinaryTree type="DecisionTree" boostWeight="1.0000000000000000e+00" itree="25">
      <Node pos="s" depth="0" NCoef="0" IVar="1" Cut="1.2718710303306580e-01" cType="1" res="-2.1908488869667053e-01" rms="3.3564150333404541e-01" purity="1.3947774469852448e-01" nType="0">
        <Node pos="l" depth="1" NCoef="0" IVar="-1" Cut="0.0000000000000000e+00" cType="1" res="-1.6773133538663387e-03" rms="4.7762927412986755e-01" purity="4.0183103084564209e-01" nType="-99"/>
        <Node pos="r" depth="1" NCoef="0" IVar="0" Cut="2.0699885559082031e+02" cType="1" res="-2.5051775574684143e-01" rms="2.9327681660652161e-01" purity="9.4193503260612488e-02" nType="0">
          <Node pos="l" depth="2" NCoef="0" IVar="-1" Cut="0.0000000000000000e+00" cType="1" res="-1.1196251027286053e-02" rms="3.4625223278999329e-01" purity="1.3929378986358643e-01" nType="-99"/>
          <Node pos="r" depth="2" NCoef="0" IVar="-1" Cut="0.0000000000000000e+00" cType="1" res="-1.0650629177689552e-02" rms="2.0165459811687469e-01" purity="4.2464822530746460e-02" nType="-99"/>
        </Node>
      </Node>
    </BinaryTree>
    <BinaryTree type="DecisionTree" boostWeight="1.0000000000000000e+00" itree="26">
      <Node pos="s" depth="0" NCoef="0" IVar="0" Cut="2.0682815551757812e+02" cType="1" res="-2.1476538479328156e-01" rms="3.3532792329788208e-01" purity="1.3947774469852448e-01" nType="0">
        <Node pos="l" depth="1" NCoef="0" IVar="-1" Cut="0.0000000000000000e+00" cType="1" res="-8.3883637562394142e-03" rms="3.8854902982711792e-01" purity="2.0570011436939240e-01" nType="-99"/>
        <Node pos="r" depth="1" NCoef="0" IVar="1" Cut="1.8446648493409157e-02" cType="1" res="-2.9825776815414429e-01" rms="2.2922410070896149e-01" purity="5.8265853673219681e-02" nType="0">
          <Node pos="l" depth="2" NCoef="0" IVar="-1" Cut="0.0000000000000000e+00" cType="1" res="7.0186853408813477e-02" rms="4.7104117274284363e-01" purity="6.6769081354141235e-01" nType="-99"/>
          <Node pos="r" depth="2" NCoef="0" IVar="-1" Cut="0.0000000000000000e+00" cType="1" res="-1.0242710821330547e-02" rms="2.2476671636104584e-01" purity="5.5048923939466476e-02" nType="-99"/>
        </Node>
      </Node>
    </BinaryTree>
    <BinaryTree type="DecisionTree" boostWeight="1.0000000000000000e+00" itree="27">
      <Node pos="s" depth="0" NCoef="0" IVar="0" Cut="2.0682815551757812e+02" cType="1" res="-2.1068146824836731e-01" rms="3.3515772223472595e-01" purity="1.3947774469852448e-01" nType="0">
        <Node pos="l" depth="1" NCoef="0" IVar="-1" Cut="0.0000000000000000e+00" cType="1" res="-8.2141580060124397e-03" rms="3.8859081268310547e-01" purity="2.0570011436939240e-01" nType="-99"/>
        <Node pos="r" depth="1" NCoef="0" IVar="1" Cut="2.6299195364117622e-02" cType="1" res="-2.9380339384078979e-01" rms="2.2882708907127380e-01" purity="5.8265853673219681e-02" nType="0">
          <Node pos="l" depth="2" NCoef="0" IVar="-1" Cut="0.0000000000000000e+00" cType="1" res="1.5222650254145265e-03" rms="4.9338090419769287e-01" purity="5.3934848308563232e-01" nType="-99"/>
          <Node pos="r" depth="2" NCoef="0" IVar="-1" Cut="0.0000000000000000e+00" cType="1" res="-1.0165826417505741e-02" rms="2.2236351668834686e-01" purity="5.3423922508955002e-02" nType="-99"/>
        </Node>
      </Node>
    </BinaryTree>
    <BinaryTree type="DecisionTree" boostWeight="1.0000000000000000e+00" itree="28">
      <Node pos="s" depth="0" NCoef="0" IVar="0" Cut="2.0682815551757812e+02" cType="1" res="-2.0661057531833649e-01" rms="3.3506822586059570e-01" purity="1.3947774469852448e-01" nType="0">
        <Node pos="l" depth="1" NCoef="0" IVar="-1" Cut="0.0000000000000000e+00" cType="1" res="-8.0436430871486664e-03" rms="3.8863334059715271e-01" purity="2.0570011436939240e-01" nType="-99"/>
        <Node pos="r" depth="1" NCoef="0" IVar="1" Cut="2.6299195364117622e-02" cType="1" res="-2.8925922513008118e-01" rms="2.2875787317752838e-01" purity="5.8265853673219681e-02" nType="0">
          <Node pos="l" depth="2" NCoef="0" IVar="-1" Cut="0.0000000000000000e+00" cType="1" res="1.4608192723244429e-03" rms="4.9338147044181824e-01" purity="5.3934848308563232e-01" nType="-99"/>
          <Node pos="r" depth="2" NCoef="0" IVar="-1" Cut="0.0000000000000000e+00" cType="1" res="-1.0069517418742180e-02" rms="2.2236670553684235e-01" purity="5.3423922508955002e-02" nType="-99"/>
        </Node>
      </Node>
    </BinaryTree>
    <BinaryTree type="DecisionTree" boostWeight="1.0000000000000000e+00" itree="29">
      <Node pos="s" depth="0" NCoef="0" IVar="1" Cut="1.0007668286561966e-01" cType="1" res="-2.0262350142002106e-01" rms="3.3497786521911621e-01" purity="1.3947774469852448e-01" nType="0">
        <Node pos="l" depth="1" NCoef="0" IVar="-1" Cut="0.0000000000000000e+00" cType="1" res="3.1110810232348740e-04" rms="4.9036550521850586e-01" purity="4.5825952291488647e-01" nType="-99"/>
        <Node pos="r" depth="1" NCoef="0" IVar="0" Cut="2.0711825561523438e+02" cType="1" res="-2.2897262871265411e-01" rms="2.9973307251930237e-01" purity="9.9286451935768127e-02" nType="0">
          <Node pos="l" depth="2" NCoef="0" IVar="-1" Cut="0.0000000000000000e+00" cType="1" res="-9.9923070520162582e-03" rms="3.5335189104080200e-01" purity="1.4657530188560486e-01" nType="-99"/>
          <Node pos="r" depth="2" NCoef="0" IVar="-1" Cut="0.0000000000000000e+00" cType="1" res="-1.0224120691418648e-02" rms="2.0596398413181305e-01" purity="4.4453565031290054e-02" nType="-99"/>
        </Node>
      </Node>
    </BinaryTree>
    <BinaryTree type="DecisionTree" boostWeight="1.0000000000000000e+00" itree="30">
      <Node pos="s" depth="0" NCoef="0" IVar="0" Cut="2.0682815551757812e+02" cType="1" res="-1.9869941473007202e-01" rms="3.3464828133583069e-01" purity="1.3947774469852448e-01" nType="0">
        <Node pos="l" depth="1" NCoef="0" IVar="-1" Cut="0.0000000000000000e+00" cType="1" res="-7.7081178314983845e-03" rms="3.8826978206634521e-01" purity="2.0570011436939240e-01" nType="-99"/>
        <Node pos="r" depth="1" NCoef="0" IVar="1" Cut="2.6299195364117622e-02" cType="1" res="-2.8063666820526123e-01" rms="2.2861099243164062e-01" purity="5.8265853673219681e-02" nType="0">
          <Node pos="l" depth="2" NCoef="0" IVar="-1" Cut="0.0000000000000000e+00" cType="1" res="1.3893110444769263e-03" rms="4.9338218569755554e-01" purity="5.3934848308563232e-01" nType="-99"/>
          <Node pos="r" depth="2" NCoef="0" IVar="-1" Cut="0.0000000000000000e+00" cType="1" res="-9.8916273564100266e-03" rms="2.2234557569026947e-01" purity="5.3423922508955002e-02" nType="-99"/>
        </Node>
      </Node>
    </BinaryTree>
    <BinaryTree type="DecisionTree" boostWeight="1.0000000000000000e+00" itree="31">
      <Node pos="s" depth="0" NCoef="0" IVar="0" Cut="2.0682815551757812e+02" cType="1" res="-1.9487601518630981e-01" rms="3.3455488085746765e-01" purity="1.3947774469852448e-01" nType="0">
        <Node pos="l" depth="1" NCoef="0" IVar="-1" Cut="0.0000000000000000e+00" cType="1" res="-7.5480961240828037e-03" rms="3.8831421732902527e-01" purity="2.0570011436939240e-01" nType="-99"/>
        <Node pos="r" depth="1" NCoef="0" IVar="1" Cut="2.6299195364117622e-02" cType="1" res="-2.7629771828651428e-01" rms="2.2854849696159363e-01" purity="5.8265853673219681e-02" nType="0">
          <Node pos="l" depth="2" NCoef="0" IVar="-1" Cut="0.0000000000000000e+00" cType="1" res="1.3332543894648552e-03" rms="4.9338272213935852e-01" purity="5.3934848308563232e-01" nType="-99"/>
          <Node pos="r" depth="2" NCoef="0" IVar="-1" Cut="0.0000000000000000e+00" cType="1" res="-9.8014064133167267e-03" rms="2.2234858572483063e-01" purity="5.3423922508955002e-02" nType="-99"/>
        </Node>
      </Node>
    </BinaryTree>
    <BinaryTree type="DecisionTree" boostWeight="1.0000000000000000e+00" itree="32">
      <Node pos="s" depth="0" NCoef="0" IVar="1" Cut="3.9940860122442245e-02" cType="1" res="-1.9113098084926605e-01" rms="3.3446094393730164e-01" purity="1.3947774469852448e-01" nType="0">
        <Node pos="l" depth="1" NCoef="0" IVar="-1" Cut="0.0000000000000000e+00" cType="1" res="1.1367539875209332e-02" rms="4.8017436265945435e-01" purity="6.4027714729309082e-01" nType="-99"/>
        <Node pos="r" depth="1" NCoef="0" IVar="0" Cut="2.0711825561523438e+02" cType="1" res="-2.0626588165760040e-01" rms="3.1812348961830139e-01" purity="1.1804498732089996e-01" nType="0">
          <Node pos="l" depth="2" NCoef="0" IVar="-1" Cut="0.0000000000000000e+00" cType="1" res="-8.5887731984257698e-03" rms="3.7241998314857483e-01" purity="1.7436081171035767e-01" nType="-99"/>
          <Node pos="r" depth="2" NCoef="0" IVar="-1" Cut="0.0000000000000000e+00" cType="1" res="-9.7258174791932106e-03" rms="2.1884213387966156e-01" purity="5.1316004246473312e-02" nType="-99"/>
        </Node>
      </Node>
    </BinaryTree>
    <BinaryTree type="DecisionTree" boostWeight="1.0000000000000000e+00" itree="33">
      <Node pos="s" depth="0" NCoef="0" IVar="0" Cut="2.0682815551757812e+02" cType="1" res="-1.8756204843521118e-01" rms="3.3401435613632202e-01" purity="1.3947774469852448e-01" nType="0">
        <Node pos="l" depth="1" NCoef="0" IVar="-1" Cut="0.0000000000000000e+00" cType="1" res="-7.2465389966964722e-03" rms="3.8787791132926941e-01" purity="2.0570011436939240e-01" nType="-99"/>
        <Node pos="r" depth="1" NCoef="0" IVar="1" Cut="1.7465079203248024e-02" cType="1" res="-2.6797169446945190e-01" rms="2.2834736108779907e-01" purity="5.8265853673219681e-02" nType="0">
          <Node pos="l" depth="2" NCoef="0" IVar="-1" Cut="0.0000000000000000e+00" cType="1" res="5.8806143701076508e-02" rms="4.6559679508209229e-01" purity="6.8226253986358643e-01" nType="-99"/>
          <Node pos="r" depth="2" NCoef="0" IVar="-1" Cut="0.0000000000000000e+00" cType="1" res="-9.6115684136748314e-03" rms="2.2477415204048157e-01" purity="5.5177070200443268e-02" nType="-99"/>
        </Node>
      </Node>
    </BinaryTree>
    <BinaryTree type="DecisionTree" boostWeight="1.0000000000000000e+00" itree="34">
      <Node pos="s" depth="0" NCoef="0" IVar="0" Cut="2.0682815551757812e+02" cType="1" res="-1.8402098119258881e-01" rms="3.3386650681495667e-01" purity="1.3947774469852448e-01" nType="0">
        <Node pos="l" depth="1" NCoef="0" IVar="-1" Cut="0.0000000000000000e+00" cType="1" res="-7.0957890711724758e-03" rms="3.8792335987091064e-01" purity="2.0570011436939240e-01" nType="-99"/>
        <Node pos="r" depth="1" NCoef="0" IVar="2" Cut="-2.6664788722991943e+00" cType="1" res="-2.6395061612129211e-01" rms="2.2807703912258148e-01" purity="5.8265853673219681e-02" nType="0">
          <Node pos="l" depth="2" NCoef="0" IVar="-1" Cut="0.0000000000000000e+00" cType="1" res="-3.2226296607404947e-03" rms="4.5041993260383606e-01" purity="3.2784619927406311e-01" nType="-99"/>
          <Node pos="r" depth="2" NCoef="0" IVar="-1" Cut="0.0000000000000000e+00" cType="1" res="-9.6175521612167358e-03" rms="2.1902467310428619e-01" purity="5.2439089864492416e-02" nType="-99"/>
        </Node>
      </Node>
    </BinaryTree>
    <BinaryTree type="DecisionTree" boostWeight="1.0000000000000000e+00" itree="35">
      <Node pos="s" depth="0" NCoef="0" IVar="1" Cut="1.4197459816932678e-01" cType="1" res="-1.8048985302448273e-01" rms="3.3377242088317871e-01" purity="1.3947774469852448e-01" nType="0">
        <Node pos="l" depth="1" NCoef="0" IVar="-1" Cut="0.0000000000000000e+00" cType="1" res="-8.4665685426443815e-04" rms="4.6753290295600891e-01" purity="3.7715917825698853e-01" nType="-99"/>
        <Node pos="r" depth="1" NCoef="0" IVar="0" Cut="2.0699885559082031e+02" cType="1" res="-2.1282680332660675e-01" rms="2.8920894861221313e-01" purity="9.1790489852428436e-02" nType="0">
          <Node pos="l" depth="2" NCoef="0" IVar="-1" Cut="0.0000000000000000e+00" cType="1" res="-9.9829966202378273e-03" rms="3.4221351146697998e-01" purity="1.3546198606491089e-01" nType="-99"/>
          <Node pos="r" depth="2" NCoef="0" IVar="-1" Cut="0.0000000000000000e+00" cType="1" res="-9.9834557622671127e-03" rms="1.9960089027881622e-01" purity="4.1571322828531265e-02" nType="-99"/>
        </Node>
      </Node>
    </BinaryTree>
    <BinaryTree type="DecisionTree" boostWeight="1.0000000000000000e+00" itree="36">
      <Node pos="s" depth="0" NCoef="0" IVar="0" Cut="2.0682815551757812e+02" cType="1" res="-1.7691473662853241e-01" rms="3.3346557617187500e-01" purity="1.3947774469852448e-01" nType="0">
        <Node pos="l" depth="1" NCoef="0" IVar="-1" Cut="0.0000000000000000e+00" cType="1" res="-6.7844749428331852e-03" rms="3.8757374882698059e-01" purity="2.0570011436939240e-01" nType="-99"/>
        <Node pos="r" depth="1" NCoef="0" IVar="2" Cut="-2.6664788722991943e+00" cType="1" res="-2.5613772869110107e-01" rms="2.2794766724109650e-01" purity="5.8265853673219681e-02" nType="0">
          <Node pos="l" depth="2" NCoef="0" IVar="-1" Cut="0.0000000000000000e+00" cType="1" res="-3.1123775988817215e-03" rms="4.5038315653800964e-01" purity="3.2784619927406311e-01" nType="-99"/>
          <Node pos="r" depth="2" NCoef="0" IVar="-1" Cut="0.0000000000000000e+00" cType="1" res="-9.4605013728141785e-03" rms="2.1898250281810760e-01" purity="5.2439089864492416e-02" nType="-99"/>
        </Node>
      </Node>
    </BinaryTree>
    <BinaryTree type="DecisionTree" boostWeight="1.0000000000000000e+00" itree="37">
      <Node pos="s" depth="0" NCoef="0" IVar="0" Cut="2.0682815551757812e+02" cType="1" res="-1.7353093624114990e-01" rms="3.3336883783340454e-01" purity="1.3947774469852448e-01" nType="0">
        <Node pos="l" depth="1" NCoef="0" IVar="-1" Cut="0.0000000000000000e+00" cType="1" res="-6.6427467390894890e-03" rms="3.8762030005455017e-01" purity="2.0570011436939240e-01" nType="-99"/>
        <Node pos="r" depth="1" NCoef="0" IVar="2" Cut="-2.6664788722991943e+00" cType="1" res="-2.5216224789619446e-01" rms="2.2790750861167908e-01" purity="5.8265853673219681e-02" nType="0">
          <Node pos="l" depth="2" NCoef="0" IVar="-1" Cut="0.0000000000000000e+00" cType="1" res="-3.0548956710845232e-03" rms="4.5039060711860657e-01" purity="3.2784619927406311e-01" nType="-99"/>
          <Node pos="r" depth="2" NCoef="0" IVar="-1" Cut="0.0000000000000000e+00" cType="1" res="-9.3801468610763550e-03" rms="2.1898601949214935e-01" purity="5.2439089864492416e-02" nType="-99"/>
        </Node>
      </Node>
    </BinaryTree>
    <BinaryTree type="DecisionTree" boostWeight="1.0000000000000000e+00" itree="38">
      <Node pos="s" depth="0" NCoef="0" IVar="1" Cut="1.4197459816932678e-01" cType="1" res="-1.7021602392196655e-01" rms="3.3327212929725647e-01" purity="1.3947774469852448e-01" nType="0">
        <Node pos="l" depth="1" NCoef="0" IVar="-1" Cut="0.0000000000000000e+00" cType="1" res="-5.2963575581088662e-04" rms="4.6724009513854980e-01" purity="3.7715917825698853e-01" nType="-99"/>
        <Node pos="r" depth="1" NCoef="0" IVar="0" Cut="2.0699885559082031e+02" cType="1" res="-2.0196256041526794e-01" rms="2.8900256752967834e-01" purity="9.1790489852428436e-02" nType="0">
          <Node pos="l" depth="2" NCoef="0" IVar="-1" Cut="0.0000000000000000e+00" cType="1" res="-9.5768170431256294e-03" rms="3.4221279621124268e-01" purity="1.3546198606491089e-01" nType="-99"/>
          <Node pos="r" depth="2" NCoef="0" IVar="-1" Cut="0.0000000000000000e+00" cType="1" res="-9.7491536289453506e-03" rms="1.9957526028156281e-01" purity="4.1571322828531265e-02" nType="-99"/>
        </Node>
      </Node>
    </BinaryTree>
    <BinaryTree type="DecisionTree" boostWeight="1.0000000000000000e+00" itree="39">
      <Node pos="s" depth="0" NCoef="0" IVar="0" Cut="2.0682815551757812e+02" cType="1" res="-1.6685070097446442e-01" rms="3.3297261595726013e-01" purity="1.3947774469852448e-01" nType="0">
        <Node pos="l" depth="1" NCoef="0" IVar="-1" Cut="0.0000000000000000e+00" cType="1" res="-6.3477838411927223e-03" rms="3.8728541135787964e-01" purity="2.0570011436939240e-01" nType="-99"/>
        <Node pos="r" depth="1" NCoef="0" IVar="2" Cut="-2.6664788722991943e+00" cType="1" res="-2.4472138285636902e-01" rms="2.2779023647308350e-01" purity="5.8265853673219681e-02" nType="0">
          <Node pos="l" depth="2" NCoef="0" IVar="-1" Cut="0.0000000000000000e+00" cType="1" res="-2.9532909393310547e-03" rms="4.5035871863365173e-01" purity="3.2784619927406311e-01" nType="-99"/>
          <Node pos="r" depth="2" NCoef="0" IVar="-1" Cut="0.0000000000000000e+00" cType="1" res="-9.2321429401636124e-03" rms="2.1895037591457367e-01" purity="5.2439089864492416e-02" nType="-99"/>
        </Node>
      </Node>
    </BinaryTree>
    <BinaryTree type="DecisionTree" boostWeight="1.0000000000000000e+00" itree="40">
      <Node pos="s" depth="0" NCoef="0" IVar="1" Cut="5.7192940264940262e-02" cType="1" res="-1.6367390751838684e-01" rms="3.3287376165390015e-01" purity="1.3947774469852448e-01" nType="0">
        <Node pos="l" depth="1" NCoef="0" IVar="-1" Cut="0.0000000000000000e+00" cType="1" res="5.6071258150041103e-03" rms="4.9179211258888245e-01" purity="5.6466811895370483e-01" nType="-99"/>
        <Node pos="r" depth="1" NCoef="0" IVar="0" Cut="2.0711825561523438e+02" cType="1" res="-1.8168625235557556e-01" rms="3.1129148602485657e-01" purity="1.1132019013166428e-01" nType="0">
          <Node pos="l" depth="2" NCoef="0" IVar="-1" Cut="0.0000000000000000e+00" cType="1" res="-7.7978451736271381e-03" rms="3.6601176857948303e-01" purity="1.6395282745361328e-01" nType="-99"/>
          <Node pos="r" depth="2" NCoef="0" IVar="-1" Cut="0.0000000000000000e+00" cType="1" res="-9.2910351231694221e-03" rms="2.1472913026809692e-01" purity="4.9208518117666245e-02" nType="-99"/>
        </Node>
      </Node>
    </BinaryTree>
    <BinaryTree type="DecisionTree" boostWeight="1.0000000000000000e+00" itree="41">
      <Node pos="s" depth="0" NCoef="0" IVar="0" Cut="2.0682815551757812e+02" cType="1" res="-1.6057053208351135e-01" rms="3.3252027630805969e-01" purity="1.3947774469852448e-01" nType="0">
        <Node pos="l" depth="1" NCoef="0" IVar="-1" Cut="0.0000000000000000e+00" cType="1" res="-6.0826661065220833e-03" rms="3.8694518804550171e-01" purity="2.0570011436939240e-01" nType="-99"/>
        <Node pos="r" depth="1" NCoef="0" IVar="2" Cut="-2.6664788722991943e+00" cType="1" res="-2.3736073076725006e-01" rms="2.2769400477409363e-01" purity="5.8265853673219681e-02" nType="0">
          <Node pos="l" depth="2" NCoef="0" IVar="-1" Cut="0.0000000000000000e+00" cType="1" res="-2.8433995321393013e-03" rms="4.5011070370674133e-01" purity="3.2784619927406311e-01" nType="-99"/>
          <Node pos="r" depth="2" NCoef="0" IVar="-1" Cut="0.0000000000000000e+00" cType="1" res="-9.0871695429086685e-03" rms="2.1893729269504547e-01" purity="5.2439089864492416e-02" nType="-99"/>
        </Node>
      </Node>
    </BinaryTree>
    <BinaryTree type="DecisionTree" boostWeight="1.0000000000000000e+00" itree="42">
      <Node pos="s" depth="0" NCoef="0" IVar="1" Cut="1.0599168390035629e-01" cType="1" res="-1.5752165019512177e-01" rms="3.3242091536521912e-01" purity="1.3947774469852448e-01" nType="0">
        <Node pos="l" depth="1" NCoef="0" IVar="-1" Cut="0.0000000000000000e+00" cType="1" res="1.4113707002252340e-03" rms="4.8375168442726135e-01" purity="4.4318965077400208e-01" nType="-99"/>
        <Node pos="r" depth="1" NCoef="0" IVar="0" Cut="2.0711825561523438e+02" cType="1" res="-1.8293374776840210e-01" rms="2.9714238643646240e-01" purity="9.8110273480415344e-02" nType="0">
          <Node pos="l" depth="2" NCoef="0" IVar="-1" Cut="0.0000000000000000e+00" cType="1" res="-8.3508044481277466e-03" rms="3.5142093896865845e-01" purity="1.4473004639148712e-01" nType="-99"/>
          <Node pos="r" depth="2" NCoef="0" IVar="-1" Cut="0.0000000000000000e+00" cType="1" res="-9.2493724077939987e-03" rms="2.0506514608860016e-01" purity="4.4101320207118988e-02" nType="-99"/>
        </Node>
      </Node>
    </BinaryTree>
    <BinaryTree type="DecisionTree" boostWeight="1.0000000000000000e+00" itree="43">
      <Node pos="s" depth="0" NCoef="0" IVar="0" Cut="2.0682815551757812e+02" cType="1" res="-1.5449689328670502e-01" rms="3.3211743831634521e-01" purity="1.3947774469852448e-01" nType="0">
        <Node pos="l" depth="1" NCoef="0" IVar="-1" Cut="0.0000000000000000e+00" cType="1" res="-5.8179423213005066e-03" rms="3.8663268089294434e-01" purity="2.0570011436939240e-01" nType="-99"/>
        <Node pos="r" depth="1" NCoef="0" IVar="2" Cut="2.9164688587188721e+00" cType="0" res="-2.3034965991973877e-01" rms="2.2760656476020813e-01" purity="5.8265853673219681e-02" nType="0">
          <Node pos="l" depth="2" NCoef="0" IVar="-1" Cut="0.0000000000000000e+00" cType="1" res="2.7598529122769833e-03" rms="4.8989412188529968e-01" purity="4.6647170186042786e-01" nType="-99"/>
          <Node pos="r" depth="2" NCoef="0" IVar="-1" Cut="0.0000000000000000e+00" cType="1" res="-8.8792070746421814e-03" rms="2.2252583503723145e-01" purity="5.4636910557746887e-02" nType="-99"/>
        </Node>
      </Node>
    </BinaryTree>
    <BinaryTree type="DecisionTree" boostWeight="1.0000000000000000e+00" itree="44">
      <Node pos="s" depth="0" NCoef="0" IVar="0" Cut="2.0682815551757812e+02" cType="1" res="-1.5158000588417053e-01" rms="3.3201560378074646e-01" purity="1.3947774469852448e-01" nType="0">
        <Node pos="l" depth="1" NCoef="0" IVar="-1" Cut="0.0000000000000000e+00" cType="1" res="-5.6945951655507088e-03" rms="3.8667947053909302e-01" purity="2.0570011436939240e-01" nType="-99"/>
        <Node pos="r" depth="1" NCoef="0" IVar="2" Cut="-2.6664788722991943e+00" cType="1" res="-2.2679501771926880e-01" rms="2.2756256163120270e-01" purity="5.8265853673219681e-02" nType="0">
          <Node pos="l" depth="2" NCoef="0" IVar="-1" Cut="0.0000000000000000e+00" cType="1" res="-2.5844245683401823e-03" rms="4.4992110133171082e-01" purity="3.2784619927406311e-01" nType="-99"/>
          <Node pos="r" depth="2" NCoef="0" IVar="-1" Cut="0.0000000000000000e+00" cType="1" res="-8.8809225708246231e-03" rms="2.1887499094009399e-01" purity="5.2439089864492416e-02" nType="-99"/>
        </Node>
      </Node>
    </BinaryTree>
    <BinaryTree type="DecisionTree" boostWeight="1.0000000000000000e+00" itree="45">
      <Node pos="s" depth="0" NCoef="0" IVar="1" Cut="1.6760626435279846e-01" cType="1" res="-1.4871425926685333e-01" rms="3.3191537857055664e-01" purity="1.3947774469852448e-01" nType="0">
        <Node pos="l" depth="1" NCoef="0" IVar="-1" Cut="0.0000000000000000e+00" cType="1" res="-5.6728313211351633e-04" rms="4.5445197820663452e-01" purity="3.4435805678367615e-01" nType="-99"/>
        <Node pos="r" depth="1" NCoef="0" IVar="0" Cut="2.0699885559082031e+02" cType="1" res="-1.8272045254707336e-01" rms="2.8328779339790344e-01" purity="8.8141888380050659e-02" nType="0">
          <Node pos="l" depth="2" NCoef="0" IVar="-1" Cut="0.0000000000000000e+00" cType="1" res="-9.1861225664615631e-03" rms="3.3620578050613403e-01" purity="1.2991552054882050e-01" nType="-99"/>
          <Node pos="r" depth="2" NCoef="0" IVar="-1" Cut="0.0000000000000000e+00" cType="1" res="-9.4615956768393517e-03" rms="1.9659087061882019e-01" purity="4.0292251855134964e-02" nType="-99"/>
        </Node>
      </Node>
    </BinaryTree>
    <BinaryTree type="DecisionTree" boostWeight="1.0000000000000000e+00" itree="46">
      <Node pos="s" depth="0" NCoef="0" IVar="1" Cut="3.7476275116205215e-02" cType="1" res="-1.4573410153388977e-01" rms="3.3163550496101379e-01" purity="1.3947774469852448e-01" nType="0">
        <Node pos="l" depth="1" NCoef="0" IVar="-1" Cut="0.0000000000000000e+00" cType="1" res="1.3485418632626534e-02" rms="4.7555741667747498e-01" purity="6.5559637546539307e-01" nType="-99"/>
        <Node pos="r" depth="1" NCoef="0" IVar="0" Cut="2.0711825561523438e+02" cType="1" res="-1.5906211733818054e-01" rms="3.1736236810684204e-01" purity="1.1919634044170380e-01" nType="0">
          <Node pos="l" depth="2" NCoef="0" IVar="-1" Cut="0.0000000000000000e+00" cType="1" res="-6.6437670029699802e-03" rms="3.7257239222526550e-01" purity="1.7624042928218842e-01" nType="-99"/>
          <Node pos="r" depth="2" NCoef="0" IVar="-1" Cut="0.0000000000000000e+00" cType="1" res="-8.6968820542097092e-03" rms="2.1890440583229065e-01" purity="5.1488071680068970e-02" nType="-99"/>
        </Node>
      </Node>
    </BinaryTree>
    <BinaryTree type="DecisionTree" boostWeight="1.0000000000000000e+00" itree="47">
      <Node pos="s" depth="0" NCoef="0" IVar="0" Cut="2.0682815551757812e+02" cType="1" res="-1.4308674633502960e-01" rms="3.3121603727340698e-01" purity="1.3947774469852448e-01" nType="0">
        <Node pos="l" depth="1" NCoef="0" IVar="-1" Cut="0.0000000000000000e+00" cType="1" res="-5.3192600607872009e-03" rms="3.8594388961791992e-01" purity="2.0570011436939240e-01" nType="-99"/>
        <Node pos="r" depth="1" NCoef="0" IVar="0" Cut="2.3338731384277344e+02" cType="1" res="-2.1689581871032715e-01" rms="2.2733543813228607e-01" purity="5.8265853673219681e-02" nType="0">
          <Node pos="l" depth="2" NCoef="0" IVar="-1" Cut="0.0000000000000000e+00" cType="1" res="-9.7683379426598549e-03" rms="2.8767332434654236e-01" purity="1.0080683231353760e-01" nType="-99"/>
          <Node pos="r" depth="2" NCoef="0" IVar="-1" Cut="0.0000000000000000e+00" cType="1" res="-8.3120204508304596e-03" rms="2.0165830850601196e-01" purity="4.4214241206645966e-02" nType="-99"/>
        </Node>
      </Node>
    </BinaryTree>
    <BinaryTree type="DecisionTree" boostWeight="1.0000000000000000e+00" itree="48">
      <Node pos="s" depth="0" NCoef="0" IVar="1" Cut="1.4690376818180084e-01" cType="1" res="-1.4037020504474640e-01" rms="3.3113124966621399e-01" purity="1.3947774469852448e-01" nType="0">
        <Node pos="l" depth="1" NCoef="0" IVar="-1" Cut="0.0000000000000000e+00" cType="1" res="1.7198108253069222e-04" rms="4.6221414208412170e-01" purity="3.7002736330032349e-01" nType="-99"/>
        <Node pos="r" depth="1" NCoef="0" IVar="0" Cut="2.0699885559082031e+02" cType="1" res="-1.7063784599304199e-01" rms="2.8727883100509644e-01" purity="9.1058559715747833e-02" nType="0">
          <Node pos="l" depth="2" NCoef="0" IVar="-1" Cut="0.0000000000000000e+00" cType="1" res="-8.4391562268137932e-03" rms="3.4100395441055298e-01" purity="1.3437157869338989e-01" nType="-99"/>
          <Node pos="r" depth="2" NCoef="0" IVar="-1" Cut="0.0000000000000000e+00" cType="1" res="-9.0461717918515205e-03" rms="1.9912847876548767e-01" purity="4.1394077241420746e-02" nType="-99"/>
        </Node>
      </Node>
    </BinaryTree>
    <BinaryTree type="DecisionTree" boostWeight="1.0000000000000000e+00" itree="49">
      <Node pos="s" depth="0" NCoef="0" IVar="0" Cut="2.0682815551757812e+02" cType="1" res="-1.3761061429977417e-01" rms="3.3086368441581726e-01" purity="1.3947774469852448e-01" nType="0">
        <Node pos="l" depth="1" NCoef="0" IVar="-1" Cut="0.0000000000000000e+00" cType="1" res="-5.0699082203209400e-03" rms="3.8565522432327271e-01" purity="2.0570011436939240e-01" nType="-99"/>
        <Node pos="r" depth="1" NCoef="0" IVar="0" Cut="2.3338731384277344e+02" cType="1" res="-2.1052061021327972e-01" rms="2.2732056677341461e-01" purity="5.8265853673219681e-02" nType="0">
          <Node pos="l" depth="2" NCoef="0" IVar="-1" Cut="0.0000000000000000e+00" cType="1" res="-9.5425462350249290e-03" rms="2.8750655055046082e-01" purity="1.0080683231353760e-01" nType="-99"/>
          <Node pos="r" depth="2" NCoef="0" IVar="-1" Cut="0.0000000000000000e+00" cType="1" res="-8.2061821594834328e-03" rms="2.0167274773120880e-01" purity="4.4214241206645966e-02" nType="-99"/>
        </Node>
      </Node>
    </BinaryTree>
    <BinaryTree type="DecisionTree" boostWeight="1.0000000000000000e+00" itree="50">
      <Node pos="s" depth="0" NCoef="0" IVar="0" Cut="2.1425212097167969e+02" cType="1" res="-1.3500808179378510e-01" rms="3.3077746629714966e-01" purity="1.3947774469852448e-01" nType="0">
        <Node pos="l" depth="1" NCoef="0" IVar="-1" Cut="0.0000000000000000e+00" cType="1" res="-5.1976786926388741e-03" rms="3.8194167613983154e-01" purity="2.0069169998168945e-01" nType="-99"/>
        <Node pos="r" depth="1" NCoef="0" IVar="2" Cut="2.9164688587188721e+00" cType="0" res="-2.1273703873157501e-01" rms="2.1762795746326447e-01" purity="5.2601657807826996e-02" nType="0">
          <Node pos="l" depth="2" NCoef="0" IVar="-1" Cut="0.0000000000000000e+00" cType="1" res="3.2796457409858704e-02" rms="4.9040630459785461e-01" purity="5.0027799606323242e-01" nType="-99"/>
          <Node pos="r" depth="2" NCoef="0" IVar="-1" Cut="0.0000000000000000e+00" cType="1" res="-8.3941714838147163e-03" rms="2.1300588548183441e-01" purity="4.9448296427726746e-02" nType="-99"/>
        </Node>
      </Node>
    </BinaryTree>
    <BinaryTree type="DecisionTree" boostWeight="1.0000000000000000e+00" itree="51">
      <Node pos="s" depth="0" NCoef="0" IVar="1" Cut="6.5572522580623627e-02" cType="1" res="-1.3251845538616180e-01" rms="3.3066296577453613e-01" purity="1.3947774469852448e-01" nType="0">
        <Node pos="l" depth="1" NCoef="0" IVar="-1" Cut="0.0000000000000000e+00" cType="1" res="5.4699750617146492e-03" rms="4.9124735593795776e-01" purity="5.4329556226730347e-01" nType="-99"/>
        <Node pos="r" depth="1" NCoef="0" IVar="0" Cut="2.0711825561523438e+02" cType="1" res="-1.5048862993717194e-01" rms="3.0776160955429077e-01" purity="1.0869290679693222e-01" nType="0">
          <Node pos="l" depth="2" NCoef="0" IVar="-1" Cut="0.0000000000000000e+00" cType="1" res="-6.6179558634757996e-03" rms="3.6342743039131165e-01" purity="1.6057144105434418e-01" nType="-99"/>
          <Node pos="r" depth="2" NCoef="0" IVar="-1" Cut="0.0000000000000000e+00" cType="1" res="-8.5507640615105629e-03" rms="2.1251158416271210e-01" purity="4.7967154532670975e-02" nType="-99"/>
        </Node>
      </Node>
    </BinaryTree>
    <BinaryTree type="DecisionTree" boostWeight="1.0000000000000000e+00" itree="52">
      <Node pos="s" depth="0" NCoef="0" IVar="1" Cut="1.8190084397792816e-01" cType="1" res="-1.3004954159259796e-01" rms="3.3034557104110718e-01" purity="1.3947774469852448e-01" nType="0">
        <Node pos="l" depth="1" NCoef="0" IVar="-1" Cut="0.0000000000000000e+00" cType="1" res="-3.6319854552857578e-04" rms="4.4723236560821533e-01" purity="3.3060127496719360e-01" nType="-99"/>
        <Node pos="r" depth="1" NCoef="0" IVar="0" Cut="2.0699885559082031e+02" cType="1" res="-1.6396240890026093e-01" rms="2.8034886717796326e-01" purity="8.6399219930171967e-02" nType="0">
          <Node pos="l" depth="2" NCoef="0" IVar="-1" Cut="0.0000000000000000e+00" cType="1" res="-8.4760766476392746e-03" rms="3.3303862810134888e-01" purity="1.2706342339515686e-01" nType="-99"/>
          <Node pos="r" depth="2" NCoef="0" IVar="-1" Cut="0.0000000000000000e+00" cType="1" res="-9.0666580945253372e-03" rms="1.9474506378173828e-01" purity="3.9509464055299759e-02" nType="-99"/>
        </Node>
      </Node>
    </BinaryTree>
    <BinaryTree type="DecisionTree" boostWeight="1.0000000000000000e+00" itree="53">
      <Node pos="s" depth="0" NCoef="0" IVar="0" Cut="2.1425212097167969e+02" cType="1" res="-1.2745699286460876e-01" rms="3.3009201288223267e-01" purity="1.3947774469852448e-01" nType="0">
        <Node pos="l" depth="1" NCoef="0" IVar="-1" Cut="0.0000000000000000e+00" cType="1" res="-4.8471796326339245e-03" rms="3.8132140040397644e-01" purity="2.0069169998168945e-01" nType="-99"/>
        <Node pos="r" depth="1" NCoef="0" IVar="2" Cut="2.9164688587188721e+00" cType="0" res="-2.0393389463424683e-01" rms="2.1740986406803131e-01" purity="5.2601657807826996e-02" nType="0">
          <Node pos="l" depth="2" NCoef="0" IVar="-1" Cut="0.0000000000000000e+00" cType="1" res="2.6644408702850342e-02" rms="4.9100187420845032e-01" purity="5.0027799606323242e-01" nType="-99"/>
          <Node pos="r" depth="2" NCoef="0" IVar="-1" Cut="0.0000000000000000e+00" cType="1" res="-8.2273185253143311e-03" rms="2.1300283074378967e-01" purity="4.9448296427726746e-02" nType="-99"/>
        </Node>
      </Node>
    </BinaryTree>
    <BinaryTree type="DecisionTree" boostWeight="1.0000000000000000e+00" itree="54">
      <Node pos="s" depth="0" NCoef="0" IVar="0" Cut="2.1425212097167969e+02" cType="1" res="-1.2511511147022247e-01" rms="3.2998332381248474e-01" purity="1.3947774469852448e-01" nType="0">
        <Node pos="l" depth="1" NCoef="0" IVar="-1" Cut="0.0000000000000000e+00" cType="1" res="-4.7434847801923752e-03" rms="3.8136816024780273e-01" purity="2.0069169998168945e-01" nType="-99"/>
        <Node pos="r" depth="1" NCoef="0" IVar="2" Cut="2.9164688587188721e+00" cType="0" res="-2.0095397531986237e-01" rms="2.1727518737316132e-01" purity="5.2601657807826996e-02" nType="0">
          <Node pos="l" depth="2" NCoef="0" IVar="-1" Cut="0.0000000000000000e+00" cType="1" res="2.1707616746425629e-02" rms="4.9111664295196533e-01" purity="5.0027799606323242e-01" nType="-99"/>
          <Node pos="r" depth="2" NCoef="0" IVar="-1" Cut="0.0000000000000000e+00" cType="1" res="-8.1684701144695282e-03" rms="2.1300004422664642e-01" purity="4.9448296427726746e-02" nType="-99"/>
        </Node>
      </Node>
    </BinaryTree>
    <BinaryTree type="DecisionTree" boostWeight="1.0000000000000000e+00" itree="55">
      <Node pos="s" depth="0" NCoef="0" IVar="1" Cut="3.7476275116205215e-02" cType="1" res="-1.2281416356563568e-01" rms="3.2988050580024719e-01" purity="1.3947774469852448e-01" nType="0">
        <Node pos="l" depth="1" NCoef="0" IVar="-1" Cut="0.0000000000000000e+00" cType="1" res="1.3712014071643353e-02" rms="4.7518932819366455e-01" purity="6.5559637546539307e-01" nType="-99"/>
        <Node pos="r" depth="1" NCoef="0" IVar="0" Cut="2.1434832763671875e+02" cType="1" res="-1.3535462319850922e-01" rms="3.1633034348487854e-01" purity="1.1919634044170380e-01" nType="0">
          <Node pos="l" depth="2" NCoef="0" IVar="-1" Cut="0.0000000000000000e+00" cType="1" res="-5.8190533891320229e-03" rms="3.6834818124771118e-01" purity="1.7196680605411530e-01" nType="-99"/>
          <Node pos="r" depth="2" NCoef="0" IVar="-1" Cut="0.0000000000000000e+00" cType="1" res="-8.1421704962849617e-03" rms="2.0995517075061798e-01" purity="4.6930767595767975e-02" nType="-99"/>
        </Node>
      </Node>
    </BinaryTree>
    <BinaryTree type="DecisionTree" boostWeight="1.0000000000000000e+00" itree="56">
      <Node pos="s" depth="0" NCoef="0" IVar="0" Cut="2.0682815551757812e+02" cType="1" res="-1.2062136083841324e-01" rms="3.2949855923652649e-01" purity="1.3947774469852448e-01" nType="0">
        <Node pos="l" depth="1" NCoef="0" IVar="-1" Cut="0.0000000000000000e+00" cType="1" res="-4.3036146089434624e-03" rms="3.8479453325271606e-01" purity="2.0570011436939240e-01" nType="-99"/>
        <Node pos="r" depth="1" NCoef="0" IVar="0" Cut="2.3338731384277344e+02" cType="1" res="-1.8998739123344421e-01" rms="2.2670742869377136e-01" purity="5.8265853673219681e-02" nType="0">
          <Node pos="l" depth="2" NCoef="0" IVar="-1" Cut="0.0000000000000000e+00" cType="1" res="-8.8908141478896141e-03" rms="2.8656816482543945e-01" purity="1.0080683231353760e-01" nType="-99"/>
          <Node pos="r" depth="2" NCoef="0" IVar="-1" Cut="0.0000000000000000e+00" cType="1" res="-7.8559676185250282e-03" rms="2.0127446949481964e-01" purity="4.4214241206645966e-02" nType="-99"/>
        </Node>
      </Node>
    </BinaryTree>
    <BinaryTree type="DecisionTree" boostWeight="1.0000000000000000e+00" itree="57">
      <Node pos="s" depth="0" NCoef="0" IVar="1" Cut="1.8190084397792816e-01" cType="1" res="-1.1836668848991394e-01" rms="3.2941097021102905e-01" purity="1.3947774469852448e-01" nType="0">
        <Node pos="l" depth="1" NCoef="0" IVar="-1" Cut="0.0000000000000000e+00" cType="1" res="2.9297290893737227e-05" rms="4.4585740566253662e-01" purity="3.3060127496719360e-01" nType="-99"/>
        <Node pos="r" depth="1" NCoef="0" IVar="0" Cut="2.0699885559082031e+02" cType="1" res="-1.5141369402408600e-01" rms="2.8002750873565674e-01" purity="8.6399219930171967e-02" nType="0">
          <Node pos="l" depth="2" NCoef="0" IVar="-1" Cut="0.0000000000000000e+00" cType="1" res="-7.9958792775869370e-03" rms="3.3303833007812500e-01" purity="1.2706342339515686e-01" nType="-99"/>
          <Node pos="r" depth="2" NCoef="0" IVar="-1" Cut="0.0000000000000000e+00" cType="1" res="-8.7832929566502571e-03" rms="1.9467382133007050e-01" purity="3.9509464055299759e-02" nType="-99"/>
        </Node>
      </Node>
    </BinaryTree>
    <BinaryTree type="DecisionTree" boostWeight="1.0000000000000000e+00" itree="58">
      <Node pos="s" depth="0" NCoef="0" IVar="0" Cut="2.1425212097167969e+02" cType="1" res="-1.1600995063781738e-01" rms="3.2916793227195740e-01" purity="1.3947774469852448e-01" nType="0">
        <Node pos="l" depth="1" NCoef="0" IVar="-1" Cut="0.0000000000000000e+00" cType="1" res="-4.3277014046907425e-03" rms="3.8075244426727295e-01" purity="2.0069169998168945e-01" nType="-99"/>
        <Node pos="r" depth="1" NCoef="0" IVar="2" Cut="2.9164688587188721e+00" cType="0" res="-1.8970379233360291e-01" rms="2.1707373857498169e-01" purity="5.2601657807826996e-02" nType="0">
          <Node pos="l" depth="2" NCoef="0" IVar="-1" Cut="0.0000000000000000e+00" cType="1" res="1.8933385610580444e-02" rms="4.9124294519424438e-01" purity="5.0027799606323242e-01" nType="-99"/>
          <Node pos="r" depth="2" NCoef="0" IVar="-1" Cut="0.0000000000000000e+00" cType="1" res="-7.9531203955411911e-03" rms="2.1294535696506500e-01" purity="4.9448296427726746e-02" nType="-99"/>
        </Node>
      </Node>
    </BinaryTree>
    <BinaryTree type="DecisionTree" boostWeight="1.0000000000000000e+00" itree="59">
      <Node pos="s" depth="0" NCoef="0" IVar="1" Cut="1.0007668286561966e-01" cType="1" res="-1.1388989537954330e-01" rms="3.2906869053840637e-01" purity="1.3947774469852448e-01" nType="0">
        <Node pos="l" depth="1" NCoef="0" IVar="-1" Cut="0.0000000000000000e+00" cType="1" res="3.0861673876643181e-03" rms="4.8249366879463196e-01" purity="4.5825952291488647e-01" nType="-99"/>
        <Node pos="r" depth="1" NCoef="0" IVar="0" Cut="2.0711825561523438e+02" cType="1" res="-1.3580137491226196e-01" rms="2.9715242981910706e-01" purity="9.9286451935768127e-02" nType="0">
          <Node pos="l" depth="2" NCoef="0" IVar="-1" Cut="0.0000000000000000e+00" cType="1" res="-6.3942857086658478e-03" rms="3.5270753502845764e-01" purity="1.4657530188560486e-01" nType="-99"/>
          <Node pos="r" depth="2" NCoef="0" IVar="-1" Cut="0.0000000000000000e+00" cType="1" res="-8.1821447238326073e-03" rms="2.0549467206001282e-01" purity="4.4453565031290054e-02" nType="-99"/>
        </Node>
      </Node>
    </BinaryTree>
    <BinaryTree type="DecisionTree" boostWeight="1.0000000000000000e+00" itree="60">
      <Node pos="s" depth="0" NCoef="0" IVar="0" Cut="2.1425212097167969e+02" cType="1" res="-1.1176275461912155e-01" rms="3.2880190014839172e-01" purity="1.3947774469852448e-01" nType="0">
        <Node pos="l" depth="1" NCoef="0" IVar="-1" Cut="0.0000000000000000e+00" cType="1" res="-4.1318447329103947e-03" rms="3.8048794865608215e-01" purity="2.0069169998168945e-01" nType="-99"/>
        <Node pos="r" depth="1" NCoef="0" IVar="0" Cut="2.7441546630859375e+02" cType="1" res="-1.8440176546573639e-01" rms="2.1699599921703339e-01" purity="5.2601657807826996e-02" nType="0">
          <Node pos="l" depth="2" NCoef="0" IVar="-1" Cut="0.0000000000000000e+00" cType="1" res="-9.6831284463405609e-03" rms="2.4691802263259888e-01" purity="7.1775034070014954e-02" nType="-99"/>
          <Node pos="r" depth="2" NCoef="0" IVar="-1" Cut="0.0000000000000000e+00" cType="1" res="-6.9624814204871655e-03" rms="1.8748672306537628e-01" purity="3.7047035992145538e-02" nType="-99"/>
        </Node>
      </Node>
    </BinaryTree>
    <BinaryTree type="DecisionTree" boostWeight="1.0000000000000000e+00" itree="61">
      <Node pos="s" depth="0" NCoef="0" IVar="1" Cut="1.8190084397792816e-01" cType="1" res="-1.0964532941579819e-01" rms="3.2872277498245239e-01" purity="1.3947774469852448e-01" nType="0">
        <Node pos="l" depth="1" NCoef="0" IVar="-1" Cut="0.0000000000000000e+00" cType="1" res="2.7041923021897674e-04" rms="4.4520714879035950e-01" purity="3.3060127496719360e-01" nType="-99"/>
        <Node pos="r" depth="1" NCoef="0" IVar="0" Cut="2.0699885559082031e+02" cType="1" res="-1.4168520271778107e-01" rms="2.7981990575790405e-01" purity="8.6399219930171967e-02" nType="0">
          <Node pos="l" depth="2" NCoef="0" IVar="-1" Cut="0.0000000000000000e+00" cType="1" res="-7.6035042293369770e-03" rms="3.3303841948509216e-01" purity="1.2706342339515686e-01" nType="-99"/>
          <Node pos="r" depth="2" NCoef="0" IVar="-1" Cut="0.0000000000000000e+00" cType="1" res="-8.5621932521462440e-03" rms="1.9464775919914246e-01" purity="3.9509464055299759e-02" nType="-99"/>
        </Node>
      </Node>
    </BinaryTree>
    <BinaryTree type="DecisionTree" boostWeight="1.0000000000000000e+00" itree="62">
      <Node pos="s" depth="0" NCoef="0" IVar="0" Cut="2.0682815551757812e+02" cType="1" res="-1.0746570676565170e-01" rms="3.2849219441413879e-01" purity="1.3947774469852448e-01" nType="0">
        <Node pos="l" depth="1" NCoef="0" IVar="-1" Cut="0.0000000000000000e+00" cType="1" res="-3.6752645391970873e-03" rms="3.8401252031326294e-01" purity="2.0570011436939240e-01" nType="-99"/>
        <Node pos="r" depth="1" NCoef="0" IVar="0" Cut="2.3338731384277344e+02" cType="1" res="-1.7413905262947083e-01" rms="2.2654874622821808e-01" purity="5.8265853673219681e-02" nType="0">
          <Node pos="l" depth="2" NCoef="0" IVar="-1" Cut="0.0000000000000000e+00" cType="1" res="-8.3303628489375114e-03" rms="2.8592726588249207e-01" purity="1.0080683231353760e-01" nType="-99"/>
          <Node pos="r" depth="2" NCoef="0" IVar="-1" Cut="0.0000000000000000e+00" cType="1" res="-7.5830402784049511e-03" rms="2.0132401585578918e-01" purity="4.4214241206645966e-02" nType="-99"/>
        </Node>
      </Node>
    </BinaryTree>
    <BinaryTree type="DecisionTree" boostWeight="1.0000000000000000e+00" itree="63">
      <Node pos="s" depth="0" NCoef="0" IVar="1" Cut="3.9940860122442245e-02" cType="1" res="-1.0548232495784760e-01" rms="3.2840266823768616e-01" purity="1.3947774469852448e-01" nType="0">
        <Node pos="l" depth="1" NCoef="0" IVar="-1" Cut="0.0000000000000000e+00" cType="1" res="1.3023716397583485e-02" rms="4.7788396477699280e-01" purity="6.4027714729309082e-01" nType="-99"/>
        <Node pos="r" depth="1" NCoef="0" IVar="0" Cut="2.1434832763671875e+02" cType="1" res="-1.1789126694202423e-01" rms="3.1454455852508545e-01" purity="1.1804498732089996e-01" nType="0">
          <Node pos="l" depth="2" NCoef="0" IVar="-1" Cut="0.0000000000000000e+00" cType="1" res="-5.0814123824238777e-03" rms="3.6689513921737671e-01" purity="1.7013047635555267e-01" nType="-99"/>
          <Node pos="r" depth="2" NCoef="0" IVar="-1" Cut="0.0000000000000000e+00" cType="1" res="-7.7201784588396549e-03" rms="2.0964436233043671e-01" purity="4.6818669885396957e-02" nType="-99"/>
        </Node>
      </Node>
    </BinaryTree>
    <BinaryTree type="DecisionTree" boostWeight="1.0000000000000000e+00" itree="64">
      <Node pos="s" depth="0" NCoef="0" IVar="1" Cut="1.9915291666984558e-01" cType="1" res="-1.0364161431789398e-01" rms="3.2804971933364868e-01" purity="1.3947774469852448e-01" nType="0">
        <Node pos="l" depth="1" NCoef="0" IVar="-1" Cut="0.0000000000000000e+00" cType="1" res="6.5214197093155235e-05" rms="4.3727087974548340e-01" purity="3.1342780590057373e-01" nType="-99"/>
        <Node pos="r" depth="1" NCoef="0" IVar="0" Cut="2.0699885559082031e+02" cType="1" res="-1.3697603344917297e-01" rms="2.7652552723884583e-01" purity="8.4249325096607208e-02" nType="0">
          <Node pos="l" depth="2" NCoef="0" IVar="-1" Cut="0.0000000000000000e+00" cType="1" res="-7.6152645051479340e-03" rms="3.2912436127662659e-01" purity="1.2360478937625885e-01" nType="-99"/>
          <Node pos="r" depth="2" NCoef="0" IVar="-1" Cut="0.0000000000000000e+00" cType="1" res="-8.4296558052301407e-03" rms="1.9269147515296936e-01" purity="3.8672037422657013e-02" nType="-99"/>
        </Node>
      </Node>
    </BinaryTree>
    <BinaryTree type="DecisionTree" boostWeight="1.0000000000000000e+00" itree="65">
      <Node pos="s" depth="0" NCoef="0" IVar="0" Cut="2.1425212097167969e+02" cType="1" res="-1.0157106071710587e-01" rms="3.2783392071723938e-01" purity="1.3947774469852448e-01" nType="0">
        <Node pos="l" depth="1" NCoef="0" IVar="-1" Cut="0.0000000000000000e+00" cType="1" res="-3.6429006140679121e-03" rms="3.7961730360984802e-01" purity="2.0069169998168945e-01" nType="-99"/>
        <Node pos="r" depth="1" NCoef="0" IVar="0" Cut="2.7441546630859375e+02" cType="1" res="-1.7178855836391449e-01" rms="2.1697570383548737e-01" purity="5.2601657807826996e-02" nType="0">
          <Node pos="l" depth="2" NCoef="0" IVar="-1" Cut="0.0000000000000000e+00" cType="1" res="-9.2797642573714256e-03" rms="2.4657993018627167e-01" purity="7.1775034070014954e-02" nType="-99"/>
          <Node pos="r" depth="2" NCoef="0" IVar="-1" Cut="0.0000000000000000e+00" cType="1" res="-6.7915450781583786e-03" rms="1.8766427040100098e-01" purity="3.7047035992145538e-02" nType="-99"/>
        </Node>
      </Node>
    </BinaryTree>
    <BinaryTree type="DecisionTree" boostWeight="1.0000000000000000e+00" itree="66">
      <Node pos="s" depth="0" NCoef="0" IVar="1" Cut="1.0007668286561966e-01" cType="1" res="-9.9667094647884369e-02" rms="3.2775437831878662e-01" purity="1.3947774469852448e-01" nType="0">
        <Node pos="l" depth="1" NCoef="0" IVar="-1" Cut="0.0000000000000000e+00" cType="1" res="3.3682512585073709e-03" rms="4.8084658384323120e-01" purity="4.5825952291488647e-01" nType="-99"/>
        <Node pos="r" depth="1" NCoef="0" IVar="0" Cut="2.0711825561523438e+02" cType="1" res="-1.2039880454540253e-01" rms="2.9660892486572266e-01" purity="9.9286451935768127e-02" nType="0">
          <Node pos="l" depth="2" NCoef="0" IVar="-1" Cut="0.0000000000000000e+00" cType="1" res="-5.7349051348865032e-03" rms="3.5247850418090820e-01" purity="1.4657530188560486e-01" nType="-99"/>
          <Node pos="r" depth="2" NCoef="0" IVar="-1" Cut="0.0000000000000000e+00" cType="1" res="-7.8164758160710335e-03" rms="2.0545224845409393e-01" purity="4.4453565031290054e-02" nType="-99"/>
        </Node>
      </Node>
    </BinaryTree>
    <BinaryTree type="DecisionTree" boostWeight="1.0000000000000000e+00" itree="67">
      <Node pos="s" depth="0" NCoef="0" IVar="0" Cut="2.1425212097167969e+02" cType="1" res="-9.7824499011039734e-02" rms="3.2750940322875977e-01" purity="1.3947774469852448e-01" nType="0">
        <Node pos="l" depth="1" NCoef="0" IVar="-1" Cut="0.0000000000000000e+00" cType="1" res="-3.4709423780441284e-03" rms="3.7937504053115845e-01" purity="2.0069169998168945e-01" nType="-99"/>
        <Node pos="r" depth="1" NCoef="0" IVar="0" Cut="2.7441546630859375e+02" cType="1" res="-1.6685029864311218e-01" rms="2.1704323589801788e-01" purity="5.2601657807826996e-02" nType="0">
          <Node pos="l" depth="2" NCoef="0" IVar="-1" Cut="0.0000000000000000e+00" cType="1" res="-9.1122118756175041e-03" rms="2.4652126431465149e-01" purity="7.1775034070014954e-02" nType="-99"/>
          <Node pos="r" depth="2" NCoef="0" IVar="-1" Cut="0.0000000000000000e+00" cType="1" res="-6.7277573980391026e-03" rms="1.8778508901596069e-01" purity="3.7047035992145538e-02" nType="-99"/>
        </Node>
      </Node>
    </BinaryTree>
    <BinaryTree type="DecisionTree" boostWeight="1.0000000000000000e+00" itree="68">
      <Node pos="s" depth="0" NCoef="0" IVar="1" Cut="1.8190084397792816e-01" cType="1" res="-9.5997974276542664e-02" rms="3.2743072509765625e-01" purity="1.3947774469852448e-01" nType="0">
        <Node pos="l" depth="1" NCoef="0" IVar="-1" Cut="0.0000000000000000e+00" cType="1" res="6.3138222321867943e-04" rms="4.4363805651664734e-01" purity="3.3060127496719360e-01" nType="-99"/>
        <Node pos="r" depth="1" NCoef="0" IVar="0" Cut="2.0241250610351562e+02" cType="1" res="-1.2629191577434540e-01" rms="2.7947095036506653e-01" purity="8.6399219930171967e-02" nType="0">
          <Node pos="l" depth="2" NCoef="0" IVar="-1" Cut="0.0000000000000000e+00" cType="1" res="-6.7931283265352249e-03" rms="3.3473804593086243e-01" purity="1.2860886752605438e-01" nType="-99"/>
          <Node pos="r" depth="2" NCoef="0" IVar="-1" Cut="0.0000000000000000e+00" cType="1" res="-8.2943234592676163e-03" rms="2.0024724304676056e-01" purity="4.2000561952590942e-02" nType="-99"/>
        </Node>
      </Node>
    </BinaryTree>
    <BinaryTree type="DecisionTree" boostWeight="1.0000000000000000e+00" itree="69">
      <Node pos="s" depth="0" NCoef="0" IVar="0" Cut="2.0682815551757812e+02" cType="1" res="-9.4099432229995728e-02" rms="3.2721817493438721e-01" purity="1.3947774469852448e-01" nType="0">
        <Node pos="l" depth="1" NCoef="0" IVar="-1" Cut="0.0000000000000000e+00" cType="1" res="-3.0379153322428465e-03" rms="3.8293817639350891e-01" purity="2.0570011436939240e-01" nType="-99"/>
        <Node pos="r" depth="1" NCoef="0" IVar="0" Cut="2.7414660644531250e+02" cType="1" res="-1.5737536549568176e-01" rms="2.2644300758838654e-01" purity="5.8265853673219681e-02" nType="0">
          <Node pos="l" depth="2" NCoef="0" IVar="-1" Cut="0.0000000000000000e+00" cType="1" res="-8.6241802200675011e-03" rms="2.5787335634231567e-01" purity="8.0043323338031769e-02" nType="-99"/>
          <Node pos="r" depth="2" NCoef="0" IVar="-1" Cut="0.0000000000000000e+00" cType="1" res="-6.6674049012362957e-03" rms="1.8835729360580444e-01" purity="3.7260159850120544e-02" nType="-99"/>
        </Node>
      </Node>
    </BinaryTree>
    <BinaryTree type="DecisionTree" boostWeight="1.0000000000000000e+00" itree="70">
      <Node pos="s" depth="0" NCoef="0" IVar="1" Cut="3.7476275116205215e-02" cType="1" res="-9.2355363070964813e-02" rms="3.2713255286216736e-01" purity="1.3947774469852448e-01" nType="0">
        <Node pos="l" depth="1" NCoef="0" IVar="-1" Cut="0.0000000000000000e+00" cType="1" res="1.3603191822767258e-02" rms="4.7402846813201904e-01" purity="6.5559637546539307e-01" nType="-99"/>
        <Node pos="r" depth="1" NCoef="0" IVar="0" Cut="2.1632015991210938e+02" cType="1" res="-1.0363879799842834e-01" rms="3.1468051671981812e-01" purity="1.1919634044170380e-01" nType="0">
          <Node pos="l" depth="2" NCoef="0" IVar="-1" Cut="0.0000000000000000e+00" cType="1" res="-4.4444832019507885e-03" rms="3.6624392867088318e-01" purity="1.7080640792846680e-01" nType="-99"/>
          <Node pos="r" depth="2" NCoef="0" IVar="-1" Cut="0.0000000000000000e+00" cType="1" res="-7.3765199631452560e-03" rms="2.0847578346729279e-01" purity="4.6088568866252899e-02" nType="-99"/>
        </Node>
      </Node>
    </BinaryTree>
    <BinaryTree type="DecisionTree" boostWeight="1.0000000000000000e+00" itree="71">
      <Node pos="s" depth="0" NCoef="0" IVar="1" Cut="1.9915291666984558e-01" cType="1" res="-9.0769052505493164e-02" rms="3.2680457830429077e-01" purity="1.3947774469852448e-01" nType="0">
        <Node pos="l" depth="1" NCoef="0" IVar="-1" Cut="0.0000000000000000e+00" cType="1" res="4.2924992158077657e-04" rms="4.3573600053787231e-01" purity="3.1342780590057373e-01" nType="-99"/>
        <Node pos="r" depth="1" NCoef="0" IVar="0" Cut="2.0437808227539062e+02" cType="1" res="-1.2234697490930557e-01" rms="2.7620768547058105e-01" purity="8.4249325096607208e-02" nType="0">
          <Node pos="l" depth="2" NCoef="0" IVar="-1" Cut="0.0000000000000000e+00" cType="1" res="-6.8478123284876347e-03" rms="3.3001500368118286e-01" purity="1.2438108772039413e-01" nType="-99"/>
          <Node pos="r" depth="2" NCoef="0" IVar="-1" Cut="0.0000000000000000e+00" cType="1" res="-8.1964591518044472e-03" rms="1.9569738209247589e-01" purity="3.9979673922061920e-02" nType="-99"/>
        </Node>
      </Node>
    </BinaryTree>
    <BinaryTree type="DecisionTree" boostWeight="1.0000000000000000e+00" itree="72">
      <Node pos="s" depth="0" NCoef="0" IVar="0" Cut="2.1425212097167969e+02" cType="1" res="-8.8964141905307770e-02" rms="3.2660531997680664e-01" purity="1.3947774469852448e-01" nType="0">
        <Node pos="l" depth="1" NCoef="0" IVar="-1" Cut="0.0000000000000000e+00" cType="1" res="-3.0396508518606424e-03" rms="3.7858533859252930e-01" purity="2.0069169998168945e-01" nType="-99"/>
        <Node pos="r" depth="1" NCoef="0" IVar="0" Cut="2.7441546630859375e+02" cType="1" res="-1.5546438097953796e-01" rms="2.1704854071140289e-01" purity="5.2601657807826996e-02" nType="0">
          <Node pos="l" depth="2" NCoef="0" IVar="-1" Cut="0.0000000000000000e+00" cType="1" res="-8.7201790884137154e-03" rms="2.4621440470218658e-01" purity="7.1775034070014954e-02" nType="-99"/>
          <Node pos="r" depth="2" NCoef="0" IVar="-1" Cut="0.0000000000000000e+00" cType="1" res="-6.5731382928788662e-03" rms="1.8795557320117950e-01" purity="3.7047035992145538e-02" nType="-99"/>
        </Node>
      </Node>
    </BinaryTree>
    <BinaryTree type="DecisionTree" boostWeight="1.0000000000000000e+00" itree="73">
      <Node pos="s" depth="0" NCoef="0" IVar="1" Cut="1.2718710303306580e-01" cType="1" res="-8.7322130799293518e-02" rms="3.2652735710144043e-01" purity="1.3947774469852448e-01" nType="0">
        <Node pos="l" depth="1" NCoef="0" IVar="-1" Cut="0.0000000000000000e+00" cType="1" res="2.3246293421834707e-03" rms="4.6593424677848816e-01" purity="4.0183103084564209e-01" nType="-99"/>
        <Node pos="r" depth="1" NCoef="0" IVar="0" Cut="2.0699885559082031e+02" cType="1" res="-1.1029734462499619e-01" rms="2.8976768255233765e-01" purity="9.4193503260612488e-02" nType="0">
          <Node pos="l" depth="2" NCoef="0" IVar="-1" Cut="0.0000000000000000e+00" cType="1" res="-5.6834230199456215e-03" rms="3.4553989768028259e-01" purity="1.3929378986358643e-01" nType="-99"/>
          <Node pos="r" depth="2" NCoef="0" IVar="-1" Cut="0.0000000000000000e+00" cType="1" res="-7.5334454886615276e-03" rms="2.0125457644462585e-01" purity="4.2464822530746460e-02" nType="-99"/>
        </Node>
      </Node>
    </BinaryTree>
    <BinaryTree type="DecisionTree" boostWeight="1.0000000000000000e+00" itree="74">
      <Node pos="s" depth="0" NCoef="0" IVar="0" Cut="2.1425212097167969e+02" cType="1" res="-8.5678875446319580e-02" rms="3.2631966471672058e-01" purity="1.3947774469852448e-01" nType="0">
        <Node pos="l" depth="1" NCoef="0" IVar="-1" Cut="0.0000000000000000e+00" cType="1" res="-2.8813122771680355e-03" rms="3.7836879491806030e-01" purity="2.0069169998168945e-01" nType="-99"/>
        <Node pos="r" depth="1" NCoef="0" IVar="0" Cut="2.7441546630859375e+02" cType="1" res="-1.5109866857528687e-01" rms="2.1710471808910370e-01" purity="5.2601657807826996e-02" nType="0">
          <Node pos="l" depth="2" NCoef="0" IVar="-1" Cut="0.0000000000000000e+00" cType="1" res="-8.5636079311370850e-03" rms="2.4615941941738129e-01" purity="7.1775034070014954e-02" nType="-99"/>
          <Node pos="r" depth="2" NCoef="0" IVar="-1" Cut="0.0000000000000000e+00" cType="1" res="-6.5153348259627819e-03" rms="1.8805854022502899e-01" purity="3.7047035992145538e-02" nType="-99"/>
        </Node>
      </Node>
    </BinaryTree>
    <BinaryTree type="DecisionTree" boostWeight="1.0000000000000000e+00" itree="75">
      <Node pos="s" depth="0" NCoef="0" IVar="1" Cut="5.7192940264940262e-02" cType="1" res="-8.4104686975479126e-02" rms="3.2624229788780212e-01" purity="1.3947774469852448e-01" nType="0">
        <Node pos="l" depth="1" NCoef="0" IVar="-1" Cut="0.0000000000000000e+00" cType="1" res="6.8420711904764175e-03" rms="4.8404765129089355e-01" purity="5.6466811895370483e-01" nType="-99"/>
        <Node pos="r" depth="1" NCoef="0" IVar="0" Cut="2.2157839965820312e+02" cType="1" res="-9.8173007369041443e-02" rms="3.0786299705505371e-01" purity="1.1132019013166428e-01" nType="0">
          <Node pos="l" depth="2" NCoef="0" IVar="-1" Cut="0.0000000000000000e+00" cType="1" res="-4.6138120815157890e-03" rms="3.5688844323158264e-01" purity="1.5610261261463165e-01" nType="-99"/>
          <Node pos="r" depth="2" NCoef="0" IVar="-1" Cut="0.0000000000000000e+00" cType="1" res="-7.2962422855198383e-03" rms="1.9924674928188324e-01" purity="4.2002204805612564e-02" nType="-99"/>
        </Node>
      </Node>
    </BinaryTree>
    <BinaryTree type="DecisionTree" boostWeight="1.0000000000000000e+00" itree="76">
      <Node pos="s" depth="0" NCoef="0" IVar="0" Cut="2.0682815551757812e+02" cType="1" res="-8.2588501274585724e-02" rms="3.2600358128547668e-01" purity="1.3947774469852448e-01" nType="0">
        <Node pos="l" depth="1" NCoef="0" IVar="-1" Cut="0.0000000000000000e+00" cType="1" res="-2.4931824300438166e-03" rms="3.8194578886032104e-01" purity="2.0570011436939240e-01" nType="-99"/>
        <Node pos="r" depth="1" NCoef="0" IVar="0" Cut="2.7414660644531250e+02" cType="1" res="-1.4229892194271088e-01" rms="2.2635588049888611e-01" purity="5.8265853673219681e-02" nType="0">
          <Node pos="l" depth="2" NCoef="0" IVar="-1" Cut="0.0000000000000000e+00" cType="1" res="-8.0883521586656570e-03" rms="2.5739300251007080e-01" purity="8.0043323338031769e-02" nType="-99"/>
          <Node pos="r" depth="2" NCoef="0" IVar="-1" Cut="0.0000000000000000e+00" cType="1" res="-6.4556458964943886e-03" rms="1.8865175545215607e-01" purity="3.7260159850120544e-02" nType="-99"/>
        </Node>
      </Node>
    </BinaryTree>
    <BinaryTree type="DecisionTree" boostWeight="1.0000000000000000e+00" itree="77">
      <Node pos="s" depth="0" NCoef="0" IVar="1" Cut="1.9915291666984558e-01" cType="1" res="-8.1081047654151917e-02" rms="3.2592087984085083e-01" purity="1.3947774469852448e-01" nType="0">
        <Node pos="l" depth="1" NCoef="0" IVar="-1" Cut="0.0000000000000000e+00" cType="1" res="7.4244441930204630e-04" rms="4.3458074331283569e-01" purity="3.1342780590057373e-01" nType="-99"/>
        <Node pos="r" depth="1" NCoef="0" IVar="0" Cut="2.0306770324707031e+02" cType="1" res="-1.1150524765253067e-01" rms="2.7594703435897827e-01" purity="8.4249325096607208e-02" nType="0">
          <Node pos="l" depth="2" NCoef="0" IVar="-1" Cut="0.0000000000000000e+00" cType="1" res="-6.3788108527660370e-03" rms="3.3045676350593567e-01" purity="1.2476914376020432e-01" nType="-99"/>
          <Node pos="r" depth="2" NCoef="0" IVar="-1" Cut="0.0000000000000000e+00" cType="1" res="-7.9113896936178207e-03" rms="1.9738772511482239e-01" purity="4.0738500654697418e-02" nType="-99"/>
        </Node>
      </Node>
    </BinaryTree>
    <BinaryTree type="DecisionTree" boostWeight="1.0000000000000000e+00" itree="78">
      <Node pos="s" depth="0" NCoef="0" IVar="0" Cut="2.1425212097167969e+02" cType="1" res="-7.9470716416835785e-02" rms="3.2573381066322327e-01" purity="1.3947774469852448e-01" nType="0">
        <Node pos="l" depth="1" NCoef="0" IVar="-1" Cut="0.0000000000000000e+00" cType="1" res="-2.5793954264372587e-03" rms="3.7791129946708679e-01" purity="2.0069169998168945e-01" nType="-99"/>
        <Node pos="r" depth="1" NCoef="0" IVar="0" Cut="2.7441546630859375e+02" cType="1" res="-1.4276650547981262e-01" rms="2.1718044579029083e-01" purity="5.2601657807826996e-02" nType="0">
          <Node pos="l" depth="2" NCoef="0" IVar="-1" Cut="0.0000000000000000e+00" cType="1" res="-8.2581555470824242e-03" rms="2.4602985382080078e-01" purity="7.1775034070014954e-02" nType="-99"/>
          <Node pos="r" depth="2" NCoef="0" IVar="-1" Cut="0.0000000000000000e+00" cType="1" res="-6.3983043655753136e-03" rms="1.8823882937431335e-01" purity="3.7047035992145538e-02" nType="-99"/>
        </Node>
      </Node>
    </BinaryTree>
    <BinaryTree type="DecisionTree" boostWeight="1.0000000000000000e+00" itree="79">
      <Node pos="s" depth="0" NCoef="0" IVar="1" Cut="1.0007668286561966e-01" cType="1" res="-7.8024417161941528e-02" rms="3.2565790414810181e-01" purity="1.3947774469852448e-01" nType="0">
        <Node pos="l" depth="1" NCoef="0" IVar="-1" Cut="0.0000000000000000e+00" cType="1" res="3.7889513187110424e-03" rms="4.7795778512954712e-01" purity="4.5825952291488647e-01" nType="-99"/>
        <Node pos="r" depth="1" NCoef="0" IVar="0" Cut="2.0711825561523438e+02" cType="1" res="-9.6901312470436096e-02" rms="2.9570201039314270e-01" purity="9.9286451935768127e-02" nType="0">
          <Node pos="l" depth="2" NCoef="0" IVar="-1" Cut="0.0000000000000000e+00" cType="1" res="-4.7047729603946209e-03" rms="3.5214525461196899e-01" purity="1.4657530188560486e-01" nType="-99"/>
          <Node pos="r" depth="2" NCoef="0" IVar="-1" Cut="0.0000000000000000e+00" cType="1" res="-7.1981507353484631e-03" rms="2.0542229712009430e-01" purity="4.4453565031290054e-02" nType="-99"/>
        </Node>
      </Node>
    </BinaryTree>
    <BinaryTree type="DecisionTree" boostWeight="1.0000000000000000e+00" itree="80">
      <Node pos="s" depth="0" NCoef="0" IVar="1" Cut="3.7476275116205215e-02" cType="1" res="-7.6610073447227478e-02" rms="3.2544776797294617e-01" purity="1.3947774469852448e-01" nType="0">
        <Node pos="l" depth="1" NCoef="0" IVar="-1" Cut="0.0000000000000000e+00" cType="1" res="1.3111663982272148e-02" rms="4.7324964404106140e-01" purity="6.5559637546539307e-01" nType="-99"/>
        <Node pos="r" depth="1" NCoef="0" IVar="0" Cut="2.1632015991210938e+02" cType="1" res="-8.7014138698577881e-02" rms="3.1371092796325684e-01" purity="1.1919634044170380e-01" nType="0">
          <Node pos="l" depth="2" NCoef="0" IVar="-1" Cut="0.0000000000000000e+00" cType="1" res="-3.6524657625705004e-03" rms="3.6557418107986450e-01" purity="1.7080640792846680e-01" nType="-99"/>
          <Node pos="r" depth="2" NCoef="0" IVar="-1" Cut="0.0000000000000000e+00" cType="1" res="-6.9403615780174732e-03" rms="2.0872300863265991e-01" purity="4.6088568866252899e-02" nType="-99"/>
        </Node>
      </Node>
    </BinaryTree>
    <BinaryTree type="DecisionTree" boostWeight="1.0000000000000000e+00" itree="81">
      <Node pos="s" depth="0" NCoef="0" IVar="1" Cut="1.9915291666984558e-01" cType="1" res="-7.5332008302211761e-02" rms="3.2515808939933777e-01" purity="1.3947774469852448e-01" nType="0">
        <Node pos="l" depth="1" NCoef="0" IVar="-1" Cut="0.0000000000000000e+00" cType="1" res="8.5986242629587650e-04" rms="4.3350705504417419e-01" purity="3.1342780590057373e-01" nType="-99"/>
        <Node pos="r" depth="1" NCoef="0" IVar="0" Cut="2.0306770324707031e+02" cType="1" res="-1.0461077094078064e-01" rms="2.7581179141998291e-01" purity="8.4249325096607208e-02" nType="0">
          <Node pos="l" depth="2" NCoef="0" IVar="-1" Cut="0.0000000000000000e+00" cType="1" res="-6.0710539110004902e-03" rms="3.3045676350593567e-01" purity="1.2476914376020432e-01" nType="-99"/>
          <Node pos="r" depth="2" NCoef="0" IVar="-1" Cut="0.0000000000000000e+00" cType="1" res="-7.7283829450607300e-03" rms="1.9737024605274200e-01" purity="4.0738500654697418e-02" nType="-99"/>
        </Node>
      </Node>
    </BinaryTree>
    <BinaryTree type="DecisionTree" boostWeight="1.0000000000000000e+00" itree="82">
      <Node pos="s" depth="0" NCoef="0" IVar="0" Cut="2.1425212097167969e+02" cType="1" res="-7.3837570846080780e-02" rms="3.2498329877853394e-01" purity="1.3947774469852448e-01" nType="0">
        <Node pos="l" depth="1" NCoef="0" IVar="-1" Cut="0.0000000000000000e+00" cType="1" res="-2.3015167098492384e-03" rms="3.7718778848648071e-01" purity="2.0069169998168945e-01" nType="-99"/>
        <Node pos="r" depth="1" NCoef="0" IVar="0" Cut="2.7441546630859375e+02" cType="1" res="-1.3518781960010529e-01" rms="2.1719717979431152e-01" purity="5.2601657807826996e-02" nType="0">
          <Node pos="l" depth="2" NCoef="0" IVar="-1" Cut="0.0000000000000000e+00" cType="1" res="-7.9816058278083801e-03" rms="2.4576587975025177e-01" purity="7.1775034070014954e-02" nType="-99"/>
          <Node pos="r" depth="2" NCoef="0" IVar="-1" Cut="0.0000000000000000e+00" cType="1" res="-6.2919300980865955e-03" rms="1.8849317729473114e-01" purity="3.7047035992145538e-02" nType="-99"/>
        </Node>
      </Node>
    </BinaryTree>
    <BinaryTree type="DecisionTree" boostWeight="1.0000000000000000e+00" itree="83">
      <Node pos="s" depth="0" NCoef="0" IVar="1" Cut="1.9915291666984558e-01" cType="1" res="-7.2506941854953766e-02" rms="3.2490777969360352e-01" purity="1.3947774469852448e-01" nType="0">
        <Node pos="l" depth="1" NCoef="0" IVar="-1" Cut="0.0000000000000000e+00" cType="1" res="9.2396757099777460e-04" rms="4.3331354856491089e-01" purity="3.1342780590057373e-01" nType="-99"/>
        <Node pos="r" depth="1" NCoef="0" IVar="0" Cut="2.0306770324707031e+02" cType="1" res="-1.0126837342977524e-01" rms="2.7574563026428223e-01" purity="8.4249325096607208e-02" nType="0">
          <Node pos="l" depth="2" NCoef="0" IVar="-1" Cut="0.0000000000000000e+00" cType="1" res="-5.9208278544247150e-03" rms="3.3045676350593567e-01" purity="1.2476914376020432e-01" nType="-99"/>
          <Node pos="r" depth="2" NCoef="0" IVar="-1" Cut="0.0000000000000000e+00" cType="1" res="-7.6352958567440510e-03" rms="1.9736792147159576e-01" purity="4.0738500654697418e-02" nType="-99"/>
        </Node>
      </Node>
    </BinaryTree>
    <BinaryTree type="DecisionTree" boostWeight="1.0000000000000000e+00" itree="84">
      <Node pos="s" depth="0" NCoef="0" IVar="0" Cut="2.0682815551757812e+02" cType="1" res="-7.1069367229938507e-02" rms="3.2473844289779663e-01" purity="1.3947774469852448e-01" nType="0">
        <Node pos="l" depth="1" NCoef="0" IVar="-1" Cut="0.0000000000000000e+00" cType="1" res="-1.9149255240336061e-03" rms="3.8080945611000061e-01" purity="2.0570011436939240e-01" nType="-99"/>
        <Node pos="r" depth="1" NCoef="0" IVar="0" Cut="2.7414660644531250e+02" cType="1" res="-1.2726588547229767e-01" rms="2.2628839313983917e-01" purity="5.8265853673219681e-02" nType="0">
          <Node pos="l" depth="2" NCoef="0" IVar="-1" Cut="0.0000000000000000e+00" cType="1" res="-7.5069577433168888e-03" rms="2.5684571266174316e-01" purity="8.0043323338031769e-02" nType="-99"/>
          <Node pos="r" depth="2" NCoef="0" IVar="-1" Cut="0.0000000000000000e+00" cType="1" res="-6.2395776621997356e-03" rms="1.8905432522296906e-01" purity="3.7260159850120544e-02" nType="-99"/>
        </Node>
      </Node>
    </BinaryTree>
    <BinaryTree type="DecisionTree" boostWeight="1.0000000000000000e+00" itree="85">
      <Node pos="s" depth="0" NCoef="0" IVar="2" Cut="2.0070271492004395e+00" cType="0" res="-6.9799736142158508e-02" rms="3.2465705275535583e-01" purity="1.3947774469852448e-01" nType="0">
        <Node pos="l" depth="1" NCoef="0" IVar="-1" Cut="0.0000000000000000e+00" cType="1" res="6.1160102486610413e-03" rms="4.6012046933174133e-01" purity="4.0302348136901855e-01" nType="-99"/>
        <Node pos="r" depth="1" NCoef="0" IVar="2" Cut="-1.8274824619293213e+00" cType="1" res="-8.5043296217918396e-02" rms="3.0483329296112061e-01" purity="1.1543133854866028e-01" nType="0">
          <Node pos="l" depth="2" NCoef="0" IVar="-1" Cut="0.0000000000000000e+00" cType="1" res="3.6965801846235991e-03" rms="4.3818208575248718e-01" purity="3.4318444132804871e-01" nType="-99"/>
          <Node pos="r" depth="2" NCoef="0" IVar="-1" Cut="0.0000000000000000e+00" cType="1" res="-6.7846374586224556e-03" rms="2.7677455544471741e-01" purity="8.5652731359004974e-02" nType="-99"/>
        </Node>
      </Node>
    </BinaryTree>
    <BinaryTree type="DecisionTree" boostWeight="1.0000000000000000e+00" itree="86">
      <Node pos="s" depth="0" NCoef="0" IVar="0" Cut="2.1425212097167969e+02" cType="1" res="-6.8476743996143341e-02" rms="3.2430145144462585e-01" purity="1.3947774469852448e-01" nType="0">
        <Node pos="l" depth="1" NCoef="0" IVar="-1" Cut="0.0000000000000000e+00" cType="1" res="-2.0180616993457079e-03" rms="3.7654557824134827e-01" purity="2.0069169998168945e-01" nType="-99"/>
        <Node pos="r" depth="1" NCoef="0" IVar="0" Cut="2.7441546630859375e+02" cType="1" res="-1.2816725671291351e-01" rms="2.1710133552551270e-01" purity="5.2601657807826996e-02" nType="0">
