<?xml version="1.0"?>
<MethodSetup Method="Category::lepton_flavour">
  <GeneralInfo>
    <Info name="TMVA Release" value="4.2.0 [262656]"/>
    <Info name="ROOT Release" value="5.99/03 [353027]"/>
    <Info name="Creator" value="joosep"/>
    <Info name="Date" value="Fri Nov 22 18:05:11 2013"/>
    <Info name="Host" value="Linux phys.hep.kbfi.ee 2.6.32-042stab076.8 #1 SMP Tue May 14 20:38:14 MSK 2013 x86_64 x86_64 x86_64 GNU/Linux"/>
    <Info name="Dir" value="/home/joosep/singletop/stpol2/src/mva"/>
    <Info name="Training events" value="176952"/>
    <Info name="TrainingTime" value="7.11820095e+02"/>
    <Info name="AnalysisType" value="Classification"/>
  </GeneralInfo>
  <Options>
    <Option name="V" modified="No">False</Option>
    <Option name="VerbosityLevel" modified="No">Default</Option>
    <Option name="VarTransform" modified="No">None</Option>
    <Option name="H" modified="No">False</Option>
    <Option name="CreateMVAPdfs" modified="No">False</Option>
    <Option name="IgnoreNegWeightsInTraining" modified="No">False</Option>
  </Options>
  <Variables NVar="11">
    <Variable VarIndex="0" Expression="met" Label="met" Title="met" Unit="" Internal="met" Type="F" Min="2.25222540e+00" Max="8.38258240e+02"/>
    <Variable VarIndex="1" Expression="C" Label="C" Title="C" Unit="" Internal="C" Type="F" Min="9.39057267e-04" Max="9.94484961e-01"/>
    <Variable VarIndex="2" Expression="lepton_pt" Label="lepton_pt" Title="lepton_pt" Unit="" Internal="lepton_pt" Type="F" Min="2.60000114e+01" Max="6.75364624e+02"/>
    <Variable VarIndex="3" Expression="bjet_pt" Label="bjet_pt" Title="bjet_pt" Unit="" Internal="bjet_pt" Type="F" Min="4.00005875e+01" Max="7.24043152e+02"/>
    <Variable VarIndex="4" Expression="bjet_eta" Label="bjet_eta" Title="bjet_eta" Unit="" Internal="bjet_eta" Type="F" Min="-2.68914223e+00" Max="2.70442295e+00"/>
    <Variable VarIndex="5" Expression="bjet_mass" Label="bjet_mass" Title="bjet_mass" Unit="" Internal="bjet_mass" Type="F" Min="3.21888542e+00" Max="1.92360184e+02"/>
    <Variable VarIndex="6" Expression="ljet_eta" Label="ljet_eta" Title="ljet_eta" Unit="" Internal="ljet_eta" Type="F" Min="-4.99090624e+00" Max="4.98971891e+00"/>
    <Variable VarIndex="7" Expression="top_mass" Label="top_mass" Title="top_mass" Unit="" Internal="top_mass" Type="F" Min="9.31125183e+01" Max="1.35383923e+03"/>
    <Variable VarIndex="8" Expression="mtw" Label="mtw" Title="mtw" Unit="" Internal="mtw" Type="F" Min="3.00000076e+01" Max="8.94303345e+02"/>
    <Variable VarIndex="9" Expression="shat" Label="shat" Title="shat" Unit="" Internal="shat" Type="F" Min="1.37941345e+02" Max="3.47287842e+03"/>
    <Variable VarIndex="10" Expression="ht" Label="ht" Title="ht" Unit="" Internal="ht" Type="F" Min="8.01439514e+01" Max="1.55182507e+03"/>
  </Variables>
  <Spectators NSpec="1">
    <Spectator SpecIndex="0" Expression="lepton_type" Label="lepton_type" Title="F" Unit="" Internal="lepton_type" Type="F" Min="1.10000000e+01" Max="1.30000000e+01"/>
  </Spectators>
  <Classes NClass="2">
    <Class Name="Background" Index="0"/>
    <Class Name="Signal" Index="1"/>
  </Classes>
  <Transformations NTransformations="0"/>
  <MVAPdfs/>
  <Weights NSubMethods="2">
    <SubMethod Index="0" Method="BDT::muon" Cut="abs(lepton_type)==13.0" Variables="met:C:lepton_pt:bjet_pt:bjet_eta:bjet_mass:ljet_eta:top_mass:mtw:shat:ht">
      <GeneralInfo>
        <Info name="TMVA Release" value="4.2.0 [262656]"/>
        <Info name="ROOT Release" value="5.99/03 [353027]"/>
        <Info name="Creator" value="joosep"/>
        <Info name="Date" value="Fri Nov 22 18:05:11 2013"/>
        <Info name="Host" value="Linux phys.hep.kbfi.ee 2.6.32-042stab076.8 #1 SMP Tue May 14 20:38:14 MSK 2013 x86_64 x86_64 x86_64 GNU/Linux"/>
        <Info name="Dir" value="/home/joosep/singletop/stpol2/src/mva"/>
        <Info name="Training events" value="96495"/>
        <Info name="TrainingTime" value="3.48487810e+02"/>
        <Info name="AnalysisType" value="Classification"/>
      </GeneralInfo>
      <Options>
        <Option name="V" modified="No">False</Option>
        <Option name="VerbosityLevel" modified="Yes">Debug</Option>
        <Option name="VarTransform" modified="No">None</Option>
        <Option name="H" modified="Yes">True</Option>
        <Option name="CreateMVAPdfs" modified="No">False</Option>
        <Option name="IgnoreNegWeightsInTraining" modified="No">False</Option>
        <Option name="NTrees" modified="Yes">1000</Option>
        <Option name="MaxDepth" modified="Yes">2</Option>
        <Option name="MinNodeSize" modified="No">0.1036323.2</Option>
        <Option name="nCuts" modified="Yes">2000</Option>
        <Option name="BoostType" modified="Yes">Grad</Option>
        <Option name="AdaBoostR2Loss" modified="No">quadratic</Option>
        <Option name="UseBaggedBoost" modified="No">False</Option>
        <Option name="Shrinkage" modified="Yes">1.000000e-01</Option>
        <Option name="AdaBoostBeta" modified="No">5.000000e-01</Option>
        <Option name="UseRandomisedTrees" modified="No">False</Option>
        <Option name="UseNvars" modified="Yes">4</Option>
        <Option name="UsePoissonNvars" modified="No">True</Option>
        <Option name="BaggedSampleFraction" modified="No">6.000000e-01</Option>
        <Option name="UseYesNoLeaf" modified="No">True</Option>
        <Option name="NegWeightTreatment" modified="No">ignorenegweightsintraining</Option>
        <Option name="Css" modified="No">1.000000e+00</Option>
        <Option name="Cts_sb" modified="No">1.000000e+00</Option>
        <Option name="Ctb_ss" modified="No">1.000000e+00</Option>
        <Option name="Cbb" modified="No">1.000000e+00</Option>
        <Option name="NodePurityLimit" modified="No">5.000000e-01</Option>
        <Option name="SeparationType" modified="No">giniindex</Option>
        <Option name="DoBoostMonitor" modified="No">False</Option>
        <Option name="UseFisherCuts" modified="No">False</Option>
        <Option name="MinLinCorrForFisher" modified="No">8.000000e-01</Option>
        <Option name="UseExclusiveVars" modified="No">False</Option>
        <Option name="DoPreselection" modified="No">False</Option>
        <Option name="SigToBkgFraction" modified="No">1.000000e+00</Option>
        <Option name="PruneMethod" modified="Yes">costcomplexity</Option>
        <Option name="PruneStrength" modified="Yes">5.000000e+00</Option>
        <Option name="PruningValFraction" modified="No">5.000000e-01</Option>
        <Option name="nEventsMin" modified="Yes">100</Option>
        <Option name="UseBaggedGrad" modified="Yes">False</Option>
        <Option name="GradBaggingFraction" modified="No">6.000000e-01</Option>
        <Option name="UseNTrainEvents" modified="No">0</Option>
        <Option name="NNodesMax" modified="Yes">5</Option>
      </Options>
      <Variables NVar="11">
        <Variable VarIndex="0" Expression="met" Label="met" Title="met" Unit="" Internal="met" Type="F" Min="2.58477211e+00" Max="5.76791565e+02"/>
        <Variable VarIndex="1" Expression="C" Label="C" Title="C" Unit="" Internal="C" Type="F" Min="9.39057267e-04" Max="9.94484961e-01"/>
        <Variable VarIndex="2" Expression="lepton_pt" Label="lepton_pt" Title="lepton_pt" Unit="" Internal="lepton_pt" Type="F" Min="2.60000114e+01" Max="5.79889526e+02"/>
        <Variable VarIndex="3" Expression="bjet_pt" Label="bjet_pt" Title="bjet_pt" Unit="" Internal="bjet_pt" Type="F" Min="4.00005875e+01" Max="6.83235168e+02"/>
        <Variable VarIndex="4" Expression="bjet_eta" Label="bjet_eta" Title="bjet_eta" Unit="" Internal="bjet_eta" Type="F" Min="-2.68914223e+00" Max="2.65750504e+00"/>
        <Variable VarIndex="5" Expression="bjet_mass" Label="bjet_mass" Title="bjet_mass" Unit="" Internal="bjet_mass" Type="F" Min="3.21888542e+00" Max="1.72284012e+02"/>
        <Variable VarIndex="6" Expression="ljet_eta" Label="ljet_eta" Title="ljet_eta" Unit="" Internal="ljet_eta" Type="F" Min="-4.99090624e+00" Max="4.98971891e+00"/>
        <Variable VarIndex="7" Expression="top_mass" Label="top_mass" Title="top_mass" Unit="" Internal="top_mass" Type="F" Min="9.31125183e+01" Max="1.23771777e+03"/>
        <Variable VarIndex="8" Expression="mtw" Label="mtw" Title="mtw" Unit="" Internal="mtw" Type="F" Min="3.00017300e+01" Max="6.75388428e+02"/>
        <Variable VarIndex="9" Expression="shat" Label="shat" Title="shat" Unit="" Internal="shat" Type="F" Min="1.55462418e+02" Max="2.95411670e+03"/>
        <Variable VarIndex="10" Expression="ht" Label="ht" Title="ht" Unit="" Internal="ht" Type="F" Min="8.02346268e+01" Max="1.29644824e+03"/>
      </Variables>
      <Classes NClass="2">
        <Class Name="Background" Index="0"/>
        <Class Name="Signal" Index="1"/>
      </Classes>
      <Transformations NTransformations="1">
        <Transform Name="Rearrange">
          <Selection>
            <Input NInputs="11">
              <Input Type="Variable" Label="met" Expression="met"/>
              <Input Type="Variable" Label="C" Expression="C"/>
              <Input Type="Variable" Label="lepton_pt" Expression="lepton_pt"/>
              <Input Type="Variable" Label="bjet_pt" Expression="bjet_pt"/>
              <Input Type="Variable" Label="bjet_eta" Expression="bjet_eta"/>
              <Input Type="Variable" Label="bjet_mass" Expression="bjet_mass"/>
              <Input Type="Variable" Label="ljet_eta" Expression="ljet_eta"/>
              <Input Type="Variable" Label="top_mass" Expression="top_mass"/>
              <Input Type="Variable" Label="mtw" Expression="mtw"/>
              <Input Type="Variable" Label="shat" Expression="shat"/>
              <Input Type="Variable" Label="ht" Expression="ht"/>
            </Input>
            <Output NOutputs="11">
              <Output Type="Variable" Label="met" Expression="met"/>
              <Output Type="Variable" Label="C" Expression="C"/>
              <Output Type="Variable" Label="lepton_pt" Expression="lepton_pt"/>
              <Output Type="Variable" Label="bjet_pt" Expression="bjet_pt"/>
              <Output Type="Variable" Label="bjet_eta" Expression="bjet_eta"/>
              <Output Type="Variable" Label="bjet_mass" Expression="bjet_mass"/>
              <Output Type="Variable" Label="ljet_eta" Expression="ljet_eta"/>
              <Output Type="Variable" Label="top_mass" Expression="top_mass"/>
              <Output Type="Variable" Label="mtw" Expression="mtw"/>
              <Output Type="Variable" Label="shat" Expression="shat"/>
              <Output Type="Variable" Label="ht" Expression="ht"/>
            </Output>
          </Selection>
        </Transform>
      </Transformations>
      <MVAPdfs/>
      <Weights NTrees="1000" AnalysisType="1">
        <BinaryTree type="DecisionTree" boostWeight="1.0000000000000000e+00" itree="0">
          <Node pos="s" depth="0" NCoef="0" IVar="1" Cut="2.3281608521938324e-01" cType="1" res="-6.7348007858707127e-16" rms="5.0000000000000000e-01" purity="5.0000000000000000e-01" nType="0">
            <Node pos="l" depth="1" NCoef="0" IVar="7" Cut="2.4641297912597656e+02" cType="1" res="3.0647990107536316e-01" rms="3.9505705237388611e-01" purity="8.0647993087768555e-01" nType="0">
              <Node pos="l" depth="2" NCoef="0" IVar="-1" Cut="0.0000000000000000e+00" cType="1" res="6.3094668090343475e-02" rms="3.6709329485893250e-01" purity="8.3947390317916870e-01" nType="-99"/>
              <Node pos="r" depth="2" NCoef="0" IVar="-1" Cut="0.0000000000000000e+00" cType="1" res="-9.1841593384742737e-03" rms="4.9788105487823486e-01" purity="4.5401674509048462e-01" nType="-99"/>
            </Node>
            <Node pos="r" depth="1" NCoef="0" IVar="7" Cut="2.1374227905273438e+02" cType="1" res="-1.3173617422580719e-01" rms="4.8233348131179810e-01" purity="3.6826381087303162e-01" nType="0">
              <Node pos="l" depth="2" NCoef="0" IVar="-1" Cut="0.0000000000000000e+00" cType="1" res="-1.4741108752787113e-02" rms="4.9459722638130188e-01" purity="4.2669534683227539e-01" nType="-99"/>
              <Node pos="r" depth="2" NCoef="0" IVar="-1" Cut="0.0000000000000000e+00" cType="1" res="-6.6002957522869110e-02" rms="3.8976222276687622e-01" purity="1.8681408464908600e-01" nType="-99"/>
            </Node>
          </Node>
        </BinaryTree>
        <BinaryTree type="DecisionTree" boostWeight="1.0000000000000000e+00" itree="1">
          <Node pos="s" depth="0" NCoef="0" IVar="1" Cut="2.5863537192344666e-01" cType="1" res="9.7053847275674343e-04" rms="4.9041542410850525e-01" purity="5.0000000000000000e-01" nType="0">
            <Node pos="l" depth="1" NCoef="0" IVar="1" Cut="1.2676018476486206e-01" cType="1" res="2.6164078712463379e-01" rms="4.0539455413818359e-01" purity="7.8656971454620361e-01" nType="0">
              <Node pos="l" depth="2" NCoef="0" IVar="-1" Cut="0.0000000000000000e+00" cType="1" res="6.7303873598575592e-02" rms="3.0614346265792847e-01" purity="8.9393776655197144e-01" nType="-99"/>
              <Node pos="r" depth="2" NCoef="0" IVar="-1" Cut="0.0000000000000000e+00" cType="1" res="2.6642898097634315e-02" rms="4.7027951478958130e-01" purity="6.5762817859649658e-01" nType="-99"/>
            </Node>
            <Node pos="r" depth="1" NCoef="0" IVar="7" Cut="2.0651747131347656e+02" cType="1" res="-1.2635093927383423e-01" rms="4.7781622409820557e-01" purity="3.6002820730209351e-01" nType="0">
              <Node pos="l" depth="2" NCoef="0" IVar="-1" Cut="0.0000000000000000e+00" cType="1" res="-1.4119639992713928e-02" rms="4.9395567178726196e-01" purity="4.2249017953872681e-01" nType="-99"/>
              <Node pos="r" depth="2" NCoef="0" IVar="-1" Cut="0.0000000000000000e+00" cType="1" res="-5.7199258357286453e-02" rms="3.9854812622070312e-01" purity="1.9919781386852264e-01" nType="-99"/>
            </Node>
          </Node>
        </BinaryTree>
        <BinaryTree type="DecisionTree" boostWeight="1.0000000000000000e+00" itree="2">
          <Node pos="s" depth="0" NCoef="0" IVar="1" Cut="2.9786083102226257e-01" cType="1" res="1.7675566487014294e-03" rms="4.8232844471931458e-01" purity="5.0000000000000000e-01" nType="0">
            <Node pos="l" depth="1" NCoef="0" IVar="1" Cut="1.2677021324634552e-01" cType="1" res="2.1786266565322876e-01" rms="4.1777193546295166e-01" purity="7.5830066204071045e-01" nType="0">
              <Node pos="l" depth="2" NCoef="0" IVar="-1" Cut="0.0000000000000000e+00" cType="1" res="6.1912845820188522e-02" rms="3.0615693330764771e-01" purity="8.9393776655197144e-01" nType="-99"/>
              <Node pos="r" depth="2" NCoef="0" IVar="-1" Cut="0.0000000000000000e+00" cType="1" res="2.1784007549285889e-02" rms="4.7621059417724609e-01" purity="6.3167393207550049e-01" nType="-99"/>
            </Node>
            <Node pos="r" depth="1" NCoef="0" IVar="8" Cut="1.1639703369140625e+02" cType="1" res="-1.2561139464378357e-01" rms="4.7237822413444519e-01" purity="3.4774261713027954e-01" nType="0">
              <Node pos="l" depth="2" NCoef="0" IVar="-1" Cut="0.0000000000000000e+00" cType="1" res="-2.0306736230850220e-02" rms="4.7965484857559204e-01" purity="3.7383282184600830e-01" nType="-99"/>
              <Node pos="r" depth="2" NCoef="0" IVar="-1" Cut="0.0000000000000000e+00" cType="1" res="-8.1570208072662354e-02" rms="2.9249060153961182e-01" purity="9.4967782497406006e-02" nType="-99"/>
            </Node>
          </Node>
        </BinaryTree>
        <BinaryTree type="DecisionTree" boostWeight="1.0000000000000000e+00" itree="3">
          <Node pos="s" depth="0" NCoef="0" IVar="1" Cut="2.0749333500862122e-01" cType="1" res="2.4187967646867037e-03" rms="4.7539448738098145e-01" purity="5.0000000000000000e-01" nType="0">
            <Node pos="l" depth="1" NCoef="0" IVar="7" Cut="2.4698498535156250e+02" cType="1" res="2.4826009571552277e-01" rms="3.7176111340522766e-01" purity="8.2686412334442139e-01" nType="0">
              <Node pos="l" depth="2" NCoef="0" IVar="-1" Cut="0.0000000000000000e+00" cType="1" res="5.2347175776958466e-02" rms="3.4684664011001587e-01" purity="8.5657387971878052e-01" nType="-99"/>
              <Node pos="r" depth="2" NCoef="0" IVar="-1" Cut="0.0000000000000000e+00" cType="1" res="-1.0920684784650803e-02" rms="4.9498072266578674e-01" purity="4.8426452279090881e-01" nType="-99"/>
            </Node>
            <Node pos="r" depth="1" NCoef="0" IVar="7" Cut="2.1387695312500000e+02" cType="1" res="-8.9603133499622345e-02" rms="4.7725409269332886e-01" purity="3.7765008211135864e-01" nType="0">
              <Node pos="l" depth="2" NCoef="0" IVar="-1" Cut="0.0000000000000000e+00" cType="1" res="-8.2995416596531868e-03" rms="4.9187636375427246e-01" purity="4.3686524033546448e-01" nType="-99"/>
              <Node pos="r" depth="2" NCoef="0" IVar="-1" Cut="0.0000000000000000e+00" cType="1" res="-5.1802262663841248e-02" rms="3.9129024744033813e-01" purity="1.9225865602493286e-01" nType="-99"/>
            </Node>
          </Node>
        </BinaryTree>
        <BinaryTree type="DecisionTree" boostWeight="1.0000000000000000e+00" itree="4">
          <Node pos="s" depth="0" NCoef="0" IVar="1" Cut="3.2566621899604797e-01" cType="1" res="2.9374370351433754e-03" rms="4.6955889463424683e-01" purity="5.0000000000000000e-01" nType="0">
            <Node pos="l" depth="1" NCoef="0" IVar="7" Cut="2.2181625366210938e+02" cType="1" res="1.7350016534328461e-01" rms="4.1877499222755432e-01" purity="7.3935317993164062e-01" nType="0">
              <Node pos="l" depth="2" NCoef="0" IVar="-1" Cut="0.0000000000000000e+00" cType="1" res="4.1791979223489761e-02" rms="3.9302667975425720e-01" purity="7.9130184650421143e-01" nType="-99"/>
              <Node pos="r" depth="2" NCoef="0" IVar="-1" Cut="0.0000000000000000e+00" cType="1" res="-1.2581185437738895e-02" rms="4.7838014364242554e-01" purity="4.4481322169303894e-01" nType="-99"/>
            </Node>
            <Node pos="r" depth="1" NCoef="0" IVar="8" Cut="1.1607466125488281e+02" cType="1" res="-1.1082886904478073e-01" rms="4.6715003252029419e-01" purity="3.4035006165504456e-01" nType="0">
              <Node pos="l" depth="2" NCoef="0" IVar="-1" Cut="0.0000000000000000e+00" cType="1" res="-1.8031153827905655e-02" rms="4.7614946961402893e-01" purity="3.6641696095466614e-01" nType="-99"/>
              <Node pos="r" depth="2" NCoef="0" IVar="-1" Cut="0.0000000000000000e+00" cType="1" res="-7.2601653635501862e-02" rms="2.9227042198181152e-01" purity="9.4905018806457520e-02" nType="-99"/>
            </Node>
          </Node>
        </BinaryTree>
        <BinaryTree type="DecisionTree" boostWeight="1.0000000000000000e+00" itree="5">
          <Node pos="s" depth="0" NCoef="0" IVar="1" Cut="1.9855588674545288e-01" cType="1" res="3.3265883103013039e-03" rms="4.6435973048210144e-01" purity="5.0000000000000000e-01" nType="0">
            <Node pos="l" depth="1" NCoef="0" IVar="1" Cut="8.5273057222366333e-02" cType="1" res="2.1547429263591766e-01" rms="3.6183631420135498e-01" purity="8.3464956283569336e-01" nType="0">
              <Node pos="l" depth="2" NCoef="0" IVar="-1" Cut="0.0000000000000000e+00" cType="1" res="5.7792235165834427e-02" rms="2.5710442662239075e-01" purity="9.2737323045730591e-01" nType="-99"/>
              <Node pos="r" depth="2" NCoef="0" IVar="-1" Cut="0.0000000000000000e+00" cType="1" res="2.8806738555431366e-02" rms="4.2380502820014954e-01" purity="7.5002735853195190e-01" nType="-99"/>
            </Node>
            <Node pos="r" depth="1" NCoef="0" IVar="7" Cut="2.0011328125000000e+02" cType="1" res="-7.1877308189868927e-02" rms="4.7333574295043945e-01" purity="3.8137063384056091e-01" nType="0">
              <Node pos="l" depth="2" NCoef="0" IVar="-1" Cut="0.0000000000000000e+00" cType="1" res="-4.0885899215936661e-03" rms="4.9013411998748779e-01" purity="4.5096471905708313e-01" nType="-99"/>
              <Node pos="r" depth="2" NCoef="0" IVar="-1" Cut="0.0000000000000000e+00" cType="1" res="-3.9977341890335083e-02" rms="4.1269224882125854e-01" purity="2.2971653938293457e-01" nType="-99"/>
            </Node>
          </Node>
        </BinaryTree>
        <BinaryTree type="DecisionTree" boostWeight="1.0000000000000000e+00" itree="6">
          <Node pos="s" depth="0" NCoef="0" IVar="1" Cut="3.5595420002937317e-01" cType="1" res="3.6407231818884611e-03" rms="4.6011757850646973e-01" purity="5.0000000000000000e-01" nType="0">
            <Node pos="l" depth="1" NCoef="0" IVar="7" Cut="2.4641297912597656e+02" cType="1" res="1.3897413015365601e-01" rms="4.2011320590972900e-01" purity="7.1930569410324097e-01" nType="0">
              <Node pos="l" depth="2" NCoef="0" IVar="-1" Cut="0.0000000000000000e+00" cType="1" res="3.4166019409894943e-02" rms="4.0404534339904785e-01" purity="7.6398986577987671e-01" nType="-99"/>
              <Node pos="r" depth="2" NCoef="0" IVar="-1" Cut="0.0000000000000000e+00" cType="1" res="-2.4963501840829849e-02" rms="4.5926463603973389e-01" purity="3.5087335109710693e-01" nType="-99"/>
            </Node>
            <Node pos="r" depth="1" NCoef="0" IVar="8" Cut="1.0608117675781250e+02" cType="1" res="-9.9466703832149506e-02" rms="4.6254858374595642e-01" purity="3.3291596174240112e-01" nType="0">
              <Node pos="l" depth="2" NCoef="0" IVar="-1" Cut="0.0000000000000000e+00" cType="1" res="-1.5324503183364868e-02" rms="4.7425591945648193e-01" purity="3.6384806036949158e-01" nType="-99"/>
              <Node pos="r" depth="2" NCoef="0" IVar="-1" Cut="0.0000000000000000e+00" cType="1" res="-5.7238522917032242e-02" rms="3.4364196658134460e-01" purity="1.4369472861289978e-01" nType="-99"/>
            </Node>
          </Node>
        </BinaryTree>
        <BinaryTree type="DecisionTree" boostWeight="1.0000000000000000e+00" itree="7">
          <Node pos="s" depth="0" NCoef="0" IVar="1" Cut="3.6886385083198547e-01" cType="1" res="3.8525627460330725e-03" rms="4.5616459846496582e-01" purity="5.0000000000000000e-01" nType="0">
            <Node pos="l" depth="1" NCoef="0" IVar="1" Cut="1.2633258104324341e-01" cType="1" res="1.2294172495603561e-01" rms="4.2106962203979492e-01" purity="7.1085888147354126e-01" nType="0">
              <Node pos="l" depth="2" NCoef="0" IVar="-1" Cut="0.0000000000000000e+00" cType="1" res="4.6942643821239471e-02" rms="3.0158945918083191e-01" purity="8.9421421289443970e-01" nType="-99"/>
              <Node pos="r" depth="2" NCoef="0" IVar="-1" Cut="0.0000000000000000e+00" cType="1" res="1.1041211895644665e-02" rms="4.7251868247985840e-01" purity="5.8860433101654053e-01" nType="-99"/>
            </Node>
            <Node pos="r" depth="1" NCoef="0" IVar="7" Cut="2.0047857666015625e+02" cType="1" res="-9.2141881585121155e-02" rms="4.6071189641952515e-01" purity="3.3003255724906921e-01" nType="0">
              <Node pos="l" depth="2" NCoef="0" IVar="-1" Cut="0.0000000000000000e+00" cType="1" res="-1.0394845157861710e-02" rms="4.8453137278556824e-01" purity="3.9361193776130676e-01" nType="-99"/>
              <Node pos="r" depth="2" NCoef="0" IVar="-1" Cut="0.0000000000000000e+00" cType="1" res="-4.1239932179450989e-02" rms="3.8878551125526428e-01" purity="1.9128781557083130e-01" nType="-99"/>
            </Node>
          </Node>
        </BinaryTree>
        <BinaryTree type="DecisionTree" boostWeight="1.0000000000000000e+00" itree="8">
          <Node pos="s" depth="0" NCoef="0" IVar="1" Cut="1.8217056989669800e-01" cType="1" res="4.0373895317316055e-03" rms="4.5284223556518555e-01" purity="5.0000000000000000e-01" nType="0">
            <Node pos="l" depth="1" NCoef="0" IVar="8" Cut="1.3091708374023438e+02" cType="1" res="1.7545801401138306e-01" rms="3.4799891710281372e-01" purity="8.4686845541000366e-01" nType="0">
              <Node pos="l" depth="2" NCoef="0" IVar="-1" Cut="0.0000000000000000e+00" cType="1" res="3.8745287805795670e-02" rms="3.4095045924186707e-01" purity="8.5443085432052612e-01" nType="-99"/>
              <Node pos="r" depth="2" NCoef="0" IVar="-1" Cut="0.0000000000000000e+00" cType="1" res="-9.4493962824344635e-02" rms="4.1051995754241943e-01" purity="2.3502817749977112e-01" nType="-99"/>
            </Node>
            <Node pos="r" depth="1" NCoef="0" IVar="6" Cut="1.4170546531677246e+00" cType="0" res="-5.1072195172309875e-02" rms="4.6858841180801392e-01" purity="3.8848614692687988e-01" nType="0">
              <Node pos="l" depth="2" NCoef="0" IVar="-1" Cut="0.0000000000000000e+00" cType="1" res="2.0687155425548553e-02" rms="4.7516751289367676e-01" purity="5.7345998287200928e-01" nType="-99"/>
              <Node pos="r" depth="2" NCoef="0" IVar="-1" Cut="0.0000000000000000e+00" cType="1" res="-1.7059566453099251e-02" rms="4.6145558357238770e-01" purity="3.5279077291488647e-01" nType="-99"/>
            </Node>
          </Node>
        </BinaryTree>
        <BinaryTree type="DecisionTree" boostWeight="1.0000000000000000e+00" itree="9">
          <Node pos="s" depth="0" NCoef="0" IVar="1" Cut="4.1454413533210754e-01" cType="1" res="4.1282167658209801e-03" rms="4.5009207725524902e-01" purity="5.0000000000000000e-01" nType="0">
            <Node pos="l" depth="1" NCoef="0" IVar="7" Cut="2.1724012756347656e+02" cType="1" res="9.5106132328510284e-02" rms="4.2486074566841125e-01" purity="6.8215900659561157e-01" nType="0">
              <Node pos="l" depth="2" NCoef="0" IVar="-1" Cut="0.0000000000000000e+00" cType="1" res="2.7921272441744804e-02" rms="4.0831041336059570e-01" purity="7.4496281147003174e-01" nType="-99"/>
              <Node pos="r" depth="2" NCoef="0" IVar="-1" Cut="0.0000000000000000e+00" cType="1" res="-1.7421660944819450e-02" rms="4.5372647047042847e-01" purity="3.9445880055427551e-01" nType="-99"/>
            </Node>
            <Node pos="r" depth="1" NCoef="0" IVar="8" Cut="1.1123910522460938e+02" cType="1" res="-8.5169494152069092e-02" rms="4.5623806118965149e-01" purity="3.2120510935783386e-01" nType="0">
              <Node pos="l" depth="2" NCoef="0" IVar="-1" Cut="0.0000000000000000e+00" cType="1" res="-1.3602507300674915e-02" rms="4.6866962313652039e-01" purity="3.4954646229743958e-01" nType="-99"/>
              <Node pos="r" depth="2" NCoef="0" IVar="-1" Cut="0.0000000000000000e+00" cType="1" res="-5.7569894939661026e-02" rms="3.0537390708923340e-01" purity="1.0751937329769135e-01" nType="-99"/>
            </Node>
          </Node>
        </BinaryTree>
        <BinaryTree type="DecisionTree" boostWeight="1.0000000000000000e+00" itree="10">
          <Node pos="s" depth="0" NCoef="0" IVar="1" Cut="1.5734434127807617e-01" cType="1" res="4.1580465622246265e-03" rms="4.4742095470428467e-01" purity="5.0000000000000000e-01" nType="0">
            <Node pos="l" depth="1" NCoef="0" IVar="1" Cut="5.8850567787885666e-02" cType="1" res="1.6391852498054504e-01" rms="3.2770746946334839e-01" purity="8.6712527275085449e-01" nType="0">
              <Node pos="l" depth="2" NCoef="0" IVar="-1" Cut="0.0000000000000000e+00" cType="1" res="5.1692008972167969e-02" rms="2.1804822981357574e-01" purity="9.4870060682296753e-01" nType="-99"/>
              <Node pos="r" depth="2" NCoef="0" IVar="-1" Cut="0.0000000000000000e+00" cType="1" res="2.6625461876392365e-02" rms="3.7904673814773560e-01" purity="8.1124371290206909e-01" nType="-99"/>
            </Node>
            <Node pos="r" depth="1" NCoef="0" IVar="6" Cut="-1.4795366525650024e+00" cType="1" res="-3.9642576128244400e-02" rms="4.6552124619483948e-01" purity="3.9934733510017395e-01" nType="0">
              <Node pos="l" depth="2" NCoef="0" IVar="-1" Cut="0.0000000000000000e+00" cType="1" res="2.2773480042815208e-02" rms="4.6797657012939453e-01" purity="5.9740167856216431e-01" nType="-99"/>
              <Node pos="r" depth="2" NCoef="0" IVar="-1" Cut="0.0000000000000000e+00" cType="1" res="-1.4607931487262249e-02" rms="4.5943474769592285e-01" purity="3.6177444458007812e-01" nType="-99"/>
            </Node>
          </Node>
        </BinaryTree>
        <BinaryTree type="DecisionTree" boostWeight="1.0000000000000000e+00" itree="11">
          <Node pos="s" depth="0" NCoef="0" IVar="1" Cut="4.4383907318115234e-01" cType="1" res="4.1818171739578247e-03" rms="4.4524243474006653e-01" purity="5.0000000000000000e-01" nType="0">
            <Node pos="l" depth="1" NCoef="0" IVar="7" Cut="2.3954876708984375e+02" cType="1" res="7.6346650719642639e-02" rms="4.2524465918540955e-01" purity="6.6512787342071533e-01" nType="0">
              <Node pos="l" depth="2" NCoef="0" IVar="-1" Cut="0.0000000000000000e+00" cType="1" res="2.2652048617601395e-02" rms="4.1569906473159790e-01" purity="7.1767675876617432e-01" nType="-99"/>
              <Node pos="r" depth="2" NCoef="0" IVar="-1" Cut="0.0000000000000000e+00" cType="1" res="-2.5730425491929054e-02" rms="4.3673855066299438e-01" purity="3.1762129068374634e-01" nType="-99"/>
            </Node>
            <Node pos="r" depth="1" NCoef="0" IVar="10" Cut="1.2646846771240234e+02" cType="1" res="-7.6340578496456146e-02" rms="4.5317757129669189e-01" purity="3.1574827432632446e-01" nType="0">
              <Node pos="l" depth="2" NCoef="0" IVar="-1" Cut="0.0000000000000000e+00" cType="1" res="9.6418673638254404e-04" rms="4.8411452770233154e-01" purity="4.1389402747154236e-01" nType="-99"/>
              <Node pos="r" depth="2" NCoef="0" IVar="-1" Cut="0.0000000000000000e+00" cType="1" res="-2.5740262120962143e-02" rms="4.3156605958938599e-01" purity="2.6735463738441467e-01" nType="-99"/>
            </Node>
          </Node>
        </BinaryTree>
        <BinaryTree type="DecisionTree" boostWeight="1.0000000000000000e+00" itree="12">
          <Node pos="s" depth="0" NCoef="0" IVar="1" Cut="1.5138603746891022e-01" cType="1" res="4.1338554583489895e-03" rms="4.4315019249916077e-01" purity="5.0000000000000000e-01" nType="0">
            <Node pos="l" depth="1" NCoef="0" IVar="8" Cut="1.3618193054199219e+02" cType="1" res="1.4474372565746307e-01" rms="3.2166767120361328e-01" purity="8.7209337949752808e-01" nType="0">
              <Node pos="l" depth="2" NCoef="0" IVar="-1" Cut="0.0000000000000000e+00" cType="1" res="3.5196550190448761e-02" rms="3.1695100665092468e-01" purity="8.7729614973068237e-01" nType="-99"/>
              <Node pos="r" depth="2" NCoef="0" IVar="-1" Cut="0.0000000000000000e+00" cType="1" res="-9.5155954360961914e-02" rms="4.0821495652198792e-01" purity="2.2663883864879608e-01" nType="-99"/>
            </Node>
            <Node pos="r" depth="1" NCoef="0" IVar="8" Cut="1.1966564941406250e+02" cType="1" res="-3.2840665429830551e-02" rms="4.6286928653717041e-01" purity="4.0215498208999634e-01" nType="0">
              <Node pos="l" depth="2" NCoef="0" IVar="-1" Cut="0.0000000000000000e+00" cType="1" res="-3.1210647430270910e-03" rms="4.6962133049964905e-01" purity="4.2739185690879822e-01" nType="-99"/>
              <Node pos="r" depth="2" NCoef="0" IVar="-1" Cut="0.0000000000000000e+00" cType="1" res="-6.2549397349357605e-02" rms="2.9144877195358276e-01" purity="9.4563513994216919e-02" nType="-99"/>
            </Node>
          </Node>
        </BinaryTree>
        <BinaryTree type="DecisionTree" boostWeight="1.0000000000000000e+00" itree="13">
          <Node pos="s" depth="0" NCoef="0" IVar="1" Cut="2.9786083102226257e-01" cType="1" res="4.0889694355428219e-03" rms="4.4130343198776245e-01" purity="5.0000000000000000e-01" nType="0">
            <Node pos="l" depth="1" NCoef="0" IVar="8" Cut="1.1902545928955078e+02" cType="1" res="8.9494578540325165e-02" rms="3.9453020691871643e-01" purity="7.5830066204071045e-01" nType="0">
              <Node pos="l" depth="2" NCoef="0" IVar="-1" Cut="0.0000000000000000e+00" cType="1" res="2.2896949201822281e-02" rms="3.8780996203422546e-01" purity="7.7354305982589722e-01" nType="-99"/>
              <Node pos="r" depth="2" NCoef="0" IVar="-1" Cut="0.0000000000000000e+00" cType="1" res="-6.2410186976194382e-02" rms="4.1685786843299866e-01" purity="2.9896610975265503e-01" nType="-99"/>
            </Node>
            <Node pos="r" depth="1" NCoef="0" IVar="7" Cut="2.2096708679199219e+02" cType="1" res="-4.6254035085439682e-02" rms="4.5930314064025879e-01" purity="3.4774261713027954e-01" nType="0">
              <Node pos="l" depth="2" NCoef="0" IVar="-1" Cut="0.0000000000000000e+00" cType="1" res="-3.5039794165641069e-03" rms="4.7792416810989380e-01" purity="3.9898547530174255e-01" nType="-99"/>
              <Node pos="r" depth="2" NCoef="0" IVar="-1" Cut="0.0000000000000000e+00" cType="1" res="-3.7629161030054092e-02" rms="3.6532810330390930e-01" purity="1.6291198134422302e-01" nType="-99"/>
            </Node>
          </Node>
        </BinaryTree>
        <BinaryTree type="DecisionTree" boostWeight="1.0000000000000000e+00" itree="14">
          <Node pos="s" depth="0" NCoef="0" IVar="1" Cut="1.3202157616615295e-01" cType="1" res="4.0206750854849815e-03" rms="4.3966433405876160e-01" purity="5.0000000000000000e-01" nType="0">
            <Node pos="l" depth="1" NCoef="0" IVar="1" Cut="5.8836273849010468e-02" cType="1" res="1.3354493677616119e-01" rms="3.0343219637870789e-01" purity="8.8896429538726807e-01" nType="0">
              <Node pos="l" depth="2" NCoef="0" IVar="-1" Cut="0.0000000000000000e+00" cType="1" res="4.6253021806478500e-02" rms="2.1725317835807800e-01" purity="9.4869416952133179e-01" nType="-99"/>
              <Node pos="r" depth="2" NCoef="0" IVar="-1" Cut="0.0000000000000000e+00" cType="1" res="2.2830523550510406e-02" rms="3.5857293009757996e-01" purity="8.3559912443161011e-01" nType="-99"/>
            </Node>
            <Node pos="r" depth="1" NCoef="0" IVar="2" Cut="7.5271545410156250e+01" cType="1" res="-2.5450924411416054e-02" rms="4.6005794405937195e-01" purity="4.1149613261222839e-01" nType="0">
              <Node pos="l" depth="2" NCoef="0" IVar="-1" Cut="0.0000000000000000e+00" cType="1" res="4.7655912931077182e-04" rms="4.6832001209259033e-01" purity="4.4954797625541687e-01" nType="-99"/>
              <Node pos="r" depth="2" NCoef="0" IVar="-1" Cut="0.0000000000000000e+00" cType="1" res="-3.2981984317302704e-02" rms="4.0254348516464233e-01" purity="2.5001135468482971e-01" nType="-99"/>
            </Node>
          </Node>
        </BinaryTree>
        <BinaryTree type="DecisionTree" boostWeight="1.0000000000000000e+00" itree="15">
          <Node pos="s" depth="0" NCoef="0" IVar="6" Cut="-1.5193845033645630e+00" cType="1" res="3.9360597729682922e-03" rms="4.3827298283576965e-01" purity="5.0000000000000000e-01" nType="0">
            <Node pos="l" depth="1" NCoef="0" IVar="4" Cut="-8.4312224388122559e-01" cType="0" res="1.1643704026937485e-01" rms="3.9706408977508545e-01" purity="7.3567801713943481e-01" nType="0">
              <Node pos="l" depth="2" NCoef="0" IVar="-1" Cut="0.0000000000000000e+00" cType="1" res="3.7431955337524414e-02" rms="3.6805990338325500e-01" purity="7.9373395442962646e-01" nType="-99"/>
              <Node pos="r" depth="2" NCoef="0" IVar="-1" Cut="0.0000000000000000e+00" cType="1" res="1.1337809701217338e-04" rms="4.3627679347991943e-01" purity="5.9997999668121338e-01" nType="-99"/>
            </Node>
            <Node pos="r" depth="1" NCoef="0" IVar="6" Cut="1.3757483959197998e+00" cType="0" res="-2.7819123119115829e-02" rms="4.4409328699111938e-01" purity="4.3347612023353577e-01" nType="0">
              <Node pos="l" depth="2" NCoef="0" IVar="-1" Cut="0.0000000000000000e+00" cType="1" res="2.4294646456837654e-02" rms="4.0772065520286560e-01" purity="7.0852863788604736e-01" nType="-99"/>
              <Node pos="r" depth="2" NCoef="0" IVar="-1" Cut="0.0000000000000000e+00" cType="1" res="-1.9789408892393112e-02" rms="4.4622030854225159e-01" purity="3.0952078104019165e-01" nType="-99"/>
            </Node>
          </Node>
        </BinaryTree>
        <BinaryTree type="DecisionTree" boostWeight="1.0000000000000000e+00" itree="16">
          <Node pos="s" depth="0" NCoef="0" IVar="7" Cut="2.0007962036132812e+02" cType="1" res="3.9485003799200058e-03" rms="4.3591770529747009e-01" purity="5.0000000000000000e-01" nType="0">
            <Node pos="l" depth="1" NCoef="0" IVar="8" Cut="1.2353688812255859e+02" cType="1" res="3.9655935019254684e-02" rms="4.4004222750663757e-01" purity="5.7589209079742432e-01" nType="0">
              <Node pos="l" depth="2" NCoef="0" IVar="-1" Cut="0.0000000000000000e+00" cType="1" res="1.2041635811328888e-02" rms="4.4148591160774231e-01" purity="6.0144937038421631e-01" nType="-99"/>
              <Node pos="r" depth="2" NCoef="0" IVar="-1" Cut="0.0000000000000000e+00" cType="1" res="-5.7728476822376251e-02" rms="3.0531105399131775e-01" purity="1.2021759897470474e-01" nType="-99"/>
            </Node>
            <Node pos="r" depth="1" NCoef="0" IVar="9" Cut="5.7768841552734375e+02" cType="0" res="-8.6102835834026337e-02" rms="4.1181054711341858e-01" purity="3.0860602855682373e-01" nType="0">
              <Node pos="l" depth="2" NCoef="0" IVar="-1" Cut="0.0000000000000000e+00" cType="1" res="1.0213440284132957e-02" rms="4.2100146412849426e-01" purity="5.9103137254714966e-01" nType="-99"/>
              <Node pos="r" depth="2" NCoef="0" IVar="-1" Cut="0.0000000000000000e+00" cType="1" res="-2.6193521916866302e-02" rms="4.0590503811836243e-01" purity="2.5911146402359009e-01" nType="-99"/>
            </Node>
          </Node>
        </BinaryTree>
        <BinaryTree type="DecisionTree" boostWeight="1.0000000000000000e+00" itree="17">
          <Node pos="s" depth="0" NCoef="0" IVar="6" Cut="1.6877830028533936e+00" cType="0" res="3.7685586139559746e-03" rms="4.3441838026046753e-01" purity="5.0000000000000000e-01" nType="0">
            <Node pos="l" depth="1" NCoef="0" IVar="4" Cut="9.1070216894149780e-01" cType="1" res="1.1344769597053528e-01" rms="3.8561615347862244e-01" purity="7.6454955339431763e-01" nType="0">
              <Node pos="l" depth="2" NCoef="0" IVar="-1" Cut="0.0000000000000000e+00" cType="1" res="3.7193145602941513e-02" rms="3.5491725802421570e-01" purity="8.1833094358444214e-01" nType="-99"/>
              <Node pos="r" depth="2" NCoef="0" IVar="-1" Cut="0.0000000000000000e+00" cType="1" res="-3.0022948049008846e-03" rms="4.3384847044944763e-01" purity="6.1937773227691650e-01" nType="-99"/>
            </Node>
            <Node pos="r" depth="1" NCoef="0" IVar="6" Cut="-1.2193685770034790e+00" cType="1" res="-2.2577634081244469e-02" rms="4.4130343198776245e-01" purity="4.3645215034484863e-01" nType="0">
              <Node pos="l" depth="2" NCoef="0" IVar="-1" Cut="0.0000000000000000e+00" cType="1" res="2.0921075716614723e-02" rms="4.0993589162826538e-01" purity="6.8279117345809937e-01" nType="-99"/>
              <Node pos="r" depth="2" NCoef="0" IVar="-1" Cut="0.0000000000000000e+00" cType="1" res="-1.7862318083643913e-02" rms="4.4531276822090149e-01" purity="3.1355911493301392e-01" nType="-99"/>
            </Node>
          </Node>
        </BinaryTree>
        <BinaryTree type="DecisionTree" boostWeight="1.0000000000000000e+00" itree="18">
          <Node pos="s" depth="0" NCoef="0" IVar="8" Cut="1.0321651458740234e+02" cType="1" res="3.7522648926824331e-03" rms="4.3247565627098083e-01" purity="5.0000000000000000e-01" nType="0">
            <Node pos="l" depth="1" NCoef="0" IVar="7" Cut="2.2639239501953125e+02" cType="1" res="2.3244498297572136e-02" rms="4.3682241439819336e-01" purity="5.3599601984024048e-01" nType="0">
              <Node pos="l" depth="2" NCoef="0" IVar="-1" Cut="0.0000000000000000e+00" cType="1" res="1.0843394324183464e-02" rms="4.3982729315757751e-01" purity="5.9340858459472656e-01" nType="-99"/>
              <Node pos="r" depth="2" NCoef="0" IVar="-1" Cut="0.0000000000000000e+00" cType="1" res="-2.3916020989418030e-02" rms="4.0061229467391968e-01" purity="2.6243242621421814e-01" nType="-99"/>
            </Node>
            <Node pos="r" depth="1" NCoef="0" IVar="8" Cut="1.3552983093261719e+02" cType="1" res="-1.3087365031242371e-01" rms="3.7441855669021606e-01" purity="2.5138840079307556e-01" nType="0">
              <Node pos="l" depth="2" NCoef="0" IVar="-1" Cut="0.0000000000000000e+00" cType="1" res="-2.0402060821652412e-02" rms="4.1324144601821899e-01" purity="3.3625122904777527e-01" nType="-99"/>
              <Node pos="r" depth="2" NCoef="0" IVar="-1" Cut="0.0000000000000000e+00" cType="1" res="-6.5786816179752350e-02" rms="2.2944213449954987e-01" purity="5.4127994924783707e-02" nType="-99"/>
            </Node>
          </Node>
        </BinaryTree>
        <BinaryTree type="DecisionTree" boostWeight="1.0000000000000000e+00" itree="19">
          <Node pos="s" depth="0" NCoef="0" IVar="6" Cut="1.4633311033248901e+00" cType="0" res="3.5605207085609436e-03" rms="4.3116796016693115e-01" purity="5.0000000000000000e-01" nType="0">
            <Node pos="l" depth="1" NCoef="0" IVar="4" Cut="9.3064099550247192e-01" cType="1" res="9.3112729489803314e-02" rms="3.9756429195404053e-01" purity="7.2492831945419312e-01" nType="0">
              <Node pos="l" depth="2" NCoef="0" IVar="-1" Cut="0.0000000000000000e+00" cType="1" res="3.1881727278232574e-02" rms="3.7290477752685547e-01" purity="7.7937644720077515e-01" nType="-99"/>
              <Node pos="r" depth="2" NCoef="0" IVar="-1" Cut="0.0000000000000000e+00" cType="1" res="-6.2741548754274845e-03" rms="4.3746376037597656e-01" purity="5.7333087921142578e-01" nType="-99"/>
            </Node>
            <Node pos="r" depth="1" NCoef="0" IVar="6" Cut="-1.2203007936477661e+00" cType="1" res="-2.2832738235592842e-02" rms="4.3709638714790344e-01" purity="4.3370804190635681e-01" nType="0">
              <Node pos="l" depth="2" NCoef="0" IVar="-1" Cut="0.0000000000000000e+00" cType="1" res="1.8982656300067902e-02" rms="4.0847268700599670e-01" purity="6.8294328451156616e-01" nType="-99"/>
              <Node pos="r" depth="2" NCoef="0" IVar="-1" Cut="0.0000000000000000e+00" cType="1" res="-1.7954612150788307e-02" rms="4.4152167439460754e-01" purity="3.0107823014259338e-01" nType="-99"/>
            </Node>
          </Node>
        </BinaryTree>
        <BinaryTree type="DecisionTree" boostWeight="1.0000000000000000e+00" itree="20">
          <Node pos="s" depth="0" NCoef="0" IVar="7" Cut="1.9664752197265625e+02" cType="1" res="3.5297195427119732e-03" rms="4.2946150898933411e-01" purity="5.0000000000000000e-01" nType="0">
            <Node pos="l" depth="1" NCoef="0" IVar="9" Cut="3.4596426391601562e+02" cType="0" res="3.4210197627544403e-02" rms="4.3407252430915833e-01" purity="5.7867336273193359e-01" nType="0">
              <Node pos="l" depth="2" NCoef="0" IVar="-1" Cut="0.0000000000000000e+00" cType="1" res="2.3248217999935150e-02" rms="3.7684857845306396e-01" purity="7.5407522916793823e-01" nType="-99"/>
              <Node pos="r" depth="2" NCoef="0" IVar="-1" Cut="0.0000000000000000e+00" cType="1" res="-2.8919964097440243e-03" rms="4.6796715259552002e-01" purity="4.4341138005256653e-01" nType="-99"/>
            </Node>
            <Node pos="r" depth="1" NCoef="0" IVar="2" Cut="5.9351104736328125e+01" cType="1" res="-6.5988793969154358e-02" rms="4.1042572259902954e-01" purity="3.2173499464988708e-01" nType="0">
              <Node pos="l" depth="2" NCoef="0" IVar="-1" Cut="0.0000000000000000e+00" cType="1" res="-6.1375414952635765e-03" rms="4.3280619382858276e-01" purity="3.9510813355445862e-01" nType="-99"/>
              <Node pos="r" depth="2" NCoef="0" IVar="-1" Cut="0.0000000000000000e+00" cType="1" res="-3.1118519604206085e-02" rms="3.7089633941650391e-01" purity="2.2188730537891388e-01" nType="-99"/>
            </Node>
          </Node>
        </BinaryTree>
        <BinaryTree type="DecisionTree" boostWeight="1.0000000000000000e+00" itree="21">
          <Node pos="s" depth="0" NCoef="0" IVar="8" Cut="1.0160385131835938e+02" cType="1" res="3.3957362174987793e-03" rms="4.2844435572624207e-01" purity="5.0000000000000000e-01" nType="0">
            <Node pos="l" depth="1" NCoef="0" IVar="7" Cut="2.2639239501953125e+02" cType="1" res="2.1556196734309196e-02" rms="4.3330430984497070e-01" purity="5.3711986541748047e-01" nType="0">
              <Node pos="l" depth="2" NCoef="0" IVar="-1" Cut="0.0000000000000000e+00" cType="1" res="9.6276160329580307e-03" rms="4.3725064396858215e-01" purity="5.9471225738525391e-01" nType="-99"/>
              <Node pos="r" depth="2" NCoef="0" IVar="-1" Cut="0.0000000000000000e+00" cType="1" res="-1.9668586552143097e-02" rms="3.9926716685295105e-01" purity="2.6363924145698547e-01" nType="-99"/>
            </Node>
            <Node pos="r" depth="1" NCoef="0" IVar="8" Cut="1.3515499877929688e+02" cType="1" res="-1.1059264838695526e-01" rms="3.7711253762245178e-01" purity="2.6700821518898010e-01" nType="0">
              <Node pos="l" depth="2" NCoef="0" IVar="-1" Cut="0.0000000000000000e+00" cType="1" res="-1.7517911270260811e-02" rms="4.1411980986595154e-01" purity="3.4974652528762817e-01" nType="-99"/>
              <Node pos="r" depth="2" NCoef="0" IVar="-1" Cut="0.0000000000000000e+00" cType="1" res="-6.1873026192188263e-02" rms="2.3147550225257874e-01" purity="5.5151887238025665e-02" nType="-99"/>
            </Node>
          </Node>
        </BinaryTree>
        <BinaryTree type="DecisionTree" boostWeight="1.0000000000000000e+00" itree="22">
          <Node pos="s" depth="0" NCoef="0" IVar="6" Cut="-1.5991895198822021e+00" cType="1" res="3.2085676211863756e-03" rms="4.2747032642364502e-01" purity="5.0000000000000000e-01" nType="0">
            <Node pos="l" depth="1" NCoef="0" IVar="4" Cut="-8.4360647201538086e-01" cType="0" res="8.7626717984676361e-02" rms="3.8519549369812012e-01" purity="7.4966108798980713e-01" nType="0">
              <Node pos="l" depth="2" NCoef="0" IVar="-1" Cut="0.0000000000000000e+00" cType="1" res="3.1517017632722855e-02" rms="3.5664194822311401e-01" purity="8.0699425935745239e-01" nType="-99"/>
              <Node pos="r" depth="2" NCoef="0" IVar="-1" Cut="0.0000000000000000e+00" cType="1" res="-2.2285967133939266e-03" rms="4.2931669950485229e-01" purity="6.1599034070968628e-01" nType="-99"/>
            </Node>
            <Node pos="r" depth="1" NCoef="0" IVar="6" Cut="1.1832834482192993e+00" cType="0" res="-1.8890127539634705e-02" rms="4.3516710400581360e-01" purity="4.3464460968971252e-01" nType="0">
              <Node pos="l" depth="2" NCoef="0" IVar="-1" Cut="0.0000000000000000e+00" cType="1" res="1.6987426206469536e-02" rms="4.0831196308135986e-01" purity="6.7306917905807495e-01" nType="-99"/>
              <Node pos="r" depth="2" NCoef="0" IVar="-1" Cut="0.0000000000000000e+00" cType="1" res="-1.5446663834154606e-02" rms="4.4126585125923157e-01" purity="3.0831265449523926e-01" nType="-99"/>
            </Node>
          </Node>
        </BinaryTree>
        <BinaryTree type="DecisionTree" boostWeight="1.0000000000000000e+00" itree="23">
          <Node pos="s" depth="0" NCoef="0" IVar="2" Cut="7.6655570983886719e+01" cType="1" res="3.1683975830674171e-03" rms="4.2617100477218628e-01" purity="5.0000000000000000e-01" nType="0">
            <Node pos="l" depth="1" NCoef="0" IVar="1" Cut="5.3949934244155884e-01" cType="1" res="2.1530229598283768e-02" rms="4.3074333667755127e-01" purity="5.3858345746994019e-01" nType="0">
              <Node pos="l" depth="2" NCoef="0" IVar="-1" Cut="0.0000000000000000e+00" cType="1" res="1.2624104507267475e-02" rms="4.1391563415527344e-01" purity="6.5516990423202515e-01" nType="-99"/>
              <Node pos="r" depth="2" NCoef="0" IVar="-1" Cut="0.0000000000000000e+00" cType="1" res="-7.9320380464196205e-03" rms="4.5386934280395508e-01" purity="3.2978540658950806e-01" nType="-99"/>
            </Node>
            <Node pos="r" depth="1" NCoef="0" IVar="1" Cut="1.0869086533784866e-01" cType="1" res="-8.9482299983501434e-02" rms="3.8931515812873840e-01" purity="3.0531445145606995e-01" nType="0">
              <Node pos="l" depth="2" NCoef="0" IVar="-1" Cut="0.0000000000000000e+00" cType="1" res="1.4084432274103165e-02" rms="3.4022513031959534e-01" purity="8.3468759059906006e-01" nType="-99"/>
              <Node pos="r" depth="2" NCoef="0" IVar="-1" Cut="0.0000000000000000e+00" cType="1" res="-2.5887651368975639e-02" rms="3.9113947749137878e-01" purity="2.5493058562278748e-01" nType="-99"/>
            </Node>
          </Node>
        </BinaryTree>
        <BinaryTree type="DecisionTree" boostWeight="1.0000000000000000e+00" itree="24">
          <Node pos="s" depth="0" NCoef="0" IVar="0" Cut="8.7524909973144531e+01" cType="1" res="3.0189063400030136e-03" rms="4.2545282840728760e-01" purity="5.0000000000000000e-01" nType="0">
            <Node pos="l" depth="1" NCoef="0" IVar="9" Cut="3.6805383300781250e+02" cType="0" res="2.1310139447450638e-02" rms="4.3173694610595703e-01" purity="5.3840398788452148e-01" nType="0">
              <Node pos="l" depth="2" NCoef="0" IVar="-1" Cut="0.0000000000000000e+00" cType="1" res="1.7748726531863213e-02" rms="3.7966701388359070e-01" purity="6.9208765029907227e-01" nType="-99"/>
              <Node pos="r" depth="2" NCoef="0" IVar="-1" Cut="0.0000000000000000e+00" cType="1" res="-2.5295133236795664e-03" rms="4.6089130640029907e-01" purity="4.3412527441978455e-01" nType="-99"/>
            </Node>
            <Node pos="r" depth="1" NCoef="0" IVar="8" Cut="1.0418411254882812e+02" cType="1" res="-8.4464356303215027e-02" rms="3.8209062814712524e-01" purity="3.1632167100906372e-01" nType="0">
              <Node pos="l" depth="2" NCoef="0" IVar="-1" Cut="0.0000000000000000e+00" cType="1" res="-1.1944203637540340e-02" rms="4.1022959351539612e-01" purity="3.9154753088951111e-01" nType="-99"/>
              <Node pos="r" depth="2" NCoef="0" IVar="-1" Cut="0.0000000000000000e+00" cType="1" res="-5.1091421395540237e-02" rms="2.7740991115570068e-01" purity="1.2254086881875992e-01" nType="-99"/>
            </Node>
          </Node>
        </BinaryTree>
        <BinaryTree type="DecisionTree" boostWeight="1.0000000000000000e+00" itree="25">
          <Node pos="s" depth="0" NCoef="0" IVar="2" Cut="8.5790184020996094e+01" cType="1" res="2.8608238790184259e-03" rms="4.2468941211700439e-01" purity="5.0000000000000000e-01" nType="0">
            <Node pos="l" depth="1" NCoef="0" IVar="9" Cut="4.4078250122070312e+02" cType="0" res="1.6460085287690163e-02" rms="4.2877852916717529e-01" purity="5.2994495630264282e-01" nType="0">
              <Node pos="l" depth="2" NCoef="0" IVar="-1" Cut="0.0000000000000000e+00" cType="1" res="2.1246945485472679e-02" rms="3.5347813367843628e-01" purity="7.5178265571594238e-01" nType="-99"/>
              <Node pos="r" depth="2" NCoef="0" IVar="-1" Cut="0.0000000000000000e+00" cType="1" res="-1.2311346363276243e-03" rms="4.4985643029212952e-01" purity="4.5318329334259033e-01" nType="-99"/>
            </Node>
            <Node pos="r" depth="1" NCoef="0" IVar="2" Cut="1.0900356292724609e+02" cType="1" res="-1.0256326198577881e-01" rms="3.7517800927162170e-01" purity="2.6786103844642639e-01" nType="0">
              <Node pos="l" depth="2" NCoef="0" IVar="-1" Cut="0.0000000000000000e+00" cType="1" res="-1.8470691516995430e-02" rms="3.9420890808105469e-01" purity="3.2121714949607849e-01" nType="-99"/>
              <Node pos="r" depth="2" NCoef="0" IVar="-1" Cut="0.0000000000000000e+00" cType="1" res="-4.0301740169525146e-02" rms="3.4135168790817261e-01" purity="1.9155570864677429e-01" nType="-99"/>
            </Node>
          </Node>
        </BinaryTree>
        <BinaryTree type="DecisionTree" boostWeight="1.0000000000000000e+00" itree="26">
          <Node pos="s" depth="0" NCoef="0" IVar="7" Cut="1.9550349426269531e+02" cType="1" res="2.7080625295639038e-03" rms="4.2408233880996704e-01" purity="5.0000000000000000e-01" nType="0">
            <Node pos="l" depth="1" NCoef="0" IVar="8" Cut="1.2579460906982422e+02" cType="1" res="2.8157269582152367e-02" rms="4.2960917949676514e-01" purity="5.7924503087997437e-01" nType="0">
              <Node pos="l" depth="2" NCoef="0" IVar="-1" Cut="0.0000000000000000e+00" cType="1" res="8.7325414642691612e-03" rms="4.3351149559020996e-01" purity="6.0358595848083496e-01" nType="-99"/>
              <Node pos="r" depth="2" NCoef="0" IVar="-1" Cut="0.0000000000000000e+00" cType="1" res="-4.7508794814348221e-02" rms="2.8681054711341858e-01" purity="1.0650703310966492e-01" nType="-99"/>
            </Node>
            <Node pos="r" depth="1" NCoef="0" IVar="9" Cut="5.7781506347656250e+02" cType="0" res="-5.2872329950332642e-02" rms="4.0624833106994629e-01" purity="3.2693088054656982e-01" nType="0">
              <Node pos="l" depth="2" NCoef="0" IVar="-1" Cut="0.0000000000000000e+00" cType="1" res="1.2140863575041294e-02" rms="4.0120270848274231e-01" purity="6.1648947000503540e-01" nType="-99"/>
              <Node pos="r" depth="2" NCoef="0" IVar="-1" Cut="0.0000000000000000e+00" cType="1" res="-1.8046509474515915e-02" rms="4.0453511476516724e-01" purity="2.7672576904296875e-01" nType="-99"/>
            </Node>
          </Node>
        </BinaryTree>
        <BinaryTree type="DecisionTree" boostWeight="1.0000000000000000e+00" itree="27">
          <Node pos="s" depth="0" NCoef="0" IVar="6" Cut="1.6927707195281982e+00" cType="0" res="2.5710822083055973e-03" rms="4.2339864373207092e-01" purity="5.0000000000000000e-01" nType="0">
            <Node pos="l" depth="1" NCoef="0" IVar="4" Cut="1.0230653285980225e+00" cType="1" res="7.6674215495586395e-02" rms="3.7707152962684631e-01" purity="7.6528578996658325e-01" nType="0">
              <Node pos="l" depth="2" NCoef="0" IVar="-1" Cut="0.0000000000000000e+00" cType="1" res="2.8251834213733673e-02" rms="3.5267254710197449e-01" purity="8.1369829177856445e-01" nType="-99"/>
              <Node pos="r" depth="2" NCoef="0" IVar="-1" Cut="0.0000000000000000e+00" cType="1" res="-6.9445199333131313e-03" rms="4.3059358000755310e-01" purity="6.0835272073745728e-01" nType="-99"/>
            </Node>
            <Node pos="r" depth="1" NCoef="0" IVar="6" Cut="-1.1129732131958008e+00" cType="1" res="-1.5146947465837002e-02" rms="4.3186360597610474e-01" purity="4.3657028675079346e-01" nType="0">
              <Node pos="l" depth="2" NCoef="0" IVar="-1" Cut="0.0000000000000000e+00" cType="1" res="1.4337513595819473e-02" rms="4.0607067942619324e-01" purity="6.6440582275390625e-01" nType="-99"/>
              <Node pos="r" depth="2" NCoef="0" IVar="-1" Cut="0.0000000000000000e+00" cType="1" res="-1.3140805065631866e-02" rms="4.4011229276657104e-01" purity="3.1147530674934387e-01" nType="-99"/>
            </Node>
          </Node>
        </BinaryTree>
        <BinaryTree type="DecisionTree" boostWeight="1.0000000000000000e+00" itree="28">
          <Node pos="s" depth="0" NCoef="0" IVar="0" Cut="9.9577224731445312e+01" cType="1" res="2.5456754956394434e-03" rms="4.2245659232139587e-01" purity="5.0000000000000000e-01" nType="0">
            <Node pos="l" depth="1" NCoef="0" IVar="2" Cut="6.3973892211914062e+01" cType="1" res="1.5347621403634548e-02" rms="4.2815673351287842e-01" purity="5.2925688028335571e-01" nType="0">
              <Node pos="l" depth="2" NCoef="0" IVar="-1" Cut="0.0000000000000000e+00" cType="1" res="8.5711218416690826e-03" rms="4.3255198001861572e-01" purity="5.8121448755264282e-01" nType="-99"/>
              <Node pos="r" depth="2" NCoef="0" IVar="-1" Cut="0.0000000000000000e+00" cType="1" res="-1.0434666648507118e-02" rms="4.1071599721908569e-01" purity="3.8895711302757263e-01" nType="-99"/>
            </Node>
            <Node pos="r" depth="1" NCoef="0" IVar="8" Cut="1.0418411254882812e+02" cType="1" res="-9.4771333038806915e-02" rms="3.6179453134536743e-01" purity="2.7759689092636108e-01" nType="0">
              <Node pos="l" depth="2" NCoef="0" IVar="-1" Cut="0.0000000000000000e+00" cType="1" res="-1.5863545238971710e-02" rms="3.9869108796119690e-01" purity="3.5966041684150696e-01" nType="-99"/>
              <Node pos="r" depth="2" NCoef="0" IVar="-1" Cut="0.0000000000000000e+00" cType="1" res="-5.3583726286888123e-02" rms="2.4308279156684875e-01" purity="8.9470133185386658e-02" nType="-99"/>
            </Node>
          </Node>
        </BinaryTree>
        <BinaryTree type="DecisionTree" boostWeight="1.0000000000000000e+00" itree="29">
          <Node pos="s" depth="0" NCoef="0" IVar="10" Cut="1.2642765045166016e+02" cType="1" res="2.3805322125554085e-03" rms="4.2187538743019104e-01" purity="5.0000000000000000e-01" nType="0">
            <Node pos="l" depth="1" NCoef="0" IVar="9" Cut="2.9010330200195312e+02" cType="0" res="5.3906008601188660e-02" rms="4.2944690585136414e-01" purity="5.8127582073211670e-01" nType="0">
              <Node pos="l" depth="2" NCoef="0" IVar="-1" Cut="0.0000000000000000e+00" cType="1" res="2.8182361274957657e-02" rms="3.7314242124557495e-01" purity="7.3985356092453003e-01" nType="-99"/>
              <Node pos="r" depth="2" NCoef="0" IVar="-1" Cut="0.0000000000000000e+00" cType="1" res="2.7297798078507185e-04" rms="4.6916139125823975e-01" purity="4.3570885062217712e-01" nType="-99"/>
            </Node>
            <Node pos="r" depth="1" NCoef="0" IVar="9" Cut="4.4139739990234375e+02" cType="0" res="-2.0497996360063553e-02" rms="4.1643068194389343e-01" purity="4.6391165256500244e-01" nType="0">
              <Node pos="l" depth="2" NCoef="0" IVar="-1" Cut="0.0000000000000000e+00" cType="1" res="9.8132817074656487e-03" rms="3.7527796626091003e-01" purity="6.5281963348388672e-01" nType="-99"/>
              <Node pos="r" depth="2" NCoef="0" IVar="-1" Cut="0.0000000000000000e+00" cType="1" res="-1.1449378915131092e-02" rms="4.3229639530181885e-01" purity="3.7237671017646790e-01" nType="-99"/>
            </Node>
          </Node>
        </BinaryTree>
        <BinaryTree type="DecisionTree" boostWeight="1.0000000000000000e+00" itree="30">
          <Node pos="s" depth="0" NCoef="0" IVar="7" Cut="2.4641297912597656e+02" cType="1" res="2.2814350668340921e-03" rms="4.2118647694587708e-01" purity="5.0000000000000000e-01" nType="0">
            <Node pos="l" depth="1" NCoef="0" IVar="9" Cut="3.5843350219726562e+02" cType="0" res="1.5243157744407654e-02" rms="4.2644014954566956e-01" purity="5.4181438684463501e-01" nType="0">
              <Node pos="l" depth="2" NCoef="0" IVar="-1" Cut="0.0000000000000000e+00" cType="1" res="1.6239328309893608e-02" rms="3.7886926531791687e-01" purity="7.1878868341445923e-01" nType="-99"/>
              <Node pos="r" depth="2" NCoef="0" IVar="-1" Cut="0.0000000000000000e+00" cType="1" res="-4.0349233895540237e-03" rms="4.5449051260948181e-01" purity="4.1553711891174316e-01" nType="-99"/>
            </Node>
            <Node pos="r" depth="1" NCoef="0" IVar="9" Cut="6.9593762207031250e+02" cType="0" res="-8.6292684078216553e-02" rms="3.7144848704338074e-01" purity="2.1426053345203400e-01" nType="0">
              <Node pos="l" depth="2" NCoef="0" IVar="-1" Cut="0.0000000000000000e+00" cType="1" res="1.1390208266675472e-02" rms="4.3369209766387939e-01" purity="5.4834419488906860e-01" nType="-99"/>
              <Node pos="r" depth="2" NCoef="0" IVar="-1" Cut="0.0000000000000000e+00" cType="1" res="-2.8388302773237228e-02" rms="3.6103814840316772e-01" purity="1.7822176218032837e-01" nType="-99"/>
            </Node>
          </Node>
        </BinaryTree>
        <BinaryTree type="DecisionTree" boostWeight="1.0000000000000000e+00" itree="31">
          <Node pos="s" depth="0" NCoef="0" IVar="8" Cut="1.0160385131835938e+02" cType="1" res="2.2060824558138847e-03" rms="4.2060613632202148e-01" purity="5.0000000000000000e-01" nType="0">
            <Node pos="l" depth="1" NCoef="0" IVar="10" Cut="1.1791840362548828e+02" cType="1" res="1.5241874381899834e-02" rms="4.2688590288162231e-01" purity="5.3711986541748047e-01" nType="0">
              <Node pos="l" depth="2" NCoef="0" IVar="-1" Cut="0.0000000000000000e+00" cType="1" res="1.8611971288919449e-02" rms="4.3072009086608887e-01" purity="6.4300841093063354e-01" nType="-99"/>
              <Node pos="r" depth="2" NCoef="0" IVar="-1" Cut="0.0000000000000000e+00" cType="1" res="-8.3864823682233691e-04" rms="4.2393812537193298e-01" purity="5.0669389963150024e-01" nType="-99"/>
            </Node>
            <Node pos="r" depth="1" NCoef="0" IVar="8" Cut="1.4175019836425781e+02" cType="1" res="-7.9616121947765350e-02" rms="3.6843293905258179e-01" purity="2.6700821518898010e-01" nType="0">
              <Node pos="l" depth="2" NCoef="0" IVar="-1" Cut="0.0000000000000000e+00" cType="1" res="-1.4689569361507893e-02" rms="4.0198016166687012e-01" purity="3.3536797761917114e-01" nType="-99"/>
              <Node pos="r" depth="2" NCoef="0" IVar="-1" Cut="0.0000000000000000e+00" cType="1" res="-5.7759448885917664e-02" rms="2.0542903244495392e-01" purity="4.0507461875677109e-02" nType="-99"/>
            </Node>
          </Node>
        </BinaryTree>
        <BinaryTree type="DecisionTree" boostWeight="1.0000000000000000e+00" itree="32">
          <Node pos="s" depth="0" NCoef="0" IVar="6" Cut="1.3336478471755981e+00" cType="0" res="2.0652750972658396e-03" rms="4.2004582285881042e-01" purity="5.0000000000000000e-01" nType="0">
            <Node pos="l" depth="1" NCoef="0" IVar="4" Cut="1.0380040407180786e+00" cType="1" res="5.6531455367803574e-02" rms="3.9576694369316101e-01" purity="7.0054167509078979e-01" nType="0">
              <Node pos="l" depth="2" NCoef="0" IVar="-1" Cut="0.0000000000000000e+00" cType="1" res="2.2321244701743126e-02" rms="3.7914776802062988e-01" purity="7.4889338016510010e-01" nType="-99"/>
              <Node pos="r" depth="2" NCoef="0" IVar="-1" Cut="0.0000000000000000e+00" cType="1" res="-1.0853469371795654e-02" rms="4.3171629309654236e-01" purity="5.3871268033981323e-01" nType="-99"/>
            </Node>
            <Node pos="r" depth="1" NCoef="0" IVar="6" Cut="-9.2941415309906006e-01" cType="1" res="-1.5992913395166397e-02" rms="4.2625790834426880e-01" purity="4.3351066112518311e-01" nType="0">
              <Node pos="l" depth="2" NCoef="0" IVar="-1" Cut="0.0000000000000000e+00" cType="1" res="1.1028647422790527e-02" rms="4.0908378362655640e-01" purity="6.3298338651657104e-01" nType="-99"/>
              <Node pos="r" depth="2" NCoef="0" IVar="-1" Cut="0.0000000000000000e+00" cType="1" res="-1.4660569839179516e-02" rms="4.3309330940246582e-01" purity="2.8666633367538452e-01" nType="-99"/>
            </Node>
          </Node>
        </BinaryTree>
        <BinaryTree type="DecisionTree" boostWeight="1.0000000000000000e+00" itree="33">
          <Node pos="s" depth="0" NCoef="0" IVar="0" Cut="8.1785705566406250e+01" cType="1" res="2.0512659102678299e-03" rms="4.1921168565750122e-01" purity="5.0000000000000000e-01" nType="0">
            <Node pos="l" depth="1" NCoef="0" IVar="2" Cut="8.5644386291503906e+01" cType="1" res="1.8008396029472351e-02" rms="4.2733573913574219e-01" purity="5.4308980703353882e-01" nType="0">
              <Node pos="l" depth="2" NCoef="0" IVar="-1" Cut="0.0000000000000000e+00" cType="1" res="6.9258697330951691e-03" rms="4.3059977889060974e-01" purity="5.7304698228836060e-01" nType="-99"/>
              <Node pos="r" depth="2" NCoef="0" IVar="-1" Cut="0.0000000000000000e+00" cType="1" res="-1.8241956830024719e-02" rms="3.9009821414947510e-01" purity="3.0595818161964417e-01" nType="-99"/>
            </Node>
            <Node pos="r" depth="1" NCoef="0" IVar="3" Cut="6.8938323974609375e+01" cType="1" res="-5.8382064104080200e-02" rms="3.8088783621788025e-01" purity="3.3680897951126099e-01" nType="0">
              <Node pos="l" depth="2" NCoef="0" IVar="-1" Cut="0.0000000000000000e+00" cType="1" res="-3.5882929805666208e-03" rms="4.1209745407104492e-01" purity="4.5167753100395203e-01" nType="-99"/>
              <Node pos="r" depth="2" NCoef="0" IVar="-1" Cut="0.0000000000000000e+00" cType="1" res="-2.6826182380318642e-02" rms="3.4913024306297302e-01" purity="2.4270989000797272e-01" nType="-99"/>
            </Node>
          </Node>
        </BinaryTree>
        <BinaryTree type="DecisionTree" boostWeight="1.0000000000000000e+00" itree="34">
          <Node pos="s" depth="0" NCoef="0" IVar="1" Cut="8.5348255932331085e-02" cType="1" res="1.9241073168814182e-03" rms="4.1876888275146484e-01" purity="5.0000000000000000e-01" nType="0">
            <Node pos="l" depth="1" NCoef="0" IVar="1" Cut="4.1727151721715927e-02" cType="1" res="8.0659434199333191e-02" rms="2.4958969652652740e-01" purity="9.2729878425598145e-01" nType="0">
              <Node pos="l" depth="2" NCoef="0" IVar="-1" Cut="0.0000000000000000e+00" cType="1" res="3.8759857416152954e-02" rms="1.9196712970733643e-01" purity="9.6035498380661011e-01" nType="-99"/>
              <Node pos="r" depth="2" NCoef="0" IVar="-1" Cut="0.0000000000000000e+00" cType="1" res="2.0372802391648293e-02" rms="2.9303142428398132e-01" purity="8.9542132616043091e-01" nType="-99"/>
            </Node>
            <Node pos="r" depth="1" NCoef="0" IVar="10" Cut="1.1791840362548828e+02" cType="1" res="-9.3250023201107979e-03" rms="4.3647456169128418e-01" purity="4.3895077705383301e-01" nType="0">
              <Node pos="l" depth="2" NCoef="0" IVar="-1" Cut="0.0000000000000000e+00" cType="1" res="1.0851687751710415e-02" rms="4.5090118050575256e-01" purity="5.4344540834426880e-01" nType="-99"/>
              <Node pos="r" depth="2" NCoef="0" IVar="-1" Cut="0.0000000000000000e+00" cType="1" res="-6.1666667461395264e-03" rms="4.3096482753753662e-01" purity="4.0964123606681824e-01" nType="-99"/>
            </Node>
          </Node>
        </BinaryTree>
        <BinaryTree type="DecisionTree" boostWeight="1.0000000000000000e+00" itree="35">
          <Node pos="s" depth="0" NCoef="0" IVar="2" Cut="5.2019809722900391e+01" cType="1" res="1.8633018480613828e-03" rms="4.1840299963951111e-01" purity="5.0000000000000000e-01" nType="0">
            <Node pos="l" depth="1" NCoef="0" IVar="5" Cut="2.0877361297607422e+01" cType="1" res="2.7421562001109123e-02" rms="4.2544916272163391e-01" purity="5.6869959831237793e-01" nType="0">
              <Node pos="l" depth="2" NCoef="0" IVar="-1" Cut="0.0000000000000000e+00" cType="1" res="8.5714599117636681e-03" rms="4.2581579089164734e-01" purity="5.8392989635467529e-01" nType="-99"/>
              <Node pos="r" depth="2" NCoef="0" IVar="-1" Cut="0.0000000000000000e+00" cType="1" res="-1.7898971214890480e-02" rms="4.0826323628425598e-01" purity="3.7896034121513367e-01" nType="-99"/>
            </Node>
            <Node pos="r" depth="1" NCoef="0" IVar="0" Cut="6.9159469604492188e+01" cType="1" res="-3.1499776989221573e-02" rms="4.0661239624023438e-01" purity="4.1032132506370544e-01" nType="0">
              <Node pos="l" depth="2" NCoef="0" IVar="-1" Cut="0.0000000000000000e+00" cType="1" res="-2.3457047063857317e-03" rms="4.2308855056762695e-01" purity="4.7217702865600586e-01" nType="-99"/>
              <Node pos="r" depth="2" NCoef="0" IVar="-1" Cut="0.0000000000000000e+00" cType="1" res="-2.5807207450270653e-02" rms="3.5411459207534790e-01" purity="2.5006303191184998e-01" nType="-99"/>
            </Node>
          </Node>
        </BinaryTree>
        <BinaryTree type="DecisionTree" boostWeight="1.0000000000000000e+00" itree="36">
          <Node pos="s" depth="0" NCoef="0" IVar="6" Cut="1.1740375757217407e+00" cType="0" res="1.7452936153858900e-03" rms="4.1798448562622070e-01" purity="5.0000000000000000e-01" nType="0">
            <Node pos="l" depth="1" NCoef="0" IVar="4" Cut="2.9169979691505432e-01" cType="1" res="4.6919677406549454e-02" rms="4.0106344223022461e-01" purity="6.7118978500366211e-01" nType="0">
              <Node pos="l" depth="2" NCoef="0" IVar="-1" Cut="0.0000000000000000e+00" cType="1" res="2.6567611843347549e-02" rms="3.7526890635490417e-01" purity="7.6469230651855469e-01" nType="-99"/>
              <Node pos="r" depth="2" NCoef="0" IVar="-1" Cut="0.0000000000000000e+00" cType="1" res="-1.9056480377912521e-03" rms="4.1823911666870117e-01" purity="5.7770496606826782e-01" nType="-99"/>
            </Node>
            <Node pos="r" depth="1" NCoef="0" IVar="6" Cut="-9.2719137668609619e-01" cType="1" res="-1.5505884774029255e-02" rms="4.2299720644950867e-01" purity="4.3462613224983215e-01" nType="0">
              <Node pos="l" depth="2" NCoef="0" IVar="-1" Cut="0.0000000000000000e+00" cType="1" res="9.7901085391640663e-03" rms="4.0796390175819397e-01" purity="6.3275516033172607e-01" nType="-99"/>
              <Node pos="r" depth="2" NCoef="0" IVar="-1" Cut="0.0000000000000000e+00" cType="1" res="-1.4399844221770763e-02" rms="4.2962661385536194e-01" purity="2.7855736017227173e-01" nType="-99"/>
            </Node>
          </Node>
        </BinaryTree>
        <BinaryTree type="DecisionTree" boostWeight="1.0000000000000000e+00" itree="37">
          <Node pos="s" depth="0" NCoef="0" IVar="7" Cut="1.9092735290527344e+02" cType="1" res="1.7448161961510777e-03" rms="4.1723868250846863e-01" purity="5.0000000000000000e-01" nType="0">
            <Node pos="l" depth="1" NCoef="0" IVar="9" Cut="3.0001406860351562e+02" cType="0" res="2.1753486245870590e-02" rms="4.2332854866981506e-01" purity="5.8223849534988403e-01" nType="0">
              <Node pos="l" depth="2" NCoef="0" IVar="-1" Cut="0.0000000000000000e+00" cType="1" res="1.2938921339809895e-02" rms="3.8912239670753479e-01" purity="6.9977474212646484e-01" nType="-99"/>
              <Node pos="r" depth="2" NCoef="0" IVar="-1" Cut="0.0000000000000000e+00" cType="1" res="-3.7612251471728086e-03" rms="4.6453249454498291e-01" purity="4.1668397188186646e-01" nType="-99"/>
            </Node>
            <Node pos="r" depth="1" NCoef="0" IVar="9" Cut="4.5659820556640625e+02" cType="0" res="-3.5311602056026459e-02" rms="4.0310439467430115e-01" purity="3.4769278764724731e-01" nType="0">
              <Node pos="l" depth="2" NCoef="0" IVar="-1" Cut="0.0000000000000000e+00" cType="1" res="3.1587816774845123e-03" rms="3.9666357636451721e-01" purity="5.2242082357406616e-01" nType="-99"/>
              <Node pos="r" depth="2" NCoef="0" IVar="-1" Cut="0.0000000000000000e+00" cType="1" res="-1.4900101348757744e-02" rms="4.0417104959487915e-01" purity="2.7135586738586426e-01" nType="-99"/>
            </Node>
          </Node>
        </BinaryTree>
        <BinaryTree type="DecisionTree" boostWeight="1.0000000000000000e+00" itree="38">
          <Node pos="s" depth="0" NCoef="0" IVar="8" Cut="9.9991195678710938e+01" cType="1" res="1.6826962819322944e-03" rms="4.1687586903572083e-01" purity="5.0000000000000000e-01" nType="0">
            <Node pos="l" depth="1" NCoef="0" IVar="10" Cut="1.3311347961425781e+02" cType="1" res="1.3034786097705364e-02" rms="4.2357105016708374e-01" purity="5.3802204132080078e-01" nType="0">
              <Node pos="l" depth="2" NCoef="0" IVar="-1" Cut="0.0000000000000000e+00" cType="1" res="1.1825275607407093e-02" rms="4.2994242906570435e-01" purity="6.1143350601196289e-01" nType="-99"/>
              <Node pos="r" depth="2" NCoef="0" IVar="-1" Cut="0.0000000000000000e+00" cType="1" res="-2.2742850705981255e-03" rms="4.1812798380851746e-01" purity="4.9354365468025208e-01" nType="-99"/>
            </Node>
            <Node pos="r" depth="1" NCoef="0" IVar="0" Cut="1.0343745422363281e+02" cType="1" res="-6.3554711639881134e-02" rms="3.6939474940299988e-01" purity="2.8149750828742981e-01" nType="0">
              <Node pos="l" depth="2" NCoef="0" IVar="-1" Cut="0.0000000000000000e+00" cType="1" res="-1.1938134208321571e-02" rms="3.9727038145065308e-01" purity="3.3674424886703491e-01" nType="-99"/>
              <Node pos="r" depth="2" NCoef="0" IVar="-1" Cut="0.0000000000000000e+00" cType="1" res="-4.6867765486240387e-02" rms="2.4432744085788727e-01" purity="9.7713612020015717e-02" nType="-99"/>
            </Node>
          </Node>
        </BinaryTree>
        <BinaryTree type="DecisionTree" boostWeight="1.0000000000000000e+00" itree="39">
          <Node pos="s" depth="0" NCoef="0" IVar="2" Cut="5.7002323150634766e+01" cType="1" res="1.5760994283482432e-03" rms="4.1649603843688965e-01" purity="5.0000000000000000e-01" nType="0">
            <Node pos="l" depth="1" NCoef="0" IVar="9" Cut="3.7343136596679688e+02" cType="0" res="2.0919421687722206e-02" rms="4.2389044165611267e-01" purity="5.6166982650756836e-01" nType="0">
              <Node pos="l" depth="2" NCoef="0" IVar="-1" Cut="0.0000000000000000e+00" cType="1" res="1.5027340501546860e-02" rms="3.6510604619979858e-01" purity="7.1796768903732300e-01" nType="-99"/>
              <Node pos="r" depth="2" NCoef="0" IVar="-1" Cut="0.0000000000000000e+00" cType="1" res="-8.6412364908028394e-05" rms="4.5778235793113708e-01" purity="4.5715665817260742e-01" nType="-99"/>
            </Node>
            <Node pos="r" depth="1" NCoef="0" IVar="0" Cut="6.9159469604492188e+01" cType="1" res="-3.3048514276742935e-02" rms="4.0059581398963928e-01" purity="3.8961082696914673e-01" nType="0">
              <Node pos="l" depth="2" NCoef="0" IVar="-1" Cut="0.0000000000000000e+00" cType="1" res="-3.4710285253822803e-03" rms="4.1891920566558838e-01" purity="4.5210415124893188e-01" nType="-99"/>
              <Node pos="r" depth="2" NCoef="0" IVar="-1" Cut="0.0000000000000000e+00" cType="1" res="-2.5483423843979836e-02" rms="3.4403774142265320e-01" purity="2.2864373028278351e-01" nType="-99"/>
            </Node>
          </Node>
        </BinaryTree>
        <BinaryTree type="DecisionTree" boostWeight="1.0000000000000000e+00" itree="40">
          <Node pos="s" depth="0" NCoef="0" IVar="0" Cut="9.9864181518554688e+01" cType="1" res="1.5028737252578139e-03" rms="4.1617158055305481e-01" purity="5.0000000000000000e-01" nType="0">
            <Node pos="l" depth="1" NCoef="0" IVar="9" Cut="3.8623602294921875e+02" cType="0" res="1.0506042279303074e-02" rms="4.2284777760505676e-01" purity="5.2906107902526855e-01" nType="0">
              <Node pos="l" depth="2" NCoef="0" IVar="-1" Cut="0.0000000000000000e+00" cType="1" res="1.2874732725322247e-02" rms="3.6704355478286743e-01" purity="6.9871526956558228e-01" nType="-99"/>
              <Node pos="r" depth="2" NCoef="0" IVar="-1" Cut="0.0000000000000000e+00" cType="1" res="-2.0503697451204062e-03" rms="4.5035436749458313e-01" purity="4.3264484405517578e-01" nType="-99"/>
            </Node>
            <Node pos="r" depth="1" NCoef="0" IVar="3" Cut="6.8938323974609375e+01" cType="1" res="-6.7785933613777161e-02" rms="3.5307928919792175e-01" purity="2.7634474635124207e-01" nType="0">
              <Node pos="l" depth="2" NCoef="0" IVar="-1" Cut="0.0000000000000000e+00" cType="1" res="-6.9140614941716194e-03" rms="3.9368072152137756e-01" purity="4.0401607751846313e-01" nType="-99"/>
              <Node pos="r" depth="2" NCoef="0" IVar="-1" Cut="0.0000000000000000e+00" cType="1" res="-3.0958609655499458e-02" rms="3.1709051132202148e-01" purity="1.8397022783756256e-01" nType="-99"/>
            </Node>
          </Node>
        </BinaryTree>
        <BinaryTree type="DecisionTree" boostWeight="1.0000000000000000e+00" itree="41">
          <Node pos="s" depth="0" NCoef="0" IVar="2" Cut="9.3817565917968750e+01" cType="1" res="1.4340210473164916e-03" rms="4.1588044166564941e-01" purity="5.0000000000000000e-01" nType="0">
            <Node pos="l" depth="1" NCoef="0" IVar="5" Cut="1.9272045135498047e+01" cType="1" res="8.8526941835880280e-03" rms="4.2021000385284424e-01" purity="5.2412617206573486e-01" nType="0">
              <Node pos="l" depth="2" NCoef="0" IVar="-1" Cut="0.0000000000000000e+00" cType="1" res="4.3595037423074245e-03" rms="4.2190667986869812e-01" purity="5.4515987634658813e-01" nType="-99"/>
              <Node pos="r" depth="2" NCoef="0" IVar="-1" Cut="0.0000000000000000e+00" cType="1" res="-1.5184389427304268e-02" rms="4.0079486370086670e-01" purity="3.6218839883804321e-01" nType="-99"/>
            </Node>
            <Node pos="r" depth="1" NCoef="0" IVar="9" Cut="5.3088250732421875e+02" cType="0" res="-7.9584389925003052e-02" rms="3.5532939434051514e-01" purity="2.3652130365371704e-01" nType="0">
              <Node pos="l" depth="2" NCoef="0" IVar="-1" Cut="0.0000000000000000e+00" cType="1" res="-8.0299293622374535e-03" rms="4.1150417923927307e-01" purity="4.2297756671905518e-01" nType="-99"/>
              <Node pos="r" depth="2" NCoef="0" IVar="-1" Cut="0.0000000000000000e+00" cType="1" res="-3.0716773122549057e-02" rms="3.3015781641006470e-01" purity="1.6738484799861908e-01" nType="-99"/>
            </Node>
          </Node>
        </BinaryTree>
        <BinaryTree type="DecisionTree" boostWeight="1.0000000000000000e+00" itree="42">
          <Node pos="s" depth="0" NCoef="0" IVar="6" Cut="9.9447613954544067e-01" cType="0" res="1.3392391847446561e-03" rms="4.1559356451034546e-01" purity="5.0000000000000000e-01" nType="0">
            <Node pos="l" depth="1" NCoef="0" IVar="4" Cut="1.6862505674362183e-01" cType="1" res="3.7752397358417511e-02" rms="4.0420714020729065e-01" purity="6.3899624347686768e-01" nType="0">
              <Node pos="l" depth="2" NCoef="0" IVar="-1" Cut="0.0000000000000000e+00" cType="1" res="2.4488877505064011e-02" rms="3.8311785459518433e-01" purity="7.4073994159698486e-01" nType="-99"/>
              <Node pos="r" depth="2" NCoef="0" IVar="-1" Cut="0.0000000000000000e+00" cType="1" res="-1.8692258745431900e-03" rms="4.1567975282669067e-01" purity="5.5399113893508911e-01" nType="-99"/>
            </Node>
            <Node pos="r" depth="1" NCoef="0" IVar="6" Cut="-8.4513860940933228e-01" cType="1" res="-1.4890337362885475e-02" rms="4.1955229640007019e-01" purity="4.3804848194122314e-01" nType="0">
              <Node pos="l" depth="2" NCoef="0" IVar="-1" Cut="0.0000000000000000e+00" cType="1" res="7.9012010246515274e-03" rms="4.0798544883728027e-01" purity="6.1912888288497925e-01" nType="-99"/>
              <Node pos="r" depth="2" NCoef="0" IVar="-1" Cut="0.0000000000000000e+00" cType="1" res="-1.4508333057165146e-02" rms="4.2563533782958984e-01" purity="2.6923590898513794e-01" nType="-99"/>
            </Node>
          </Node>
        </BinaryTree>
        <BinaryTree type="DecisionTree" boostWeight="1.0000000000000000e+00" itree="43">
          <Node pos="s" depth="0" NCoef="0" IVar="7" Cut="2.5556523132324219e+02" cType="1" res="1.3506755931302905e-03" rms="4.1496554017066956e-01" purity="5.0000000000000000e-01" nType="0">
            <Node pos="l" depth="1" NCoef="0" IVar="9" Cut="3.4743508911132812e+02" cType="0" res="9.5989853143692017e-03" rms="4.2033952474594116e-01" purity="5.3667140007019043e-01" nType="0">
              <Node pos="l" depth="2" NCoef="0" IVar="-1" Cut="0.0000000000000000e+00" cType="1" res="1.1392205022275448e-02" rms="3.7945130467414856e-01" purity="6.9437640905380249e-01" nType="-99"/>
              <Node pos="r" depth="2" NCoef="0" IVar="-1" Cut="0.0000000000000000e+00" cType="1" res="-3.7302798591554165e-03" rms="4.4980704784393311e-01" purity="4.0602108836174011e-01" nType="-99"/>
            </Node>
            <Node pos="r" depth="1" NCoef="0" IVar="9" Cut="6.9677587890625000e+02" cType="0" res="-6.4382106065750122e-02" rms="3.6271202564239502e-01" purity="2.0775708556175232e-01" nType="0">
              <Node pos="l" depth="2" NCoef="0" IVar="-1" Cut="0.0000000000000000e+00" cType="1" res="1.1141527444124222e-02" rms="4.2496234178543091e-01" purity="5.3846812248229980e-01" nType="-99"/>
              <Node pos="r" depth="2" NCoef="0" IVar="-1" Cut="0.0000000000000000e+00" cType="1" res="-2.3945070803165436e-02" rms="3.5266035795211792e-01" purity="1.6984581947326660e-01" nType="-99"/>
            </Node>
          </Node>
        </BinaryTree>
        <BinaryTree type="DecisionTree" boostWeight="1.0000000000000000e+00" itree="44">
          <Node pos="s" depth="0" NCoef="0" IVar="8" Cut="1.1515019989013672e+02" cType="1" res="1.3142070965841413e-03" rms="4.1466414928436279e-01" purity="5.0000000000000000e-01" nType="0">
            <Node pos="l" depth="1" NCoef="0" IVar="10" Cut="1.1548719787597656e+02" cType="1" res="7.9219350591301918e-03" rms="4.2147839069366455e-01" purity="5.2860832214355469e-01" nType="0">
              <Node pos="l" depth="2" NCoef="0" IVar="-1" Cut="0.0000000000000000e+00" cType="1" res="1.3775548897683620e-02" rms="4.2924138903617859e-01" purity="6.3678371906280518e-01" nType="-99"/>
              <Node pos="r" depth="2" NCoef="0" IVar="-1" Cut="0.0000000000000000e+00" cType="1" res="-1.1006479617208242e-03" rms="4.1862741112709045e-01" purity="5.0169098377227783e-01" nType="-99"/>
            </Node>
            <Node pos="r" depth="1" NCoef="0" IVar="0" Cut="8.8562500000000000e+01" cType="1" res="-7.8361630439758301e-02" rms="3.1043389439582825e-01" purity="1.5504144132137299e-01" nType="0">
              <Node pos="l" depth="2" NCoef="0" IVar="-1" Cut="0.0000000000000000e+00" cType="1" res="-1.5316038392484188e-02" rms="3.6824297904968262e-01" purity="2.3403333127498627e-01" nType="-99"/>
              <Node pos="r" depth="2" NCoef="0" IVar="-1" Cut="0.0000000000000000e+00" cType="1" res="-4.6852480620145798e-02" rms="2.2622512280941010e-01" purity="6.8348914384841919e-02" nType="-99"/>
            </Node>
          </Node>
        </BinaryTree>
        <BinaryTree type="DecisionTree" boostWeight="1.0000000000000000e+00" itree="45">
          <Node pos="s" depth="0" NCoef="0" IVar="6" Cut="-1.8286292552947998e+00" cType="1" res="1.2334889033809304e-03" rms="4.1437658667564392e-01" purity="5.0000000000000000e-01" nType="0">
            <Node pos="l" depth="1" NCoef="0" IVar="4" Cut="-1.4767148494720459e+00" cType="0" res="4.9751807004213333e-02" rms="3.5913729667663574e-01" purity="7.8773498535156250e-01" nType="0">
              <Node pos="l" depth="2" NCoef="0" IVar="-1" Cut="0.0000000000000000e+00" cType="1" res="1.9732035696506500e-02" rms="3.4515309333801270e-01" purity="8.1369835138320923e-01" nType="-99"/>
              <Node pos="r" depth="2" NCoef="0" IVar="-1" Cut="0.0000000000000000e+00" cType="1" res="-1.9945193082094193e-02" rms="4.2762926220893860e-01" purity="5.9802019596099854e-01" nType="-99"/>
            </Node>
            <Node pos="r" depth="1" NCoef="0" IVar="6" Cut="8.5995197296142578e-01" cType="0" res="-8.9957164600491524e-03" rms="4.2440018057823181e-01" purity="4.3933629989624023e-01" nType="0">
              <Node pos="l" depth="2" NCoef="0" IVar="-1" Cut="0.0000000000000000e+00" cType="1" res="8.2410397008061409e-03" rms="4.0618127584457397e-01" purity="6.1715334653854370e-01" nType="-99"/>
              <Node pos="r" depth="2" NCoef="0" IVar="-1" Cut="0.0000000000000000e+00" cType="1" res="-8.9388843625783920e-03" rms="4.3412941694259644e-01" purity="3.1953200697898865e-01" nType="-99"/>
            </Node>
          </Node>
        </BinaryTree>
        <BinaryTree type="DecisionTree" boostWeight="1.0000000000000000e+00" itree="46">
          <Node pos="s" depth="0" NCoef="0" IVar="2" Cut="4.7867713928222656e+01" cType="1" res="1.2351602781563997e-03" rms="4.1398513317108154e-01" purity="5.0000000000000000e-01" nType="0">
            <Node pos="l" depth="1" NCoef="0" IVar="0" Cut="8.1986297607421875e+01" cType="1" res="2.3356923833489418e-02" rms="4.2182031273841858e-01" purity="5.7490569353103638e-01" nType="0">
              <Node pos="l" depth="2" NCoef="0" IVar="-1" Cut="0.0000000000000000e+00" cType="1" res="8.9243389666080475e-03" rms="4.2676809430122375e-01" purity="6.1855822801589966e-01" nType="-99"/>
              <Node pos="r" depth="2" NCoef="0" IVar="-1" Cut="0.0000000000000000e+00" cType="1" res="-5.1356679759919643e-03" rms="4.0143522620201111e-01" purity="4.2506104707717896e-01" nType="-99"/>
            </Node>
            <Node pos="r" depth="1" NCoef="0" IVar="10" Cut="1.2338863372802734e+02" cType="1" res="-2.0330211147665977e-02" rms="4.0504020452499390e-01" purity="4.2697829008102417e-01" nType="0">
              <Node pos="l" depth="2" NCoef="0" IVar="-1" Cut="0.0000000000000000e+00" cType="1" res="5.4729240946471691e-03" rms="4.2184150218963623e-01" purity="5.3519916534423828e-01" nType="-99"/>
              <Node pos="r" depth="2" NCoef="0" IVar="-1" Cut="0.0000000000000000e+00" cType="1" res="-9.7750108689069748e-03" rms="3.9767363667488098e-01" purity="3.8775870203971863e-01" nType="-99"/>
            </Node>
          </Node>
        </BinaryTree>
        <BinaryTree type="DecisionTree" boostWeight="1.0000000000000000e+00" itree="47">
          <Node pos="s" depth="0" NCoef="0" IVar="1" Cut="5.9032447636127472e-02" cType="1" res="1.1603664606809616e-03" rms="4.1374692320823669e-01" purity="5.0000000000000000e-01" nType="0">
            <Node pos="l" depth="1" NCoef="0" IVar="1" Cut="2.8809020295739174e-02" cType="1" res="6.8856135010719299e-02" rms="2.1454751491546631e-01" purity="9.4841217994689941e-01" nType="0">
              <Node pos="l" depth="2" NCoef="0" IVar="-1" Cut="0.0000000000000000e+00" cType="1" res="3.8574349135160446e-02" rms="1.6467128694057465e-01" purity="9.7139066457748413e-01" nType="-99"/>
              <Node pos="r" depth="2" NCoef="0" IVar="-1" Cut="0.0000000000000000e+00" cType="1" res="2.3933017626404762e-02" rms="2.4716773629188538e-01" purity="9.2969429492950439e-01" nType="-99"/>
            </Node>
            <Node pos="r" depth="1" NCoef="0" IVar="10" Cut="1.3919151306152344e+02" cType="1" res="-5.3489482961595058e-03" rms="4.2747855186462402e-01" purity="4.5688274502754211e-01" nType="0">
              <Node pos="l" depth="2" NCoef="0" IVar="-1" Cut="0.0000000000000000e+00" cType="1" res="4.6906676143407822e-03" rms="4.3817785382270813e-01" purity="5.1724916696548462e-01" nType="-99"/>
              <Node pos="r" depth="2" NCoef="0" IVar="-1" Cut="0.0000000000000000e+00" cType="1" res="-6.2636006623506546e-03" rms="4.1825580596923828e-01" purity="4.1140365600585938e-01" nType="-99"/>
            </Node>
          </Node>
        </BinaryTree>
        <BinaryTree type="DecisionTree" boostWeight="1.0000000000000000e+00" itree="48">
          <Node pos="s" depth="0" NCoef="0" IVar="8" Cut="9.7088401794433594e+01" cType="1" res="1.1257881997153163e-03" rms="4.1355752944946289e-01" purity="5.0000000000000000e-01" nType="0">
            <Node pos="l" depth="1" NCoef="0" IVar="7" Cut="2.4641297912597656e+02" cType="1" res="1.0471221059560776e-02" rms="4.2052873969078064e-01" purity="5.3926080465316772e-01" nType="0">
              <Node pos="l" depth="2" NCoef="0" IVar="-1" Cut="0.0000000000000000e+00" cType="1" res="4.6997107565402985e-03" rms="4.2589321732521057e-01" purity="5.8384859561920166e-01" nType="-99"/>
              <Node pos="r" depth="2" NCoef="0" IVar="-1" Cut="0.0000000000000000e+00" cType="1" res="-1.3741696253418922e-02" rms="3.7708714604377747e-01" purity="2.3558792471885681e-01" nType="-99"/>
            </Node>
            <Node pos="r" depth="1" NCoef="0" IVar="8" Cut="1.4043969726562500e+02" cType="1" res="-4.4464871287345886e-02" rms="3.7437859177589417e-01" purity="3.0847063660621643e-01" nType="0">
              <Node pos="l" depth="2" NCoef="0" IVar="-1" Cut="0.0000000000000000e+00" cType="1" res="-8.2585988566279411e-03" rms="4.0343287587165833e-01" purity="3.7243413925170898e-01" nType="-99"/>
              <Node pos="r" depth="2" NCoef="0" IVar="-1" Cut="0.0000000000000000e+00" cType="1" res="-4.9105636775493622e-02" rms="2.0462706685066223e-01" purity="4.2571108788251877e-02" nType="-99"/>
            </Node>
          </Node>
        </BinaryTree>
        <BinaryTree type="DecisionTree" boostWeight="1.0000000000000000e+00" itree="49">
          <Node pos="s" depth="0" NCoef="0" IVar="0" Cut="7.4037788391113281e+01" cType="1" res="1.0716973338276148e-03" rms="4.1332590579986572e-01" purity="5.0000000000000000e-01" nType="0">
            <Node pos="l" depth="1" NCoef="0" IVar="9" Cut="3.6805383300781250e+02" cType="0" res="1.2976717203855515e-02" rms="4.2355921864509583e-01" purity="5.4963725805282593e-01" nType="0">
              <Node pos="l" depth="2" NCoef="0" IVar="-1" Cut="0.0000000000000000e+00" cType="1" res="1.1936313472688198e-02" rms="3.6693871021270752e-01" purity="7.1062511205673218e-01" nType="-99"/>
              <Node pos="r" depth="2" NCoef="0" IVar="-1" Cut="0.0000000000000000e+00" cType="1" res="-1.0377188446000218e-03" rms="4.5612308382987976e-01" purity="4.4382974505424500e-01" nType="-99"/>
            </Node>
            <Node pos="r" depth="1" NCoef="0" IVar="9" Cut="4.6753500366210938e+02" cType="0" res="-3.1154533848166466e-02" rms="3.8240498304367065e-01" purity="3.6563473939895630e-01" nType="0">
              <Node pos="l" depth="2" NCoef="0" IVar="-1" Cut="0.0000000000000000e+00" cType="1" res="3.4719917457550764e-03" rms="3.8074284791946411e-01" purity="5.4303711652755737e-01" nType="-99"/>
              <Node pos="r" depth="2" NCoef="0" IVar="-1" Cut="0.0000000000000000e+00" cType="1" res="-1.4245461672544479e-02" rms="3.8158228993415833e-01" purity="2.8697273135185242e-01" nType="-99"/>
            </Node>
          </Node>
        </BinaryTree>
        <BinaryTree type="DecisionTree" boostWeight="1.0000000000000000e+00" itree="50">
          <Node pos="s" depth="0" NCoef="0" IVar="2" Cut="9.6032020568847656e+01" cType="1" res="1.0318775894120336e-03" rms="4.1313135623931885e-01" purity="5.0000000000000000e-01" nType="0">
            <Node pos="l" depth="1" NCoef="0" IVar="9" Cut="3.3728402709960938e+02" cType="0" res="6.7249792627990246e-03" rms="4.1743364930152893e-01" purity="5.2258366346359253e-01" nType="0">
              <Node pos="l" depth="2" NCoef="0" IVar="-1" Cut="0.0000000000000000e+00" cType="1" res="7.5904987752437592e-03" rms="3.8120874762535095e-01" purity="6.2911444902420044e-01" nType="-99"/>
              <Node pos="r" depth="2" NCoef="0" IVar="-1" Cut="0.0000000000000000e+00" cType="1" res="-3.3242611680179834e-03" rms="4.5217630267143250e-01" purity="4.0818920731544495e-01" nType="-99"/>
            </Node>
            <Node pos="r" depth="1" NCoef="0" IVar="9" Cut="4.6577285766601562e+02" cType="0" res="-6.7296475172042847e-02" rms="3.5033237934112549e-01" purity="2.2895206511020660e-01" nType="0">
              <Node pos="l" depth="2" NCoef="0" IVar="-1" Cut="0.0000000000000000e+00" cType="1" res="-1.0716328397393227e-02" rms="3.9482280611991882e-01" purity="3.6115431785583496e-01" nType="-99"/>
              <Node pos="r" depth="2" NCoef="0" IVar="-1" Cut="0.0000000000000000e+00" cType="1" res="-2.9974829405546188e-02" rms="3.1664746999740601e-01" purity="1.4333505928516388e-01" nType="-99"/>
            </Node>
          </Node>
        </BinaryTree>
        <BinaryTree type="DecisionTree" boostWeight="1.0000000000000000e+00" itree="51">
          <Node pos="s" depth="0" NCoef="0" IVar="7" Cut="1.9092735290527344e+02" cType="1" res="9.8302611149847507e-04" rms="4.1294211149215698e-01" purity="5.0000000000000000e-01" nType="0">
            <Node pos="l" depth="1" NCoef="0" IVar="7" Cut="1.3974609375000000e+02" cType="0" res="1.5422005206346512e-02" rms="4.1982066631317139e-01" purity="5.8223849534988403e-01" nType="0">
              <Node pos="l" depth="2" NCoef="0" IVar="-1" Cut="0.0000000000000000e+00" cType="1" res="6.5582431852817535e-03" rms="4.1818770766258240e-01" purity="5.9378230571746826e-01" nType="-99"/>
              <Node pos="r" depth="2" NCoef="0" IVar="-1" Cut="0.0000000000000000e+00" cType="1" res="-1.2874075211584568e-02" rms="4.2408412694931030e-01" purity="5.0995832681655884e-01" nType="-99"/>
            </Node>
            <Node pos="r" depth="1" NCoef="0" IVar="9" Cut="5.7942700195312500e+02" cType="0" res="-2.5758223608136177e-02" rms="3.9851132035255432e-01" purity="3.4769278764724731e-01" nType="0">
              <Node pos="l" depth="2" NCoef="0" IVar="-1" Cut="0.0000000000000000e+00" cType="1" res="1.0063318535685539e-02" rms="3.8311392068862915e-01" purity="6.3609719276428223e-01" nType="-99"/>
              <Node pos="r" depth="2" NCoef="0" IVar="-1" Cut="0.0000000000000000e+00" cType="1" res="-1.0049644857645035e-02" rms="4.0012985467910767e-01" purity="2.9969441890716553e-01" nType="-99"/>
            </Node>
          </Node>
        </BinaryTree>
        <BinaryTree type="DecisionTree" boostWeight="1.0000000000000000e+00" itree="52">
          <Node pos="s" depth="0" NCoef="0" IVar="5" Cut="2.0285928726196289e+01" cType="1" res="9.4001647084951401e-04" rms="4.1270619630813599e-01" purity="5.0000000000000000e-01" nType="0">
            <Node pos="l" depth="1" NCoef="0" IVar="2" Cut="6.1154418945312500e+01" cType="1" res="7.2128372266888618e-03" rms="4.1527006030082703e-01" purity="5.2003711462020874e-01" nType="0">
              <Node pos="l" depth="2" NCoef="0" IVar="-1" Cut="0.0000000000000000e+00" cType="1" res="5.1090731285512447e-03" rms="4.2197999358177185e-01" purity="5.7289642095565796e-01" nType="-99"/>
              <Node pos="r" depth="2" NCoef="0" IVar="-1" Cut="0.0000000000000000e+00" cType="1" res="-6.5159201622009277e-03" rms="3.9709368348121643e-01" purity="3.9366412162780762e-01" nType="-99"/>
            </Node>
            <Node pos="r" depth="1" NCoef="0" IVar="9" Cut="4.6288562011718750e+02" cType="0" res="-5.6677747517824173e-02" rms="3.8359662890434265e-01" purity="3.1595271825790405e-01" nType="0">
              <Node pos="l" depth="2" NCoef="0" IVar="-1" Cut="0.0000000000000000e+00" cType="1" res="-4.2990641668438911e-03" rms="3.9152047038078308e-01" purity="4.5662331581115723e-01" nType="-99"/>
              <Node pos="r" depth="2" NCoef="0" IVar="-1" Cut="0.0000000000000000e+00" cType="1" res="-2.4761212989687920e-02" rms="3.7531191110610962e-01" purity="2.1851472556591034e-01" nType="-99"/>
            </Node>
          </Node>
        </BinaryTree>
        <BinaryTree type="DecisionTree" boostWeight="1.0000000000000000e+00" itree="53">
          <Node pos="s" depth="0" NCoef="0" IVar="0" Cut="9.9864181518554688e+01" cType="1" res="8.8621681788936257e-04" rms="4.1250935196876526e-01" purity="5.0000000000000000e-01" nType="0">
            <Node pos="l" depth="1" NCoef="0" IVar="9" Cut="3.4567581176757812e+02" cType="0" res="7.5154188089072704e-03" rms="4.1964048147201538e-01" purity="5.2906107902526855e-01" nType="0">
              <Node pos="l" depth="2" NCoef="0" IVar="-1" Cut="0.0000000000000000e+00" cType="1" res="8.0514168366789818e-03" rms="3.7866827845573425e-01" purity="6.4938950538635254e-01" nType="-99"/>
              <Node pos="r" depth="2" NCoef="0" IVar="-1" Cut="0.0000000000000000e+00" cType="1" res="-2.5081471540033817e-03" rms="4.5365107059478760e-01" purity="4.1722929477691650e-01" nType="-99"/>
            </Node>
            <Node pos="r" depth="1" NCoef="0" IVar="9" Cut="5.1629901123046875e+02" cType="0" res="-5.0132434815168381e-02" rms="3.4864482283592224e-01" purity="2.7634474635124207e-01" nType="0">
              <Node pos="l" depth="2" NCoef="0" IVar="-1" Cut="0.0000000000000000e+00" cType="1" res="-1.5426171012222767e-03" rms="3.9078953862190247e-01" purity="4.7180360555648804e-01" nType="-99"/>
              <Node pos="r" depth="2" NCoef="0" IVar="-1" Cut="0.0000000000000000e+00" cType="1" res="-2.3072969168424606e-02" rms="3.2634937763214111e-01" purity="1.8992477655410767e-01" nType="-99"/>
            </Node>
          </Node>
        </BinaryTree>
        <BinaryTree type="DecisionTree" boostWeight="1.0000000000000000e+00" itree="54">
          <Node pos="s" depth="0" NCoef="0" IVar="10" Cut="1.0880136108398438e+02" cType="1" res="8.5148547077551484e-04" rms="4.1234821081161499e-01" purity="5.0000000000000000e-01" nType="0">
            <Node pos="l" depth="1" NCoef="0" IVar="7" Cut="1.4370706176757812e+02" cType="0" res="4.7261375933885574e-02" rms="4.2111286520957947e-01" purity="6.1714452505111694e-01" nType="0">
              <Node pos="l" depth="2" NCoef="0" IVar="-1" Cut="0.0000000000000000e+00" cType="1" res="1.6714390367269516e-02" rms="4.1722813248634338e-01" purity="6.3683688640594482e-01" nType="-99"/>
              <Node pos="r" depth="2" NCoef="0" IVar="-1" Cut="0.0000000000000000e+00" cType="1" res="-5.8360625989735126e-03" rms="4.2760640382766724e-01" purity="5.4568380117416382e-01" nType="-99"/>
            </Node>
            <Node pos="r" depth="1" NCoef="0" IVar="9" Cut="4.4017996215820312e+02" cType="0" res="-6.5803253091871738e-03" rms="4.1044017672538757e-01" purity="4.8124119639396667e-01" nType="0">
              <Node pos="l" depth="2" NCoef="0" IVar="-1" Cut="0.0000000000000000e+00" cType="1" res="7.6257735490798950e-03" rms="3.5901907086372375e-01" purity="6.7416119575500488e-01" nType="-99"/>
              <Node pos="r" depth="2" NCoef="0" IVar="-1" Cut="0.0000000000000000e+00" cType="1" res="-4.8911287449300289e-03" rms="4.2952430248260498e-01" purity="4.0032938122749329e-01" nType="-99"/>
            </Node>
          </Node>
        </BinaryTree>
        <BinaryTree type="DecisionTree" boostWeight="1.0000000000000000e+00" itree="55">
          <Node pos="s" depth="0" NCoef="0" IVar="2" Cut="4.7867713928222656e+01" cType="1" res="8.1435224274173379e-04" rms="4.1215401887893677e-01" purity="5.0000000000000000e-01" nType="0">
            <Node pos="l" depth="1" NCoef="0" IVar="6" Cut="7.3164355754852295e-01" cType="0" res="1.9161036238074303e-02" rms="4.2041295766830444e-01" purity="5.7490569353103638e-01" nType="0">
              <Node pos="l" depth="2" NCoef="0" IVar="-1" Cut="0.0000000000000000e+00" cType="1" res="1.1770466342568398e-02" rms="4.0509352087974548e-01" purity="6.6877961158752441e-01" nType="-99"/>
              <Node pos="r" depth="2" NCoef="0" IVar="-1" Cut="0.0000000000000000e+00" cType="1" res="1.0969676077365875e-03" rms="4.2849370837211609e-01" purity="5.1959520578384399e-01" nType="-99"/>
            </Node>
            <Node pos="r" depth="1" NCoef="0" IVar="0" Cut="4.4193958282470703e+01" cType="1" res="-1.7070887610316277e-02" rms="4.0313735604286194e-01" purity="4.2697829008102417e-01" nType="0">
              <Node pos="l" depth="2" NCoef="0" IVar="-1" Cut="0.0000000000000000e+00" cType="1" res="2.1058614365756512e-03" rms="4.2432400584220886e-01" purity="5.2168595790863037e-01" nType="-99"/>
              <Node pos="r" depth="2" NCoef="0" IVar="-1" Cut="0.0000000000000000e+00" cType="1" res="-1.0666386224329472e-02" rms="3.8468283414840698e-01" purity="3.5323181748390198e-01" nType="-99"/>
            </Node>
          </Node>
        </BinaryTree>
        <BinaryTree type="DecisionTree" boostWeight="1.0000000000000000e+00" itree="56">
          <Node pos="s" depth="0" NCoef="0" IVar="6" Cut="-1.2350788116455078e+00" cType="1" res="7.7598268399015069e-04" rms="4.1197419166564941e-01" purity="5.0000000000000000e-01" nType="0">
            <Node pos="l" depth="1" NCoef="0" IVar="4" Cut="-2.7470749616622925e-01" cType="0" res="3.0866622924804688e-02" rms="3.9347580075263977e-01" purity="6.8523263931274414e-01" nType="0">
              <Node pos="l" depth="2" NCoef="0" IVar="-1" Cut="0.0000000000000000e+00" cType="1" res="2.3363519459962845e-02" rms="3.6411339044570923e-01" purity="7.8151160478591919e-01" nType="-99"/>
              <Node pos="r" depth="2" NCoef="0" IVar="-1" Cut="0.0000000000000000e+00" cType="1" res="-4.7355862334370613e-03" rms="4.1335317492485046e-01" purity="5.9452271461486816e-01" nType="-99"/>
            </Node>
            <Node pos="r" depth="1" NCoef="0" IVar="6" Cut="7.5910305976867676e-01" cType="0" res="-1.0123702697455883e-02" rms="4.1793894767761230e-01" purity="4.3290349841117859e-01" nType="0">
              <Node pos="l" depth="2" NCoef="0" IVar="-1" Cut="0.0000000000000000e+00" cType="1" res="6.2191155739128590e-03" rms="4.0627950429916382e-01" purity="6.0107064247131348e-01" nType="-99"/>
              <Node pos="r" depth="2" NCoef="0" IVar="-1" Cut="0.0000000000000000e+00" cType="1" res="-1.0489419102668762e-02" rms="4.2608380317687988e-01" purity="2.7857339382171631e-01" nType="-99"/>
            </Node>
          </Node>
        </BinaryTree>
        <BinaryTree type="DecisionTree" boostWeight="1.0000000000000000e+00" itree="57">
          <Node pos="s" depth="0" NCoef="0" IVar="10" Cut="1.3919151306152344e+02" cType="1" res="8.1134267384186387e-04" rms="4.1155555844306946e-01" purity="5.0000000000000000e-01" nType="0">
