<?xml version="1.0"?>
<MethodSetup Method="Category::lepton_flavour">
  <GeneralInfo>
    <Info name="TMVA Release" value="4.2.0 [262656]"/>
    <Info name="ROOT Release" value="5.99/03 [353027]"/>
    <Info name="Creator" value="joosep"/>
    <Info name="Date" value="Fri Nov  8 15:13:56 2013"/>
    <Info name="Host" value="Linux phys.hep.kbfi.ee 2.6.32-042stab076.8 #1 SMP Tue May 14 20:38:14 MSK 2013 x86_64 x86_64 x86_64 GNU/Linux"/>
    <Info name="Dir" value="/home/joosep/singletop/stpol2/src/mva"/>
    <Info name="Training events" value="164409"/>
    <Info name="TrainingTime" value="5.06459961e+02"/>
    <Info name="AnalysisType" value="Classification"/>
  </GeneralInfo>
  <Options>
    <Option name="V" modified="No">False</Option>
    <Option name="VerbosityLevel" modified="No">Default</Option>
    <Option name="VarTransform" modified="No">None</Option>
    <Option name="H" modified="No">False</Option>
    <Option name="CreateMVAPdfs" modified="No">False</Option>
    <Option name="IgnoreNegWeightsInTraining" modified="No">False</Option>
  </Options>
  <Variables NVar="10">
    <Variable VarIndex="0" Expression="met" Label="met" Title="met" Unit="" Internal="met" Type="F" Min="1.20722875e-02" Max="8.33922546e+02"/>
    <Variable VarIndex="1" Expression="C" Label="C" Title="C" Unit="" Internal="C" Type="F" Min="1.20641803e-03" Max="9.94445384e-01"/>
    <Variable VarIndex="2" Expression="lepton_pt" Label="lepton_pt" Title="lepton_pt" Unit="" Internal="lepton_pt" Type="F" Min="2.60002594e+01" Max="8.56515564e+02"/>
    <Variable VarIndex="3" Expression="bjet_pt" Label="bjet_pt" Title="bjet_pt" Unit="" Internal="bjet_pt" Type="F" Min="4.00000648e+01" Max="8.14473999e+02"/>
    <Variable VarIndex="4" Expression="bjet_eta" Label="bjet_eta" Title="bjet_eta" Unit="" Internal="bjet_eta" Type="F" Min="-2.68599772e+00" Max="2.71016955e+00"/>
    <Variable VarIndex="5" Expression="bjet_mass" Label="bjet_mass" Title="bjet_mass" Unit="" Internal="bjet_mass" Type="F" Min="3.37243986e+00" Max="1.34005081e+02"/>
    <Variable VarIndex="6" Expression="ljet_pt" Label="ljet_pt" Title="ljet_pt" Unit="" Internal="ljet_pt" Type="F" Min="4.00000305e+01" Max="8.60711426e+02"/>
    <Variable VarIndex="7" Expression="ljet_eta" Label="ljet_eta" Title="ljet_eta" Unit="" Internal="ljet_eta" Type="F" Min="-4.99572420e+00" Max="4.99636459e+00"/>
    <Variable VarIndex="8" Expression="ljet_mass" Label="ljet_mass" Title="ljet_mass" Unit="" Internal="ljet_mass" Type="F" Min="7.86929727e-01" Max="1.24655479e+02"/>
    <Variable VarIndex="9" Expression="top_mass" Label="top_mass" Title="top_mass" Unit="" Internal="top_mass" Type="F" Min="9.36714783e+01" Max="1.81194507e+03"/>
  </Variables>
  <Spectators NSpec="1">
    <Spectator SpecIndex="0" Expression="lepton_type" Label="lepton_type" Title="F" Unit="" Internal="lepton_type" Type="F" Min="1.10000000e+01" Max="1.30000000e+01"/>
  </Spectators>
  <Classes NClass="2">
    <Class Name="Background" Index="0"/>
    <Class Name="Signal" Index="1"/>
  </Classes>
  <Transformations NTransformations="0"/>
  <MVAPdfs/>
  <Weights NSubMethods="2">
    <SubMethod Index="0" Method="BDT::muon" Cut="abs(lepton_type)==13.0" Variables="met:C:lepton_pt:bjet_pt:bjet_eta:bjet_mass:ljet_pt:ljet_eta:ljet_mass:top_mass">
      <GeneralInfo>
        <Info name="TMVA Release" value="4.2.0 [262656]"/>
        <Info name="ROOT Release" value="5.99/03 [353027]"/>
        <Info name="Creator" value="joosep"/>
        <Info name="Date" value="Fri Nov  8 15:13:56 2013"/>
        <Info name="Host" value="Linux phys.hep.kbfi.ee 2.6.32-042stab076.8 #1 SMP Tue May 14 20:38:14 MSK 2013 x86_64 x86_64 x86_64 GNU/Linux"/>
        <Info name="Dir" value="/home/joosep/singletop/stpol2/src/mva"/>
        <Info name="Training events" value="91316"/>
        <Info name="TrainingTime" value="2.63556616e+02"/>
        <Info name="AnalysisType" value="Classification"/>
      </GeneralInfo>
      <Options>
        <Option name="V" modified="No">False</Option>
        <Option name="VerbosityLevel" modified="Yes">Debug</Option>
        <Option name="VarTransform" modified="No">None</Option>
        <Option name="H" modified="Yes">True</Option>
        <Option name="CreateMVAPdfs" modified="No">False</Option>
        <Option name="IgnoreNegWeightsInTraining" modified="No">False</Option>
        <Option name="NTrees" modified="Yes">1000</Option>
        <Option name="MaxDepth" modified="Yes">2</Option>
        <Option name="MinNodeSize" modified="No">0.1095103.2</Option>
        <Option name="nCuts" modified="Yes">2000</Option>
        <Option name="BoostType" modified="Yes">Grad</Option>
        <Option name="AdaBoostR2Loss" modified="No">quadratic</Option>
        <Option name="UseBaggedBoost" modified="No">False</Option>
        <Option name="Shrinkage" modified="Yes">1.000000e-01</Option>
        <Option name="AdaBoostBeta" modified="No">5.000000e-01</Option>
        <Option name="UseRandomisedTrees" modified="No">False</Option>
        <Option name="UseNvars" modified="Yes">4</Option>
        <Option name="UsePoissonNvars" modified="No">True</Option>
        <Option name="BaggedSampleFraction" modified="No">6.000000e-01</Option>
        <Option name="UseYesNoLeaf" modified="No">True</Option>
        <Option name="NegWeightTreatment" modified="No">ignorenegweightsintraining</Option>
        <Option name="Css" modified="No">1.000000e+00</Option>
        <Option name="Cts_sb" modified="No">1.000000e+00</Option>
        <Option name="Ctb_ss" modified="No">1.000000e+00</Option>
        <Option name="Cbb" modified="No">1.000000e+00</Option>
        <Option name="NodePurityLimit" modified="No">5.000000e-01</Option>
        <Option name="SeparationType" modified="No">giniindex</Option>
        <Option name="DoBoostMonitor" modified="No">False</Option>
        <Option name="UseFisherCuts" modified="No">False</Option>
        <Option name="MinLinCorrForFisher" modified="No">8.000000e-01</Option>
        <Option name="UseExclusiveVars" modified="No">False</Option>
        <Option name="DoPreselection" modified="No">False</Option>
        <Option name="SigToBkgFraction" modified="No">1.000000e+00</Option>
        <Option name="PruneMethod" modified="Yes">costcomplexity</Option>
        <Option name="PruneStrength" modified="Yes">5.000000e+00</Option>
        <Option name="PruningValFraction" modified="No">5.000000e-01</Option>
        <Option name="nEventsMin" modified="Yes">100</Option>
        <Option name="UseBaggedGrad" modified="Yes">False</Option>
        <Option name="GradBaggingFraction" modified="No">6.000000e-01</Option>
        <Option name="UseNTrainEvents" modified="No">0</Option>
        <Option name="NNodesMax" modified="Yes">5</Option>
      </Options>
      <Variables NVar="10">
        <Variable VarIndex="0" Expression="met" Label="met" Title="met" Unit="" Internal="met" Type="F" Min="1.20722875e-02" Max="5.45280090e+02"/>
        <Variable VarIndex="1" Expression="C" Label="C" Title="C" Unit="" Internal="C" Type="F" Min="1.44835992e-03" Max="9.91093516e-01"/>
        <Variable VarIndex="2" Expression="lepton_pt" Label="lepton_pt" Title="lepton_pt" Unit="" Internal="lepton_pt" Type="F" Min="2.60002594e+01" Max="5.36175964e+02"/>
        <Variable VarIndex="3" Expression="bjet_pt" Label="bjet_pt" Title="bjet_pt" Unit="" Internal="bjet_pt" Type="F" Min="4.00008965e+01" Max="6.67573853e+02"/>
        <Variable VarIndex="4" Expression="bjet_eta" Label="bjet_eta" Title="bjet_eta" Unit="" Internal="bjet_eta" Type="F" Min="-2.68599772e+00" Max="2.63369298e+00"/>
        <Variable VarIndex="5" Expression="bjet_mass" Label="bjet_mass" Title="bjet_mass" Unit="" Internal="bjet_mass" Type="F" Min="3.46671367e+00" Max="1.06021400e+02"/>
        <Variable VarIndex="6" Expression="ljet_pt" Label="ljet_pt" Title="ljet_pt" Unit="" Internal="ljet_pt" Type="F" Min="4.00002403e+01" Max="7.64136597e+02"/>
        <Variable VarIndex="7" Expression="ljet_eta" Label="ljet_eta" Title="ljet_eta" Unit="" Internal="ljet_eta" Type="F" Min="-4.94638348e+00" Max="4.98462486e+00"/>
        <Variable VarIndex="8" Expression="ljet_mass" Label="ljet_mass" Title="ljet_mass" Unit="" Internal="ljet_mass" Type="F" Min="7.86929727e-01" Max="1.05809570e+02"/>
        <Variable VarIndex="9" Expression="top_mass" Label="top_mass" Title="top_mass" Unit="" Internal="top_mass" Type="F" Min="9.36714783e+01" Max="1.42876282e+03"/>
      </Variables>
      <Classes NClass="2">
        <Class Name="Background" Index="0"/>
        <Class Name="Signal" Index="1"/>
      </Classes>
      <Transformations NTransformations="1">
        <Transform Name="Rearrange">
          <Selection>
            <Input NInputs="10">
              <Input Type="Variable" Label="met" Expression="met"/>
              <Input Type="Variable" Label="C" Expression="C"/>
              <Input Type="Variable" Label="lepton_pt" Expression="lepton_pt"/>
              <Input Type="Variable" Label="bjet_pt" Expression="bjet_pt"/>
              <Input Type="Variable" Label="bjet_eta" Expression="bjet_eta"/>
              <Input Type="Variable" Label="bjet_mass" Expression="bjet_mass"/>
              <Input Type="Variable" Label="ljet_pt" Expression="ljet_pt"/>
              <Input Type="Variable" Label="ljet_eta" Expression="ljet_eta"/>
              <Input Type="Variable" Label="ljet_mass" Expression="ljet_mass"/>
              <Input Type="Variable" Label="top_mass" Expression="top_mass"/>
            </Input>
            <Output NOutputs="10">
              <Output Type="Variable" Label="met" Expression="met"/>
              <Output Type="Variable" Label="C" Expression="C"/>
              <Output Type="Variable" Label="lepton_pt" Expression="lepton_pt"/>
              <Output Type="Variable" Label="bjet_pt" Expression="bjet_pt"/>
              <Output Type="Variable" Label="bjet_eta" Expression="bjet_eta"/>
              <Output Type="Variable" Label="bjet_mass" Expression="bjet_mass"/>
              <Output Type="Variable" Label="ljet_pt" Expression="ljet_pt"/>
              <Output Type="Variable" Label="ljet_eta" Expression="ljet_eta"/>
              <Output Type="Variable" Label="ljet_mass" Expression="ljet_mass"/>
              <Output Type="Variable" Label="top_mass" Expression="top_mass"/>
            </Output>
          </Selection>
        </Transform>
      </Transformations>
      <MVAPdfs/>
      <Weights NTrees="1000" AnalysisType="1">
        <BinaryTree type="DecisionTree" boostWeight="1.0000000000000000e+00" itree="0">
          <Node pos="s" depth="0" NCoef="0" IVar="9" Cut="2.1577128601074219e+02" cType="1" res="5.5968353146406097e-16" rms="5.0000000000000000e-01" purity="5.0000000000000000e-01" nType="0">
            <Node pos="l" depth="1" NCoef="0" IVar="1" Cut="1.9878390431404114e-01" cType="1" res="8.1449873745441437e-02" rms="4.9332129955291748e-01" purity="5.8144986629486084e-01" nType="0">
              <Node pos="l" depth="2" NCoef="0" IVar="-1" Cut="0.0000000000000000e+00" cType="1" res="3.7123199552297592e-02" rms="4.1645124554634094e-01" purity="7.7670985460281372e-01" nType="-99"/>
              <Node pos="r" depth="2" NCoef="0" IVar="-1" Cut="0.0000000000000000e+00" cType="1" res="-1.3699751580134034e-03" rms="4.9965825676918030e-01" purity="4.8151683807373047e-01" nType="-99"/>
            </Node>
            <Node pos="r" depth="1" NCoef="0" IVar="1" Cut="6.6607929766178131e-02" cType="1" res="-2.5075140595436096e-01" rms="4.3257799744606018e-01" purity="2.4924862384796143e-01" nType="0">
              <Node pos="l" depth="2" NCoef="0" IVar="-1" Cut="0.0000000000000000e+00" cType="1" res="7.4537997134029865e-03" rms="4.9382165074348450e-01" purity="5.7835918664932251e-01" nType="-99"/>
              <Node pos="r" depth="2" NCoef="0" IVar="-1" Cut="0.0000000000000000e+00" cType="1" res="-1.5936255455017090e-02" rms="4.1963693499565125e-01" purity="2.2814556956291199e-01" nType="-99"/>
            </Node>
          </Node>
        </BinaryTree>
        <BinaryTree type="DecisionTree" boostWeight="1.0000000000000000e+00" itree="1">
          <Node pos="s" depth="0" NCoef="0" IVar="9" Cut="2.1577128601074219e+02" cType="1" res="-2.6181985158473253e-03" rms="4.9644041061401367e-01" purity="5.0000000000000000e-01" nType="0">
            <Node pos="l" depth="1" NCoef="0" IVar="1" Cut="1.9878390431404114e-01" cType="1" res="7.5622104108333588e-02" rms="4.9082118272781372e-01" purity="5.8144986629486084e-01" nType="0">
              <Node pos="l" depth="2" NCoef="0" IVar="-1" Cut="0.0000000000000000e+00" cType="1" res="3.4681882709264755e-02" rms="4.1645124554634094e-01" purity="7.7670985460281372e-01" nType="-99"/>
              <Node pos="r" depth="2" NCoef="0" IVar="-1" Cut="0.0000000000000000e+00" cType="1" res="-1.3192070182412863e-03" rms="4.9965825676918030e-01" purity="4.8151683807373047e-01" nType="-99"/>
            </Node>
            <Node pos="r" depth="1" NCoef="0" IVar="1" Cut="6.6607929766178131e-02" cType="1" res="-2.4348862469196320e-01" rms="4.3205052614212036e-01" purity="2.4924862384796143e-01" nType="0">
              <Node pos="l" depth="2" NCoef="0" IVar="-1" Cut="0.0000000000000000e+00" cType="1" res="7.0996838621795177e-03" rms="4.9382165074348450e-01" purity="5.7835918664932251e-01" nType="-99"/>
              <Node pos="r" depth="2" NCoef="0" IVar="-1" Cut="0.0000000000000000e+00" cType="1" res="-1.5473129227757454e-02" rms="4.1963696479797363e-01" purity="2.2814556956291199e-01" nType="-99"/>
            </Node>
          </Node>
        </BinaryTree>
        <BinaryTree type="DecisionTree" boostWeight="1.0000000000000000e+00" itree="2">
          <Node pos="s" depth="0" NCoef="0" IVar="9" Cut="2.1443685913085938e+02" cType="1" res="-4.9773799255490303e-03" rms="4.9323931336402893e-01" purity="5.0000000000000000e-01" nType="0">
            <Node pos="l" depth="1" NCoef="0" IVar="1" Cut="1.9878390431404114e-01" cType="1" res="7.1204677224159241e-02" rms="4.8845249414443970e-01" purity="5.8245307207107544e-01" nType="0">
              <Node pos="l" depth="2" NCoef="0" IVar="-1" Cut="0.0000000000000000e+00" cType="1" res="3.2791685312986374e-02" rms="4.1558328270912170e-01" purity="7.7801179885864258e-01" nType="-99"/>
              <Node pos="r" depth="2" NCoef="0" IVar="-1" Cut="0.0000000000000000e+00" cType="1" res="-1.2128240196034312e-03" rms="4.9968710541725159e-01" purity="4.8231416940689087e-01" nType="-99"/>
            </Node>
            <Node pos="r" depth="1" NCoef="0" IVar="2" Cut="5.4560993194580078e+01" cType="1" res="-2.3359374701976776e-01" rms="4.3324935436248779e-01" purity="2.5256472826004028e-01" nType="0">
              <Node pos="l" depth="2" NCoef="0" IVar="-1" Cut="0.0000000000000000e+00" cType="1" res="-9.8153380677103996e-03" rms="4.7200030088424683e-01" purity="3.3899331092834473e-01" nType="-99"/>
              <Node pos="r" depth="2" NCoef="0" IVar="-1" Cut="0.0000000000000000e+00" cType="1" res="-1.7178427428007126e-02" rms="3.8056069612503052e-01" purity="1.7671272158622742e-01" nType="-99"/>
            </Node>
          </Node>
        </BinaryTree>
        <BinaryTree type="DecisionTree" boostWeight="1.0000000000000000e+00" itree="3">
          <Node pos="s" depth="0" NCoef="0" IVar="9" Cut="2.1643849182128906e+02" cType="1" res="-7.0944600738584995e-03" rms="4.9036103487014771e-01" purity="5.0000000000000000e-01" nType="0">
            <Node pos="l" depth="1" NCoef="0" IVar="1" Cut="1.9878390431404114e-01" cType="1" res="6.4709670841693878e-02" rms="4.8675274848937988e-01" purity="5.8087170124053955e-01" nType="0">
              <Node pos="l" depth="2" NCoef="0" IVar="-1" Cut="0.0000000000000000e+00" cType="1" res="3.0447324737906456e-02" rms="4.1654887795448303e-01" purity="7.7640610933303833e-01" nType="-99"/>
              <Node pos="r" depth="2" NCoef="0" IVar="-1" Cut="0.0000000000000000e+00" cType="1" res="-1.2596369488164783e-03" rms="4.9959987401962280e-01" purity="4.8092901706695557e-01" nType="-99"/>
            </Node>
            <Node pos="r" depth="1" NCoef="0" IVar="1" Cut="6.6607929766178131e-02" cType="1" res="-2.3106721043586731e-01" rms="4.3035507202148438e-01" purity="2.4774338304996490e-01" nType="0">
              <Node pos="l" depth="2" NCoef="0" IVar="-1" Cut="0.0000000000000000e+00" cType="1" res="7.2710118256509304e-03" rms="4.9383482336997986e-01" purity="5.7763558626174927e-01" nType="-99"/>
              <Node pos="r" depth="2" NCoef="0" IVar="-1" Cut="0.0000000000000000e+00" cType="1" res="-1.4701286330819130e-02" rms="4.1842728853225708e-01" purity="2.2676347196102142e-01" nType="-99"/>
            </Node>
          </Node>
        </BinaryTree>
        <BinaryTree type="DecisionTree" boostWeight="1.0000000000000000e+00" itree="4">
          <Node pos="s" depth="0" NCoef="0" IVar="9" Cut="2.1443685913085938e+02" cType="1" res="-9.0023456141352654e-03" rms="4.8776003718376160e-01" purity="5.0000000000000000e-01" nType="0">
            <Node pos="l" depth="1" NCoef="0" IVar="1" Cut="3.1154707074165344e-01" cType="1" res="6.1431352049112320e-02" rms="4.8482784628868103e-01" purity="5.8245307207107544e-01" nType="0">
              <Node pos="l" depth="2" NCoef="0" IVar="-1" Cut="0.0000000000000000e+00" cType="1" res="2.0909158512949944e-02" rms="4.4257390499114990e-01" purity="7.2273474931716919e-01" nType="-99"/>
              <Node pos="r" depth="2" NCoef="0" IVar="-1" Cut="0.0000000000000000e+00" cType="1" res="-2.9328486416488886e-03" rms="4.9807450175285339e-01" purity="4.5616146922111511e-01" nType="-99"/>
            </Node>
            <Node pos="r" depth="1" NCoef="0" IVar="2" Cut="5.4560993194580078e+01" cType="1" res="-2.2036834061145782e-01" rms="4.3232524394989014e-01" purity="2.5256472826004028e-01" nType="0">
              <Node pos="l" depth="2" NCoef="0" IVar="-1" Cut="0.0000000000000000e+00" cType="1" res="-9.1099962592124939e-03" rms="4.7134602069854736e-01" purity="3.3899331092834473e-01" nType="-99"/>
              <Node pos="r" depth="2" NCoef="0" IVar="-1" Cut="0.0000000000000000e+00" cType="1" res="-1.6376685351133347e-02" rms="3.8014933466911316e-01" purity="1.7671272158622742e-01" nType="-99"/>
            </Node>
          </Node>
        </BinaryTree>
        <BinaryTree type="DecisionTree" boostWeight="1.0000000000000000e+00" itree="5">
          <Node pos="s" depth="0" NCoef="0" IVar="9" Cut="2.1643849182128906e+02" cType="1" res="-1.0467910207808018e-02" rms="4.8561400175094604e-01" purity="5.0000000000000000e-01" nType="0">
            <Node pos="l" depth="1" NCoef="0" IVar="1" Cut="3.1154707074165344e-01" cType="1" res="5.6041788309812546e-02" rms="4.8377710580825806e-01" purity="5.8087170124053955e-01" nType="0">
              <Node pos="l" depth="2" NCoef="0" IVar="-1" Cut="0.0000000000000000e+00" cType="1" res="1.9575305283069611e-02" rms="4.4317743182182312e-01" purity="7.2140789031982422e-01" nType="-99"/>
              <Node pos="r" depth="2" NCoef="0" IVar="-1" Cut="0.0000000000000000e+00" cType="1" res="-2.9209828935563564e-03" rms="4.9787789583206177e-01" purity="4.5461019873619080e-01" nType="-99"/>
            </Node>
            <Node pos="r" depth="1" NCoef="0" IVar="1" Cut="1.3675659894943237e-01" cType="1" res="-2.1792618930339813e-01" rms="4.2957931756973267e-01" purity="2.4774338304996490e-01" nType="0">
              <Node pos="l" depth="2" NCoef="0" IVar="-1" Cut="0.0000000000000000e+00" cType="1" res="-3.2658989075571299e-03" rms="4.9110862612724304e-01" purity="4.3066436052322388e-01" nType="-99"/>
              <Node pos="r" depth="2" NCoef="0" IVar="-1" Cut="0.0000000000000000e+00" cType="1" res="-1.4717007987201214e-02" rms="4.0844067931175232e-01" purity="2.1240891516208649e-01" nType="-99"/>
            </Node>
          </Node>
        </BinaryTree>
        <BinaryTree type="DecisionTree" boostWeight="1.0000000000000000e+00" itree="6">
          <Node pos="s" depth="0" NCoef="0" IVar="9" Cut="2.2377783203125000e+02" cType="1" res="-1.1773628182709217e-02" rms="4.8364368081092834e-01" purity="5.0000000000000000e-01" nType="0">
            <Node pos="l" depth="1" NCoef="0" IVar="1" Cut="1.6366904973983765e-01" cType="1" res="4.7998376190662384e-02" rms="4.8320272564888000e-01" purity="5.7444185018539429e-01" nType="0">
              <Node pos="l" depth="2" NCoef="0" IVar="-1" Cut="0.0000000000000000e+00" cType="1" res="2.8768975287675858e-02" rms="4.0775054693222046e-01" purity="7.8788965940475464e-01" nType="-99"/>
              <Node pos="r" depth="2" NCoef="0" IVar="-1" Cut="0.0000000000000000e+00" cType="1" res="-1.1962325079366565e-03" rms="4.9693182110786438e-01" purity="4.8707804083824158e-01" nType="-99"/>
            </Node>
            <Node pos="r" depth="1" NCoef="0" IVar="1" Cut="1.1898295581340790e-01" cType="1" res="-2.2650913894176483e-01" rms="4.2011463642120361e-01" purity="2.3256190121173859e-01" nType="0">
              <Node pos="l" depth="2" NCoef="0" IVar="-1" Cut="0.0000000000000000e+00" cType="1" res="-3.3219829201698303e-03" rms="4.9156010150909424e-01" purity="4.3324559926986694e-01" nType="-99"/>
              <Node pos="r" depth="2" NCoef="0" IVar="-1" Cut="0.0000000000000000e+00" cType="1" res="-1.4702420681715012e-02" rms="4.0146881341934204e-01" purity="2.0274275541305542e-01" nType="-99"/>
            </Node>
          </Node>
        </BinaryTree>
        <BinaryTree type="DecisionTree" boostWeight="1.0000000000000000e+00" itree="7">
          <Node pos="s" depth="0" NCoef="0" IVar="9" Cut="2.1310243225097656e+02" cType="1" res="-1.3170827180147171e-02" rms="4.8158895969390869e-01" purity="5.0000000000000000e-01" nType="0">
            <Node pos="l" depth="1" NCoef="0" IVar="9" Cut="1.4374728393554688e+02" cType="0" res="5.0864130258560181e-02" rms="4.8094511032104492e-01" purity="5.8345443010330200e-01" nType="0">
              <Node pos="l" depth="2" NCoef="0" IVar="-1" Cut="0.0000000000000000e+00" cType="1" res="9.6859922632575035e-03" rms="4.7020989656448364e-01" purity="6.3236743211746216e-01" nType="-99"/>
              <Node pos="r" depth="2" NCoef="0" IVar="-1" Cut="0.0000000000000000e+00" cType="1" res="-9.1266874223947525e-03" rms="4.7476372122764587e-01" purity="3.8855239748954773e-01" nType="-99"/>
            </Node>
            <Node pos="r" depth="1" NCoef="0" IVar="2" Cut="5.4556579589843750e+01" cType="1" res="-1.9974099099636078e-01" rms="4.3240964412689209e-01" purity="2.5684982538223267e-01" nType="0">
              <Node pos="l" depth="2" NCoef="0" IVar="-1" Cut="0.0000000000000000e+00" cType="1" res="-8.0049475654959679e-03" rms="4.7087001800537109e-01" purity="3.4404289722442627e-01" nType="-99"/>
              <Node pos="r" depth="2" NCoef="0" IVar="-1" Cut="0.0000000000000000e+00" cType="1" res="-1.5304856933653355e-02" rms="3.8111215829849243e-01" purity="1.7955987155437469e-01" nType="-99"/>
            </Node>
          </Node>
        </BinaryTree>
        <BinaryTree type="DecisionTree" boostWeight="1.0000000000000000e+00" itree="8">
          <Node pos="s" depth="0" NCoef="0" IVar="9" Cut="2.2377783203125000e+02" cType="1" res="-1.3837918639183044e-02" rms="4.8012459278106689e-01" purity="5.0000000000000000e-01" nType="0">
            <Node pos="l" depth="1" NCoef="0" IVar="1" Cut="2.5615462660789490e-01" cType="1" res="4.1884388774633408e-02" rms="4.8107737302780151e-01" purity="5.7444185018539429e-01" nType="0">
              <Node pos="l" depth="2" NCoef="0" IVar="-1" Cut="0.0000000000000000e+00" cType="1" res="1.9365772604942322e-02" rms="4.3358972668647766e-01" purity="7.3793774843215942e-01" nType="-99"/>
              <Node pos="r" depth="2" NCoef="0" IVar="-1" Cut="0.0000000000000000e+00" cType="1" res="-2.5808764621615410e-03" rms="4.9670854210853577e-01" purity="4.6130195260047913e-01" nType="-99"/>
            </Node>
            <Node pos="r" depth="1" NCoef="0" IVar="1" Cut="6.6771462559700012e-02" cType="1" res="-2.1402458846569061e-01" rms="4.1952350735664368e-01" purity="2.3256190121173859e-01" nType="0">
              <Node pos="l" depth="2" NCoef="0" IVar="-1" Cut="0.0000000000000000e+00" cType="1" res="5.8710463345050812e-03" rms="4.9662774801254272e-01" purity="5.5424684286117554e-01" nType="-99"/>
              <Node pos="r" depth="2" NCoef="0" IVar="-1" Cut="0.0000000000000000e+00" cType="1" res="-1.3568678870797157e-02" rms="4.0830180048942566e-01" purity="2.1297281980514526e-01" nType="-99"/>
            </Node>
          </Node>
        </BinaryTree>
        <BinaryTree type="DecisionTree" boostWeight="1.0000000000000000e+00" itree="9">
          <Node pos="s" depth="0" NCoef="0" IVar="9" Cut="2.1043359375000000e+02" cType="1" res="-1.4890160411596298e-02" rms="4.7846898436546326e-01" purity="5.0000000000000000e-01" nType="0">
            <Node pos="l" depth="1" NCoef="0" IVar="9" Cut="1.4373657226562500e+02" cType="0" res="4.6704474836587906e-02" rms="4.7892192006111145e-01" purity="5.8541870117187500e-01" nType="0">
              <Node pos="l" depth="2" NCoef="0" IVar="-1" Cut="0.0000000000000000e+00" cType="1" res="9.3018924817442894e-03" rms="4.6837911009788513e-01" purity="6.3578313589096069e-01" nType="-99"/>
              <Node pos="r" depth="2" NCoef="0" IVar="-1" Cut="0.0000000000000000e+00" cType="1" res="-9.0428376570343971e-03" rms="4.7365623712539673e-01" purity="3.8835129141807556e-01" nType="-99"/>
            </Node>
            <Node pos="r" depth="1" NCoef="0" IVar="2" Cut="5.4556579589843750e+01" cType="1" res="-1.8442656099796295e-01" rms="4.3422785401344299e-01" purity="2.6488900184631348e-01" nType="0">
              <Node pos="l" depth="2" NCoef="0" IVar="-1" Cut="0.0000000000000000e+00" cType="1" res="-7.1246232837438583e-03" rms="4.7164085507392883e-01" purity="3.5487058758735657e-01" nType="-99"/>
              <Node pos="r" depth="2" NCoef="0" IVar="-1" Cut="0.0000000000000000e+00" cType="1" res="-1.4593155123293400e-02" rms="3.8345742225646973e-01" purity="1.8413127958774567e-01" nType="-99"/>
            </Node>
          </Node>
        </BinaryTree>
        <BinaryTree type="DecisionTree" boostWeight="1.0000000000000000e+00" itree="10">
          <Node pos="s" depth="0" NCoef="0" IVar="9" Cut="2.3245158386230469e+02" cType="1" res="-1.5440841205418110e-02" rms="4.7712564468383789e-01" purity="5.0000000000000000e-01" nType="0">
            <Node pos="l" depth="1" NCoef="0" IVar="1" Cut="1.8889239430427551e-01" cType="1" res="3.2876051962375641e-02" rms="4.7960945963859558e-01" purity="5.6765854358673096e-01" nType="0">
              <Node pos="l" depth="2" NCoef="0" IVar="-1" Cut="0.0000000000000000e+00" cType="1" res="2.2479681298136711e-02" rms="4.1644033789634705e-01" purity="7.7042752504348755e-01" nType="-99"/>
              <Node pos="r" depth="2" NCoef="0" IVar="-1" Cut="0.0000000000000000e+00" cType="1" res="-2.1457064431160688e-03" rms="4.9484139680862427e-01" purity="4.7166994214057922e-01" nType="-99"/>
            </Node>
            <Node pos="r" depth="1" NCoef="0" IVar="2" Cut="3.9773448944091797e+01" cType="1" res="-2.1747991442680359e-01" rms="4.0881586074829102e-01" purity="2.1708309650421143e-01" nType="0">
              <Node pos="l" depth="2" NCoef="0" IVar="-1" Cut="0.0000000000000000e+00" cType="1" res="-6.3325744122266769e-03" rms="4.7373560070991516e-01" purity="3.4915766119956970e-01" nType="-99"/>
              <Node pos="r" depth="2" NCoef="0" IVar="-1" Cut="0.0000000000000000e+00" cType="1" res="-1.4662368223071098e-02" rms="3.8055065274238586e-01" purity="1.7847515642642975e-01" nType="-99"/>
            </Node>
          </Node>
        </BinaryTree>
        <BinaryTree type="DecisionTree" boostWeight="1.0000000000000000e+00" itree="11">
          <Node pos="s" depth="0" NCoef="0" IVar="9" Cut="2.1043359375000000e+02" cType="1" res="-1.6402939334511757e-02" rms="4.7555935382843018e-01" purity="5.0000000000000000e-01" nType="0">
            <Node pos="l" depth="1" NCoef="0" IVar="3" Cut="6.0363471984863281e+01" cType="0" res="4.1224617511034012e-02" rms="4.7725686430931091e-01" purity="5.8541870117187500e-01" nType="0">
              <Node pos="l" depth="2" NCoef="0" IVar="-1" Cut="0.0000000000000000e+00" cType="1" res="1.3846767134964466e-02" rms="4.5400339365005493e-01" purity="6.7616081237792969e-01" nType="-99"/>
              <Node pos="r" depth="2" NCoef="0" IVar="-1" Cut="0.0000000000000000e+00" cType="1" res="-4.1318684816360474e-03" rms="4.8435440659523010e-01" purity="4.8210152983665466e-01" nType="-99"/>
            </Node>
            <Node pos="r" depth="1" NCoef="0" IVar="2" Cut="5.4556579589843750e+01" cType="1" res="-1.7502014338970184e-01" rms="4.3290260434150696e-01" purity="2.6488900184631348e-01" nType="0">
              <Node pos="l" depth="2" NCoef="0" IVar="-1" Cut="0.0000000000000000e+00" cType="1" res="-6.7256479524075985e-03" rms="4.7059383988380432e-01" purity="3.5487058758735657e-01" nType="-99"/>
              <Node pos="r" depth="2" NCoef="0" IVar="-1" Cut="0.0000000000000000e+00" cType="1" res="-1.3994189910590649e-02" rms="3.8291597366333008e-01" purity="1.8413127958774567e-01" nType="-99"/>
            </Node>
          </Node>
        </BinaryTree>
        <BinaryTree type="DecisionTree" boostWeight="1.0000000000000000e+00" itree="12">
          <Node pos="s" depth="0" NCoef="0" IVar="9" Cut="2.3245158386230469e+02" cType="1" res="-1.6969190910458565e-02" rms="4.7421395778656006e-01" purity="5.0000000000000000e-01" nType="0">
            <Node pos="l" depth="1" NCoef="0" IVar="1" Cut="1.6366904973983765e-01" cType="1" res="2.8229275718331337e-02" rms="4.7770473361015320e-01" purity="5.6765854358673096e-01" nType="0">
              <Node pos="l" depth="2" NCoef="0" IVar="-1" Cut="0.0000000000000000e+00" cType="1" res="2.3137703537940979e-02" rms="4.0795978903770447e-01" purity="7.8262686729431152e-01" nType="-99"/>
              <Node pos="r" depth="2" NCoef="0" IVar="-1" Cut="0.0000000000000000e+00" cType="1" res="-1.9255400402471423e-03" rms="4.9307692050933838e-01" purity="4.8060387372970581e-01" nType="-99"/>
            </Node>
            <Node pos="r" depth="1" NCoef="0" IVar="1" Cut="6.6771462559700012e-02" cType="1" res="-2.0596843957901001e-01" rms="4.0831449627876282e-01" purity="2.1708309650421143e-01" nType="0">
              <Node pos="l" depth="2" NCoef="0" IVar="-1" Cut="0.0000000000000000e+00" cType="1" res="6.4554456621408463e-03" rms="4.9668407440185547e-01" purity="5.4668426513671875e-01" nType="-99"/>
              <Node pos="r" depth="2" NCoef="0" IVar="-1" Cut="0.0000000000000000e+00" cType="1" res="-1.3019560836255550e-02" rms="3.9719402790069580e-01" purity="1.9856974482536316e-01" nType="-99"/>
            </Node>
          </Node>
        </BinaryTree>
        <BinaryTree type="DecisionTree" boostWeight="1.0000000000000000e+00" itree="13">
          <Node pos="s" depth="0" NCoef="0" IVar="9" Cut="2.1043359375000000e+02" cType="1" res="-1.7802540212869644e-02" rms="4.7279733419418335e-01" purity="5.0000000000000000e-01" nType="0">
            <Node pos="l" depth="1" NCoef="0" IVar="9" Cut="1.4373657226562500e+02" cType="0" res="3.6094430834054947e-02" rms="4.7555708885192871e-01" purity="5.8541870117187500e-01" nType="0">
              <Node pos="l" depth="2" NCoef="0" IVar="-1" Cut="0.0000000000000000e+00" cType="1" res="8.0618020147085190e-03" rms="4.6601134538650513e-01" purity="6.3578313589096069e-01" nType="-99"/>
              <Node pos="r" depth="2" NCoef="0" IVar="-1" Cut="0.0000000000000000e+00" cType="1" res="-9.1312425211071968e-03" rms="4.7085329890251160e-01" purity="3.8835129141807556e-01" nType="-99"/>
            </Node>
            <Node pos="r" depth="1" NCoef="0" IVar="2" Cut="6.1185539245605469e+01" cType="1" res="-1.6615147888660431e-01" rms="4.3166029453277588e-01" purity="2.6488900184631348e-01" nType="0">
              <Node pos="l" depth="2" NCoef="0" IVar="-1" Cut="0.0000000000000000e+00" cType="1" res="-6.9042015820741653e-03" rms="4.6467381715774536e-01" purity="3.4070968627929688e-01" nType="-99"/>
              <Node pos="r" depth="2" NCoef="0" IVar="-1" Cut="0.0000000000000000e+00" cType="1" res="-1.4090535230934620e-02" rms="3.7203446030616760e-01" purity="1.7107848823070526e-01" nType="-99"/>
            </Node>
          </Node>
        </BinaryTree>
        <BinaryTree type="DecisionTree" boostWeight="1.0000000000000000e+00" itree="14">
          <Node pos="s" depth="0" NCoef="0" IVar="9" Cut="2.3712207031250000e+02" cType="1" res="-1.8112251535058022e-02" rms="4.7169476747512817e-01" purity="5.0000000000000000e-01" nType="0">
            <Node pos="l" depth="1" NCoef="0" IVar="1" Cut="3.3528667688369751e-01" cType="1" res="2.2661617025732994e-02" rms="4.7607377171516418e-01" purity="5.6424206495285034e-01" nType="0">
              <Node pos="l" depth="2" NCoef="0" IVar="-1" Cut="0.0000000000000000e+00" cType="1" res="1.2186279520392418e-02" rms="4.4527560472488403e-01" purity="6.9563132524490356e-01" nType="-99"/>
              <Node pos="r" depth="2" NCoef="0" IVar="-1" Cut="0.0000000000000000e+00" cType="1" res="-3.9952727966010571e-03" rms="4.9131160974502563e-01" purity="4.3583235144615173e-01" nType="-99"/>
            </Node>
            <Node pos="r" depth="1" NCoef="0" IVar="2" Cut="3.9518493652343750e+01" cType="1" res="-2.0237585902214050e-01" rms="4.0283244848251343e-01" purity="2.0967982709407806e-01" nType="0">
              <Node pos="l" depth="2" NCoef="0" IVar="-1" Cut="0.0000000000000000e+00" cType="1" res="-5.8003067970275879e-03" rms="4.7078600525856018e-01" purity="3.4103748202323914e-01" nType="-99"/>
              <Node pos="r" depth="2" NCoef="0" IVar="-1" Cut="0.0000000000000000e+00" cType="1" res="-1.3720136135816574e-02" rms="3.7556561827659607e-01" purity="1.7292469739913940e-01" nType="-99"/>
            </Node>
          </Node>
        </BinaryTree>
        <BinaryTree type="DecisionTree" boostWeight="1.0000000000000000e+00" itree="15">
          <Node pos="s" depth="0" NCoef="0" IVar="9" Cut="2.0643031311035156e+02" cType="1" res="-1.8577368929982185e-02" rms="4.7060945630073547e-01" purity="5.0000000000000000e-01" nType="0">
            <Node pos="l" depth="1" NCoef="0" IVar="9" Cut="1.4433020019531250e+02" cType="0" res="3.4405238926410675e-02" rms="4.7378093004226685e-01" purity="5.8782672882080078e-01" nType="0">
              <Node pos="l" depth="2" NCoef="0" IVar="-1" Cut="0.0000000000000000e+00" cType="1" res="8.0898087471723557e-03" rms="4.6383714675903320e-01" purity="6.4124536514282227e-01" nType="-99"/>
              <Node pos="r" depth="2" NCoef="0" IVar="-1" Cut="0.0000000000000000e+00" cType="1" res="-8.8467020541429520e-03" rms="4.7085464000701904e-01" purity="3.9244779944419861e-01" nType="-99"/>
            </Node>
            <Node pos="r" depth="1" NCoef="0" IVar="2" Cut="5.7871059417724609e+01" cType="1" res="-1.5220308303833008e-01" rms="4.3472260236740112e-01" purity="2.7849504351615906e-01" nType="0">
              <Node pos="l" depth="2" NCoef="0" IVar="-1" Cut="0.0000000000000000e+00" cType="1" res="-5.8761411346495152e-03" rms="4.6762669086456299e-01" purity="3.6232972145080566e-01" nType="-99"/>
              <Node pos="r" depth="2" NCoef="0" IVar="-1" Cut="0.0000000000000000e+00" cType="1" res="-1.3289025053381920e-02" rms="3.8229882717132568e-01" purity="1.8694207072257996e-01" nType="-99"/>
            </Node>
          </Node>
        </BinaryTree>
        <BinaryTree type="DecisionTree" boostWeight="1.0000000000000000e+00" itree="16">
          <Node pos="s" depth="0" NCoef="0" IVar="1" Cut="1.1915727704763412e-01" cType="1" res="-1.8821088597178459e-02" rms="4.6956971287727356e-01" purity="5.0000000000000000e-01" nType="0">
            <Node pos="l" depth="1" NCoef="0" IVar="9" Cut="3.4254946899414062e+02" cType="1" res="1.4134299755096436e-01" rms="4.0682280063629150e-01" purity="7.5877988338470459e-01" nType="0">
              <Node pos="l" depth="2" NCoef="0" IVar="-1" Cut="0.0000000000000000e+00" cType="1" res="2.2695457562804222e-02" rms="4.0033513307571411e-01" purity="7.8145051002502441e-01" nType="-99"/>
              <Node pos="r" depth="2" NCoef="0" IVar="-1" Cut="0.0000000000000000e+00" cType="1" res="-1.4783402904868126e-02" rms="3.6132740974426270e-01" purity="1.5927779674530029e-01" nType="-99"/>
            </Node>
            <Node pos="r" depth="1" NCoef="0" IVar="9" Cut="2.1996131896972656e+02" cType="1" res="-6.0519419610500336e-02" rms="4.7580999135971069e-01" purity="4.3262726068496704e-01" nType="0">
              <Node pos="l" depth="2" NCoef="0" IVar="-1" Cut="0.0000000000000000e+00" cType="1" res="-1.2485536281019449e-03" rms="4.8995575308799744e-01" purity="5.0805568695068359e-01" nType="-99"/>
              <Node pos="r" depth="2" NCoef="0" IVar="-1" Cut="0.0000000000000000e+00" cType="1" res="-1.1634028516709805e-02" rms="4.0314465761184692e-01" purity="2.0894244313240051e-01" nType="-99"/>
            </Node>
          </Node>
        </BinaryTree>
        <BinaryTree type="DecisionTree" boostWeight="1.0000000000000000e+00" itree="17">
          <Node pos="s" depth="0" NCoef="0" IVar="9" Cut="2.3912370300292969e+02" cType="1" res="-1.9353838637471199e-02" rms="4.6839600801467896e-01" purity="5.0000000000000000e-01" nType="0">
            <Node pos="l" depth="1" NCoef="0" IVar="3" Cut="5.8376880645751953e+01" cType="0" res="1.7364175990223885e-02" rms="4.7390595078468323e-01" purity="5.6291764974594116e-01" nType="0">
              <Node pos="l" depth="2" NCoef="0" IVar="-1" Cut="0.0000000000000000e+00" cType="1" res="8.4335980936884880e-03" rms="4.5962095260620117e-01" purity="6.3394981622695923e-01" nType="-99"/>
              <Node pos="r" depth="2" NCoef="0" IVar="-1" Cut="0.0000000000000000e+00" cType="1" res="-5.4974048398435116e-03" rms="4.7829696536064148e-01" purity="4.6139013767242432e-01" nType="-99"/>
            </Node>
            <Node pos="r" depth="1" NCoef="0" IVar="2" Cut="3.9518493652343750e+01" cType="1" res="-1.9043350219726562e-01" rms="3.9956700801849365e-01" purity="2.0684881508350372e-01" nType="0">
              <Node pos="l" depth="2" NCoef="0" IVar="-1" Cut="0.0000000000000000e+00" cType="1" res="-5.4027973674237728e-03" rms="4.6856936812400818e-01" purity="3.3786725997924805e-01" nType="-99"/>
              <Node pos="r" depth="2" NCoef="0" IVar="-1" Cut="0.0000000000000000e+00" cType="1" res="-1.3055051676928997e-02" rms="3.7295469641685486e-01" purity="1.7071710526943207e-01" nType="-99"/>
            </Node>
          </Node>
        </BinaryTree>
        <BinaryTree type="DecisionTree" boostWeight="1.0000000000000000e+00" itree="18">
          <Node pos="s" depth="0" NCoef="0" IVar="9" Cut="2.0643031311035156e+02" cType="1" res="-1.9457532092928886e-02" rms="4.6750131249427795e-01" purity="5.0000000000000000e-01" nType="0">
            <Node pos="l" depth="1" NCoef="0" IVar="9" Cut="1.3717373657226562e+02" cType="0" res="2.9222466051578522e-02" rms="4.7187668085098267e-01" purity="5.8782672882080078e-01" nType="0">
              <Node pos="l" depth="2" NCoef="0" IVar="-1" Cut="0.0000000000000000e+00" cType="1" res="6.2816240824759007e-03" rms="4.6520435810089111e-01" purity="6.2865656614303589e-01" nType="-99"/>
              <Node pos="r" depth="2" NCoef="0" IVar="-1" Cut="0.0000000000000000e+00" cType="1" res="-1.0801468975841999e-02" rms="4.5782747864723206e-01" purity="3.4585818648338318e-01" nType="-99"/>
            </Node>
            <Node pos="r" depth="1" NCoef="0" IVar="2" Cut="5.4556579589843750e+01" cType="1" res="-1.4223177731037140e-01" rms="4.3259838223457336e-01" purity="2.7849504351615906e-01" nType="0">
              <Node pos="l" depth="2" NCoef="0" IVar="-1" Cut="0.0000000000000000e+00" cType="1" res="-5.1409937441349030e-03" rms="4.6827456355094910e-01" purity="3.7021508812904358e-01" nType="-99"/>
              <Node pos="r" depth="2" NCoef="0" IVar="-1" Cut="0.0000000000000000e+00" cType="1" res="-1.2283418327569962e-02" rms="3.8594514131546021e-01" purity="1.9416023790836334e-01" nType="-99"/>
            </Node>
          </Node>
        </BinaryTree>
        <BinaryTree type="DecisionTree" boostWeight="1.0000000000000000e+00" itree="19">
          <Node pos="s" depth="0" NCoef="0" IVar="1" Cut="1.3003793358802795e-01" cType="1" res="-1.9563490524888039e-02" rms="4.6663206815719604e-01" purity="5.0000000000000000e-01" nType="0">
            <Node pos="l" depth="1" NCoef="0" IVar="9" Cut="3.2856387329101562e+02" cType="1" res="1.2296403199434280e-01" rms="4.0918281674385071e-01" purity="7.4819988012313843e-01" nType="0">
              <Node pos="l" depth="2" NCoef="0" IVar="-1" Cut="0.0000000000000000e+00" cType="1" res="1.9869569689035416e-02" rms="4.0339383482933044e-01" purity="7.7353084087371826e-01" nType="-99"/>
              <Node pos="r" depth="2" NCoef="0" IVar="-1" Cut="0.0000000000000000e+00" cType="1" res="-1.2886967509984970e-02" rms="3.7981212139129639e-01" purity="1.8196426331996918e-01" nType="-99"/>
            </Node>
            <Node pos="r" depth="1" NCoef="0" IVar="9" Cut="2.1996131896972656e+02" cType="1" res="-6.0630884021520615e-02" rms="4.7402876615524292e-01" purity="4.2848452925682068e-01" nType="0">
              <Node pos="l" depth="2" NCoef="0" IVar="-1" Cut="0.0000000000000000e+00" cType="1" res="-1.5554913552477956e-03" rms="4.8959347605705261e-01" purity="5.0324416160583496e-01" nType="-99"/>
              <Node pos="r" depth="2" NCoef="0" IVar="-1" Cut="0.0000000000000000e+00" cType="1" res="-1.1096371337771416e-02" rms="4.0109288692474365e-01" purity="2.0683176815509796e-01" nType="-99"/>
            </Node>
          </Node>
        </BinaryTree>
        <BinaryTree type="DecisionTree" boostWeight="1.0000000000000000e+00" itree="20">
          <Node pos="s" depth="0" NCoef="0" IVar="9" Cut="2.3912370300292969e+02" cType="1" res="-1.9949641078710556e-02" rms="4.6563607454299927e-01" purity="5.0000000000000000e-01" nType="0">
            <Node pos="l" depth="1" NCoef="0" IVar="3" Cut="5.6638610839843750e+01" cType="0" res="1.3712542131543159e-02" rms="4.7208023071289062e-01" purity="5.6291764974594116e-01" nType="0">
              <Node pos="l" depth="2" NCoef="0" IVar="-1" Cut="0.0000000000000000e+00" cType="1" res="7.2701480239629745e-03" rms="4.5961114764213562e-01" purity="6.2882882356643677e-01" nType="-99"/>
              <Node pos="r" depth="2" NCoef="0" IVar="-1" Cut="0.0000000000000000e+00" cType="1" res="-5.8714980259537697e-03" rms="4.7665241360664368e-01" purity="4.5438161492347717e-01" nType="-99"/>
            </Node>
            <Node pos="r" depth="1" NCoef="0" IVar="2" Cut="3.9518493652343750e+01" cType="1" res="-1.7679131031036377e-01" rms="3.9847567677497864e-01" purity="2.0684881508350372e-01" nType="0">
              <Node pos="l" depth="2" NCoef="0" IVar="-1" Cut="0.0000000000000000e+00" cType="1" res="-4.9107936210930347e-03" rms="4.6760296821594238e-01" purity="3.3786725997924805e-01" nType="-99"/>
              <Node pos="r" depth="2" NCoef="0" IVar="-1" Cut="0.0000000000000000e+00" cType="1" res="-1.2350883334875107e-02" rms="3.7234672904014587e-01" purity="1.7071710526943207e-01" nType="-99"/>
            </Node>
          </Node>
        </BinaryTree>
        <BinaryTree type="DecisionTree" boostWeight="1.0000000000000000e+00" itree="21">
          <Node pos="s" depth="0" NCoef="0" IVar="1" Cut="1.1915727704763412e-01" cType="1" res="-1.9958129152655602e-02" rms="4.6486186981201172e-01" purity="5.0000000000000000e-01" nType="0">
            <Node pos="l" depth="1" NCoef="0" IVar="9" Cut="3.4254946899414062e+02" cType="1" res="1.2157633155584335e-01" rms="4.0352171659469604e-01" purity="7.5877988338470459e-01" nType="0">
              <Node pos="l" depth="2" NCoef="0" IVar="-1" Cut="0.0000000000000000e+00" cType="1" res="2.0012993365526199e-02" rms="3.9867720007896423e-01" purity="7.8145051002502441e-01" nType="-99"/>
              <Node pos="r" depth="2" NCoef="0" IVar="-1" Cut="0.0000000000000000e+00" cType="1" res="-1.3509442098438740e-02" rms="3.6105749011039734e-01" purity="1.5927779674530029e-01" nType="-99"/>
            </Node>
            <Node pos="r" depth="1" NCoef="0" IVar="9" Cut="2.0053211975097656e+02" cType="1" res="-5.6806284934282303e-02" rms="4.7264295816421509e-01" purity="4.3262726068496704e-01" nType="0">
              <Node pos="l" depth="2" NCoef="0" IVar="-1" Cut="0.0000000000000000e+00" cType="1" res="-7.1811740053817630e-04" rms="4.8795312643051147e-01" purity="5.2012407779693604e-01" nType="-99"/>
              <Node pos="r" depth="2" NCoef="0" IVar="-1" Cut="0.0000000000000000e+00" cType="1" res="-9.6380235627293587e-03" rms="4.2608517408370972e-01" purity="2.6181319355964661e-01" nType="-99"/>
            </Node>
          </Node>
        </BinaryTree>
        <BinaryTree type="DecisionTree" boostWeight="1.0000000000000000e+00" itree="22">
          <Node pos="s" depth="0" NCoef="0" IVar="9" Cut="2.0442868041992188e+02" cType="1" res="-2.0265294238924980e-02" rms="4.6394631266593933e-01" purity="5.0000000000000000e-01" nType="0">
            <Node pos="l" depth="1" NCoef="0" IVar="9" Cut="1.4431704711914062e+02" cType="0" res="2.4252306669950485e-02" rms="4.6936920285224915e-01" purity="5.8882302045822144e-01" nType="0">
              <Node pos="l" depth="2" NCoef="0" IVar="-1" Cut="0.0000000000000000e+00" cType="1" res="6.8972245790064335e-03" rms="4.6057450771331787e-01" purity="6.4343518018722534e-01" nType="-99"/>
              <Node pos="r" depth="2" NCoef="0" IVar="-1" Cut="0.0000000000000000e+00" cType="1" res="-8.7122293189167976e-03" rms="4.6700444817543030e-01" purity="3.9231073856353760e-01" nType="-99"/>
            </Node>
            <Node pos="r" depth="1" NCoef="0" IVar="2" Cut="5.7871059417724609e+01" cType="1" res="-1.2746247649192810e-01" rms="4.3219831585884094e-01" purity="2.8611660003662109e-01" nType="0">
              <Node pos="l" depth="2" NCoef="0" IVar="-1" Cut="0.0000000000000000e+00" cType="1" res="-4.6705007553100586e-03" rms="4.6386769413948059e-01" purity="3.7107378244400024e-01" nType="-99"/>
              <Node pos="r" depth="2" NCoef="0" IVar="-1" Cut="0.0000000000000000e+00" cType="1" res="-1.1911179870367050e-02" rms="3.8279139995574951e-01" purity="1.9202439486980438e-01" nType="-99"/>
            </Node>
          </Node>
        </BinaryTree>
        <BinaryTree type="DecisionTree" boostWeight="1.0000000000000000e+00" itree="23">
          <Node pos="s" depth="0" NCoef="0" IVar="1" Cut="9.6901394426822662e-02" cType="1" res="-2.0313085988163948e-02" rms="4.6314659714698792e-01" purity="5.0000000000000000e-01" nType="0">
            <Node pos="l" depth="1" NCoef="0" IVar="9" Cut="3.4254946899414062e+02" cType="1" res="1.2981568276882172e-01" rms="3.9089640974998474e-01" purity="7.7910375595092773e-01" nType="0">
              <Node pos="l" depth="2" NCoef="0" IVar="-1" Cut="0.0000000000000000e+00" cType="1" res="2.2799292579293251e-02" rms="3.8572907447814941e-01" purity="8.0063867568969727e-01" nType="-99"/>
              <Node pos="r" depth="2" NCoef="0" IVar="-1" Cut="0.0000000000000000e+00" cType="1" res="-1.2339454144239426e-02" rms="3.6421543359756470e-01" purity="1.6317518055438995e-01" nType="-99"/>
            </Node>
            <Node pos="r" depth="1" NCoef="0" IVar="9" Cut="2.3594256591796875e+02" cType="1" res="-5.1393598318099976e-02" rms="4.7079417109489441e-01" purity="4.4221833348274231e-01" nType="0">
              <Node pos="l" depth="2" NCoef="0" IVar="-1" Cut="0.0000000000000000e+00" cType="1" res="-1.5863432781770825e-03" rms="4.8432582616806030e-01" purity="5.0573736429214478e-01" nType="-99"/>
              <Node pos="r" depth="2" NCoef="0" IVar="-1" Cut="0.0000000000000000e+00" cType="1" res="-1.0859120637178421e-02" rms="3.8808253407478333e-01" purity="1.8880298733711243e-01" nType="-99"/>
            </Node>
          </Node>
        </BinaryTree>
        <BinaryTree type="DecisionTree" boostWeight="1.0000000000000000e+00" itree="24">
          <Node pos="s" depth="0" NCoef="0" IVar="9" Cut="2.0109262084960938e+02" cType="1" res="-2.0586794242262840e-02" rms="4.6230506896972656e-01" purity="5.0000000000000000e-01" nType="0">
            <Node pos="l" depth="1" NCoef="0" IVar="9" Cut="1.4005357360839844e+02" cType="0" res="2.3285422474145889e-02" rms="4.6774882078170776e-01" purity="5.9070372581481934e-01" nType="0">
              <Node pos="l" depth="2" NCoef="0" IVar="-1" Cut="0.0000000000000000e+00" cType="1" res="6.1907423660159111e-03" rms="4.6059194207191467e-01" purity="6.3916665315628052e-01" nType="-99"/>
              <Node pos="r" depth="2" NCoef="0" IVar="-1" Cut="0.0000000000000000e+00" cType="1" res="-9.6776690334081650e-03" rms="4.5975142717361450e-01" purity="3.6512568593025208e-01" nType="-99"/>
            </Node>
            <Node pos="r" depth="1" NCoef="0" IVar="2" Cut="5.7871059417724609e+01" cType="1" res="-1.1753318458795547e-01" rms="4.3461048603057861e-01" purity="2.9956799745559692e-01" nType="0">
              <Node pos="l" depth="2" NCoef="0" IVar="-1" Cut="0.0000000000000000e+00" cType="1" res="-4.2264075018465519e-03" rms="4.6450501680374146e-01" purity="3.8509103655815125e-01" nType="-99"/>
              <Node pos="r" depth="2" NCoef="0" IVar="-1" Cut="0.0000000000000000e+00" cType="1" res="-1.1468161828815937e-02" rms="3.8694965839385986e-01" purity="2.0210307836532593e-01" nType="-99"/>
            </Node>
          </Node>
        </BinaryTree>
        <BinaryTree type="DecisionTree" boostWeight="1.0000000000000000e+00" itree="25">
          <Node pos="s" depth="0" NCoef="0" IVar="1" Cut="1.3448911905288696e-01" cType="1" res="-2.0572882145643234e-02" rms="4.6157124638557434e-01" purity="5.0000000000000000e-01" nType="0">
            <Node pos="l" depth="1" NCoef="0" IVar="9" Cut="2.9193496704101562e+02" cType="1" res="9.6704669296741486e-02" rms="4.0710744261741638e-01" purity="7.4432533979415894e-01" nType="0">
              <Node pos="l" depth="2" NCoef="0" IVar="-1" Cut="0.0000000000000000e+00" cType="1" res="1.6918443143367767e-02" rms="4.0111792087554932e-01" purity="7.7721160650253296e-01" nType="-99"/>
              <Node pos="r" depth="2" NCoef="0" IVar="-1" Cut="0.0000000000000000e+00" cType="1" res="-9.7394846379756927e-03" rms="4.1456541419029236e-01" purity="2.4345758557319641e-01" nType="-99"/>
            </Node>
            <Node pos="r" depth="1" NCoef="0" IVar="9" Cut="2.1996131896972656e+02" cType="1" res="-5.5654846131801605e-02" rms="4.7101545333862305e-01" purity="4.2691344022750854e-01" nType="0">
              <Node pos="l" depth="2" NCoef="0" IVar="-1" Cut="0.0000000000000000e+00" cType="1" res="-1.6653578495606780e-03" rms="4.8806673288345337e-01" purity="5.0152045488357544e-01" nType="-99"/>
              <Node pos="r" depth="2" NCoef="0" IVar="-1" Cut="0.0000000000000000e+00" cType="1" res="-9.8784686997532845e-03" rms="3.9968720078468323e-01" purity="2.0599636435508728e-01" nType="-99"/>
            </Node>
          </Node>
        </BinaryTree>
        <BinaryTree type="DecisionTree" boostWeight="1.0000000000000000e+00" itree="26">
          <Node pos="s" depth="0" NCoef="0" IVar="9" Cut="2.4312698364257812e+02" cType="1" res="-2.0735381171107292e-02" rms="4.6086481213569641e-01" purity="5.0000000000000000e-01" nType="0">
            <Node pos="l" depth="1" NCoef="0" IVar="0" Cut="5.5329116821289062e+01" cType="0" res="6.8418672308325768e-03" rms="4.6852084994316101e-01" purity="5.6004172563552856e-01" nType="0">
              <Node pos="l" depth="2" NCoef="0" IVar="-1" Cut="0.0000000000000000e+00" cType="1" res="1.1882431805133820e-02" rms="4.4462227821350098e-01" purity="6.6420090198516846e-01" nType="-99"/>
              <Node pos="r" depth="2" NCoef="0" IVar="-1" Cut="0.0000000000000000e+00" cType="1" res="-3.3281401265412569e-03" rms="4.7148451209068298e-01" purity="5.1196408271789551e-01" nType="-99"/>
            </Node>
            <Node pos="r" depth="1" NCoef="0" IVar="2" Cut="3.9518493652343750e+01" cType="1" res="-1.5762870013713837e-01" rms="3.9314201474189758e-01" purity="2.0195341110229492e-01" nType="0">
              <Node pos="l" depth="2" NCoef="0" IVar="-1" Cut="0.0000000000000000e+00" cType="1" res="-4.0727718733251095e-03" rms="4.6492809057235718e-01" purity="3.3593317866325378e-01" nType="-99"/>
              <Node pos="r" depth="2" NCoef="0" IVar="-1" Cut="0.0000000000000000e+00" cType="1" res="-1.1393249034881592e-02" rms="3.6713394522666931e-01" purity="1.6580259799957275e-01" nType="-99"/>
            </Node>
          </Node>
        </BinaryTree>
        <BinaryTree type="DecisionTree" boostWeight="1.0000000000000000e+00" itree="27">
          <Node pos="s" depth="0" NCoef="0" IVar="1" Cut="7.7118381857872009e-02" cType="1" res="-2.0567636936903000e-02" rms="4.6017262339591980e-01" purity="5.0000000000000000e-01" nType="0">
            <Node pos="l" depth="1" NCoef="0" IVar="3" Cut="5.0688385009765625e+01" cType="0" res="1.3147883117198944e-01" rms="3.7600478529930115e-01" purity="8.0194282531738281e-01" nType="0">
              <Node pos="l" depth="2" NCoef="0" IVar="-1" Cut="0.0000000000000000e+00" cType="1" res="3.1172126531600952e-02" rms="3.4276697039604187e-01" purity="8.3788287639617920e-01" nType="-99"/>
              <Node pos="r" depth="2" NCoef="0" IVar="-1" Cut="0.0000000000000000e+00" cType="1" res="2.0116453524678946e-03" rms="4.5022201538085938e-01" purity="6.8418651819229126e-01" nType="-99"/>
            </Node>
            <Node pos="r" depth="1" NCoef="0" IVar="9" Cut="2.0089006042480469e+02" cType="1" res="-4.5079413801431656e-02" rms="4.6773615479469299e-01" purity="4.5132303237915039e-01" nType="0">
              <Node pos="l" depth="2" NCoef="0" IVar="-1" Cut="0.0000000000000000e+00" cType="1" res="-4.2948813643306494e-04" rms="4.8154038190841675e-01" purity="5.4038572311401367e-01" nType="-99"/>
              <Node pos="r" depth="2" NCoef="0" IVar="-1" Cut="0.0000000000000000e+00" cType="1" res="-8.2841478288173676e-03" rms="4.2746272683143616e-01" purity="2.7192541956901550e-01" nType="-99"/>
            </Node>
          </Node>
        </BinaryTree>
        <BinaryTree type="DecisionTree" boostWeight="1.0000000000000000e+00" itree="28">
          <Node pos="s" depth="0" NCoef="0" IVar="1" Cut="2.6406782865524292e-01" cType="1" res="-2.0772969350218773e-02" rms="4.5939639210700989e-01" purity="5.0000000000000000e-01" nType="0">
            <Node pos="l" depth="1" NCoef="0" IVar="9" Cut="2.7114990234375000e+02" cType="1" res="4.9782399088144302e-02" rms="4.3302884697914124e-01" purity="6.5138578414916992e-01" nType="0">
              <Node pos="l" depth="2" NCoef="0" IVar="-1" Cut="0.0000000000000000e+00" cType="1" res="9.5227742567658424e-03" rms="4.3076747655868530e-01" purity="7.0797473192214966e-01" nType="-99"/>
              <Node pos="r" depth="2" NCoef="0" IVar="-1" Cut="0.0000000000000000e+00" cType="1" res="-9.4393445178866386e-03" rms="3.9449378848075867e-01" purity="2.1069918572902679e-01" nType="-99"/>
            </Node>
            <Node pos="r" depth="1" NCoef="0" IVar="7" Cut="-1.2303966283798218e+00" cType="1" res="-6.9128483533859253e-02" rms="4.7055518627166748e-01" purity="3.9624691009521484e-01" nType="0">
              <Node pos="l" depth="2" NCoef="0" IVar="-1" Cut="0.0000000000000000e+00" cType="1" res="3.9281803183257580e-03" rms="4.7559693455696106e-01" purity="5.1646846532821655e-01" nType="-99"/>
              <Node pos="r" depth="2" NCoef="0" IVar="-1" Cut="0.0000000000000000e+00" cType="1" res="-6.4569730311632156e-03" rms="4.6521022915840149e-01" purity="3.6770665645599365e-01" nType="-99"/>
            </Node>
          </Node>
        </BinaryTree>
        <BinaryTree type="DecisionTree" boostWeight="1.0000000000000000e+00" itree="29">
          <Node pos="s" depth="0" NCoef="0" IVar="9" Cut="2.0109262084960938e+02" cType="1" res="-2.0809657871723175e-02" rms="4.5877432823181152e-01" purity="5.0000000000000000e-01" nType="0">
            <Node pos="l" depth="1" NCoef="0" IVar="3" Cut="6.7564872741699219e+01" cType="0" res="1.7946949228644371e-02" rms="4.6524667739868164e-01" purity="5.9070372581481934e-01" nType="0">
              <Node pos="l" depth="2" NCoef="0" IVar="-1" Cut="0.0000000000000000e+00" cType="1" res="1.4284361153841019e-02" rms="4.3417721986770630e-01" purity="7.1288967132568359e-01" nType="-99"/>
              <Node pos="r" depth="2" NCoef="0" IVar="-1" Cut="0.0000000000000000e+00" cType="1" res="-3.6825630813837051e-03" rms="4.7359818220138550e-01" purity="5.0998353958129883e-01" nType="-99"/>
            </Node>
            <Node pos="r" depth="1" NCoef="0" IVar="2" Cut="5.7871059417724609e+01" cType="1" res="-1.0645185410976410e-01" rms="4.3197751045227051e-01" purity="2.9956799745559692e-01" nType="0">
              <Node pos="l" depth="2" NCoef="0" IVar="-1" Cut="0.0000000000000000e+00" cType="1" res="-3.7423993926495314e-03" rms="4.6195361018180847e-01" purity="3.8509103655815125e-01" nType="-99"/>
              <Node pos="r" depth="2" NCoef="0" IVar="-1" Cut="0.0000000000000000e+00" cType="1" res="-1.0742311365902424e-02" rms="3.8548836112022400e-01" purity="2.0210307836532593e-01" nType="-99"/>
            </Node>
          </Node>
        </BinaryTree>
        <BinaryTree type="DecisionTree" boostWeight="1.0000000000000000e+00" itree="30">
          <Node pos="s" depth="0" NCoef="0" IVar="9" Cut="2.4312698364257812e+02" cType="1" res="-2.0898431539535522e-02" rms="4.5796811580657959e-01" purity="5.0000000000000000e-01" nType="0">
            <Node pos="l" depth="1" NCoef="0" IVar="3" Cut="5.8625202178955078e+01" cType="0" res="4.1661076247692108e-03" rms="4.6611317992210388e-01" purity="5.6004172563552856e-01" nType="0">
              <Node pos="l" depth="2" NCoef="0" IVar="-1" Cut="0.0000000000000000e+00" cType="1" res="6.3160103745758533e-03" rms="4.5351573824882507e-01" purity="6.2994503974914551e-01" nType="-99"/>
              <Node pos="r" depth="2" NCoef="0" IVar="-1" Cut="0.0000000000000000e+00" cType="1" res="-5.5509489029645920e-03" rms="4.7181087732315063e-01" purity="4.6107339859008789e-01" nType="-99"/>
            </Node>
            <Node pos="r" depth="1" NCoef="0" IVar="7" Cut="2.2254638671875000e+00" cType="0" res="-1.4531867206096649e-01" rms="3.9213949441909790e-01" purity="2.0195341110229492e-01" nType="0">
              <Node pos="l" depth="2" NCoef="0" IVar="-1" Cut="0.0000000000000000e+00" cType="1" res="9.6615270012989640e-04" rms="4.7519007325172424e-01" purity="3.9531940221786499e-01" nType="-99"/>
              <Node pos="r" depth="2" NCoef="0" IVar="-1" Cut="0.0000000000000000e+00" cType="1" res="-1.0034157894551754e-02" rms="3.8054287433624268e-01" purity="1.8445760011672974e-01" nType="-99"/>
            </Node>
          </Node>
        </BinaryTree>
        <BinaryTree type="DecisionTree" boostWeight="1.0000000000000000e+00" itree="31">
          <Node pos="s" depth="0" NCoef="0" IVar="1" Cut="1.6465820372104645e-01" cType="1" res="-2.0739827305078506e-02" rms="4.5740973949432373e-01" purity="5.0000000000000000e-01" nType="0">
            <Node pos="l" depth="1" NCoef="0" IVar="0" Cut="3.6782970428466797e+01" cType="0" res="7.0040389895439148e-02" rms="4.1156181693077087e-01" purity="7.2035509347915649e-01" nType="0">
              <Node pos="l" depth="2" NCoef="0" IVar="-1" Cut="0.0000000000000000e+00" cType="1" res="1.8608124926686287e-02" rms="3.7933570146560669e-01" purity="7.7514892816543579e-01" nType="-99"/>
              <Node pos="r" depth="2" NCoef="0" IVar="-1" Cut="0.0000000000000000e+00" cType="1" res="-6.6350551787763834e-04" rms="4.4414395093917847e-01" purity="6.3954776525497437e-01" nType="-99"/>
            </Node>
            <Node pos="r" depth="1" NCoef="0" IVar="0" Cut="5.5364009857177734e+01" cType="0" res="-5.4731901735067368e-02" rms="4.6893545985221863e-01" purity="4.1748946905136108e-01" nType="0">
              <Node pos="l" depth="2" NCoef="0" IVar="-1" Cut="0.0000000000000000e+00" cType="1" res="1.6227053711190820e-03" rms="4.6757489442825317e-01" purity="4.8088920116424561e-01" nType="-99"/>
              <Node pos="r" depth="2" NCoef="0" IVar="-1" Cut="0.0000000000000000e+00" cType="1" res="-6.4733908511698246e-03" rms="4.6478325128555298e-01" purity="3.8343799114227295e-01" nType="-99"/>
            </Node>
          </Node>
        </BinaryTree>
        <BinaryTree type="DecisionTree" boostWeight="1.0000000000000000e+00" itree="32">
          <Node pos="s" depth="0" NCoef="0" IVar="9" Cut="2.0042541503906250e+02" cType="1" res="-2.0701318979263306e-02" rms="4.5678722858428955e-01" purity="5.0000000000000000e-01" nType="0">
            <Node pos="l" depth="1" NCoef="0" IVar="9" Cut="1.4371388244628906e+02" cType="0" res="1.6324436292052269e-02" rms="4.6338447928428650e-01" purity="5.9096336364746094e-01" nType="0">
              <Node pos="l" depth="2" NCoef="0" IVar="-1" Cut="0.0000000000000000e+00" cType="1" res="5.9176078066229820e-03" rms="4.5545378327369690e-01" purity="6.4744013547897339e-01" nType="-99"/>
              <Node pos="r" depth="2" NCoef="0" IVar="-1" Cut="0.0000000000000000e+00" cType="1" res="-8.5616037249565125e-03" rms="4.6168726682662964e-01" purity="3.8807240128517151e-01" nType="-99"/>
            </Node>
            <Node pos="r" depth="1" NCoef="0" IVar="2" Cut="5.7871059417724609e+01" cType="1" res="-1.0127048194408417e-01" rms="4.3124264478683472e-01" purity="3.0206096172332764e-01" nType="0">
              <Node pos="l" depth="2" NCoef="0" IVar="-1" Cut="0.0000000000000000e+00" cType="1" res="-3.5850331187248230e-03" rms="4.6108722686767578e-01" purity="3.8759326934814453e-01" nType="-99"/>
              <Node pos="r" depth="2" NCoef="0" IVar="-1" Cut="0.0000000000000000e+00" cType="1" res="-1.0384673252701759e-02" rms="3.8546532392501831e-01" purity="2.0394285023212433e-01" nType="-99"/>
            </Node>
          </Node>
        </BinaryTree>
        <BinaryTree type="DecisionTree" boostWeight="1.0000000000000000e+00" itree="33">
          <Node pos="s" depth="0" NCoef="0" IVar="7" Cut="-1.7055296897888184e+00" cType="1" res="-2.0600439980626106e-02" rms="4.5618504285812378e-01" purity="5.0000000000000000e-01" nType="0">
            <Node pos="l" depth="1" NCoef="0" IVar="0" Cut="4.6053760528564453e+01" cType="0" res="8.1485785543918610e-02" rms="4.3120712041854858e-01" purity="6.7729181051254272e-01" nType="0">
              <Node pos="l" depth="2" NCoef="0" IVar="-1" Cut="0.0000000000000000e+00" cType="1" res="1.8916931003332138e-02" rms="4.0354627370834351e-01" purity="7.3180532455444336e-01" nType="-99"/>
              <Node pos="r" depth="2" NCoef="0" IVar="-1" Cut="0.0000000000000000e+00" cType="1" res="2.7521636802703142e-03" rms="4.4863986968994141e-01" purity="6.2644529342651367e-01" nType="-99"/>
            </Node>
            <Node pos="r" depth="1" NCoef="0" IVar="7" Cut="1.5142140388488770e+00" cType="0" res="-4.9409158527851105e-02" rms="4.5889967679977417e-01" purity="4.4996824860572815e-01" nType="0">
              <Node pos="l" depth="2" NCoef="0" IVar="-1" Cut="0.0000000000000000e+00" cType="1" res="7.8897429630160332e-03" rms="4.3778431415557861e-01" purity="6.5202391147613525e-01" nType="-99"/>
              <Node pos="r" depth="2" NCoef="0" IVar="-1" Cut="0.0000000000000000e+00" cType="1" res="-7.1005886420607567e-03" rms="4.5774212479591370e-01" purity="3.5635057091712952e-01" nType="-99"/>
            </Node>
          </Node>
        </BinaryTree>
        <BinaryTree type="DecisionTree" boostWeight="1.0000000000000000e+00" itree="34">
          <Node pos="s" depth="0" NCoef="0" IVar="9" Cut="2.3979092407226562e+02" cType="1" res="-2.0692866295576096e-02" rms="4.5537468791007996e-01" purity="5.0000000000000000e-01" nType="0">
            <Node pos="l" depth="1" NCoef="0" IVar="0" Cut="5.7509098052978516e+01" cType="0" res="3.5368318203836679e-03" rms="4.6390184760093689e-01" purity="5.6248044967651367e-01" nType="0">
              <Node pos="l" depth="2" NCoef="0" IVar="-1" Cut="0.0000000000000000e+00" cType="1" res="1.1695510707795620e-02" rms="4.3804708123207092e-01" purity="6.7422676086425781e-01" nType="-99"/>
              <Node pos="r" depth="2" NCoef="0" IVar="-1" Cut="0.0000000000000000e+00" cType="1" res="-3.1415789853781462e-03" rms="4.6758729219436646e-01" purity="5.1707398891448975e-01" nType="-99"/>
            </Node>
            <Node pos="r" depth="1" NCoef="0" IVar="7" Cut="2.0900828838348389e+00" cType="0" res="-1.3470332324504852e-01" rms="3.9334526658058167e-01" purity="2.0600460469722748e-01" nType="0">
              <Node pos="l" depth="2" NCoef="0" IVar="-1" Cut="0.0000000000000000e+00" cType="1" res="6.9194589741528034e-05" rms="4.7051051259040833e-01" purity="3.8405162096023560e-01" nType="-99"/>
              <Node pos="r" depth="2" NCoef="0" IVar="-1" Cut="0.0000000000000000e+00" cType="1" res="-9.5585668459534645e-03" rms="3.8096082210540771e-01" purity="1.8639482557773590e-01" nType="-99"/>
            </Node>
          </Node>
        </BinaryTree>
        <BinaryTree type="DecisionTree" boostWeight="1.0000000000000000e+00" itree="35">
          <Node pos="s" depth="0" NCoef="0" IVar="1" Cut="7.7118381857872009e-02" cType="1" res="-2.0459776744246483e-02" rms="4.5480629801750183e-01" purity="5.0000000000000000e-01" nType="0">
            <Node pos="l" depth="1" NCoef="0" IVar="3" Cut="5.0688385009765625e+01" cType="0" res="1.0839356482028961e-01" rms="3.7246516346931458e-01" purity="8.0194282531738281e-01" nType="0">
              <Node pos="l" depth="2" NCoef="0" IVar="-1" Cut="0.0000000000000000e+00" cType="1" res="2.7145929634571075e-02" rms="3.4040188789367676e-01" purity="8.3788287639617920e-01" nType="-99"/>
              <Node pos="r" depth="2" NCoef="0" IVar="-1" Cut="0.0000000000000000e+00" cType="1" res="8.9405587641522288e-04" rms="4.4764432311058044e-01" purity="6.8418651819229126e-01" nType="-99"/>
            </Node>
            <Node pos="r" depth="1" NCoef="0" IVar="0" Cut="4.5246700286865234e+01" cType="0" res="-4.1232533752918243e-02" rms="4.6338123083114624e-01" purity="4.5132303237915039e-01" nType="0">
              <Node pos="l" depth="2" NCoef="0" IVar="-1" Cut="0.0000000000000000e+00" cType="1" res="1.0581315727904439e-03" rms="4.5933425426483154e-01" purity="5.0241869688034058e-01" nType="-99"/>
              <Node pos="r" depth="2" NCoef="0" IVar="-1" Cut="0.0000000000000000e+00" cType="1" res="-6.4575155265629292e-03" rms="4.6152153611183167e-01" purity="4.0332108736038208e-01" nType="-99"/>
            </Node>
          </Node>
        </BinaryTree>
        <BinaryTree type="DecisionTree" boostWeight="1.0000000000000000e+00" itree="36">
          <Node pos="s" depth="0" NCoef="0" IVar="9" Cut="2.0042541503906250e+02" cType="1" res="-2.0469188690185547e-02" rms="4.5420303940773010e-01" purity="5.0000000000000000e-01" nType="0">
            <Node pos="l" depth="1" NCoef="0" IVar="9" Cut="1.3715182495117188e+02" cType="0" res="1.4345853589475155e-02" rms="4.6102073788642883e-01" purity="5.9096336364746094e-01" nType="0">
              <Node pos="l" depth="2" NCoef="0" IVar="-1" Cut="0.0000000000000000e+00" cType="1" res="4.6181334182620049e-03" rms="4.5580682158470154e-01" purity="6.3456654548645020e-01" nType="-99"/>
              <Node pos="r" depth="2" NCoef="0" IVar="-1" Cut="0.0000000000000000e+00" cType="1" res="-1.0037153027951717e-02" rms="4.4992813467979431e-01" purity="3.4529310464859009e-01" nType="-99"/>
            </Node>
            <Node pos="r" depth="1" NCoef="0" IVar="2" Cut="5.7871059417724609e+01" cType="1" res="-9.6227772533893585e-02" rms="4.2935493588447571e-01" purity="3.0206096172332764e-01" nType="0">
              <Node pos="l" depth="2" NCoef="0" IVar="-1" Cut="0.0000000000000000e+00" cType="1" res="-3.4300321713089943e-03" rms="4.5933714509010315e-01" purity="3.8759326934814453e-01" nType="-99"/>
              <Node pos="r" depth="2" NCoef="0" IVar="-1" Cut="0.0000000000000000e+00" cType="1" res="-9.9970297887921333e-03" rms="3.8421002030372620e-01" purity="2.0394285023212433e-01" nType="-99"/>
            </Node>
          </Node>
        </BinaryTree>
        <BinaryTree type="DecisionTree" boostWeight="1.0000000000000000e+00" itree="37">
          <Node pos="s" depth="0" NCoef="0" IVar="7" Cut="-1.5616019964218140e+00" cType="1" res="-2.0301807671785355e-02" rms="4.5368465781211853e-01" purity="5.0000000000000000e-01" nType="0">
            <Node pos="l" depth="1" NCoef="0" IVar="9" Cut="1.3113763427734375e+02" cType="0" res="6.9348677992820740e-02" rms="4.3372949957847595e-01" purity="6.6095829010009766e-01" nType="0">
              <Node pos="l" depth="2" NCoef="0" IVar="-1" Cut="0.0000000000000000e+00" cType="1" res="9.7130043432116508e-03" rms="4.2757749557495117e-01" purity="6.7507266998291016e-01" nType="-99"/>
              <Node pos="r" depth="2" NCoef="0" IVar="-1" Cut="0.0000000000000000e+00" cType="1" res="-1.0396499186754227e-02" rms="4.7352886199951172e-01" purity="4.4641554355621338e-01" nType="-99"/>
            </Node>
            <Node pos="r" depth="1" NCoef="0" IVar="7" Cut="1.5135992765426636e+00" cType="0" res="-4.8963639885187149e-02" rms="4.5618003606796265e-01" purity="4.4854059815406799e-01" nType="0">
              <Node pos="l" depth="2" NCoef="0" IVar="-1" Cut="0.0000000000000000e+00" cType="1" res="7.3284660466015339e-03" rms="4.3622156977653503e-01" purity="6.5185928344726562e-01" nType="-99"/>
              <Node pos="r" depth="2" NCoef="0" IVar="-1" Cut="0.0000000000000000e+00" cType="1" res="-7.0145339705049992e-03" rms="4.5528492331504822e-01" purity="3.5014691948890686e-01" nType="-99"/>
            </Node>
          </Node>
        </BinaryTree>
        <BinaryTree type="DecisionTree" boostWeight="1.0000000000000000e+00" itree="38">
          <Node pos="s" depth="0" NCoef="0" IVar="9" Cut="2.4312698364257812e+02" cType="1" res="-2.0302213728427887e-02" rms="4.5300236344337463e-01" purity="5.0000000000000000e-01" nType="0">
            <Node pos="l" depth="1" NCoef="0" IVar="3" Cut="6.1605091094970703e+01" cType="0" res="1.9057680619880557e-03" rms="4.6149930357933044e-01" purity="5.6004172563552856e-01" nType="0">
              <Node pos="l" depth="2" NCoef="0" IVar="-1" Cut="0.0000000000000000e+00" cType="1" res="6.5026371739804745e-03" rms="4.4786426424980164e-01" purity="6.3698279857635498e-01" nType="-99"/>
              <Node pos="r" depth="2" NCoef="0" IVar="-1" Cut="0.0000000000000000e+00" cType="1" res="-4.9882195889949799e-03" rms="4.6734175086021423e-01" purity="4.7204744815826416e-01" nType="-99"/>
            </Node>
            <Node pos="r" depth="1" NCoef="0" IVar="2" Cut="3.9518493652343750e+01" cType="1" res="-1.3054251670837402e-01" rms="3.8991975784301758e-01" purity="2.0195341110229492e-01" nType="0">
              <Node pos="l" depth="2" NCoef="0" IVar="-1" Cut="0.0000000000000000e+00" cType="1" res="-3.0288270208984613e-03" rms="4.6176880598068237e-01" purity="3.3593317866325378e-01" nType="-99"/>
              <Node pos="r" depth="2" NCoef="0" IVar="-1" Cut="0.0000000000000000e+00" cType="1" res="-1.0034671053290367e-02" rms="3.6470559239387512e-01" purity="1.6580259799957275e-01" nType="-99"/>
            </Node>
          </Node>
        </BinaryTree>
        <BinaryTree type="DecisionTree" boostWeight="1.0000000000000000e+00" itree="39">
          <Node pos="s" depth="0" NCoef="0" IVar="0" Cut="4.5246700286865234e+01" cType="0" res="-2.0095571875572205e-02" rms="4.5251408219337463e-01" purity="5.0000000000000000e-01" nType="0">
            <Node pos="l" depth="1" NCoef="0" IVar="9" Cut="2.2844831848144531e+02" cType="1" res="3.0478330329060555e-02" rms="4.4456127285957336e-01" purity="5.5008345842361450e-01" nType="0">
              <Node pos="l" depth="2" NCoef="0" IVar="-1" Cut="0.0000000000000000e+00" cType="1" res="7.5856493785977364e-03" rms="4.4570022821426392e-01" purity="6.4924710988998413e-01" nType="-99"/>
              <Node pos="r" depth="2" NCoef="0" IVar="-1" Cut="0.0000000000000000e+00" cType="1" res="-6.7815277725458145e-03" rms="4.1597968339920044e-01" purity="2.4499617516994476e-01" nType="-99"/>
            </Node>
            <Node pos="r" depth="1" NCoef="0" IVar="3" Cut="5.6936897277832031e+01" cType="0" res="-6.7013218998908997e-02" rms="4.5476740598678589e-01" purity="4.5353734493255615e-01" nType="0">
              <Node pos="l" depth="2" NCoef="0" IVar="-1" Cut="0.0000000000000000e+00" cType="1" res="-1.3317229459062219e-03" rms="4.5110261440277100e-01" purity="5.1295053958892822e-01" nType="-99"/>
              <Node pos="r" depth="2" NCoef="0" IVar="-1" Cut="0.0000000000000000e+00" cType="1" res="-1.0384689085185528e-02" rms="4.4493854045867920e-01" purity="3.3797079324722290e-01" nType="-99"/>
            </Node>
          </Node>
        </BinaryTree>
        <BinaryTree type="DecisionTree" boostWeight="1.0000000000000000e+00" itree="40">
          <Node pos="s" depth="0" NCoef="0" IVar="7" Cut="-1.6757515668869019e+00" cType="1" res="-1.9938739016652107e-02" rms="4.5193594694137573e-01" purity="5.0000000000000000e-01" nType="0">
            <Node pos="l" depth="1" NCoef="0" IVar="4" Cut="-1.7929978370666504e+00" cType="0" res="6.9889746606349945e-02" rms="4.2896232008934021e-01" purity="6.7371380329132080e-01" nType="0">
              <Node pos="l" depth="2" NCoef="0" IVar="-1" Cut="0.0000000000000000e+00" cType="1" res="1.0144118219614029e-02" rms="4.2218884825706482e-01" purity="6.8940842151641846e-01" nType="-99"/>
              <Node pos="r" depth="2" NCoef="0" IVar="-1" Cut="0.0000000000000000e+00" cType="1" res="-8.5199344903230667e-03" rms="4.7646674513816833e-01" purity="4.5405563712120056e-01" nType="-99"/>
            </Node>
            <Node pos="r" depth="1" NCoef="0" IVar="7" Cut="1.5096502304077148e+00" cType="0" res="-4.5977279543876648e-02" rms="4.5507726073265076e-01" purity="4.4964566826820374e-01" nType="0">
              <Node pos="l" depth="2" NCoef="0" IVar="-1" Cut="0.0000000000000000e+00" cType="1" res="6.9375783205032349e-03" rms="4.3530637025833130e-01" purity="6.5131068229675293e-01" nType="-99"/>
              <Node pos="r" depth="2" NCoef="0" IVar="-1" Cut="0.0000000000000000e+00" cType="1" res="-6.5826103091239929e-03" rms="4.5530524849891663e-01" purity="3.5488983988761902e-01" nType="-99"/>
            </Node>
          </Node>
        </BinaryTree>
        <BinaryTree type="DecisionTree" boostWeight="1.0000000000000000e+00" itree="41">
          <Node pos="s" depth="0" NCoef="0" IVar="9" Cut="1.9975819396972656e+02" cType="1" res="-1.9925173372030258e-02" rms="4.5132336020469666e-01" purity="5.0000000000000000e-01" nType="0">
            <Node pos="l" depth="1" NCoef="0" IVar="9" Cut="1.5225370788574219e+02" cType="0" res="1.2685027904808521e-02" rms="4.5816469192504883e-01" purity="5.9120649099349976e-01" nType="0">
              <Node pos="l" depth="2" NCoef="0" IVar="-1" Cut="0.0000000000000000e+00" cType="1" res="6.6624497994780540e-03" rms="4.4786530733108521e-01" purity="6.6196405887603760e-01" nType="-99"/>
              <Node pos="r" depth="2" NCoef="0" IVar="-1" Cut="0.0000000000000000e+00" cType="1" res="-6.3745076768100262e-03" rms="4.6234562993049622e-01" purity="4.4622179865837097e-01" nType="-99"/>
            </Node>
            <Node pos="r" depth="1" NCoef="0" IVar="2" Cut="4.1043701171875000e+01" cType="1" res="-8.9545570313930511e-02" rms="4.2812573909759521e-01" purity="3.0528077483177185e-01" nType="0">
              <Node pos="l" depth="2" NCoef="0" IVar="-1" Cut="0.0000000000000000e+00" cType="1" res="-4.7958109644241631e-04" rms="4.6793052554130554e-01" purity="4.3812689185142517e-01" nType="-99"/>
              <Node pos="r" depth="2" NCoef="0" IVar="-1" Cut="0.0000000000000000e+00" cType="1" res="-8.3289146423339844e-03" rms="4.0689748525619507e-01" purity="2.5335073471069336e-01" nType="-99"/>
            </Node>
          </Node>
        </BinaryTree>
        <BinaryTree type="DecisionTree" boostWeight="1.0000000000000000e+00" itree="42">
          <Node pos="s" depth="0" NCoef="0" IVar="0" Cut="5.2604141235351562e+01" cType="0" res="-1.9782902672886848e-02" rms="4.5079925656318665e-01" purity="5.0000000000000000e-01" nType="0">
            <Node pos="l" depth="1" NCoef="0" IVar="9" Cut="2.2844831848144531e+02" cType="1" res="4.0206994861364365e-02" rms="4.4058489799499512e-01" purity="5.6028980016708374e-01" nType="0">
              <Node pos="l" depth="2" NCoef="0" IVar="-1" Cut="0.0000000000000000e+00" cType="1" res="9.3356641009449959e-03" rms="4.3926182389259338e-01" purity="6.7091739177703857e-01" nType="-99"/>
              <Node pos="r" depth="2" NCoef="0" IVar="-1" Cut="0.0000000000000000e+00" cType="1" res="-6.0125524178147316e-03" rms="4.1984483599662781e-01" purity="2.5152856111526489e-01" nType="-99"/>
            </Node>
            <Node pos="r" depth="1" NCoef="0" IVar="3" Cut="6.0386825561523438e+01" cType="0" res="-5.6136198341846466e-02" rms="4.5302879810333252e-01" purity="4.6346494555473328e-01" nType="0">
              <Node pos="l" depth="2" NCoef="0" IVar="-1" Cut="0.0000000000000000e+00" cType="1" res="-1.9296020036563277e-04" rms="4.4650405645370483e-01" purity="5.2567613124847412e-01" nType="-99"/>
              <Node pos="r" depth="2" NCoef="0" IVar="-1" Cut="0.0000000000000000e+00" cType="1" res="-9.0334219858050346e-03" rms="4.5051768422126770e-01" purity="3.6869981884956360e-01" nType="-99"/>
            </Node>
          </Node>
        </BinaryTree>
        <BinaryTree type="DecisionTree" boostWeight="1.0000000000000000e+00" itree="43">
          <Node pos="s" depth="0" NCoef="0" IVar="1" Cut="4.5744678378105164e-01" cType="1" res="-1.9625656306743622e-02" rms="4.5022922754287720e-01" purity="5.0000000000000000e-01" nType="0">
            <Node pos="l" depth="1" NCoef="0" IVar="9" Cut="2.6781381225585938e+02" cType="1" res="1.6621317714452744e-02" rms="4.3931767344474792e-01" purity="5.7759600877761841e-01" nType="0">
              <Node pos="l" depth="2" NCoef="0" IVar="-1" Cut="0.0000000000000000e+00" cType="1" res="4.1233445517718792e-03" rms="4.4289150834083557e-01" purity="6.3506329059600830e-01" nType="-99"/>
              <Node pos="r" depth="2" NCoef="0" IVar="-1" Cut="0.0000000000000000e+00" cType="1" res="-8.5970629006624222e-03" rms="3.8367518782615662e-01" purity="1.9522999227046967e-01" nType="-99"/>
            </Node>
            <Node pos="r" depth="1" NCoef="0" IVar="9" Cut="1.3070701599121094e+02" cType="0" res="-7.9552993178367615e-02" rms="4.6150884032249451e-01" purity="3.7171012163162231e-01" nType="0">
              <Node pos="l" depth="2" NCoef="0" IVar="-1" Cut="0.0000000000000000e+00" cType="1" res="-4.7120428644120693e-03" rms="4.6513724327087402e-01" purity="3.8690868020057678e-01" nType="-99"/>
              <Node pos="r" depth="2" NCoef="0" IVar="-1" Cut="0.0000000000000000e+00" cType="1" res="-1.2193902395665646e-02" rms="3.7665873765945435e-01" purity="1.7342214286327362e-01" nType="-99"/>
            </Node>
          </Node>
        </BinaryTree>
        <BinaryTree type="DecisionTree" boostWeight="1.0000000000000000e+00" itree="44">
          <Node pos="s" depth="0" NCoef="0" IVar="3" Cut="5.1918823242187500e+01" cType="0" res="-1.9373398274183273e-02" rms="4.4989240169525146e-01" purity="5.0000000000000000e-01" nType="0">
            <Node pos="l" depth="1" NCoef="0" IVar="9" Cut="2.0144326782226562e+02" cType="1" res="7.1793058887124062e-03" rms="4.4484126567840576e-01" purity="5.2932631969451904e-01" nType="0">
              <Node pos="l" depth="2" NCoef="0" IVar="-1" Cut="0.0000000000000000e+00" cType="1" res="5.7519492693245411e-03" rms="4.4701668620109558e-01" purity="6.5362942218780518e-01" nType="-99"/>
              <Node pos="r" depth="2" NCoef="0" IVar="-1" Cut="0.0000000000000000e+00" cType="1" res="-5.4608844220638275e-03" rms="4.2864024639129639e-01" purity="3.0794137716293335e-01" nType="-99"/>
            </Node>
            <Node pos="r" depth="1" NCoef="0" IVar="0" Cut="7.1096977233886719e+01" cType="0" res="-9.8543442785739899e-02" rms="4.5553067326545715e-01" purity="4.1256025433540344e-01" nType="0">
              <Node pos="l" depth="2" NCoef="0" IVar="-1" Cut="0.0000000000000000e+00" cType="1" res="7.2802668437361717e-03" rms="4.4292122125625610e-01" purity="6.1705571413040161e-01" nType="-99"/>
              <Node pos="r" depth="2" NCoef="0" IVar="-1" Cut="0.0000000000000000e+00" cType="1" res="-8.9950496330857277e-03" rms="4.4894599914550781e-01" purity="3.6443197727203369e-01" nType="-99"/>
            </Node>
          </Node>
        </BinaryTree>
        <BinaryTree type="DecisionTree" boostWeight="1.0000000000000000e+00" itree="45">
          <Node pos="s" depth="0" NCoef="0" IVar="7" Cut="-1.3680441379547119e+00" cType="1" res="-1.9273081794381142e-02" rms="4.4937252998352051e-01" purity="5.0000000000000000e-01" nType="0">
            <Node pos="l" depth="1" NCoef="0" IVar="9" Cut="1.9948770141601562e+02" cType="1" res="5.4872509092092514e-02" rms="4.3536823987960815e-01" purity="6.4009255170822144e-01" nType="0">
              <Node pos="l" depth="2" NCoef="0" IVar="-1" Cut="0.0000000000000000e+00" cType="1" res="1.1270511895418167e-02" rms="4.2361852526664734e-01" purity="7.2714698314666748e-01" nType="-99"/>
              <Node pos="r" depth="2" NCoef="0" IVar="-1" Cut="0.0000000000000000e+00" cType="1" res="-1.8675851169973612e-03" rms="4.5541298389434814e-01" purity="4.1118764877319336e-01" nType="-99"/>
            </Node>
            <Node pos="r" depth="1" NCoef="0" IVar="7" Cut="1.3146708011627197e+00" cType="0" res="-4.7111921012401581e-02" rms="4.5138517022132874e-01" purity="4.4740062952041626e-01" nType="0">
              <Node pos="l" depth="2" NCoef="0" IVar="-1" Cut="0.0000000000000000e+00" cType="1" res="5.1768659614026546e-03" rms="4.3823319673538208e-01" purity="6.2715828418731689e-01" nType="-99"/>
              <Node pos="r" depth="2" NCoef="0" IVar="-1" Cut="0.0000000000000000e+00" cType="1" res="-7.1599339134991169e-03" rms="4.4911715388298035e-01" purity="3.3473002910614014e-01" nType="-99"/>
            </Node>
          </Node>
        </BinaryTree>
        <BinaryTree type="DecisionTree" boostWeight="1.0000000000000000e+00" itree="46">
          <Node pos="s" depth="0" NCoef="0" IVar="0" Cut="4.0341739654541016e+01" cType="0" res="-1.9314637407660484e-02" rms="4.4878634810447693e-01" purity="5.0000000000000000e-01" nType="0">
            <Node pos="l" depth="1" NCoef="0" IVar="9" Cut="2.3245158386230469e+02" cType="1" res="2.0831579342484474e-02" rms="4.4269460439682007e-01" purity="5.4306530952453613e-01" nType="0">
              <Node pos="l" depth="2" NCoef="0" IVar="-1" Cut="0.0000000000000000e+00" cType="1" res="5.3958715870976448e-03" rms="4.4683691859245300e-01" purity="6.3175594806671143e-01" nType="-99"/>
              <Node pos="r" depth="2" NCoef="0" IVar="-1" Cut="0.0000000000000000e+00" cType="1" res="-6.2619829550385475e-03" rms="4.0959709882736206e-01" purity="2.3512795567512512e-01" nType="-99"/>
            </Node>
            <Node pos="r" depth="1" NCoef="0" IVar="3" Cut="6.7913932800292969e+01" cType="0" res="-6.9926522672176361e-02" rms="4.5128941535949707e-01" purity="4.4570806622505188e-01" nType="0">
              <Node pos="l" depth="2" NCoef="0" IVar="-1" Cut="0.0000000000000000e+00" cType="1" res="9.8558048193808645e-05" rms="4.4190508127212524e-01" purity="5.2268052101135254e-01" nType="-99"/>
              <Node pos="r" depth="2" NCoef="0" IVar="-1" Cut="0.0000000000000000e+00" cType="1" res="-8.9117549359798431e-03" rms="4.4988870620727539e-01" purity="3.7400704622268677e-01" nType="-99"/>
            </Node>
          </Node>
        </BinaryTree>
        <BinaryTree type="DecisionTree" boostWeight="1.0000000000000000e+00" itree="47">
          <Node pos="s" depth="0" NCoef="0" IVar="9" Cut="1.3170256042480469e+02" cType="0" res="-1.9101399928331375e-02" rms="4.4833248853683472e-01" purity="5.0000000000000000e-01" nType="0">
            <Node pos="l" depth="1" NCoef="0" IVar="9" Cut="1.9263591003417969e+02" cType="1" res="-6.6335974261164665e-03" rms="4.4710406661033630e-01" purity="5.1499539613723755e-01" nType="0">
              <Node pos="l" depth="2" NCoef="0" IVar="-1" Cut="0.0000000000000000e+00" cType="1" res="3.6350863520056009e-03" rms="4.5096549391746521e-01" purity="6.2866812944412231e-01" nType="-99"/>
              <Node pos="r" depth="2" NCoef="0" IVar="-1" Cut="0.0000000000000000e+00" cType="1" res="-5.4682800546288490e-03" rms="4.3259587883949280e-01" purity="3.3905905485153198e-01" nType="-99"/>
            </Node>
            <Node pos="r" depth="1" NCoef="0" IVar="0" Cut="7.9930770874023438e+01" cType="0" res="-1.7849804461002350e-01" rms="4.3320935964584351e-01" purity="3.0828875303268433e-01" nType="0">
              <Node pos="l" depth="2" NCoef="0" IVar="-1" Cut="0.0000000000000000e+00" cType="1" res="9.2851519584655762e-03" rms="4.6172791719436646e-01" purity="6.3838070631027222e-01" nType="-99"/>
              <Node pos="r" depth="2" NCoef="0" IVar="-1" Cut="0.0000000000000000e+00" cType="1" res="-1.1489739641547203e-02" rms="4.2685064673423767e-01" purity="2.8888887166976929e-01" nType="-99"/>
            </Node>
          </Node>
        </BinaryTree>
        <BinaryTree type="DecisionTree" boostWeight="1.0000000000000000e+00" itree="48">
          <Node pos="s" depth="0" NCoef="0" IVar="3" Cut="5.6309638977050781e+01" cType="0" res="-1.8792770802974701e-02" rms="4.4798311591148376e-01" purity="5.0000000000000000e-01" nType="0">
            <Node pos="l" depth="1" NCoef="0" IVar="9" Cut="2.0144326782226562e+02" cType="1" res="1.2273905798792839e-02" rms="4.4115471839904785e-01" purity="5.3468132019042969e-01" nType="0">
              <Node pos="l" depth="2" NCoef="0" IVar="-1" Cut="0.0000000000000000e+00" cType="1" res="6.6915610805153847e-03" rms="4.4151178002357483e-01" purity="6.7188203334808350e-01" nType="-99"/>
              <Node pos="r" depth="2" NCoef="0" IVar="-1" Cut="0.0000000000000000e+00" cType="1" res="-4.7636236995458603e-03" rms="4.2951935529708862e-01" purity="3.1083613634109497e-01" nType="-99"/>
            </Node>
            <Node pos="r" depth="1" NCoef="0" IVar="0" Cut="5.8073101043701172e+01" cType="0" res="-8.1430271267890930e-02" rms="4.5503929257392883e-01" purity="4.3007457256317139e-01" nType="0">
              <Node pos="l" depth="2" NCoef="0" IVar="-1" Cut="0.0000000000000000e+00" cType="1" res="3.0081130098551512e-03" rms="4.4814717769622803e-01" purity="5.7607048749923706e-01" nType="-99"/>
              <Node pos="r" depth="2" NCoef="0" IVar="-1" Cut="0.0000000000000000e+00" cType="1" res="-8.8411159813404083e-03" rms="4.4834214448928833e-01" purity="3.6187380552291870e-01" nType="-99"/>
            </Node>
          </Node>
        </BinaryTree>
        <BinaryTree type="DecisionTree" boostWeight="1.0000000000000000e+00" itree="49">
          <Node pos="s" depth="0" NCoef="0" IVar="1" Cut="6.3764847815036774e-02" cType="1" res="-1.8715398386120796e-02" rms="4.4747933745384216e-01" purity="5.0000000000000000e-01" nType="0">
            <Node pos="l" depth="1" NCoef="0" IVar="9" Cut="1.2277606201171875e+02" cType="0" res="1.0288517922163010e-01" rms="3.5810965299606323e-01" purity="8.2118463516235352e-01" nType="0">
              <Node pos="l" depth="2" NCoef="0" IVar="-1" Cut="0.0000000000000000e+00" cType="1" res="2.2431543096899986e-02" rms="3.4772527217864990e-01" purity="8.3388262987136841e-01" nType="-99"/>
              <Node pos="r" depth="2" NCoef="0" IVar="-1" Cut="0.0000000000000000e+00" cType="1" res="-1.0848307050764561e-02" rms="4.9160996079444885e-01" purity="5.3197830915451050e-01" nType="-99"/>
            </Node>
            <Node pos="r" depth="1" NCoef="0" IVar="0" Cut="4.3884212493896484e+01" cType="0" res="-3.4475803375244141e-02" rms="4.5541632175445557e-01" purity="4.5837190747261047e-01" nType="0">
              <Node pos="l" depth="2" NCoef="0" IVar="-1" Cut="0.0000000000000000e+00" cType="1" res="8.9953350834548473e-04" rms="4.5139199495315552e-01" purity="5.0785630941390991e-01" nType="-99"/>
              <Node pos="r" depth="2" NCoef="0" IVar="-1" Cut="0.0000000000000000e+00" cType="1" res="-5.7463985867798328e-03" rms="4.5501482486724854e-01" purity="4.0822783112525940e-01" nType="-99"/>
            </Node>
          </Node>
        </BinaryTree>
        <BinaryTree type="DecisionTree" boostWeight="1.0000000000000000e+00" itree="50">
          <Node pos="s" depth="0" NCoef="0" IVar="9" Cut="1.2836650085449219e+02" cType="0" res="-1.8639612942934036e-02" rms="4.4705179333686829e-01" purity="5.0000000000000000e-01" nType="0">
            <Node pos="l" depth="1" NCoef="0" IVar="9" Cut="1.9075505065917969e+02" cType="1" res="-8.0693494528532028e-03" rms="4.4626218080520630e-01" purity="5.1306498050689697e-01" nType="0">
              <Node pos="l" depth="2" NCoef="0" IVar="-1" Cut="0.0000000000000000e+00" cType="1" res="3.1555658206343651e-03" rms="4.5015981793403625e-01" purity="6.2351065874099731e-01" nType="-99"/>
              <Node pos="r" depth="2" NCoef="0" IVar="-1" Cut="0.0000000000000000e+00" cType="1" res="-5.1031117327511311e-03" rms="4.3356886506080627e-01" purity="3.4843432903289795e-01" nType="-99"/>
            </Node>
            <Node pos="r" depth="1" NCoef="0" IVar="0" Cut="8.5640098571777344e+01" cType="0" res="-1.9127096235752106e-01" rms="4.2396837472915649e-01" purity="2.8662583231925964e-01" nType="0">
              <Node pos="l" depth="2" NCoef="0" IVar="-1" Cut="0.0000000000000000e+00" cType="1" res="1.6672210767865181e-02" rms="4.4774493575096130e-01" purity="6.7919003963470459e-01" nType="-99"/>
              <Node pos="r" depth="2" NCoef="0" IVar="-1" Cut="0.0000000000000000e+00" cType="1" res="-1.1713589541614056e-02" rms="4.1842877864837646e-01" purity="2.7037519216537476e-01" nType="-99"/>
            </Node>
          </Node>
        </BinaryTree>
        <BinaryTree type="DecisionTree" boostWeight="1.0000000000000000e+00" itree="51">
          <Node pos="s" depth="0" NCoef="0" IVar="3" Cut="5.1918823242187500e+01" cType="0" res="-1.8302300944924355e-02" rms="4.4675549864768982e-01" purity="5.0000000000000000e-01" nType="0">
            <Node pos="l" depth="1" NCoef="0" IVar="9" Cut="2.3940159606933594e+02" cType="1" res="6.4163943752646446e-03" rms="4.4224044680595398e-01" purity="5.2932631969451904e-01" nType="0">
              <Node pos="l" depth="2" NCoef="0" IVar="-1" Cut="0.0000000000000000e+00" cType="1" res="3.4179964568465948e-03" rms="4.5003607869148254e-01" purity="6.1397260427474976e-01" nType="-99"/>
              <Node pos="r" depth="2" NCoef="0" IVar="-1" Cut="0.0000000000000000e+00" cType="1" res="-6.7153344862163067e-03" rms="3.9515289664268494e-01" purity="2.1199528872966766e-01" nType="-99"/>
            </Node>
            <Node pos="r" depth="1" NCoef="0" IVar="0" Cut="7.2457679748535156e+01" cType="0" res="-9.2004023492336273e-02" rms="4.5200058817863464e-01" purity="4.1256025433540344e-01" nType="0">
              <Node pos="l" depth="2" NCoef="0" IVar="-1" Cut="0.0000000000000000e+00" cType="1" res="7.1218567900359631e-03" rms="4.3939140439033508e-01" purity="6.2426310777664185e-01" nType="-99"/>
              <Node pos="r" depth="2" NCoef="0" IVar="-1" Cut="0.0000000000000000e+00" cType="1" res="-8.3430167287588120e-03" rms="4.4688877463340759e-01" purity="3.6631849408149719e-01" nType="-99"/>
            </Node>
          </Node>
        </BinaryTree>
        <BinaryTree type="DecisionTree" boostWeight="1.0000000000000000e+00" itree="52">
          <Node pos="s" depth="0" NCoef="0" IVar="1" Cut="4.5744678378105164e-01" cType="1" res="-1.8118945881724358e-02" rms="4.4636487960815430e-01" purity="5.0000000000000000e-01" nType="0">
            <Node pos="l" depth="1" NCoef="0" IVar="0" Cut="3.8706752777099609e+01" cType="0" res="1.4888232573866844e-02" rms="4.3537005782127380e-01" purity="5.7759600877761841e-01" nType="0">
              <Node pos="l" depth="2" NCoef="0" IVar="-1" Cut="0.0000000000000000e+00" cType="1" res="6.7650233395397663e-03" rms="4.1994902491569519e-01" purity="6.3272720575332642e-01" nType="-99"/>
              <Node pos="r" depth="2" NCoef="0" IVar="-1" Cut="0.0000000000000000e+00" cType="1" res="-3.6568460054695606e-03" rms="4.4807410240173340e-01" purity="5.0635683536529541e-01" nType="-99"/>
            </Node>
            <Node pos="r" depth="1" NCoef="0" IVar="9" Cut="1.5378724670410156e+02" cType="0" res="-7.2689905762672424e-02" rms="4.5879226922988892e-01" purity="3.7171012163162231e-01" nType="0">
              <Node pos="l" depth="2" NCoef="0" IVar="-1" Cut="0.0000000000000000e+00" cType="1" res="-3.6604024935513735e-03" rms="4.6025863289833069e-01" purity="3.9552283287048340e-01" nType="-99"/>
              <Node pos="r" depth="2" NCoef="0" IVar="-1" Cut="0.0000000000000000e+00" cType="1" res="-8.3478903397917747e-03" rms="4.4705298542976379e-01" purity="2.9843723773956299e-01" nType="-99"/>
            </Node>
          </Node>
        </BinaryTree>
        <BinaryTree type="DecisionTree" boostWeight="1.0000000000000000e+00" itree="53">
          <Node pos="s" depth="0" NCoef="0" IVar="7" Cut="-1.3680441379547119e+00" cType="1" res="-1.7836557701230049e-02" rms="4.4603776931762695e-01" purity="5.0000000000000000e-01" nType="0">
            <Node pos="l" depth="1" NCoef="0" IVar="4" Cut="-1.6054149866104126e+00" cType="0" res="5.0288341939449310e-02" rms="4.3261176347732544e-01" purity="6.4009255170822144e-01" nType="0">
              <Node pos="l" depth="2" NCoef="0" IVar="-1" Cut="0.0000000000000000e+00" cType="1" res="7.7376435510814190e-03" rms="4.2670014500617981e-01" purity="6.6020494699478149e-01" nType="-99"/>
              <Node pos="r" depth="2" NCoef="0" IVar="-1" Cut="0.0000000000000000e+00" cType="1" res="-6.8969689309597015e-03" rms="4.6057313680648804e-01" purity="4.4958803057670593e-01" nType="-99"/>
            </Node>
            <Node pos="r" depth="1" NCoef="0" IVar="7" Cut="1.2607009410858154e+00" cType="0" res="-4.3414857238531113e-02" rms="4.4831031560897827e-01" purity="4.4740062952041626e-01" nType="0">
              <Node pos="l" depth="2" NCoef="0" IVar="-1" Cut="0.0000000000000000e+00" cType="1" res="4.5907241292297840e-03" rms="4.3640354275703430e-01" purity="6.2093025445938110e-01" nType="-99"/>
              <Node pos="r" depth="2" NCoef="0" IVar="-1" Cut="0.0000000000000000e+00" cType="1" res="-6.7798546515405178e-03" rms="4.4686624407768250e-01" purity="3.3321201801300049e-01" nType="-99"/>
            </Node>
          </Node>
        </BinaryTree>
        <BinaryTree type="DecisionTree" boostWeight="1.0000000000000000e+00" itree="54">
          <Node pos="s" depth="0" NCoef="0" IVar="0" Cut="5.7509098052978516e+01" cType="0" res="-1.7779536545276642e-02" rms="4.4555723667144775e-01" purity="5.0000000000000000e-01" nType="0">
            <Node pos="l" depth="1" NCoef="0" IVar="9" Cut="2.2844831848144531e+02" cType="1" res="4.3292630463838577e-02" rms="4.3281972408294678e-01" purity="5.6615716218948364e-01" nType="0">
              <Node pos="l" depth="2" NCoef="0" IVar="-1" Cut="0.0000000000000000e+00" cType="1" res="9.7101535648107529e-03" rms="4.3046513199806213e-01" purity="6.8720197677612305e-01" nType="-99"/>
              <Node pos="r" depth="2" NCoef="0" IVar="-1" Cut="0.0000000000000000e+00" cType="1" res="-4.6614981256425381e-03" rms="4.2038288712501526e-01" purity="2.5485393404960632e-01" nType="-99"/>
            </Node>
            <Node pos="r" depth="1" NCoef="0" IVar="3" Cut="6.6345787048339844e+01" cType="0" res="-4.6101588755846024e-02" rms="4.4852870702743530e-01" purity="4.6931982040405273e-01" nType="0">
              <Node pos="l" depth="2" NCoef="0" IVar="-1" Cut="0.0000000000000000e+00" cType="1" res="1.1253565317019820e-03" rms="4.3917635083198547e-01" purity="5.3786057233810425e-01" nType="-99"/>
              <Node pos="r" depth="2" NCoef="0" IVar="-1" Cut="0.0000000000000000e+00" cType="1" res="-7.3694479651749134e-03" rms="4.5024144649505615e-01" purity="3.9845284819602966e-01" nType="-99"/>
            </Node>
          </Node>
        </BinaryTree>
        <BinaryTree type="DecisionTree" boostWeight="1.0000000000000000e+00" itree="55">
          <Node pos="s" depth="0" NCoef="0" IVar="5" Cut="9.8731784820556641e+00" cType="0" res="-1.7622943967580795e-02" rms="4.4508662819862366e-01" purity="5.0000000000000000e-01" nType="0">
            <Node pos="l" depth="1" NCoef="0" IVar="9" Cut="2.6511206054687500e+02" cType="1" res="5.3659207187592983e-03" rms="4.4102609157562256e-01" purity="5.2281957864761353e-01" nType="0">
              <Node pos="l" depth="2" NCoef="0" IVar="-1" Cut="0.0000000000000000e+00" cType="1" res="2.5572851300239563e-03" rms="4.4811397790908813e-01" purity="5.8307027816772461e-01" nType="-99"/>
              <Node pos="r" depth="2" NCoef="0" IVar="-1" Cut="0.0000000000000000e+00" cType="1" res="-7.8961765393614769e-03" rms="3.7805581092834473e-01" purity="1.8574935197830200e-01" nType="-99"/>
            </Node>
            <Node pos="r" depth="1" NCoef="0" IVar="0" Cut="5.7653148651123047e+01" cType="0" res="-9.0732626616954803e-02" rms="4.5002123713493347e-01" purity="4.2742872238159180e-01" nType="0">
              <Node pos="l" depth="2" NCoef="0" IVar="-1" Cut="0.0000000000000000e+00" cType="1" res="5.8404682204127312e-04" rms="4.4559964537620544e-01" purity="5.6556326150894165e-01" nType="-99"/>
              <Node pos="r" depth="2" NCoef="0" IVar="-1" Cut="0.0000000000000000e+00" cType="1" res="-8.7304813787341118e-03" rms="4.4551765918731689e-01" purity="3.6898320913314819e-01" nType="-99"/>
            </Node>
          </Node>
        </BinaryTree>
        <BinaryTree type="DecisionTree" boostWeight="1.0000000000000000e+00" itree="56">
          <Node pos="s" depth="0" NCoef="0" IVar="9" Cut="1.3437141418457031e+02" cType="0" res="-1.7332682386040688e-02" rms="4.4476902484893799e-01" purity="5.0000000000000000e-01" nType="0">
            <Node pos="l" depth="1" NCoef="0" IVar="9" Cut="1.9065016174316406e+02" cType="1" res="-4.8932726494967937e-03" rms="4.4343683123588562e-01" purity="5.1630938053131104e-01" nType="0">
              <Node pos="l" depth="2" NCoef="0" IVar="-1" Cut="0.0000000000000000e+00" cType="1" res="3.7208176217973232e-03" rms="4.4665262103080750e-01" purity="6.3489657640457153e-01" nType="-99"/>
              <Node pos="r" depth="2" NCoef="0" IVar="-1" Cut="0.0000000000000000e+00" cType="1" res="-4.8340675421059132e-03" rms="4.3211558461189270e-01" purity="3.4901741147041321e-01" nType="-99"/>
            </Node>
            <Node pos="r" depth="1" NCoef="0" IVar="6" Cut="6.1839881896972656e+01" cType="0" res="-1.4921438694000244e-01" rms="4.3741399049758911e-01" purity="3.2708936929702759e-01" nType="0">
              <Node pos="l" depth="2" NCoef="0" IVar="-1" Cut="0.0000000000000000e+00" cType="1" res="-7.2930026799440384e-03" rms="4.5608896017074585e-01" purity="3.9995184540748596e-01" nType="-99"/>
              <Node pos="r" depth="2" NCoef="0" IVar="-1" Cut="0.0000000000000000e+00" cType="1" res="-1.1258894577622414e-02" rms="4.0248453617095947e-01" purity="2.2904668748378754e-01" nType="-99"/>
            </Node>
          </Node>
        </BinaryTree>
        <BinaryTree type="DecisionTree" boostWeight="1.0000000000000000e+00" itree="57">
          <Node pos="s" depth="0" NCoef="0" IVar="7" Cut="1.8579206466674805e+00" cType="0" res="-1.7061173915863037e-02" rms="4.4448187947273254e-01" purity="5.0000000000000000e-01" nType="0">
            <Node pos="l" depth="1" NCoef="0" IVar="4" Cut="1.4827204942703247e+00" cType="1" res="6.5339252352714539e-02" rms="4.2002338171005249e-01" purity="6.9383656978607178e-01" nType="0">
