<?xml version="1.0"?>
<MethodSetup Method="Category::lepton_flavour">
  <GeneralInfo>
    <Info name="TMVA Release" value="4.2.0 [262656]"/>
    <Info name="ROOT Release" value="5.99/03 [353027]"/>
    <Info name="Creator" value="joosep"/>
    <Info name="Date" value="Fri Nov 22 17:59:10 2013"/>
    <Info name="Host" value="Linux phys.hep.kbfi.ee 2.6.32-042stab076.8 #1 SMP Tue May 14 20:38:14 MSK 2013 x86_64 x86_64 x86_64 GNU/Linux"/>
    <Info name="Dir" value="/home/joosep/singletop/stpol2/src/mva"/>
    <Info name="Training events" value="100967"/>
    <Info name="TrainingTime" value="4.01886499e+02"/>
    <Info name="AnalysisType" value="Classification"/>
  </GeneralInfo>
  <Options>
    <Option name="V" modified="No">False</Option>
    <Option name="VerbosityLevel" modified="No">Default</Option>
    <Option name="VarTransform" modified="No">None</Option>
    <Option name="H" modified="No">False</Option>
    <Option name="CreateMVAPdfs" modified="No">False</Option>
    <Option name="IgnoreNegWeightsInTraining" modified="No">False</Option>
  </Options>
  <Variables NVar="11">
    <Variable VarIndex="0" Expression="met" Label="met" Title="met" Unit="" Internal="met" Type="F" Min="2.25222540e+00" Max="8.38258240e+02"/>
    <Variable VarIndex="1" Expression="C" Label="C" Title="C" Unit="" Internal="C" Type="F" Min="3.16841132e-03" Max="9.94484961e-01"/>
    <Variable VarIndex="2" Expression="lepton_pt" Label="lepton_pt" Title="lepton_pt" Unit="" Internal="lepton_pt" Type="F" Min="2.60000114e+01" Max="6.75364624e+02"/>
    <Variable VarIndex="3" Expression="bjet_pt" Label="bjet_pt" Title="bjet_pt" Unit="" Internal="bjet_pt" Type="F" Min="4.00018120e+01" Max="7.24043152e+02"/>
    <Variable VarIndex="4" Expression="bjet_eta" Label="bjet_eta" Title="bjet_eta" Unit="" Internal="bjet_eta" Type="F" Min="-2.68898320e+00" Max="2.65750504e+00"/>
    <Variable VarIndex="5" Expression="bjet_mass" Label="bjet_mass" Title="bjet_mass" Unit="" Internal="bjet_mass" Type="F" Min="3.21888542e+00" Max="1.92360184e+02"/>
    <Variable VarIndex="6" Expression="ljet_eta" Label="ljet_eta" Title="ljet_eta" Unit="" Internal="ljet_eta" Type="F" Min="-4.78837347e+00" Max="4.75371408e+00"/>
    <Variable VarIndex="7" Expression="top_mass" Label="top_mass" Title="top_mass" Unit="" Internal="top_mass" Type="F" Min="9.33551102e+01" Max="1.83101196e+03"/>
    <Variable VarIndex="8" Expression="mtw" Label="mtw" Title="mtw" Unit="" Internal="mtw" Type="F" Min="3.00000076e+01" Max="8.94303345e+02"/>
    <Variable VarIndex="9" Expression="shat" Label="shat" Title="shat" Unit="" Internal="shat" Type="F" Min="1.55462418e+02" Max="3.47287842e+03"/>
    <Variable VarIndex="10" Expression="ht" Label="ht" Title="ht" Unit="" Internal="ht" Type="F" Min="8.03328857e+01" Max="1.55182507e+03"/>
  </Variables>
  <Spectators NSpec="1">
    <Spectator SpecIndex="0" Expression="lepton_type" Label="lepton_type" Title="F" Unit="" Internal="lepton_type" Type="F" Min="1.10000000e+01" Max="1.30000000e+01"/>
  </Spectators>
  <Classes NClass="2">
    <Class Name="Background" Index="0"/>
    <Class Name="Signal" Index="1"/>
  </Classes>
  <Transformations NTransformations="0"/>
  <MVAPdfs/>
  <Weights NSubMethods="2">
    <SubMethod Index="0" Method="BDT::muon" Cut="abs(lepton_type)==13.0" Variables="met:C:lepton_pt:bjet_pt:bjet_eta:bjet_mass:ljet_eta:top_mass:mtw:shat:ht">
      <GeneralInfo>
        <Info name="TMVA Release" value="4.2.0 [262656]"/>
        <Info name="ROOT Release" value="5.99/03 [353027]"/>
        <Info name="Creator" value="joosep"/>
        <Info name="Date" value="Fri Nov 22 17:59:10 2013"/>
        <Info name="Host" value="Linux phys.hep.kbfi.ee 2.6.32-042stab076.8 #1 SMP Tue May 14 20:38:14 MSK 2013 x86_64 x86_64 x86_64 GNU/Linux"/>
        <Info name="Dir" value="/home/joosep/singletop/stpol2/src/mva"/>
        <Info name="Training events" value="54145"/>
        <Info name="TrainingTime" value="2.02556145e+02"/>
        <Info name="AnalysisType" value="Classification"/>
      </GeneralInfo>
      <Options>
        <Option name="V" modified="No">False</Option>
        <Option name="VerbosityLevel" modified="Yes">Debug</Option>
        <Option name="VarTransform" modified="No">None</Option>
        <Option name="H" modified="Yes">True</Option>
        <Option name="CreateMVAPdfs" modified="No">False</Option>
        <Option name="IgnoreNegWeightsInTraining" modified="No">False</Option>
        <Option name="NTrees" modified="Yes">1000</Option>
        <Option name="MaxDepth" modified="Yes">2</Option>
        <Option name="MinNodeSize" modified="No">0.1846893.2</Option>
        <Option name="nCuts" modified="Yes">2000</Option>
        <Option name="BoostType" modified="Yes">Grad</Option>
        <Option name="AdaBoostR2Loss" modified="No">quadratic</Option>
        <Option name="UseBaggedBoost" modified="No">False</Option>
        <Option name="Shrinkage" modified="Yes">1.000000e-01</Option>
        <Option name="AdaBoostBeta" modified="No">5.000000e-01</Option>
        <Option name="UseRandomisedTrees" modified="No">False</Option>
        <Option name="UseNvars" modified="Yes">4</Option>
        <Option name="UsePoissonNvars" modified="No">True</Option>
        <Option name="BaggedSampleFraction" modified="No">6.000000e-01</Option>
        <Option name="UseYesNoLeaf" modified="No">True</Option>
        <Option name="NegWeightTreatment" modified="No">ignorenegweightsintraining</Option>
        <Option name="Css" modified="No">1.000000e+00</Option>
        <Option name="Cts_sb" modified="No">1.000000e+00</Option>
        <Option name="Ctb_ss" modified="No">1.000000e+00</Option>
        <Option name="Cbb" modified="No">1.000000e+00</Option>
        <Option name="NodePurityLimit" modified="No">5.000000e-01</Option>
        <Option name="SeparationType" modified="No">giniindex</Option>
        <Option name="DoBoostMonitor" modified="No">False</Option>
        <Option name="UseFisherCuts" modified="No">False</Option>
        <Option name="MinLinCorrForFisher" modified="No">8.000000e-01</Option>
        <Option name="UseExclusiveVars" modified="No">False</Option>
        <Option name="DoPreselection" modified="No">False</Option>
        <Option name="SigToBkgFraction" modified="No">1.000000e+00</Option>
        <Option name="PruneMethod" modified="Yes">costcomplexity</Option>
        <Option name="PruneStrength" modified="Yes">5.000000e+00</Option>
        <Option name="PruningValFraction" modified="No">5.000000e-01</Option>
        <Option name="nEventsMin" modified="Yes">100</Option>
        <Option name="UseBaggedGrad" modified="Yes">False</Option>
        <Option name="GradBaggingFraction" modified="No">6.000000e-01</Option>
        <Option name="UseNTrainEvents" modified="No">0</Option>
        <Option name="NNodesMax" modified="Yes">5</Option>
      </Options>
      <Variables NVar="11">
        <Variable VarIndex="0" Expression="met" Label="met" Title="met" Unit="" Internal="met" Type="F" Min="2.58477211e+00" Max="5.76791565e+02"/>
        <Variable VarIndex="1" Expression="C" Label="C" Title="C" Unit="" Internal="C" Type="F" Min="3.16841132e-03" Max="9.94484961e-01"/>
        <Variable VarIndex="2" Expression="lepton_pt" Label="lepton_pt" Title="lepton_pt" Unit="" Internal="lepton_pt" Type="F" Min="2.60000114e+01" Max="5.79889526e+02"/>
        <Variable VarIndex="3" Expression="bjet_pt" Label="bjet_pt" Title="bjet_pt" Unit="" Internal="bjet_pt" Type="F" Min="4.00018120e+01" Max="6.83235168e+02"/>
        <Variable VarIndex="4" Expression="bjet_eta" Label="bjet_eta" Title="bjet_eta" Unit="" Internal="bjet_eta" Type="F" Min="-2.68449950e+00" Max="2.65750504e+00"/>
        <Variable VarIndex="5" Expression="bjet_mass" Label="bjet_mass" Title="bjet_mass" Unit="" Internal="bjet_mass" Type="F" Min="3.21888542e+00" Max="1.72284012e+02"/>
        <Variable VarIndex="6" Expression="ljet_eta" Label="ljet_eta" Title="ljet_eta" Unit="" Internal="ljet_eta" Type="F" Min="-4.42257929e+00" Max="4.75371408e+00"/>
        <Variable VarIndex="7" Expression="top_mass" Label="top_mass" Title="top_mass" Unit="" Internal="top_mass" Type="F" Min="9.51746674e+01" Max="1.83101196e+03"/>
        <Variable VarIndex="8" Expression="mtw" Label="mtw" Title="mtw" Unit="" Internal="mtw" Type="F" Min="3.00017300e+01" Max="6.75388428e+02"/>
        <Variable VarIndex="9" Expression="shat" Label="shat" Title="shat" Unit="" Internal="shat" Type="F" Min="1.55462418e+02" Max="2.72660767e+03"/>
        <Variable VarIndex="10" Expression="ht" Label="ht" Title="ht" Unit="" Internal="ht" Type="F" Min="8.06944427e+01" Max="1.29644824e+03"/>
      </Variables>
      <Classes NClass="2">
        <Class Name="Background" Index="0"/>
        <Class Name="Signal" Index="1"/>
      </Classes>
      <Transformations NTransformations="1">
        <Transform Name="Rearrange">
          <Selection>
            <Input NInputs="11">
              <Input Type="Variable" Label="met" Expression="met"/>
              <Input Type="Variable" Label="C" Expression="C"/>
              <Input Type="Variable" Label="lepton_pt" Expression="lepton_pt"/>
              <Input Type="Variable" Label="bjet_pt" Expression="bjet_pt"/>
              <Input Type="Variable" Label="bjet_eta" Expression="bjet_eta"/>
              <Input Type="Variable" Label="bjet_mass" Expression="bjet_mass"/>
              <Input Type="Variable" Label="ljet_eta" Expression="ljet_eta"/>
              <Input Type="Variable" Label="top_mass" Expression="top_mass"/>
              <Input Type="Variable" Label="mtw" Expression="mtw"/>
              <Input Type="Variable" Label="shat" Expression="shat"/>
              <Input Type="Variable" Label="ht" Expression="ht"/>
            </Input>
            <Output NOutputs="11">
              <Output Type="Variable" Label="met" Expression="met"/>
              <Output Type="Variable" Label="C" Expression="C"/>
              <Output Type="Variable" Label="lepton_pt" Expression="lepton_pt"/>
              <Output Type="Variable" Label="bjet_pt" Expression="bjet_pt"/>
              <Output Type="Variable" Label="bjet_eta" Expression="bjet_eta"/>
              <Output Type="Variable" Label="bjet_mass" Expression="bjet_mass"/>
              <Output Type="Variable" Label="ljet_eta" Expression="ljet_eta"/>
              <Output Type="Variable" Label="top_mass" Expression="top_mass"/>
              <Output Type="Variable" Label="mtw" Expression="mtw"/>
              <Output Type="Variable" Label="shat" Expression="shat"/>
              <Output Type="Variable" Label="ht" Expression="ht"/>
            </Output>
          </Selection>
        </Transform>
      </Transformations>
      <MVAPdfs/>
      <Weights NTrees="1000" AnalysisType="1">
        <BinaryTree type="DecisionTree" boostWeight="1.0000000000000000e+00" itree="0">
          <Node pos="s" depth="0" NCoef="0" IVar="0" Cut="6.3420272827148438e+01" cType="1" res="-2.2249980572484169e-16" rms="5.0000000000000000e-01" purity="5.0000000000000000e-01" nType="0">
            <Node pos="l" depth="1" NCoef="0" IVar="10" Cut="1.1753237152099609e+02" cType="1" res="8.7369784712791443e-02" rms="4.9230733513832092e-01" purity="5.8736974000930786e-01" nType="0">
              <Node pos="l" depth="2" NCoef="0" IVar="-1" Cut="0.0000000000000000e+00" cType="1" res="3.2128263264894485e-03" rms="4.3542808294296265e-01" purity="7.4576896429061890e-01" nType="-99"/>
              <Node pos="r" depth="2" NCoef="0" IVar="-1" Cut="0.0000000000000000e+00" cType="1" res="2.3089531168807298e-04" rms="4.9984821677207947e-01" purity="5.1231890916824341e-01" nType="-99"/>
            </Node>
            <Node pos="r" depth="1" NCoef="0" IVar="9" Cut="6.2889166259765625e+02" cType="0" res="-1.7914459109306335e-01" rms="4.6680533885955811e-01" purity="3.2085540890693665e-01" nType="0">
              <Node pos="l" depth="2" NCoef="0" IVar="-1" Cut="0.0000000000000000e+00" cType="1" res="1.5052105300128460e-03" rms="4.9141967296600342e-01" purity="5.9223181009292603e-01" nType="-99"/>
              <Node pos="r" depth="2" NCoef="0" IVar="-1" Cut="0.0000000000000000e+00" cType="1" res="-6.7147524096071720e-03" rms="4.5369061827659607e-01" purity="2.8984573483467102e-01" nType="-99"/>
            </Node>
          </Node>
        </BinaryTree>
        <BinaryTree type="DecisionTree" boostWeight="1.0000000000000000e+00" itree="1">
          <Node pos="s" depth="0" NCoef="0" IVar="0" Cut="6.3420272827148438e+01" cType="1" res="5.6265090825036168e-04" rms="4.9941149353981018e-01" purity="5.0000000000000000e-01" nType="0">
            <Node pos="l" depth="1" NCoef="0" IVar="10" Cut="1.1753237152099609e+02" cType="1" res="8.6775004863739014e-02" rms="4.9215358495712280e-01" purity="5.8736974000930786e-01" nType="0">
              <Node pos="l" depth="2" NCoef="0" IVar="-1" Cut="0.0000000000000000e+00" cType="1" res="3.1918594613671303e-03" rms="4.3542808294296265e-01" purity="7.4576896429061890e-01" nType="-99"/>
              <Node pos="r" depth="2" NCoef="0" IVar="-1" Cut="0.0000000000000000e+00" cType="1" res="2.2873135458212346e-04" rms="4.9984821677207947e-01" purity="5.1231890916824341e-01" nType="-99"/>
            </Node>
            <Node pos="r" depth="1" NCoef="0" IVar="9" Cut="6.2889166259765625e+02" cType="0" res="-1.7620873451232910e-01" rms="4.6656191349029541e-01" purity="3.2085540890693665e-01" nType="0">
              <Node pos="l" depth="2" NCoef="0" IVar="-1" Cut="0.0000000000000000e+00" cType="1" res="1.4929315075278282e-03" rms="4.9141970276832581e-01" purity="5.9223181009292603e-01" nType="-99"/>
              <Node pos="r" depth="2" NCoef="0" IVar="-1" Cut="0.0000000000000000e+00" cType="1" res="-6.6077788360416889e-03" rms="4.5369064807891846e-01" purity="2.8984573483467102e-01" nType="-99"/>
            </Node>
          </Node>
        </BinaryTree>
        <BinaryTree type="DecisionTree" boostWeight="1.0000000000000000e+00" itree="2">
          <Node pos="s" depth="0" NCoef="0" IVar="0" Cut="6.3420272827148438e+01" cType="1" res="1.1124544544145465e-03" rms="4.9883711338043213e-01" purity="5.0000000000000000e-01" nType="0">
            <Node pos="l" depth="1" NCoef="0" IVar="10" Cut="1.1753237152099609e+02" cType="1" res="8.6184352636337280e-02" rms="4.9200174212455750e-01" purity="5.8736974000930786e-01" nType="0">
              <Node pos="l" depth="2" NCoef="0" IVar="-1" Cut="0.0000000000000000e+00" cType="1" res="3.1710942275822163e-03" rms="4.3542811274528503e-01" purity="7.4576896429061890e-01" nType="-99"/>
              <Node pos="r" depth="2" NCoef="0" IVar="-1" Cut="0.0000000000000000e+00" cType="1" res="2.2658779926132411e-04" rms="4.9984824657440186e-01" purity="5.1231890916824341e-01" nType="-99"/>
            </Node>
            <Node pos="r" depth="1" NCoef="0" IVar="8" Cut="1.0224891662597656e+02" cType="1" res="-1.7332051694393158e-01" rms="4.6632516384124756e-01" purity="3.2085540890693665e-01" nType="0">
              <Node pos="l" depth="2" NCoef="0" IVar="-1" Cut="0.0000000000000000e+00" cType="1" res="-3.0308656860142946e-03" rms="4.8342213034629822e-01" purity="3.7411236763000488e-01" nType="-99"/>
              <Node pos="r" depth="2" NCoef="0" IVar="-1" Cut="0.0000000000000000e+00" cType="1" res="-1.6920343041419983e-02" rms="3.7370344996452332e-01" purity="1.6828851401805878e-01" nType="-99"/>
            </Node>
          </Node>
        </BinaryTree>
        <BinaryTree type="DecisionTree" boostWeight="1.0000000000000000e+00" itree="3">
          <Node pos="s" depth="0" NCoef="0" IVar="0" Cut="6.3420272827148438e+01" cType="1" res="1.8036523833870888e-03" rms="4.9811699986457825e-01" purity="5.0000000000000000e-01" nType="0">
            <Node pos="l" depth="1" NCoef="0" IVar="10" Cut="1.1753237152099609e+02" cType="1" res="8.5597790777683258e-02" rms="4.9185174703598022e-01" purity="5.8736974000930786e-01" nType="0">
              <Node pos="l" depth="2" NCoef="0" IVar="-1" Cut="0.0000000000000000e+00" cType="1" res="3.1505271326750517e-03" rms="4.3542808294296265e-01" purity="7.4576896429061890e-01" nType="-99"/>
              <Node pos="r" depth="2" NCoef="0" IVar="-1" Cut="0.0000000000000000e+00" cType="1" res="2.2446463117375970e-04" rms="4.9984821677207947e-01" purity="5.1231890916824341e-01" nType="-99"/>
            </Node>
            <Node pos="r" depth="1" NCoef="0" IVar="9" Cut="6.2889166259765625e+02" cType="0" res="-1.7000937461853027e-01" rms="4.6574825048446655e-01" purity="3.2085540890693665e-01" nType="0">
              <Node pos="l" depth="2" NCoef="0" IVar="-1" Cut="0.0000000000000000e+00" cType="1" res="1.5251372242346406e-03" rms="4.9108308553695679e-01" purity="5.9223181009292603e-01" nType="-99"/>
              <Node pos="r" depth="2" NCoef="0" IVar="-1" Cut="0.0000000000000000e+00" cType="1" res="-6.3962843269109726e-03" rms="4.5311549305915833e-01" purity="2.8984573483467102e-01" nType="-99"/>
            </Node>
          </Node>
        </BinaryTree>
        <BinaryTree type="DecisionTree" boostWeight="1.0000000000000000e+00" itree="4">
          <Node pos="s" depth="0" NCoef="0" IVar="0" Cut="6.3420272827148438e+01" cType="1" res="2.3268254008144140e-03" rms="4.9756968021392822e-01" purity="5.0000000000000000e-01" nType="0">
            <Node pos="l" depth="1" NCoef="0" IVar="10" Cut="1.1753237152099609e+02" cType="1" res="8.5015282034873962e-02" rms="4.9170362949371338e-01" purity="5.8736974000930786e-01" nType="0">
              <Node pos="l" depth="2" NCoef="0" IVar="-1" Cut="0.0000000000000000e+00" cType="1" res="3.1301551498472691e-03" rms="4.3542808294296265e-01" purity="7.4576896429061890e-01" nType="-99"/>
              <Node pos="r" depth="2" NCoef="0" IVar="-1" Cut="0.0000000000000000e+00" cType="1" res="2.2236106451600790e-04" rms="4.9984821677207947e-01" purity="5.1231890916824341e-01" nType="-99"/>
            </Node>
            <Node pos="r" depth="1" NCoef="0" IVar="9" Cut="5.2747204589843750e+02" cType="0" res="-1.6721908748149872e-01" rms="4.6552026271820068e-01" purity="3.2085540890693665e-01" nType="0">
              <Node pos="l" depth="2" NCoef="0" IVar="-1" Cut="0.0000000000000000e+00" cType="1" res="4.1367480298504233e-04" rms="4.9830827116966248e-01" purity="5.1671677827835083e-01" nType="-99"/>
              <Node pos="r" depth="2" NCoef="0" IVar="-1" Cut="0.0000000000000000e+00" cType="1" res="-6.8983263336122036e-03" rms="4.4775119423866272e-01" purity="2.7861222624778748e-01" nType="-99"/>
            </Node>
          </Node>
        </BinaryTree>
        <BinaryTree type="DecisionTree" boostWeight="1.0000000000000000e+00" itree="5">
          <Node pos="s" depth="0" NCoef="0" IVar="0" Cut="6.3420272827148438e+01" cType="1" res="2.8551856521517038e-03" rms="4.9701741337776184e-01" purity="5.0000000000000000e-01" nType="0">
            <Node pos="l" depth="1" NCoef="0" IVar="10" Cut="1.1753237152099609e+02" cType="1" res="8.4436789155006409e-02" rms="4.9155738949775696e-01" purity="5.8736974000930786e-01" nType="0">
              <Node pos="l" depth="2" NCoef="0" IVar="-1" Cut="0.0000000000000000e+00" cType="1" res="3.1099747866392136e-03" rms="4.3542808294296265e-01" purity="7.4576896429061890e-01" nType="-99"/>
              <Node pos="r" depth="2" NCoef="0" IVar="-1" Cut="0.0000000000000000e+00" cType="1" res="2.2027707018423826e-04" rms="4.9984824657440186e-01" purity="5.1231890916824341e-01" nType="-99"/>
            </Node>
            <Node pos="r" depth="1" NCoef="0" IVar="9" Cut="6.2889166259765625e+02" cType="0" res="-1.6442121565341949e-01" rms="4.6525871753692627e-01" purity="3.2085540890693665e-01" nType="0">
              <Node pos="l" depth="2" NCoef="0" IVar="-1" Cut="0.0000000000000000e+00" cType="1" res="1.5093111433088779e-03" rms="4.9108305573463440e-01" purity="5.9223181009292603e-01" nType="-99"/>
              <Node pos="r" depth="2" NCoef="0" IVar="-1" Cut="0.0000000000000000e+00" cType="1" res="-6.1975587159395218e-03" rms="4.5303454995155334e-01" purity="2.8984573483467102e-01" nType="-99"/>
            </Node>
          </Node>
        </BinaryTree>
        <BinaryTree type="DecisionTree" boostWeight="1.0000000000000000e+00" itree="6">
          <Node pos="s" depth="0" NCoef="0" IVar="0" Cut="6.3420272827148438e+01" cType="1" res="3.3541291486471891e-03" rms="4.9649584293365479e-01" purity="5.0000000000000000e-01" nType="0">
            <Node pos="l" depth="1" NCoef="0" IVar="10" Cut="1.1753237152099609e+02" cType="1" res="8.3862312138080597e-02" rms="4.9141287803649902e-01" purity="5.8736974000930786e-01" nType="0">
              <Node pos="l" depth="2" NCoef="0" IVar="-1" Cut="0.0000000000000000e+00" cType="1" res="3.0899825505912304e-03" rms="4.3542808294296265e-01" purity="7.4576896429061890e-01" nType="-99"/>
              <Node pos="r" depth="2" NCoef="0" IVar="-1" Cut="0.0000000000000000e+00" cType="1" res="2.1821318659931421e-04" rms="4.9984821677207947e-01" purity="5.1231890916824341e-01" nType="-99"/>
            </Node>
            <Node pos="r" depth="1" NCoef="0" IVar="8" Cut="1.0224891662597656e+02" cType="1" res="-1.6172131896018982e-01" rms="4.6504244208335876e-01" purity="3.2085540890693665e-01" nType="0">
              <Node pos="l" depth="2" NCoef="0" IVar="-1" Cut="0.0000000000000000e+00" cType="1" res="-2.7902736328542233e-03" rms="4.8273119330406189e-01" purity="3.7411236763000488e-01" nType="-99"/>
              <Node pos="r" depth="2" NCoef="0" IVar="-1" Cut="0.0000000000000000e+00" cType="1" res="-1.6055177897214890e-02" rms="3.7312361598014832e-01" purity="1.6828851401805878e-01" nType="-99"/>
            </Node>
          </Node>
        </BinaryTree>
        <BinaryTree type="DecisionTree" boostWeight="1.0000000000000000e+00" itree="7">
          <Node pos="s" depth="0" NCoef="0" IVar="0" Cut="7.7768272399902344e+01" cType="1" res="3.9880713447928429e-03" rms="4.9584031105041504e-01" purity="5.0000000000000000e-01" nType="0">
            <Node pos="l" depth="1" NCoef="0" IVar="10" Cut="1.1751684570312500e+02" cType="1" res="6.2619872391223907e-02" rms="4.9396729469299316e-01" purity="5.6302452087402344e-01" nType="0">
              <Node pos="l" depth="2" NCoef="0" IVar="-1" Cut="0.0000000000000000e+00" cType="1" res="2.8766812756657600e-03" rms="4.4715595245361328e-01" purity="7.2028750181198120e-01" nType="-99"/>
              <Node pos="r" depth="2" NCoef="0" IVar="-1" Cut="0.0000000000000000e+00" cType="1" res="-6.2669547332916409e-05" rms="4.9912101030349731e-01" purity="4.9400717020034790e-01" nType="-99"/>
            </Node>
            <Node pos="r" depth="1" NCoef="0" IVar="9" Cut="5.3645861816406250e+02" cType="0" res="-2.1655312180519104e-01" rms="4.3733510375022888e-01" purity="2.6293563842773438e-01" nType="0">
              <Node pos="l" depth="2" NCoef="0" IVar="-1" Cut="0.0000000000000000e+00" cType="1" res="-2.6529730530455709e-04" rms="4.9781882762908936e-01" purity="4.7831520438194275e-01" nType="-99"/>
              <Node pos="r" depth="2" NCoef="0" IVar="-1" Cut="0.0000000000000000e+00" cType="1" res="-1.1559489183127880e-02" rms="4.0477913618087769e-01" purity="2.0843794941902161e-01" nType="-99"/>
            </Node>
          </Node>
        </BinaryTree>
        <BinaryTree type="DecisionTree" boostWeight="1.0000000000000000e+00" itree="8">
          <Node pos="s" depth="0" NCoef="0" IVar="0" Cut="6.3420272827148438e+01" cType="1" res="4.6304380521178246e-03" rms="4.9516978859901428e-01" purity="5.0000000000000000e-01" nType="0">
            <Node pos="l" depth="1" NCoef="0" IVar="10" Cut="1.1801528930664062e+02" cType="1" res="8.2850955426692963e-02" rms="4.9112504720687866e-01" purity="5.8736974000930786e-01" nType="0">
              <Node pos="l" depth="2" NCoef="0" IVar="-1" Cut="0.0000000000000000e+00" cType="1" res="3.0358149670064449e-03" rms="4.3651074171066284e-01" purity="7.4374961853027344e-01" nType="-99"/>
              <Node pos="r" depth="2" NCoef="0" IVar="-1" Cut="0.0000000000000000e+00" cType="1" res="2.0048358419444412e-04" rms="4.9986925721168518e-01" purity="5.1143312454223633e-01" nType="-99"/>
            </Node>
            <Node pos="r" depth="1" NCoef="0" IVar="0" Cut="9.8569931030273438e+01" cType="1" res="-1.5575432777404785e-01" rms="4.6379330754280090e-01" purity="3.2085540890693665e-01" nType="0">
              <Node pos="l" depth="2" NCoef="0" IVar="-1" Cut="0.0000000000000000e+00" cType="1" res="-2.3942247498780489e-03" rms="4.8330488801002502e-01" purity="3.8083791732788086e-01" nType="-99"/>
              <Node pos="r" depth="2" NCoef="0" IVar="-1" Cut="0.0000000000000000e+00" cType="1" res="-1.2469225563108921e-02" rms="3.9438125491142273e-01" purity="1.9852584600448608e-01" nType="-99"/>
            </Node>
          </Node>
        </BinaryTree>
        <BinaryTree type="DecisionTree" boostWeight="1.0000000000000000e+00" itree="9">
          <Node pos="s" depth="0" NCoef="0" IVar="0" Cut="6.3420272827148438e+01" cType="1" res="5.1844585686922073e-03" rms="4.9458694458007812e-01" purity="5.0000000000000000e-01" nType="0">
            <Node pos="l" depth="1" NCoef="0" IVar="10" Cut="1.1753237152099609e+02" cType="1" res="8.2287654280662537e-02" rms="4.9098533391952515e-01" purity="5.8736974000930786e-01" nType="0">
              <Node pos="l" depth="2" NCoef="0" IVar="-1" Cut="0.0000000000000000e+00" cType="1" res="3.0324342660605907e-03" rms="4.3542787432670593e-01" purity="7.4576896429061890e-01" nType="-99"/>
              <Node pos="r" depth="2" NCoef="0" IVar="-1" Cut="0.0000000000000000e+00" cType="1" res="2.1466596808750182e-04" rms="4.9984574317932129e-01" purity="5.1231890916824341e-01" nType="-99"/>
            </Node>
            <Node pos="r" depth="1" NCoef="0" IVar="9" Cut="6.2889166259765625e+02" cType="0" res="-1.5290933847427368e-01" rms="4.6336954832077026e-01" purity="3.2085540890693665e-01" nType="0">
              <Node pos="l" depth="2" NCoef="0" IVar="-1" Cut="0.0000000000000000e+00" cType="1" res="1.5992283588275313e-03" rms="4.9001505970954895e-01" purity="5.9223181009292603e-01" nType="-99"/>
              <Node pos="r" depth="2" NCoef="0" IVar="-1" Cut="0.0000000000000000e+00" cType="1" res="-5.8174068108201027e-03" rms="4.5143580436706543e-01" purity="2.8984573483467102e-01" nType="-99"/>
            </Node>
          </Node>
        </BinaryTree>
        <BinaryTree type="DecisionTree" boostWeight="1.0000000000000000e+00" itree="10">
          <Node pos="s" depth="0" NCoef="0" IVar="0" Cut="7.7768272399902344e+01" cType="1" res="5.6337043642997742e-03" rms="4.9411246180534363e-01" purity="5.0000000000000000e-01" nType="0">
            <Node pos="l" depth="1" NCoef="0" IVar="10" Cut="1.1751684570312500e+02" cType="1" res="6.1817564070224762e-02" rms="4.9339696764945984e-01" purity="5.6302452087402344e-01" nType="0">
              <Node pos="l" depth="2" NCoef="0" IVar="-1" Cut="0.0000000000000000e+00" cType="1" res="2.8274296782910824e-03" rms="4.4684255123138428e-01" purity="7.2028750181198120e-01" nType="-99"/>
              <Node pos="r" depth="2" NCoef="0" IVar="-1" Cut="0.0000000000000000e+00" cType="1" res="-5.3222804126562551e-05" rms="4.9898469448089600e-01" purity="4.9400717020034790e-01" nType="-99"/>
            </Node>
            <Node pos="r" depth="1" NCoef="0" IVar="8" Cut="1.0095878601074219e+02" cType="1" res="-2.0569965243339539e-01" rms="4.3619894981384277e-01" purity="2.6293563842773438e-01" nType="0">
              <Node pos="l" depth="2" NCoef="0" IVar="-1" Cut="0.0000000000000000e+00" cType="1" res="-4.0017585270106792e-03" rms="4.6856868267059326e-01" purity="3.3180445432662964e-01" nType="-99"/>
              <Node pos="r" depth="2" NCoef="0" IVar="-1" Cut="0.0000000000000000e+00" cType="1" res="-2.9627183452248573e-02" rms="2.9353225231170654e-01" purity="9.7405776381492615e-02" nType="-99"/>
            </Node>
          </Node>
        </BinaryTree>
        <BinaryTree type="DecisionTree" boostWeight="1.0000000000000000e+00" itree="11">
          <Node pos="s" depth="0" NCoef="0" IVar="0" Cut="5.9976757049560547e+01" cType="1" res="6.5084639936685562e-03" rms="4.9322825670242310e-01" purity="5.0000000000000000e-01" nType="0">
            <Node pos="l" depth="1" NCoef="0" IVar="10" Cut="1.1753237152099609e+02" cType="1" res="8.7444327771663666e-02" rms="4.8954752087593079e-01" purity="5.9357637166976929e-01" nType="0">
              <Node pos="l" depth="2" NCoef="0" IVar="-1" Cut="0.0000000000000000e+00" cType="1" res="3.0504364985972643e-03" rms="4.3196019530296326e-01" purity="7.5181341171264648e-01" nType="-99"/>
              <Node pos="r" depth="2" NCoef="0" IVar="-1" Cut="0.0000000000000000e+00" cType="1" res="3.0584348132833838e-04" rms="4.9969485402107239e-01" purity="5.1741784811019897e-01" nType="-99"/>
            </Node>
            <Node pos="r" depth="1" NCoef="0" IVar="0" Cut="9.8718574523925781e+01" cType="1" res="-1.3531604409217834e-01" rms="4.6692600846290588e-01" purity="3.3602550625801086e-01" nType="0">
              <Node pos="l" depth="2" NCoef="0" IVar="-1" Cut="0.0000000000000000e+00" cType="1" res="-1.9853694830089808e-03" rms="4.8501715064048767e-01" purity="3.9346340298652649e-01" nType="-99"/>
              <Node pos="r" depth="2" NCoef="0" IVar="-1" Cut="0.0000000000000000e+00" cType="1" res="-1.1762927286326885e-02" rms="3.9293399453163147e-01" purity="1.9926042854785919e-01" nType="-99"/>
            </Node>
          </Node>
        </BinaryTree>
        <BinaryTree type="DecisionTree" boostWeight="1.0000000000000000e+00" itree="12">
          <Node pos="s" depth="0" NCoef="0" IVar="0" Cut="5.8541954040527344e+01" cType="1" res="7.0074582472443581e-03" rms="4.9269992113113403e-01" purity="5.0000000000000000e-01" nType="0">
            <Node pos="l" depth="1" NCoef="0" IVar="10" Cut="1.1753237152099609e+02" cType="1" res="8.9722700417041779e-02" rms="4.8883491754531860e-01" purity="5.9649741649627686e-01" nType="0">
              <Node pos="l" depth="2" NCoef="0" IVar="-1" Cut="0.0000000000000000e+00" cType="1" res="3.0555613338947296e-03" rms="4.3038842082023621e-01" purity="7.5449049472808838e-01" nType="-99"/>
              <Node pos="r" depth="2" NCoef="0" IVar="-1" Cut="0.0000000000000000e+00" cType="1" res="3.4152009175159037e-04" rms="4.9961525201797485e-01" purity="5.1956510543823242e-01" nType="-99"/>
            </Node>
            <Node pos="r" depth="1" NCoef="0" IVar="0" Cut="8.0557357788085938e+01" cType="1" res="-1.2813559174537659e-01" rms="4.6851822733879089e-01" purity="3.4233915805816650e-01" nType="0">
              <Node pos="l" depth="2" NCoef="0" IVar="-1" Cut="0.0000000000000000e+00" cType="1" res="-1.0335576953366399e-03" rms="4.9365600943565369e-01" purity="4.3489837646484375e-01" nType="-99"/>
              <Node pos="r" depth="2" NCoef="0" IVar="-1" Cut="0.0000000000000000e+00" cType="1" res="-7.6013351790606976e-03" rms="4.2766049504280090e-01" purity="2.5126269459724426e-01" nType="-99"/>
            </Node>
          </Node>
        </BinaryTree>
        <BinaryTree type="DecisionTree" boostWeight="1.0000000000000000e+00" itree="13">
          <Node pos="s" depth="0" NCoef="0" IVar="0" Cut="5.8541954040527344e+01" cType="1" res="7.4445907957851887e-03" rms="4.9223315715789795e-01" purity="5.0000000000000000e-01" nType="0">
            <Node pos="l" depth="1" NCoef="0" IVar="10" Cut="1.1753237152099609e+02" cType="1" res="8.9108295738697052e-02" rms="4.8870250582695007e-01" purity="5.9649741649627686e-01" nType="0">
              <Node pos="l" depth="2" NCoef="0" IVar="-1" Cut="0.0000000000000000e+00" cType="1" res="3.0365271959453821e-03" rms="4.3038842082023621e-01" purity="7.5449049472808838e-01" nType="-99"/>
              <Node pos="r" depth="2" NCoef="0" IVar="-1" Cut="0.0000000000000000e+00" cType="1" res="3.3836270449683070e-04" rms="4.9961528182029724e-01" purity="5.1956510543823242e-01" nType="-99"/>
            </Node>
            <Node pos="r" depth="1" NCoef="0" IVar="9" Cut="5.3003967285156250e+02" cType="0" res="-1.2598042190074921e-01" rms="4.6824538707733154e-01" purity="3.4233915805816650e-01" nType="0">
              <Node pos="l" depth="2" NCoef="0" IVar="-1" Cut="0.0000000000000000e+00" cType="1" res="9.6710433717817068e-04" rms="4.9399748444557190e-01" purity="5.3271132707595825e-01" nType="-99"/>
              <Node pos="r" depth="2" NCoef="0" IVar="-1" Cut="0.0000000000000000e+00" cType="1" res="-4.9276044592261314e-03" rms="4.5485413074493408e-01" purity="3.0514457821846008e-01" nType="-99"/>
            </Node>
          </Node>
        </BinaryTree>
        <BinaryTree type="DecisionTree" boostWeight="1.0000000000000000e+00" itree="14">
          <Node pos="s" depth="0" NCoef="0" IVar="0" Cut="6.3420272827148438e+01" cType="1" res="7.8134452924132347e-03" rms="4.9182391166687012e-01" purity="5.0000000000000000e-01" nType="0">
            <Node pos="l" depth="1" NCoef="0" IVar="10" Cut="1.1801528930664062e+02" cType="1" res="7.9856358468532562e-02" rms="4.9024644494056702e-01" purity="5.8736974000930786e-01" nType="0">
              <Node pos="l" depth="2" NCoef="0" IVar="-1" Cut="0.0000000000000000e+00" cType="1" res="2.9287096112966537e-03" rms="4.3634638190269470e-01" purity="7.4374961853027344e-01" nType="-99"/>
              <Node pos="r" depth="2" NCoef="0" IVar="-1" Cut="0.0000000000000000e+00" cType="1" res="1.9376465934328735e-04" rms="4.9980103969573975e-01" purity="5.1143312454223633e-01" nType="-99"/>
            </Node>
            <Node pos="r" depth="1" NCoef="0" IVar="9" Cut="5.2747204589843750e+02" cType="0" res="-1.3990464806556702e-01" rms="4.6109056472778320e-01" purity="3.2085540890693665e-01" nType="0">
              <Node pos="l" depth="2" NCoef="0" IVar="-1" Cut="0.0000000000000000e+00" cType="1" res="7.3011615313589573e-04" rms="4.9509418010711670e-01" purity="5.1671677827835083e-01" nType="-99"/>
              <Node pos="r" depth="2" NCoef="0" IVar="-1" Cut="0.0000000000000000e+00" cType="1" res="-5.9487922117114067e-03" rms="4.4405165314674377e-01" purity="2.7861222624778748e-01" nType="-99"/>
            </Node>
          </Node>
        </BinaryTree>
        <BinaryTree type="DecisionTree" boostWeight="1.0000000000000000e+00" itree="15">
          <Node pos="s" depth="0" NCoef="0" IVar="0" Cut="5.8541954040527344e+01" cType="1" res="8.2223080098628998e-03" rms="4.9138423800468445e-01" purity="5.0000000000000000e-01" nType="0">
            <Node pos="l" depth="1" NCoef="0" IVar="10" Cut="1.1753237152099609e+02" cType="1" res="8.7947577238082886e-02" rms="4.8843970894813538e-01" purity="5.9649741649627686e-01" nType="0">
              <Node pos="l" depth="2" NCoef="0" IVar="-1" Cut="0.0000000000000000e+00" cType="1" res="2.9995166696608067e-03" rms="4.3038842082023621e-01" purity="7.5449049472808838e-01" nType="-99"/>
              <Node pos="r" depth="2" NCoef="0" IVar="-1" Cut="0.0000000000000000e+00" cType="1" res="3.3325506956316531e-04" rms="4.9961355328559875e-01" purity="5.1956510543823242e-01" nType="-99"/>
            </Node>
            <Node pos="r" depth="1" NCoef="0" IVar="0" Cut="9.8687004089355469e+01" cType="1" res="-1.2203563004732132e-01" rms="4.6778231859207153e-01" purity="3.4233915805816650e-01" nType="0">
              <Node pos="l" depth="2" NCoef="0" IVar="-1" Cut="0.0000000000000000e+00" cType="1" res="-1.7189421923831105e-03" rms="4.8553308844566345e-01" purity="3.9893206954002380e-01" nType="-99"/>
              <Node pos="r" depth="2" NCoef="0" IVar="-1" Cut="0.0000000000000000e+00" cType="1" res="-1.1217258870601654e-02" rms="3.9208164811134338e-01" purity="1.9912007451057434e-01" nType="-99"/>
            </Node>
          </Node>
        </BinaryTree>
        <BinaryTree type="DecisionTree" boostWeight="1.0000000000000000e+00" itree="16">
          <Node pos="s" depth="0" NCoef="0" IVar="0" Cut="5.8541954040527344e+01" cType="1" res="8.6763752624392509e-03" rms="4.9090114235877991e-01" purity="5.0000000000000000e-01" nType="0">
            <Node pos="l" depth="1" NCoef="0" IVar="10" Cut="1.1753237152099609e+02" cType="1" res="8.7345495820045471e-02" rms="4.8831203579902649e-01" purity="5.9649741649627686e-01" nType="0">
              <Node pos="l" depth="2" NCoef="0" IVar="-1" Cut="0.0000000000000000e+00" cType="1" res="2.9809796251356602e-03" rms="4.3038842082023621e-01" purity="7.5449049472808838e-01" nType="-99"/>
              <Node pos="r" depth="2" NCoef="0" IVar="-1" Cut="0.0000000000000000e+00" cType="1" res="3.3017442910932004e-04" rms="4.9961352348327637e-01" purity="5.1956510543823242e-01" nType="-99"/>
            </Node>
            <Node pos="r" depth="1" NCoef="0" IVar="9" Cut="6.2889166259765625e+02" cType="0" res="-1.1985598504543304e-01" rms="4.6743351221084595e-01" purity="3.4233915805816650e-01" nType="0">
              <Node pos="l" depth="2" NCoef="0" IVar="-1" Cut="0.0000000000000000e+00" cType="1" res="1.9207722507417202e-03" rms="4.8501423001289368e-01" purity="6.0429954528808594e-01" nType="-99"/>
              <Node pos="r" depth="2" NCoef="0" IVar="-1" Cut="0.0000000000000000e+00" cType="1" res="-4.3171453289687634e-03" rms="4.5833954215049744e-01" purity="3.1485226750373840e-01" nType="-99"/>
            </Node>
          </Node>
        </BinaryTree>
        <BinaryTree type="DecisionTree" boostWeight="1.0000000000000000e+00" itree="17">
          <Node pos="s" depth="0" NCoef="0" IVar="0" Cut="7.7768272399902344e+01" cType="1" res="9.0060057118535042e-03" rms="4.9052891135215759e-01" purity="5.0000000000000000e-01" nType="0">
            <Node pos="l" depth="1" NCoef="0" IVar="10" Cut="1.1751684570312500e+02" cType="1" res="6.0303259640932083e-02" rms="4.9204492568969727e-01" purity="5.6302452087402344e-01" nType="0">
              <Node pos="l" depth="2" NCoef="0" IVar="-1" Cut="0.0000000000000000e+00" cType="1" res="2.7270806021988392e-03" rms="4.4588348269462585e-01" purity="7.2028750181198120e-01" nType="-99"/>
              <Node pos="r" depth="2" NCoef="0" IVar="-1" Cut="0.0000000000000000e+00" cType="1" res="-2.9539616662077606e-05" rms="4.9857559800148010e-01" purity="4.9400717020034790e-01" nType="-99"/>
            </Node>
            <Node pos="r" depth="1" NCoef="0" IVar="9" Cut="5.3645861816406250e+02" cType="0" res="-1.8394657969474792e-01" rms="4.3345928192138672e-01" purity="2.6293563842773438e-01" nType="0">
              <Node pos="l" depth="2" NCoef="0" IVar="-1" Cut="0.0000000000000000e+00" cType="1" res="1.5212935977615416e-04" rms="4.9547708034515381e-01" purity="4.7831520438194275e-01" nType="-99"/>
              <Node pos="r" depth="2" NCoef="0" IVar="-1" Cut="0.0000000000000000e+00" cType="1" res="-1.0118418373167515e-02" rms="4.0209382772445679e-01" purity="2.0843794941902161e-01" nType="-99"/>
            </Node>
          </Node>
        </BinaryTree>
        <BinaryTree type="DecisionTree" boostWeight="1.0000000000000000e+00" itree="18">
          <Node pos="s" depth="0" NCoef="0" IVar="0" Cut="5.8541954040527344e+01" cType="1" res="9.5175886526703835e-03" rms="4.8999530076980591e-01" purity="5.0000000000000000e-01" nType="0">
            <Node pos="l" depth="1" NCoef="0" IVar="10" Cut="1.1753237152099609e+02" cType="1" res="8.6312316358089447e-02" rms="4.8805552721023560e-01" purity="5.9649741649627686e-01" nType="0">
              <Node pos="l" depth="2" NCoef="0" IVar="-1" Cut="0.0000000000000000e+00" cType="1" res="2.9458377975970507e-03" rms="4.3038821220397949e-01" purity="7.5449049472808838e-01" nType="-99"/>
              <Node pos="r" depth="2" NCoef="0" IVar="-1" Cut="0.0000000000000000e+00" cType="1" res="3.2739498419687152e-04" rms="4.9961352348327637e-01" purity="5.1956510543823242e-01" nType="-99"/>
            </Node>
            <Node pos="r" depth="1" NCoef="0" IVar="1" Cut="3.3746349811553955e-01" cType="1" res="-1.1595232784748077e-01" rms="4.6670863032341003e-01" purity="3.4233915805816650e-01" nType="0">
              <Node pos="l" depth="2" NCoef="0" IVar="-1" Cut="0.0000000000000000e+00" cType="1" res="3.8080851663835347e-04" rms="4.9330592155456543e-01" purity="4.8634365200996399e-01" nType="-99"/>
              <Node pos="r" depth="2" NCoef="0" IVar="-1" Cut="0.0000000000000000e+00" cType="1" res="-5.0379047170281410e-03" rms="4.4917678833007812e-01" purity="2.9582914710044861e-01" nType="-99"/>
            </Node>
          </Node>
        </BinaryTree>
        <BinaryTree type="DecisionTree" boostWeight="1.0000000000000000e+00" itree="19">
          <Node pos="s" depth="0" NCoef="0" IVar="0" Cut="6.3420272827148438e+01" cType="1" res="9.8484465852379799e-03" rms="4.8961812257766724e-01" purity="5.0000000000000000e-01" nType="0">
            <Node pos="l" depth="1" NCoef="0" IVar="10" Cut="1.1801528930664062e+02" cType="1" res="7.7594228088855743e-02" rms="4.8952195048332214e-01" purity="5.8736974000930786e-01" nType="0">
              <Node pos="l" depth="2" NCoef="0" IVar="-1" Cut="0.0000000000000000e+00" cType="1" res="2.8458430897444487e-03" rms="4.3616926670074463e-01" purity="7.4374961853027344e-01" nType="-99"/>
              <Node pos="r" depth="2" NCoef="0" IVar="-1" Cut="0.0000000000000000e+00" cType="1" res="1.9090360729023814e-04" rms="4.9970543384552002e-01" purity="5.1143312454223633e-01" nType="-99"/>
            </Node>
            <Node pos="r" depth="1" NCoef="0" IVar="9" Cut="6.2889166259765625e+02" cType="0" res="-1.2905873358249664e-01" rms="4.5957961678504944e-01" purity="3.2085540890693665e-01" nType="0">
              <Node pos="l" depth="2" NCoef="0" IVar="-1" Cut="0.0000000000000000e+00" cType="1" res="1.7740071052685380e-03" rms="4.8748016357421875e-01" purity="5.9223181009292603e-01" nType="-99"/>
              <Node pos="r" depth="2" NCoef="0" IVar="-1" Cut="0.0000000000000000e+00" cType="1" res="-5.0372057594358921e-03" rms="4.4833526015281677e-01" purity="2.8984573483467102e-01" nType="-99"/>
            </Node>
          </Node>
        </BinaryTree>
        <BinaryTree type="DecisionTree" boostWeight="1.0000000000000000e+00" itree="20">
          <Node pos="s" depth="0" NCoef="0" IVar="0" Cut="7.7768272399902344e+01" cType="1" res="1.0194784961640835e-02" rms="4.8923644423484802e-01" purity="5.0000000000000000e-01" nType="0">
            <Node pos="l" depth="1" NCoef="0" IVar="10" Cut="1.1751684570312500e+02" cType="1" res="5.9708658605813980e-02" rms="4.9147993326187134e-01" purity="5.6302452087402344e-01" nType="0">
              <Node pos="l" depth="2" NCoef="0" IVar="-1" Cut="0.0000000000000000e+00" cType="1" res="2.6847317349165678e-03" rms="4.4553649425506592e-01" purity="7.2028750181198120e-01" nType="-99"/>
              <Node pos="r" depth="2" NCoef="0" IVar="-1" Cut="0.0000000000000000e+00" cType="1" res="-1.8008784536505118e-05" rms="4.9838846921920776e-01" purity="4.9400717020034790e-01" nType="-99"/>
            </Node>
            <Node pos="r" depth="1" NCoef="0" IVar="9" Cut="5.3645861816406250e+02" cType="0" res="-1.7604967951774597e-01" rms="4.3262860178947449e-01" purity="2.6293563842773438e-01" nType="0">
              <Node pos="l" depth="2" NCoef="0" IVar="-1" Cut="0.0000000000000000e+00" cType="1" res="1.8235897005070001e-04" rms="4.9522617459297180e-01" purity="4.7831520438194275e-01" nType="-99"/>
              <Node pos="r" depth="2" NCoef="0" IVar="-1" Cut="0.0000000000000000e+00" cType="1" res="-9.7456304356455803e-03" rms="4.0200063586235046e-01" purity="2.0843794941902161e-01" nType="-99"/>
            </Node>
          </Node>
        </BinaryTree>
        <BinaryTree type="DecisionTree" boostWeight="1.0000000000000000e+00" itree="21">
          <Node pos="s" depth="0" NCoef="0" IVar="0" Cut="5.8541954040527344e+01" cType="1" res="1.0673143900930882e-02" rms="4.8873722553253174e-01" purity="5.0000000000000000e-01" nType="0">
            <Node pos="l" depth="1" NCoef="0" IVar="10" Cut="1.1753237152099609e+02" cType="1" res="8.4754399955272675e-02" rms="4.8768302798271179e-01" purity="5.9649741649627686e-01" nType="0">
              <Node pos="l" depth="2" NCoef="0" IVar="-1" Cut="0.0000000000000000e+00" cType="1" res="2.8939635958522558e-03" rms="4.3038797378540039e-01" purity="7.5449049472808838e-01" nType="-99"/>
              <Node pos="r" depth="2" NCoef="0" IVar="-1" Cut="0.0000000000000000e+00" cType="1" res="3.2258775900118053e-04" rms="4.9961191415786743e-01" purity="5.1956510543823242e-01" nType="-99"/>
            </Node>
            <Node pos="r" depth="1" NCoef="0" IVar="0" Cut="9.8687004089355469e+01" cType="1" res="-1.1036340147256851e-01" rms="4.6575683355331421e-01" purity="3.4233915805816650e-01" nType="0">
              <Node pos="l" depth="2" NCoef="0" IVar="-1" Cut="0.0000000000000000e+00" cType="1" res="-1.5051054069772363e-03" rms="4.8432150483131409e-01" purity="3.9893206954002380e-01" nType="-99"/>
              <Node pos="r" depth="2" NCoef="0" IVar="-1" Cut="0.0000000000000000e+00" cType="1" res="-1.0467343032360077e-02" rms="3.9017322659492493e-01" purity="1.9912007451057434e-01" nType="-99"/>
            </Node>
          </Node>
        </BinaryTree>
        <BinaryTree type="DecisionTree" boostWeight="1.0000000000000000e+00" itree="22">
          <Node pos="s" depth="0" NCoef="0" IVar="0" Cut="5.8541954040527344e+01" cType="1" res="1.1065565049648285e-02" rms="4.8831310868263245e-01" purity="5.0000000000000000e-01" nType="0">
            <Node pos="l" depth="1" NCoef="0" IVar="10" Cut="1.1753237152099609e+02" cType="1" res="8.4174044430255890e-02" rms="4.8756462335586548e-01" purity="5.9649741649627686e-01" nType="0">
              <Node pos="l" depth="2" NCoef="0" IVar="-1" Cut="0.0000000000000000e+00" cType="1" res="2.8763352893292904e-03" rms="4.3038800358772278e-01" purity="7.5449049472808838e-01" nType="-99"/>
              <Node pos="r" depth="2" NCoef="0" IVar="-1" Cut="0.0000000000000000e+00" cType="1" res="3.1960569322109222e-04" rms="4.9961191415786743e-01" purity="5.1956510543823242e-01" nType="-99"/>
            </Node>
            <Node pos="r" depth="1" NCoef="0" IVar="1" Cut="3.3746349811553955e-01" cType="1" res="-1.0838162153959274e-01" rms="4.6544912457466125e-01" purity="3.4233915805816650e-01" nType="0">
              <Node pos="l" depth="2" NCoef="0" IVar="-1" Cut="0.0000000000000000e+00" cType="1" res="4.6487731742672622e-04" rms="4.9244371056556702e-01" purity="4.8634365200996399e-01" nType="-99"/>
              <Node pos="r" depth="2" NCoef="0" IVar="-1" Cut="0.0000000000000000e+00" cType="1" res="-4.7779181040823460e-03" rms="4.4817817211151123e-01" purity="2.9582914710044861e-01" nType="-99"/>
            </Node>
          </Node>
        </BinaryTree>
        <BinaryTree type="DecisionTree" boostWeight="1.0000000000000000e+00" itree="23">
          <Node pos="s" depth="0" NCoef="0" IVar="0" Cut="5.8541954040527344e+01" cType="1" res="1.1361815035343170e-02" rms="4.8796620965003967e-01" purity="5.0000000000000000e-01" nType="0">
            <Node pos="l" depth="1" NCoef="0" IVar="10" Cut="1.1753237152099609e+02" cType="1" res="8.3597742021083832e-02" rms="4.8744761943817139e-01" purity="5.9649741649627686e-01" nType="0">
              <Node pos="l" depth="2" NCoef="0" IVar="-1" Cut="0.0000000000000000e+00" cType="1" res="2.8588552959263325e-03" rms="4.3038800358772278e-01" purity="7.5449049472808838e-01" nType="-99"/>
              <Node pos="r" depth="2" NCoef="0" IVar="-1" Cut="0.0000000000000000e+00" cType="1" res="3.1665121787227690e-04" rms="4.9961191415786743e-01" purity="5.1956510543823242e-01" nType="-99"/>
            </Node>
            <Node pos="r" depth="1" NCoef="0" IVar="9" Cut="5.3003967285156250e+02" cType="0" res="-1.0665977001190186e-01" rms="4.6527737379074097e-01" purity="3.4233915805816650e-01" nType="0">
              <Node pos="l" depth="2" NCoef="0" IVar="-1" Cut="0.0000000000000000e+00" cType="1" res="1.1054202914237976e-03" rms="4.9215239286422729e-01" purity="5.3271132707595825e-01" nType="-99"/>
              <Node pos="r" depth="2" NCoef="0" IVar="-1" Cut="0.0000000000000000e+00" cType="1" res="-4.2933179065585136e-03" rms="4.5264765620231628e-01" purity="3.0514457821846008e-01" nType="-99"/>
            </Node>
          </Node>
        </BinaryTree>
        <BinaryTree type="DecisionTree" boostWeight="1.0000000000000000e+00" itree="24">
          <Node pos="s" depth="0" NCoef="0" IVar="0" Cut="7.7768272399902344e+01" cType="1" res="1.1643372476100922e-02" rms="4.8763480782508850e-01" purity="5.0000000000000000e-01" nType="0">
            <Node pos="l" depth="1" NCoef="0" IVar="10" Cut="1.1751684570312500e+02" cType="1" res="5.8868844062089920e-02" rms="4.9078878760337830e-01" purity="5.6302452087402344e-01" nType="0">
              <Node pos="l" depth="2" NCoef="0" IVar="-1" Cut="0.0000000000000000e+00" cType="1" res="2.6311348192393780e-03" rms="4.4508010149002075e-01" purity="7.2028750181198120e-01" nType="-99"/>
              <Node pos="r" depth="2" NCoef="0" IVar="-1" Cut="0.0000000000000000e+00" cType="1" res="-5.5433715715480503e-06" rms="4.9817124009132385e-01" purity="4.9400717020034790e-01" nType="-99"/>
            </Node>
            <Node pos="r" depth="1" NCoef="0" IVar="8" Cut="1.0095878601074219e+02" cType="1" res="-1.6599334776401520e-01" rms="4.3155112862586975e-01" purity="2.6293563842773438e-01" nType="0">
              <Node pos="l" depth="2" NCoef="0" IVar="-1" Cut="0.0000000000000000e+00" cType="1" res="-3.0491116922348738e-03" rms="4.6564781665802002e-01" purity="3.3180445432662964e-01" nType="-99"/>
              <Node pos="r" depth="2" NCoef="0" IVar="-1" Cut="0.0000000000000000e+00" cType="1" res="-2.5930954143404961e-02" rms="2.8960174322128296e-01" purity="9.7405776381492615e-02" nType="-99"/>
            </Node>
          </Node>
        </BinaryTree>
        <BinaryTree type="DecisionTree" boostWeight="1.0000000000000000e+00" itree="25">
          <Node pos="s" depth="0" NCoef="0" IVar="0" Cut="5.6533237457275391e+01" cType="1" res="1.2318588793277740e-02" rms="4.8697143793106079e-01" purity="5.0000000000000000e-01" nType="0">
            <Node pos="l" depth="1" NCoef="0" IVar="10" Cut="1.1775621032714844e+02" cType="1" res="8.6227566003799438e-02" rms="4.8656260967254639e-01" purity="6.0006654262542725e-01" nType="0">
              <Node pos="l" depth="2" NCoef="0" IVar="-1" Cut="0.0000000000000000e+00" cType="1" res="2.8357000555843115e-03" rms="4.2991989850997925e-01" purity="7.5522798299789429e-01" nType="-99"/>
              <Node pos="r" depth="2" NCoef="0" IVar="-1" Cut="0.0000000000000000e+00" cType="1" res="3.9579570875503123e-04" rms="4.9941509962081909e-01" purity="5.2416384220123291e-01" nType="-99"/>
            </Node>
            <Node pos="r" depth="1" NCoef="0" IVar="0" Cut="9.8654151916503906e+01" cType="1" res="-9.6988916397094727e-02" rms="4.6658644080162048e-01" purity="3.5200685262680054e-01" nType="0">
              <Node pos="l" depth="2" NCoef="0" IVar="-1" Cut="0.0000000000000000e+00" cType="1" res="-1.2489864602684975e-03" rms="4.8466819524765015e-01" purity="4.0766721963882446e-01" nType="-99"/>
              <Node pos="r" depth="2" NCoef="0" IVar="-1" Cut="0.0000000000000000e+00" cType="1" res="-9.9258329719305038e-03" rms="3.8823509216308594e-01" purity="1.9899745285511017e-01" nType="-99"/>
            </Node>
          </Node>
        </BinaryTree>
        <BinaryTree type="DecisionTree" boostWeight="1.0000000000000000e+00" itree="26">
          <Node pos="s" depth="0" NCoef="0" IVar="0" Cut="5.6533237457275391e+01" cType="1" res="1.2662109918892384e-02" rms="4.8659095168113708e-01" purity="5.0000000000000000e-01" nType="0">
            <Node pos="l" depth="1" NCoef="0" IVar="10" Cut="1.1775621032714844e+02" cType="1" res="8.5631579160690308e-02" rms="4.8645478487014771e-01" purity="6.0006654262542725e-01" nType="0">
              <Node pos="l" depth="2" NCoef="0" IVar="-1" Cut="0.0000000000000000e+00" cType="1" res="2.8185946866869926e-03" rms="4.2991989850997925e-01" purity="7.5522798299789429e-01" nType="-99"/>
              <Node pos="r" depth="2" NCoef="0" IVar="-1" Cut="0.0000000000000000e+00" cType="1" res="3.9216809091158211e-04" rms="4.9941509962081909e-01" purity="5.2416384220123291e-01" nType="-99"/>
            </Node>
            <Node pos="r" depth="1" NCoef="0" IVar="1" Cut="3.2217860221862793e-01" cType="1" res="-9.5255903899669647e-02" rms="4.6631073951721191e-01" purity="3.5200685262680054e-01" nType="0">
              <Node pos="l" depth="2" NCoef="0" IVar="-1" Cut="0.0000000000000000e+00" cType="1" res="7.2455813642591238e-04" rms="4.9085170030593872e-01" purity="5.0059658288955688e-01" nType="-99"/>
              <Node pos="r" depth="2" NCoef="0" IVar="-1" Cut="0.0000000000000000e+00" cType="1" res="-4.1158827953040600e-03" rms="4.5131981372833252e-01" purity="3.0792042613029480e-01" nType="-99"/>
            </Node>
          </Node>
        </BinaryTree>
        <BinaryTree type="DecisionTree" boostWeight="1.0000000000000000e+00" itree="27">
          <Node pos="s" depth="0" NCoef="0" IVar="0" Cut="5.6533237457275391e+01" cType="1" res="1.2903788127005100e-02" rms="4.8628655076026917e-01" purity="5.0000000000000000e-01" nType="0">
            <Node pos="l" depth="1" NCoef="0" IVar="10" Cut="1.1775621032714844e+02" cType="1" res="8.5039779543876648e-02" rms="4.8634827136993408e-01" purity="6.0006654262542725e-01" nType="0">
              <Node pos="l" depth="2" NCoef="0" IVar="-1" Cut="0.0000000000000000e+00" cType="1" res="2.8016292490065098e-03" rms="4.2991989850997925e-01" purity="7.5522798299789429e-01" nType="-99"/>
              <Node pos="r" depth="2" NCoef="0" IVar="-1" Cut="0.0000000000000000e+00" cType="1" res="3.8857365143485367e-04" rms="4.9941509962081909e-01" purity="5.2416384220123291e-01" nType="-99"/>
            </Node>
            <Node pos="r" depth="1" NCoef="0" IVar="1" Cut="3.2217860221862793e-01" cType="1" res="-9.3781560659408569e-02" rms="4.6616327762603760e-01" purity="3.5200685262680054e-01" nType="0">
              <Node pos="l" depth="2" NCoef="0" IVar="-1" Cut="0.0000000000000000e+00" cType="1" res="7.1758538251742721e-04" rms="4.9085062742233276e-01" purity="5.0059658288955688e-01" nType="-99"/>
              <Node pos="r" depth="2" NCoef="0" IVar="-1" Cut="0.0000000000000000e+00" cType="1" res="-4.0569943375885487e-03" rms="4.5132869482040405e-01" purity="3.0792042613029480e-01" nType="-99"/>
            </Node>
          </Node>
        </BinaryTree>
        <BinaryTree type="DecisionTree" boostWeight="1.0000000000000000e+00" itree="28">
          <Node pos="s" depth="0" NCoef="0" IVar="0" Cut="8.0637870788574219e+01" cType="1" res="1.3138715177774429e-02" rms="4.8598894476890564e-01" purity="5.0000000000000000e-01" nType="0">
            <Node pos="l" depth="1" NCoef="0" IVar="10" Cut="1.1740158843994141e+02" cType="1" res="5.5415704846382141e-02" rms="4.9025666713714600e-01" purity="5.5866986513137817e-01" nType="0">
              <Node pos="l" depth="2" NCoef="0" IVar="-1" Cut="0.0000000000000000e+00" cType="1" res="2.5672237388789654e-03" rms="4.4573250412940979e-01" purity="7.1662908792495728e-01" nType="-99"/>
              <Node pos="r" depth="2" NCoef="0" IVar="-1" Cut="0.0000000000000000e+00" cType="1" res="-3.2275933335768059e-05" rms="4.9751257896423340e-01" purity="4.9054217338562012e-01" nType="-99"/>
            </Node>
            <Node pos="r" depth="1" NCoef="0" IVar="9" Cut="5.3645861816406250e+02" cType="0" res="-1.6583016514778137e-01" rms="4.2302709817886353e-01" purity="2.5163614749908447e-01" nType="0">
              <Node pos="l" depth="2" NCoef="0" IVar="-1" Cut="0.0000000000000000e+00" cType="1" res="4.5656785368919373e-04" rms="4.9358719587326050e-01" purity="4.7869741916656494e-01" nType="-99"/>
              <Node pos="r" depth="2" NCoef="0" IVar="-1" Cut="0.0000000000000000e+00" cType="1" res="-1.0425187647342682e-02" rms="3.8616135716438293e-01" purity="1.8997965753078461e-01" nType="-99"/>
            </Node>
          </Node>
        </BinaryTree>
        <BinaryTree type="DecisionTree" boostWeight="1.0000000000000000e+00" itree="29">
          <Node pos="s" depth="0" NCoef="0" IVar="10" Cut="1.1775640106201172e+02" cType="1" res="1.3581085018813610e-02" rms="4.8552668094635010e-01" purity="5.0000000000000000e-01" nType="0">
            <Node pos="l" depth="1" NCoef="0" IVar="0" Cut="8.7722900390625000e+01" cType="1" res="1.5480378270149231e-01" rms="4.5441746711730957e-01" purity="6.7361140251159668e-01" nType="0">
              <Node pos="l" depth="2" NCoef="0" IVar="-1" Cut="0.0000000000000000e+00" cType="1" res="2.5064619258046150e-03" rms="4.4855129718780518e-01" purity="7.0709896087646484e-01" nType="-99"/>
              <Node pos="r" depth="2" NCoef="0" IVar="-1" Cut="0.0000000000000000e+00" cType="1" res="-1.9315557554364204e-02" rms="3.1410986185073853e-01" purity="1.2124159187078476e-01" nType="-99"/>
            </Node>
            <Node pos="r" depth="1" NCoef="0" IVar="1" Cut="3.2072657346725464e-01" cType="1" res="-3.8925547152757645e-02" rms="4.8624670505523682e-01" purity="4.3545126914978027e-01" nType="0">
              <Node pos="l" depth="2" NCoef="0" IVar="-1" Cut="0.0000000000000000e+00" cType="1" res="1.6040088376030326e-03" rms="4.8694303631782532e-01" purity="5.8375900983810425e-01" nType="-99"/>
              <Node pos="r" depth="2" NCoef="0" IVar="-1" Cut="0.0000000000000000e+00" cType="1" res="-2.3536079097539186e-03" rms="4.7522786259651184e-01" purity="3.7603962421417236e-01" nType="-99"/>
            </Node>
          </Node>
        </BinaryTree>
        <BinaryTree type="DecisionTree" boostWeight="1.0000000000000000e+00" itree="30">
          <Node pos="s" depth="0" NCoef="0" IVar="10" Cut="1.1775640106201172e+02" cType="1" res="1.3844355940818787e-02" rms="4.8517605662345886e-01" purity="5.0000000000000000e-01" nType="0">
            <Node pos="l" depth="1" NCoef="0" IVar="0" Cut="8.7722900390625000e+01" cType="1" res="1.5415532886981964e-01" rms="4.5386433601379395e-01" purity="6.7361140251159668e-01" nType="0">
              <Node pos="l" depth="2" NCoef="0" IVar="-1" Cut="0.0000000000000000e+00" cType="1" res="2.4900182615965605e-03" rms="4.4855076074600220e-01" purity="7.0709896087646484e-01" nType="-99"/>
              <Node pos="r" depth="2" NCoef="0" IVar="-1" Cut="0.0000000000000000e+00" cType="1" res="-1.8784319981932640e-02" rms="3.1418752670288086e-01" purity="1.2124159187078476e-01" nType="-99"/>
            </Node>
            <Node pos="r" depth="1" NCoef="0" IVar="1" Cut="3.2072657346725464e-01" cType="1" res="-3.8323298096656799e-02" rms="4.8609325289726257e-01" purity="4.3545126914978027e-01" nType="0">
              <Node pos="l" depth="2" NCoef="0" IVar="-1" Cut="0.0000000000000000e+00" cType="1" res="1.5906922053545713e-03" rms="4.8694166541099548e-01" purity="5.8375900983810425e-01" nType="-99"/>
              <Node pos="r" depth="2" NCoef="0" IVar="-1" Cut="0.0000000000000000e+00" cType="1" res="-2.3246335331350565e-03" rms="4.7523176670074463e-01" purity="3.7603962421417236e-01" nType="-99"/>
            </Node>
          </Node>
        </BinaryTree>
        <BinaryTree type="DecisionTree" boostWeight="1.0000000000000000e+00" itree="31">
          <Node pos="s" depth="0" NCoef="0" IVar="10" Cut="1.1775640106201172e+02" cType="1" res="1.4098448678851128e-02" rms="4.8483577370643616e-01" purity="5.0000000000000000e-01" nType="0">
            <Node pos="l" depth="1" NCoef="0" IVar="0" Cut="6.4554244995117188e+01" cType="1" res="1.5349610149860382e-01" rms="4.5334109663963318e-01" purity="6.7361140251159668e-01" nType="0">
              <Node pos="l" depth="2" NCoef="0" IVar="-1" Cut="0.0000000000000000e+00" cType="1" res="2.6662931777536869e-03" rms="4.3598410487174988e-01" purity="7.4309122562408447e-01" nType="-99"/>
              <Node pos="r" depth="2" NCoef="0" IVar="-1" Cut="0.0000000000000000e+00" cType="1" res="-1.5375941293314099e-03" rms="4.6703627705574036e-01" purity="3.6731544137001038e-01" nType="-99"/>
            </Node>
            <Node pos="r" depth="1" NCoef="0" IVar="1" Cut="3.2072657346725464e-01" cType="1" res="-3.7729632109403610e-02" rms="4.8594307899475098e-01" purity="4.3545126914978027e-01" nType="0">
              <Node pos="l" depth="2" NCoef="0" IVar="-1" Cut="0.0000000000000000e+00" cType="1" res="1.5774942003190517e-03" rms="4.8694032430648804e-01" purity="5.8375900983810425e-01" nType="-99"/>
              <Node pos="r" depth="2" NCoef="0" IVar="-1" Cut="0.0000000000000000e+00" cType="1" res="-2.2960393689572811e-03" rms="4.7523570060729980e-01" purity="3.7603962421417236e-01" nType="-99"/>
            </Node>
          </Node>
        </BinaryTree>
        <BinaryTree type="DecisionTree" boostWeight="1.0000000000000000e+00" itree="32">
          <Node pos="s" depth="0" NCoef="0" IVar="0" Cut="5.6533237457275391e+01" cType="1" res="1.4270207844674587e-02" rms="4.8456501960754395e-01" purity="5.0000000000000000e-01" nType="0">
            <Node pos="l" depth="1" NCoef="0" IVar="10" Cut="1.1775621032714844e+02" cType="1" res="8.3866685628890991e-02" rms="4.8536086082458496e-01" purity="6.0006654262542725e-01" nType="0">
              <Node pos="l" depth="2" NCoef="0" IVar="-1" Cut="0.0000000000000000e+00" cType="1" res="2.7238824404776096e-03" rms="4.2991819977760315e-01" purity="7.5522798299789429e-01" nType="-99"/>
              <Node pos="r" depth="2" NCoef="0" IVar="-1" Cut="0.0000000000000000e+00" cType="1" res="4.1440475615672767e-04" rms="4.9896946549415588e-01" purity="5.2416384220123291e-01" nType="-99"/>
            </Node>
            <Node pos="r" depth="1" NCoef="0" IVar="0" Cut="9.8654151916503906e+01" cType="1" res="-8.8659338653087616e-02" rms="4.6465432643890381e-01" purity="3.5200685262680054e-01" nType="0">
              <Node pos="l" depth="2" NCoef="0" IVar="-1" Cut="0.0000000000000000e+00" cType="1" res="-1.1131220962852240e-03" rms="4.8335489630699158e-01" purity="4.0766721963882446e-01" nType="-99"/>
              <Node pos="r" depth="2" NCoef="0" IVar="-1" Cut="0.0000000000000000e+00" cType="1" res="-9.3100750818848610e-03" rms="3.8679626584053040e-01" purity="1.9899745285511017e-01" nType="-99"/>
            </Node>
          </Node>
        </BinaryTree>
        <BinaryTree type="DecisionTree" boostWeight="1.0000000000000000e+00" itree="33">
          <Node pos="s" depth="0" NCoef="0" IVar="0" Cut="3.9602600097656250e+01" cType="1" res="1.4563172124326229e-02" rms="4.8422923684120178e-01" purity="5.0000000000000000e-01" nType="0">
            <Node pos="l" depth="1" NCoef="0" IVar="3" Cut="6.5539283752441406e+01" cType="1" res="1.2414590269327164e-01" rms="4.7509425878524780e-01" purity="6.4150404930114746e-01" nType="0">
              <Node pos="l" depth="2" NCoef="0" IVar="-1" Cut="0.0000000000000000e+00" cType="1" res="2.7375624049454927e-03" rms="4.3819251656532288e-01" purity="7.3470562696456909e-01" nType="-99"/>
              <Node pos="r" depth="2" NCoef="0" IVar="-1" Cut="0.0000000000000000e+00" cType="1" res="6.4935645787045360e-04" rms="4.9737897515296936e-01" purity="5.4064530134201050e-01" nType="-99"/>
            </Node>
            <Node pos="r" depth="1" NCoef="0" IVar="1" Cut="3.3913606405258179e-01" cType="1" res="-4.9497473984956741e-02" rms="4.7799286246299744e-01" purity="4.1727858781814575e-01" nType="0">
              <Node pos="l" depth="2" NCoef="0" IVar="-1" Cut="0.0000000000000000e+00" cType="1" res="1.3464936055243015e-03" rms="4.8516514897346497e-01" purity="5.6266826391220093e-01" nType="-99"/>
              <Node pos="r" depth="2" NCoef="0" IVar="-1" Cut="0.0000000000000000e+00" cType="1" res="-2.5556189939379692e-03" rms="4.6633878350257874e-01" purity="3.6269751191139221e-01" nType="-99"/>
            </Node>
          </Node>
        </BinaryTree>
        <BinaryTree type="DecisionTree" boostWeight="1.0000000000000000e+00" itree="34">
          <Node pos="s" depth="0" NCoef="0" IVar="10" Cut="1.1775640106201172e+02" cType="1" res="1.4705215580761433e-02" rms="4.8397907614707947e-01" purity="5.0000000000000000e-01" nType="0">
            <Node pos="l" depth="1" NCoef="0" IVar="0" Cut="8.7722900390625000e+01" cType="1" res="1.5172415971755981e-01" rms="4.5261791348457336e-01" purity="6.7361140251159668e-01" nType="0">
              <Node pos="l" depth="2" NCoef="0" IVar="-1" Cut="0.0000000000000000e+00" cType="1" res="2.4463669396936893e-03" rms="4.4815325736999512e-01" purity="7.0709896087646484e-01" nType="-99"/>
              <Node pos="r" depth="2" NCoef="0" IVar="-1" Cut="0.0000000000000000e+00" cType="1" res="-1.8011907115578651e-02" rms="3.1427156925201416e-01" purity="1.2124159187078476e-01" nType="-99"/>
            </Node>
            <Node pos="r" depth="1" NCoef="0" IVar="9" Cut="4.4367285156250000e+02" cType="0" res="-3.6238461732864380e-02" rms="4.8536691069602966e-01" purity="4.3545126914978027e-01" nType="0">
              <Node pos="l" depth="2" NCoef="0" IVar="-1" Cut="0.0000000000000000e+00" cType="1" res="1.7696600407361984e-03" rms="4.8032376170158386e-01" purity="5.7900589704513550e-01" nType="-99"/>
              <Node pos="r" depth="2" NCoef="0" IVar="-1" Cut="0.0000000000000000e+00" cType="1" res="-2.1026958711445332e-03" rms="4.7737249732017517e-01" purity="3.8574028015136719e-01" nType="-99"/>
            </Node>
          </Node>
        </BinaryTree>
        <BinaryTree type="DecisionTree" boostWeight="1.0000000000000000e+00" itree="35">
          <Node pos="s" depth="0" NCoef="0" IVar="10" Cut="1.1775640106201172e+02" cType="1" res="1.4923542737960815e-02" rms="4.8366138339042664e-01" purity="5.0000000000000000e-01" nType="0">
            <Node pos="l" depth="1" NCoef="0" IVar="0" Cut="6.4554244995117188e+01" cType="1" res="1.5105921030044556e-01" rms="4.5213922858238220e-01" purity="6.7361140251159668e-01" nType="0">
              <Node pos="l" depth="2" NCoef="0" IVar="-1" Cut="0.0000000000000000e+00" cType="1" res="2.6166823226958513e-03" rms="4.3579158186912537e-01" purity="7.4309122562408447e-01" nType="-99"/>
              <Node pos="r" depth="2" NCoef="0" IVar="-1" Cut="0.0000000000000000e+00" cType="1" res="-1.4166927430778742e-03" rms="4.6546146273612976e-01" purity="3.6731544137001038e-01" nType="-99"/>
            </Node>
            <Node pos="r" depth="1" NCoef="0" IVar="9" Cut="4.4367285156250000e+02" cType="0" res="-3.5691730678081512e-02" rms="4.8522514104843140e-01" purity="4.3545126914978027e-01" nType="0">
              <Node pos="l" depth="2" NCoef="0" IVar="-1" Cut="0.0000000000000000e+00" cType="1" res="1.7547982279211283e-03" rms="4.8031979799270630e-01" purity="5.7900589704513550e-01" nType="-99"/>
              <Node pos="r" depth="2" NCoef="0" IVar="-1" Cut="0.0000000000000000e+00" cType="1" res="-2.0773615688085556e-03" rms="4.7737607359886169e-01" purity="3.8574028015136719e-01" nType="-99"/>
            </Node>
          </Node>
        </BinaryTree>
        <BinaryTree type="DecisionTree" boostWeight="1.0000000000000000e+00" itree="36">
          <Node pos="s" depth="0" NCoef="0" IVar="0" Cut="3.9602600097656250e+01" cType="1" res="1.5064476057887077e-02" rms="4.8340657353401184e-01" purity="5.0000000000000000e-01" nType="0">
            <Node pos="l" depth="1" NCoef="0" IVar="3" Cut="6.5539283752441406e+01" cType="1" res="1.2329705059528351e-01" rms="4.7449618577957153e-01" purity="6.4150404930114746e-01" nType="0">
              <Node pos="l" depth="2" NCoef="0" IVar="-1" Cut="0.0000000000000000e+00" cType="1" res="2.7102199383080006e-03" rms="4.3787214159965515e-01" purity="7.3470562696456909e-01" nType="-99"/>
              <Node pos="r" depth="2" NCoef="0" IVar="-1" Cut="0.0000000000000000e+00" cType="1" res="6.6139304544776678e-04" rms="4.9700692296028137e-01" purity="5.4064530134201050e-01" nType="-99"/>
            </Node>
            <Node pos="r" depth="1" NCoef="0" IVar="1" Cut="3.3913606405258179e-01" cType="1" res="-4.8206888139247894e-02" rms="4.7730520367622375e-01" purity="4.1727858781814575e-01" nType="0">
              <Node pos="l" depth="2" NCoef="0" IVar="-1" Cut="0.0000000000000000e+00" cType="1" res="1.3304086169227958e-03" rms="4.8478814959526062e-01" purity="5.6266826391220093e-01" nType="-99"/>
              <Node pos="r" depth="2" NCoef="0" IVar="-1" Cut="0.0000000000000000e+00" cType="1" res="-2.5014050770550966e-03" rms="4.6583053469657898e-01" purity="3.6269751191139221e-01" nType="-99"/>
            </Node>
          </Node>
        </BinaryTree>
        <BinaryTree type="DecisionTree" boostWeight="1.0000000000000000e+00" itree="37">
          <Node pos="s" depth="0" NCoef="0" IVar="10" Cut="1.1775640106201172e+02" cType="1" res="1.5196805819869041e-02" rms="4.8316401243209839e-01" purity="5.0000000000000000e-01" nType="0">
            <Node pos="l" depth="1" NCoef="0" IVar="8" Cut="1.0447181701660156e+02" cType="1" res="1.4997433125972748e-01" rms="4.5173591375350952e-01" purity="6.7361140251159668e-01" nType="0">
              <Node pos="l" depth="2" NCoef="0" IVar="-1" Cut="0.0000000000000000e+00" cType="1" res="2.5089723058044910e-03" rms="4.4316768646240234e-01" purity="7.1330600976943970e-01" nType="-99"/>
              <Node pos="r" depth="2" NCoef="0" IVar="-1" Cut="0.0000000000000000e+00" cType="1" res="-4.3473984114825726e-03" rms="4.2330360412597656e-01" purity="3.0989402532577515e-01" nType="-99"/>
            </Node>
            <Node pos="r" depth="1" NCoef="0" IVar="9" Cut="4.4367285156250000e+02" cType="0" res="-3.4913510084152222e-02" rms="4.8487830162048340e-01" purity="4.3545126914978027e-01" nType="0">
              <Node pos="l" depth="2" NCoef="0" IVar="-1" Cut="0.0000000000000000e+00" cType="1" res="1.7402347875759006e-03" rms="4.8016673326492310e-01" purity="5.7900589704513550e-01" nType="-99"/>
              <Node pos="r" depth="2" NCoef="0" IVar="-1" Cut="0.0000000000000000e+00" cType="1" res="-2.0446977578103542e-03" rms="4.7717964649200439e-01" purity="3.8574028015136719e-01" nType="-99"/>
            </Node>
          </Node>
        </BinaryTree>
        <BinaryTree type="DecisionTree" boostWeight="1.0000000000000000e+00" itree="38">
          <Node pos="s" depth="0" NCoef="0" IVar="0" Cut="5.6533237457275391e+01" cType="1" res="1.5334797091782093e-02" rms="4.8290318250656128e-01" purity="5.0000000000000000e-01" nType="0">
            <Node pos="l" depth="1" NCoef="0" IVar="10" Cut="1.1775621032714844e+02" cType="1" res="8.2796946167945862e-02" rms="4.8406669497489929e-01" purity="6.0006654262542725e-01" nType="0">
              <Node pos="l" depth="2" NCoef="0" IVar="-1" Cut="0.0000000000000000e+00" cType="1" res="2.6515629142522812e-03" rms="4.2956811189651489e-01" purity="7.5522798299789429e-01" nType="-99"/>
              <Node pos="r" depth="2" NCoef="0" IVar="-1" Cut="0.0000000000000000e+00" cType="1" res="4.3961484334431589e-04" rms="4.9813893437385559e-01" purity="5.2416384220123291e-01" nType="-99"/>
            </Node>
            <Node pos="r" depth="1" NCoef="0" IVar="0" Cut="9.8654151916503906e+01" cType="1" res="-8.4438182413578033e-02" rms="4.6351483464241028e-01" purity="3.5200685262680054e-01" nType="0">
              <Node pos="l" depth="2" NCoef="0" IVar="-1" Cut="0.0000000000000000e+00" cType="1" res="-1.0413764975965023e-03" rms="4.8245331645011902e-01" purity="4.0766721963882446e-01" nType="-99"/>
              <Node pos="r" depth="2" NCoef="0" IVar="-1" Cut="0.0000000000000000e+00" cType="1" res="-9.0120388194918633e-03" rms="3.8597610592842102e-01" purity="1.9899745285511017e-01" nType="-99"/>
            </Node>
          </Node>
        </BinaryTree>
        <BinaryTree type="DecisionTree" boostWeight="1.0000000000000000e+00" itree="39">
          <Node pos="s" depth="0" NCoef="0" IVar="0" Cut="3.9602600097656250e+01" cType="1" res="1.5600961633026600e-02" rms="4.8258942365646362e-01" purity="5.0000000000000000e-01" nType="0">
            <Node pos="l" depth="1" NCoef="0" IVar="3" Cut="6.5539283752441406e+01" cType="1" res="1.2187219411134720e-01" rms="4.7407984733581543e-01" purity="6.4150404930114746e-01" nType="0">
              <Node pos="l" depth="2" NCoef="0" IVar="-1" Cut="0.0000000000000000e+00" cType="1" res="2.6778732426464558e-03" rms="4.3765330314636230e-01" purity="7.3470562696456909e-01" nType="-99"/>
              <Node pos="r" depth="2" NCoef="0" IVar="-1" Cut="0.0000000000000000e+00" cType="1" res="6.5950641874223948e-04" rms="4.9682372808456421e-01" purity="5.4064530134201050e-01" nType="-99"/>
            </Node>
            <Node pos="r" depth="1" NCoef="0" IVar="1" Cut="3.3913606405258179e-01" cType="1" res="-4.6523824334144592e-02" rms="4.7664457559585571e-01" purity="4.1727858781814575e-01" nType="0">
              <Node pos="l" depth="2" NCoef="0" IVar="-1" Cut="0.0000000000000000e+00" cType="1" res="1.3280375860631466e-03" rms="4.8434978723526001e-01" purity="5.6266826391220093e-01" nType="-99"/>
              <Node pos="r" depth="2" NCoef="0" IVar="-1" Cut="0.0000000000000000e+00" cType="1" res="-2.4409915786236525e-03" rms="4.6532648801803589e-01" purity="3.6269751191139221e-01" nType="-99"/>
            </Node>
          </Node>
        </BinaryTree>
        <BinaryTree type="DecisionTree" boostWeight="1.0000000000000000e+00" itree="40">
          <Node pos="s" depth="0" NCoef="0" IVar="10" Cut="1.0499736785888672e+02" cType="1" res="1.5722602605819702e-02" rms="4.8235520720481873e-01" purity="5.0000000000000000e-01" nType="0">
            <Node pos="l" depth="1" NCoef="0" IVar="8" Cut="1.1280775451660156e+02" cType="1" res="2.0746327936649323e-01" rms="4.2642366886138916e-01" purity="7.3400354385375977e-01" nType="0">
              <Node pos="l" depth="2" NCoef="0" IVar="-1" Cut="0.0000000000000000e+00" cType="1" res="3.0215058941394091e-03" rms="4.1525483131408691e-01" purity="7.6723653078079224e-01" nType="-99"/>
              <Node pos="r" depth="2" NCoef="0" IVar="-1" Cut="0.0000000000000000e+00" cType="1" res="-7.7423066832125187e-03" rms="3.8130971789360046e-01" purity="2.3782287538051605e-01" nType="-99"/>
            </Node>
            <Node pos="r" depth="1" NCoef="0" IVar="1" Cut="3.2072657346725464e-01" cType="1" res="-1.8374031409621239e-02" rms="4.8374071717262268e-01" purity="4.5838788151741028e-01" nType="0">
              <Node pos="l" depth="2" NCoef="0" IVar="-1" Cut="0.0000000000000000e+00" cType="1" res="1.7148572951555252e-03" rms="4.8045054078102112e-01" purity="6.0303533077239990e-01" nType="-99"/>
              <Node pos="r" depth="2" NCoef="0" IVar="-1" Cut="0.0000000000000000e+00" cType="1" res="-1.5923974569886923e-03" rms="4.7623836994171143e-01" purity="4.0205764770507812e-01" nType="-99"/>
            </Node>
          </Node>
        </BinaryTree>
        <BinaryTree type="DecisionTree" boostWeight="1.0000000000000000e+00" itree="41">
          <Node pos="s" depth="0" NCoef="0" IVar="10" Cut="1.1775640106201172e+02" cType="1" res="1.5822647139430046e-02" rms="4.8212638497352600e-01" purity="5.0000000000000000e-01" nType="0">
            <Node pos="l" depth="1" NCoef="0" IVar="0" Cut="8.7722900390625000e+01" cType="1" res="1.4775206148624420e-01" rms="4.5070320367813110e-01" purity="6.7361140251159668e-01" nType="0">
              <Node pos="l" depth="2" NCoef="0" IVar="-1" Cut="0.0000000000000000e+00" cType="1" res="2.3813166189938784e-03" rms="4.4720453023910522e-01" purity="7.0709896087646484e-01" nType="-99"/>
              <Node pos="r" depth="2" NCoef="0" IVar="-1" Cut="0.0000000000000000e+00" cType="1" res="-1.7145270481705666e-02" rms="3.1321319937705994e-01" purity="1.2124159187078476e-01" nType="-99"/>
            </Node>
            <Node pos="r" depth="1" NCoef="0" IVar="9" Cut="4.4367285156250000e+02" cType="0" res="-3.3228740096092224e-02" rms="4.8421782255172729e-01" purity="4.3545126914978027e-01" nType="0">
              <Node pos="l" depth="2" NCoef="0" IVar="-1" Cut="0.0000000000000000e+00" cType="1" res="1.7423211829736829e-03" rms="4.7944906353950500e-01" purity="5.7900589704513550e-01" nType="-99"/>
              <Node pos="r" depth="2" NCoef="0" IVar="-1" Cut="0.0000000000000000e+00" cType="1" res="-1.9906687084585428e-03" rms="4.7674253582954407e-01" purity="3.8574028015136719e-01" nType="-99"/>
            </Node>
          </Node>
        </BinaryTree>
        <BinaryTree type="DecisionTree" boostWeight="1.0000000000000000e+00" itree="42">
          <Node pos="s" depth="0" NCoef="0" IVar="0" Cut="3.9602600097656250e+01" cType="1" res="1.6013057902455330e-02" rms="4.8183426260948181e-01" purity="5.0000000000000000e-01" nType="0">
            <Node pos="l" depth="1" NCoef="0" IVar="3" Cut="6.5539283752441406e+01" cType="1" res="1.2095380574464798e-01" rms="4.7357541322708130e-01" purity="6.4150404930114746e-01" nType="0">
              <Node pos="l" depth="2" NCoef="0" IVar="-1" Cut="0.0000000000000000e+00" cType="1" res="2.6518367230892181e-03" rms="4.3731439113616943e-01" purity="7.3470562696456909e-01" nType="-99"/>
              <Node pos="r" depth="2" NCoef="0" IVar="-1" Cut="0.0000000000000000e+00" cType="1" res="6.6701881587505341e-04" rms="4.9658080935478210e-01" purity="5.4064530134201050e-01" nType="-99"/>
            </Node>
            <Node pos="r" depth="1" NCoef="0" IVar="1" Cut="3.3913606405258179e-01" cType="1" res="-4.5333947986364365e-02" rms="4.7599974274635315e-01" purity="4.1727858781814575e-01" nType="0">
              <Node pos="l" depth="2" NCoef="0" IVar="-1" Cut="0.0000000000000000e+00" cType="1" res="1.3015818549320102e-03" rms="4.8407107591629028e-01" purity="5.6266826391220093e-01" nType="-99"/>
              <Node pos="r" depth="2" NCoef="0" IVar="-1" Cut="0.0000000000000000e+00" cType="1" res="-2.3843164090067148e-03" rms="4.6489796042442322e-01" purity="3.6269751191139221e-01" nType="-99"/>
            </Node>
          </Node>
        </BinaryTree>
        <BinaryTree type="DecisionTree" boostWeight="1.0000000000000000e+00" itree="43">
          <Node pos="s" depth="0" NCoef="0" IVar="10" Cut="1.0499736785888672e+02" cType="1" res="1.6125611960887909e-02" rms="4.8160788416862488e-01" purity="5.0000000000000000e-01" nType="0">
            <Node pos="l" depth="1" NCoef="0" IVar="8" Cut="1.1280775451660156e+02" cType="1" res="2.0533339679241180e-01" rms="4.2553624510765076e-01" purity="7.3400354385375977e-01" nType="0">
              <Node pos="l" depth="2" NCoef="0" IVar="-1" Cut="0.0000000000000000e+00" cType="1" res="2.9908071737736464e-03" rms="4.1493713855743408e-01" purity="7.6723653078079224e-01" nType="-99"/>
              <Node pos="r" depth="2" NCoef="0" IVar="-1" Cut="0.0000000000000000e+00" cType="1" res="-7.5026922859251499e-03" rms="3.8007605075836182e-01" purity="2.3782287538051605e-01" nType="-99"/>
            </Node>
            <Node pos="r" depth="1" NCoef="0" IVar="1" Cut="3.2072657346725464e-01" cType="1" res="-1.7520602792501450e-02" rms="4.8321127891540527e-01" purity="4.5838788151741028e-01" nType="0">
              <Node pos="l" depth="2" NCoef="0" IVar="-1" Cut="0.0000000000000000e+00" cType="1" res="1.6895399894565344e-03" rms="4.8026642203330994e-01" purity="6.0303533077239990e-01" nType="-99"/>
              <Node pos="r" depth="2" NCoef="0" IVar="-1" Cut="0.0000000000000000e+00" cType="1" res="-1.5501724556088448e-03" rms="4.7590747475624084e-01" purity="4.0205764770507812e-01" nType="-99"/>
            </Node>
          </Node>
        </BinaryTree>
        <BinaryTree type="DecisionTree" boostWeight="1.0000000000000000e+00" itree="44">
          <Node pos="s" depth="0" NCoef="0" IVar="0" Cut="7.7768272399902344e+01" cType="1" res="1.6216702759265900e-02" rms="4.8138719797134399e-01" purity="5.0000000000000000e-01" nType="0">
            <Node pos="l" depth="1" NCoef="0" IVar="10" Cut="1.1751684570312500e+02" cType="1" res="5.7226840406656265e-02" rms="4.8679512739181519e-01" purity="5.6302452087402344e-01" nType="0">
              <Node pos="l" depth="2" NCoef="0" IVar="-1" Cut="0.0000000000000000e+00" cType="1" res="2.4094916880130768e-03" rms="4.4307824969291687e-01" purity="7.2028750181198120e-01" nType="-99"/>
              <Node pos="r" depth="2" NCoef="0" IVar="-1" Cut="0.0000000000000000e+00" cType="1" res="9.8560529295355082e-05" rms="4.9587380886077881e-01" purity="4.9400717020034790e-01" nType="-99"/>
            </Node>
            <Node pos="r" depth="1" NCoef="0" IVar="8" Cut="1.0224891662597656e+02" cType="1" res="-1.3804130256175995e-01" rms="4.2651781439781189e-01" purity="2.6293563842773438e-01" nType="0">
              <Node pos="l" depth="2" NCoef="0" IVar="-1" Cut="0.0000000000000000e+00" cType="1" res="-2.4671738501638174e-03" rms="4.6196234226226807e-01" purity="3.3033767342567444e-01" nType="-99"/>
              <Node pos="r" depth="2" NCoef="0" IVar="-1" Cut="0.0000000000000000e+00" cType="1" res="-2.3946605622768402e-02" rms="2.7965864539146423e-01" purity="9.4055049121379852e-02" nType="-99"/>
            </Node>
          </Node>
        </BinaryTree>
        <BinaryTree type="DecisionTree" boostWeight="1.0000000000000000e+00" itree="45">
          <Node pos="s" depth="0" NCoef="0" IVar="10" Cut="1.0499736785888672e+02" cType="1" res="1.6739718616008759e-02" rms="4.8087462782859802e-01" purity="5.0000000000000000e-01" nType="0">
            <Node pos="l" depth="1" NCoef="0" IVar="8" Cut="1.1280775451660156e+02" cType="1" res="2.0353145897388458e-01" rms="4.2472359538078308e-01" purity="7.3400354385375977e-01" nType="0">
              <Node pos="l" depth="2" NCoef="0" IVar="-1" Cut="0.0000000000000000e+00" cType="1" res="2.9623026493936777e-03" rms="4.1481307148933411e-01" purity="7.6723653078079224e-01" nType="-99"/>
              <Node pos="r" depth="2" NCoef="0" IVar="-1" Cut="0.0000000000000000e+00" cType="1" res="-7.2064218111336231e-03" rms="3.7812340259552002e-01" purity="2.3782287538051605e-01" nType="-99"/>
            </Node>
            <Node pos="r" depth="1" NCoef="0" IVar="1" Cut="3.2072657346725464e-01" cType="1" res="-1.6476860269904137e-02" rms="4.8267486691474915e-01" purity="4.5838788151741028e-01" nType="0">
              <Node pos="l" depth="2" NCoef="0" IVar="-1" Cut="0.0000000000000000e+00" cType="1" res="1.6841047909110785e-03" rms="4.7995799779891968e-01" purity="6.0303533077239990e-01" nType="-99"/>
              <Node pos="r" depth="2" NCoef="0" IVar="-1" Cut="0.0000000000000000e+00" cType="1" res="-1.5129595994949341e-03" rms="4.7546753287315369e-01" purity="4.0205764770507812e-01" nType="-99"/>
            </Node>
          </Node>
        </BinaryTree>
        <BinaryTree type="DecisionTree" boostWeight="1.0000000000000000e+00" itree="46">
          <Node pos="s" depth="0" NCoef="0" IVar="0" Cut="3.9602600097656250e+01" cType="1" res="1.6820328310132027e-02" rms="4.8066064715385437e-01" purity="5.0000000000000000e-01" nType="0">
            <Node pos="l" depth="1" NCoef="0" IVar="3" Cut="6.5539283752441406e+01" cType="1" res="1.1950390785932541e-01" rms="4.7305220365524292e-01" purity="6.4150404930114746e-01" nType="0">
              <Node pos="l" depth="2" NCoef="0" IVar="-1" Cut="0.0000000000000000e+00" cType="1" res="2.6171996723860502e-03" rms="4.3688878417015076e-01" purity="7.3470562696456909e-01" nType="-99"/>
              <Node pos="r" depth="2" NCoef="0" IVar="-1" Cut="0.0000000000000000e+00" cType="1" res="6.6853803582489491e-04" rms="4.9643906950950623e-01" purity="5.4064530134201050e-01" nType="-99"/>
            </Node>
            <Node pos="r" depth="1" NCoef="0" IVar="10" Cut="9.8314064025878906e+01" cType="1" res="-4.3207164853811264e-02" rms="4.7487834095954895e-01" purity="4.1727858781814575e-01" nType="0">
              <Node pos="l" depth="2" NCoef="0" IVar="-1" Cut="0.0000000000000000e+00" cType="1" res="2.8385624755173922e-03" rms="4.3221580982208252e-01" purity="7.1250724792480469e-01" nType="-99"/>
              <Node pos="r" depth="2" NCoef="0" IVar="-1" Cut="0.0000000000000000e+00" cType="1" res="-1.5710474690422416e-03" rms="4.7233042120933533e-01" purity="3.9211773872375488e-01" nType="-99"/>
            </Node>
          </Node>
        </BinaryTree>
        <BinaryTree type="DecisionTree" boostWeight="1.0000000000000000e+00" itree="47">
          <Node pos="s" depth="0" NCoef="0" IVar="10" Cut="1.1775640106201172e+02" cType="1" res="1.6890913248062134e-02" rms="4.8046627640724182e-01" purity="5.0000000000000000e-01" nType="0">
            <Node pos="l" depth="1" NCoef="0" IVar="0" Cut="6.4554244995117188e+01" cType="1" res="1.4484697580337524e-01" rms="4.4872370362281799e-01" purity="6.7361140251159668e-01" nType="0">
              <Node pos="l" depth="2" NCoef="0" IVar="-1" Cut="0.0000000000000000e+00" cType="1" res="2.5035552680492401e-03" rms="4.3456482887268066e-01" purity="7.4309122562408447e-01" nType="-99"/>
              <Node pos="r" depth="2" NCoef="0" IVar="-1" Cut="0.0000000000000000e+00" cType="1" res="-1.2124718632549047e-03" rms="4.5999118685722351e-01" purity="3.6731544137001038e-01" nType="-99"/>
            </Node>
            <Node pos="r" depth="1" NCoef="0" IVar="9" Cut="4.4367285156250000e+02" cType="0" res="-3.0683184042572975e-02" rms="4.8318046331405640e-01" purity="4.3545126914978027e-01" nType="0">
              <Node pos="l" depth="2" NCoef="0" IVar="-1" Cut="0.0000000000000000e+00" cType="1" res="1.7491894541308284e-03" rms="4.7858667373657227e-01" purity="5.7900589704513550e-01" nType="-99"/>
              <Node pos="r" depth="2" NCoef="0" IVar="-1" Cut="0.0000000000000000e+00" cType="1" res="-1.9108357373625040e-03" rms="4.7591787576675415e-01" purity="3.8574028015136719e-01" nType="-99"/>
            </Node>
          </Node>
        </BinaryTree>
        <BinaryTree type="DecisionTree" boostWeight="1.0000000000000000e+00" itree="48">
          <Node pos="s" depth="0" NCoef="0" IVar="0" Cut="3.9602600097656250e+01" cType="1" res="1.6994450241327286e-02" rms="4.8023858666419983e-01" purity="5.0000000000000000e-01" nType="0">
            <Node pos="l" depth="1" NCoef="0" IVar="3" Cut="6.5539283752441406e+01" cType="1" res="1.1863835901021957e-01" rms="4.7274649143218994e-01" purity="6.4150404930114746e-01" nType="0">
              <Node pos="l" depth="2" NCoef="0" IVar="-1" Cut="0.0000000000000000e+00" cType="1" res="2.5958812329918146e-03" rms="4.3675169348716736e-01" purity="7.3470562696456909e-01" nType="-99"/>
              <Node pos="r" depth="2" NCoef="0" IVar="-1" Cut="0.0000000000000000e+00" cType="1" res="6.7040481371805072e-04" rms="4.9626871943473816e-01" purity="5.4064530134201050e-01" nType="-99"/>
            </Node>
            <Node pos="r" depth="1" NCoef="0" IVar="10" Cut="9.8314064025878906e+01" cType="1" res="-4.2425259947776794e-02" rms="4.7458681464195251e-01" purity="4.1727858781814575e-01" nType="0">
              <Node pos="l" depth="2" NCoef="0" IVar="-1" Cut="0.0000000000000000e+00" cType="1" res="2.8126093093305826e-03" rms="4.3212068080902100e-01" purity="7.1250724792480469e-01" nType="-99"/>
              <Node pos="r" depth="2" NCoef="0" IVar="-1" Cut="0.0000000000000000e+00" cType="1" res="-1.5466301701962948e-03" rms="4.7215542197227478e-01" purity="3.9211773872375488e-01" nType="-99"/>
            </Node>
          </Node>
        </BinaryTree>
        <BinaryTree type="DecisionTree" boostWeight="1.0000000000000000e+00" itree="49">
          <Node pos="s" depth="0" NCoef="0" IVar="0" Cut="5.6533237457275391e+01" cType="1" res="1.7060583457350731e-02" rms="4.8004844784736633e-01" purity="5.0000000000000000e-01" nType="0">
            <Node pos="l" depth="1" NCoef="0" IVar="10" Cut="1.1775621032714844e+02" cType="1" res="8.0486826598644257e-02" rms="4.8212131857872009e-01" purity="6.0006654262542725e-01" nType="0">
              <Node pos="l" depth="2" NCoef="0" IVar="-1" Cut="0.0000000000000000e+00" cType="1" res="2.5411690585315228e-03" rms="4.2854750156402588e-01" purity="7.5522798299789429e-01" nType="-99"/>
              <Node pos="r" depth="2" NCoef="0" IVar="-1" Cut="0.0000000000000000e+00" cType="1" res="4.6094087883830070e-04" rms="4.9696737527847290e-01" purity="5.2416384220123291e-01" nType="-99"/>
            </Node>
            <Node pos="r" depth="1" NCoef="0" IVar="10" Cut="9.7706489562988281e+01" cType="1" res="-7.6743498444557190e-02" rms="4.6124616265296936e-01" purity="3.5200685262680054e-01" nType="0">
              <Node pos="l" depth="2" NCoef="0" IVar="-1" Cut="0.0000000000000000e+00" cType="1" res="2.7210416737943888e-03" rms="4.5609733462333679e-01" purity="6.3952666521072388e-01" nType="-99"/>
              <Node pos="r" depth="2" NCoef="0" IVar="-1" Cut="0.0000000000000000e+00" cType="1" res="-2.6522518601268530e-03" rms="4.5681452751159668e-01" purity="3.3375164866447449e-01" nType="-99"/>
            </Node>
          </Node>
        </BinaryTree>
        <BinaryTree type="DecisionTree" boostWeight="1.0000000000000000e+00" itree="50">
          <Node pos="s" depth="0" NCoef="0" IVar="10" Cut="1.0499736785888672e+02" cType="1" res="1.7178108915686607e-02" rms="4.7983887791633606e-01" purity="5.0000000000000000e-01" nType="0">
            <Node pos="l" depth="1" NCoef="0" IVar="8" Cut="1.1280775451660156e+02" cType="1" res="1.9867779314517975e-01" rms="4.2392989993095398e-01" purity="7.3400354385375977e-01" nType="0">
              <Node pos="l" depth="2" NCoef="0" IVar="-1" Cut="0.0000000000000000e+00" cType="1" res="2.9008267447352409e-03" rms="4.1443884372711182e-01" purity="7.6723653078079224e-01" nType="-99"/>
              <Node pos="r" depth="2" NCoef="0" IVar="-1" Cut="0.0000000000000000e+00" cType="1" res="-7.1250353939831257e-03" rms="3.7779748439788818e-01" purity="2.3782287538051605e-01" nType="-99"/>
            </Node>
            <Node pos="r" depth="1" NCoef="0" IVar="1" Cut="3.2072657346725464e-01" cType="1" res="-1.5097399242222309e-02" rms="4.8200729489326477e-01" purity="4.5838788151741028e-01" nType="0">
              <Node pos="l" depth="2" NCoef="0" IVar="-1" Cut="0.0000000000000000e+00" cType="1" res="1.6782012535259128e-03" rms="4.7947710752487183e-01" purity="6.0303533077239990e-01" nType="-99"/>
              <Node pos="r" depth="2" NCoef="0" IVar="-1" Cut="0.0000000000000000e+00" cType="1" res="-1.4647911302745342e-03" rms="4.7496166825294495e-01" purity="4.0205764770507812e-01" nType="-99"/>
            </Node>
          </Node>
        </BinaryTree>
        <BinaryTree type="DecisionTree" boostWeight="1.0000000000000000e+00" itree="51">
          <Node pos="s" depth="0" NCoef="0" IVar="0" Cut="3.9602600097656250e+01" cType="1" res="1.7248753458261490e-02" rms="4.7963386774063110e-01" purity="5.0000000000000000e-01" nType="0">
            <Node pos="l" depth="1" NCoef="0" IVar="3" Cut="6.5539283752441406e+01" cType="1" res="1.1713789403438568e-01" rms="4.7242733836174011e-01" purity="6.4150404930114746e-01" nType="0">
              <Node pos="l" depth="2" NCoef="0" IVar="-1" Cut="0.0000000000000000e+00" cType="1" res="2.5650740135461092e-03" rms="4.3653029203414917e-01" purity="7.3470562696456909e-01" nType="-99"/>
              <Node pos="r" depth="2" NCoef="0" IVar="-1" Cut="0.0000000000000000e+00" cType="1" res="6.6369527485221624e-04" rms="4.9619641900062561e-01" purity="5.4064530134201050e-01" nType="-99"/>
            </Node>
            <Node pos="r" depth="1" NCoef="0" IVar="1" Cut="3.3913606405258179e-01" cType="1" res="-4.1145145893096924e-02" rms="4.7414845228195190e-01" purity="4.1727858781814575e-01" nType="0">
              <Node pos="l" depth="2" NCoef="0" IVar="-1" Cut="0.0000000000000000e+00" cType="1" res="1.2929048389196396e-03" rms="4.8295068740844727e-01" purity="5.6266826391220093e-01" nType="-99"/>
              <Node pos="r" depth="2" NCoef="0" IVar="-1" Cut="0.0000000000000000e+00" cType="1" res="-2.2325024474412203e-03" rms="4.6335804462432861e-01" purity="3.6269751191139221e-01" nType="-99"/>
            </Node>
          </Node>
        </BinaryTree>
        <BinaryTree type="DecisionTree" boostWeight="1.0000000000000000e+00" itree="52">
          <Node pos="s" depth="0" NCoef="0" IVar="0" Cut="8.0637870788574219e+01" cType="1" res="1.7335169017314911e-02" rms="4.7942811250686646e-01" purity="5.0000000000000000e-01" nType="0">
            <Node pos="l" depth="1" NCoef="0" IVar="10" Cut="1.1740158843994141e+02" cType="1" res="5.4302170872688293e-02" rms="4.8549216985702515e-01" purity="5.5866986513137817e-01" nType="0">
              <Node pos="l" depth="2" NCoef="0" IVar="-1" Cut="0.0000000000000000e+00" cType="1" res="2.3265446070581675e-03" rms="4.4291034340858459e-01" purity="7.1662908792495728e-01" nType="-99"/>
              <Node pos="r" depth="2" NCoef="0" IVar="-1" Cut="0.0000000000000000e+00" cType="1" res="9.8000957223121077e-05" rms="4.9465858936309814e-01" purity="4.9054217338562012e-01" nType="-99"/>
            </Node>
            <Node pos="r" depth="1" NCoef="0" IVar="9" Cut="5.3645861816406250e+02" cType="0" res="-1.3915522396564484e-01" rms="4.1809919476509094e-01" purity="2.5163614749908447e-01" nType="0">
              <Node pos="l" depth="2" NCoef="0" IVar="-1" Cut="0.0000000000000000e+00" cType="1" res="6.6679826704785228e-04" rms="4.9219468235969543e-01" purity="4.7869741916656494e-01" nType="-99"/>
              <Node pos="r" depth="2" NCoef="0" IVar="-1" Cut="0.0000000000000000e+00" cType="1" res="-9.1051291674375534e-03" rms="3.8244393467903137e-01" purity="1.8997965753078461e-01" nType="-99"/>
            </Node>
          </Node>
        </BinaryTree>
        <BinaryTree type="DecisionTree" boostWeight="1.0000000000000000e+00" itree="53">
          <Node pos="s" depth="0" NCoef="0" IVar="10" Cut="1.0499736785888672e+02" cType="1" res="1.7652377486228943e-02" rms="4.7907772660255432e-01" purity="5.0000000000000000e-01" nType="0">
            <Node pos="l" depth="1" NCoef="0" IVar="8" Cut="1.1280775451660156e+02" cType="1" res="1.9657550752162933e-01" rms="4.2325976490974426e-01" purity="7.3400354385375977e-01" nType="0">
              <Node pos="l" depth="2" NCoef="0" IVar="-1" Cut="0.0000000000000000e+00" cType="1" res="2.8721590060740709e-03" rms="4.1420885920524597e-01" purity="7.6723653078079224e-01" nType="-99"/>
              <Node pos="r" depth="2" NCoef="0" IVar="-1" Cut="0.0000000000000000e+00" cType="1" res="-6.9406186230480671e-03" rms="3.7696546316146851e-01" purity="2.3782287538051605e-01" nType="-99"/>
            </Node>
            <Node pos="r" depth="1" NCoef="0" IVar="1" Cut="3.2072657346725464e-01" cType="1" res="-1.4164950698614120e-02" rms="4.8142167925834656e-01" purity="4.5838788151741028e-01" nType="0">
              <Node pos="l" depth="2" NCoef="0" IVar="-1" Cut="0.0000000000000000e+00" cType="1" res="1.6565427649766207e-03" rms="4.7925230860710144e-01" purity="6.0303533077239990e-01" nType="-99"/>
              <Node pos="r" depth="2" NCoef="0" IVar="-1" Cut="0.0000000000000000e+00" cType="1" res="-1.4222158351913095e-03" rms="4.7453525662422180e-01" purity="4.0205764770507812e-01" nType="-99"/>
            </Node>
          </Node>
        </BinaryTree>
        <BinaryTree type="DecisionTree" boostWeight="1.0000000000000000e+00" itree="54">
          <Node pos="s" depth="0" NCoef="0" IVar="10" Cut="1.1775640106201172e+02" cType="1" res="1.7713578417897224e-02" rms="4.7888004779815674e-01" purity="5.0000000000000000e-01" nType="0">
            <Node pos="l" depth="1" NCoef="0" IVar="8" Cut="1.0447181701660156e+02" cType="1" res="1.4080566167831421e-01" rms="4.4712212681770325e-01" purity="6.7361140251159668e-01" nType="0">
              <Node pos="l" depth="2" NCoef="0" IVar="-1" Cut="0.0000000000000000e+00" cType="1" res="2.3600184358656406e-03" rms="4.4058787822723389e-01" purity="7.1330600976943970e-01" nType="-99"/>
              <Node pos="r" depth="2" NCoef="0" IVar="-1" Cut="0.0000000000000000e+00" cType="1" res="-3.8644543383270502e-03" rms="4.1683134436607361e-01" purity="3.0989402532577515e-01" nType="-99"/>
            </Node>
            <Node pos="r" depth="1" NCoef="0" IVar="9" Cut="4.4367285156250000e+02" cType="0" res="-2.8052089735865593e-02" rms="4.8221579194068909e-01" purity="4.3545126914978027e-01" nType="0">
              <Node pos="l" depth="2" NCoef="0" IVar="-1" Cut="0.0000000000000000e+00" cType="1" res="1.7560875276103616e-03" rms="4.7775444388389587e-01" purity="5.7900589704513550e-01" nType="-99"/>
              <Node pos="r" depth="2" NCoef="0" IVar="-1" Cut="0.0000000000000000e+00" cType="1" res="-1.8285417463630438e-03" rms="4.7519087791442871e-01" purity="3.8574028015136719e-01" nType="-99"/>
            </Node>
          </Node>
        </BinaryTree>
        <BinaryTree type="DecisionTree" boostWeight="1.0000000000000000e+00" itree="55">
          <Node pos="s" depth="0" NCoef="0" IVar="0" Cut="3.9602600097656250e+01" cType="1" res="1.7802676185965538e-02" rms="4.7865581512451172e-01" purity="5.0000000000000000e-01" nType="0">
            <Node pos="l" depth="1" NCoef="0" IVar="3" Cut="6.5539283752441406e+01" cType="1" res="1.1579633504152298e-01" rms="4.7190490365028381e-01" purity="6.4150404930114746e-01" nType="0">
              <Node pos="l" depth="2" NCoef="0" IVar="-1" Cut="0.0000000000000000e+00" cType="1" res="2.5320528075098991e-03" rms="4.3618109822273254e-01" purity="7.3470562696456909e-01" nType="-99"/>
              <Node pos="r" depth="2" NCoef="0" IVar="-1" Cut="0.0000000000000000e+00" cType="1" res="6.6760397749021649e-04" rms="4.9597069621086121e-01" purity="5.4064530134201050e-01" nType="-99"/>
            </Node>
            <Node pos="r" depth="1" NCoef="0" IVar="10" Cut="9.8314064025878906e+01" cType="1" res="-3.9483148604631424e-02" rms="4.7325199842453003e-01" purity="4.1727858781814575e-01" nType="0">
              <Node pos="l" depth="2" NCoef="0" IVar="-1" Cut="0.0000000000000000e+00" cType="1" res="2.7451131027191877e-03" rms="4.3057140707969666e-01" purity="7.1250724792480469e-01" nType="-99"/>
              <Node pos="r" depth="2" NCoef="0" IVar="-1" Cut="0.0000000000000000e+00" cType="1" res="-1.4600828289985657e-03" rms="4.7120952606201172e-01" purity="3.9211773872375488e-01" nType="-99"/>
            </Node>
          </Node>
        </BinaryTree>
        <BinaryTree type="DecisionTree" boostWeight="1.0000000000000000e+00" itree="56">
          <Node pos="s" depth="0" NCoef="0" IVar="0" Cut="3.9602600097656250e+01" cType="1" res="1.7851719632744789e-02" rms="4.7847911715507507e-01" purity="5.0000000000000000e-01" nType="0">
            <Node pos="l" depth="1" NCoef="0" IVar="3" Cut="6.5539283752441406e+01" cType="1" res="1.1498696357011795e-01" rms="4.7183287143707275e-01" purity="6.4150404930114746e-01" nType="0">
              <Node pos="l" depth="2" NCoef="0" IVar="-1" Cut="0.0000000000000000e+00" cType="1" res="2.5165353436022997e-03" rms="4.3618264794349670e-01" purity="7.3470562696456909e-01" nType="-99"/>
              <Node pos="r" depth="2" NCoef="0" IVar="-1" Cut="0.0000000000000000e+00" cType="1" res="6.6166865872219205e-04" rms="4.9597078561782837e-01" purity="5.4064530134201050e-01" nType="-99"/>
            </Node>
            <Node pos="r" depth="1" NCoef="0" IVar="1" Cut="3.3913606405258179e-01" cType="1" res="-3.8932286202907562e-02" rms="4.7317478060722351e-01" purity="4.1727858781814575e-01" nType="0">
              <Node pos="l" depth="2" NCoef="0" IVar="-1" Cut="0.0000000000000000e+00" cType="1" res="1.2815815862268209e-03" rms="4.8239645361900330e-01" purity="5.6266826391220093e-01" nType="-99"/>
              <Node pos="r" depth="2" NCoef="0" IVar="-1" Cut="0.0000000000000000e+00" cType="1" res="-2.1485909819602966e-03" rms="4.6257683634757996e-01" purity="3.6269751191139221e-01" nType="-99"/>
            </Node>
          </Node>
        </BinaryTree>
        <BinaryTree type="DecisionTree" boostWeight="1.0000000000000000e+00" itree="57">
          <Node pos="s" depth="0" NCoef="0" IVar="10" Cut="1.0499736785888672e+02" cType="1" res="1.7924401909112930e-02" rms="4.7828459739685059e-01" purity="5.0000000000000000e-01" nType="0">
