<?xml version="1.0"?>
<MethodSetup Method="BDT::final2_ele">
  <GeneralInfo>
    <Info name="TMVA Release" value="4.1.2 [262402]"/>
    <Info name="ROOT Release" value="5.32/00 [335872]"/>
    <Info name="Creator" value="andres"/>
    <Info name="Date" value="Mon Apr  7 17:28:01 2014"/>
    <Info name="Host" value="Linux lxbuild168.cern.ch 2.6.18-308.16.1.el5 #1 SMP Thu Oct 4 14:02:28 CEST 2012 x86_64 x86_64 x86_64 GNU/Linux"/>
    <Info name="Dir" value="/home/andres/single_top/stpol/src/qcd_mva"/>
    <Info name="Training events" value="59834"/>
    <Info name="TrainingTime" value="4.80977106e+00"/>
    <Info name="AnalysisType" value="Classification"/>
  </GeneralInfo>
  <Options>
    <Option name="V" modified="Yes">True</Option>
    <Option name="VerbosityLevel" modified="No">Verbose</Option>
    <Option name="VarTransform" modified="No">None</Option>
    <Option name="H" modified="Yes">False</Option>
    <Option name="CreateMVAPdfs" modified="No">False</Option>
    <Option name="IgnoreNegWeightsInTraining" modified="No">False</Option>
    <Option name="NTrees" modified="Yes">50</Option>
    <Option name="RenormByClass" modified="No">False</Option>
    <Option name="BoostType" modified="Yes">Grad</Option>
    <Option name="AdaBoostR2Loss" modified="No">quadratic</Option>
    <Option name="UseBaggedGrad" modified="Yes">False</Option>
    <Option name="GradBaggingFraction" modified="No">6.000000e-01</Option>
    <Option name="Shrinkage" modified="Yes">1.000000e-01</Option>
    <Option name="AdaBoostBeta" modified="No">1.000000e+00</Option>
    <Option name="UseRandomisedTrees" modified="No">False</Option>
    <Option name="UseNvars" modified="No">2</Option>
    <Option name="UsePoissonNvars" modified="No">True</Option>
    <Option name="UseNTrainEvents" modified="No">59834</Option>
    <Option name="UseWeightedTrees" modified="No">True</Option>
    <Option name="UseYesNoLeaf" modified="No">True</Option>
    <Option name="NodePurityLimit" modified="No">5.000000e-01</Option>
    <Option name="SeparationType" modified="Yes">crossentropy</Option>
    <Option name="nEventsMin" modified="Yes">250</Option>
    <Option name="nCuts" modified="Yes">200</Option>
    <Option name="UseFisherCuts" modified="No">False</Option>
    <Option name="MinLinCorrForFisher" modified="No">8.000000e-01</Option>
    <Option name="UseExclusiveVars" modified="No">False</Option>
    <Option name="PruneStrength" modified="Yes">7.000000e+00</Option>
    <Option name="PruneMethod" modified="Yes">costcomplexity</Option>
    <Option name="PruneBeforeBoost" modified="No">False</Option>
    <Option name="PruningValFraction" modified="No">5.000000e-01</Option>
    <Option name="NNodesMax" modified="No">100000</Option>
    <Option name="MaxDepth" modified="Yes">2</Option>
    <Option name="DoBoostMonitor" modified="No">False</Option>
    <Option name="NegWeightTreatment" modified="No">ignorenegweights</Option>
  </Options>
  <Variables NVar="4">
    <Variable VarIndex="0" Expression="met" Label="met" Title="met" Unit="" Internal="met" Type="D" Min="6.56654239e-02" Max="5.19555725e+02"/>
    <Variable VarIndex="1" Expression="top_mass" Label="top_mass" Title="top_mass" Unit="" Internal="top_mass" Type="D" Min="9.25496063e+01" Max="1.73890662e+03"/>
    <Variable VarIndex="2" Expression="bjet_pt" Label="bjet_pt" Title="bjet_pt" Unit="" Internal="bjet_pt" Type="D" Min="4.00006104e+01" Max="7.13827820e+02"/>
    <Variable VarIndex="3" Expression="isotropy" Label="isotropy" Title="isotropy" Unit="" Internal="isotropy" Type="D" Min="1.13109306e-01" Max="9.90200341e-01"/>
  </Variables>
  <Spectators NSpec="0"/>
  <Classes NClass="2">
    <Class Name="Background" Index="0"/>
    <Class Name="Signal" Index="1"/>
  </Classes>
  <Transformations NTransformations="0"/>
  <MVAPdfs/>
  <Weights NTrees="50" AnalysisType="1">
    <BinaryTree type="DecisionTree" boostWeight="1.0000000000000000e+00" itree="0">
      <Node pos="s" depth="0" NCoef="0" IVar="0" Cut="3.8833580017089844e+01" cType="0" res="3.9555076509714127e-02" rms="4.9843293428421021e-01" purity="5.3955507278442383e-01" nType="0">
        <Node pos="l" depth="1" NCoef="0" IVar="0" Cut="4.8402103424072266e+01" cType="0" res="3.1984734535217285e-01" rms="3.8431453704833984e-01" purity="8.1984734535217285e-01" nType="0">
          <Node pos="l" depth="2" NCoef="0" IVar="-1" Cut="0.0000000000000000e+00" cType="1" res="4.5361134409904480e-01" rms="3.1405651569366455e-01" purity="8.8906103372573853e-01" nType="-99"/>
          <Node pos="r" depth="2" NCoef="0" IVar="-1" Cut="0.0000000000000000e+00" cType="1" res="8.0977611243724823e-02" rms="4.7470706701278687e-01" purity="6.5701341629028320e-01" nType="-99"/>
        </Node>
        <Node pos="r" depth="1" NCoef="0" IVar="0" Cut="2.6295385360717773e+01" cType="0" res="-1.4689110219478607e-01" rms="4.7793617844581604e-01" purity="3.5310891270637512e-01" nType="0">
          <Node pos="l" depth="2" NCoef="0" IVar="-1" Cut="0.0000000000000000e+00" cType="1" res="-1.5980391763150692e-03" rms="4.9998152256011963e-01" purity="4.9569994211196899e-01" nType="-99"/>
          <Node pos="r" depth="2" NCoef="0" IVar="-1" Cut="0.0000000000000000e+00" cType="1" res="-5.9930175542831421e-02" rms="4.4799065589904785e-01" purity="2.7795413136482239e-01" nType="-99"/>
        </Node>
      </Node>
    </BinaryTree>
    <BinaryTree type="DecisionTree" boostWeight="1.0000000000000000e+00" itree="1">
      <Node pos="s" depth="0" NCoef="0" IVar="0" Cut="3.1079998016357422e+01" cType="0" res="-1.2870973907411098e-02" rms="4.5820900797843933e-01" purity="5.3955507278442383e-01" nType="0">
        <Node pos="l" depth="1" NCoef="0" IVar="3" Cut="7.8074574470520020e-01" cType="1" res="1.2913718819618225e-01" rms="4.0775352716445923e-01" purity="7.5227999687194824e-01" nType="0">
          <Node pos="l" depth="2" NCoef="0" IVar="-1" Cut="0.0000000000000000e+00" cType="1" res="1.3205145299434662e-01" rms="3.8499939441680908e-01" purity="7.8919363021850586e-01" nType="-99"/>
          <Node pos="r" depth="2" NCoef="0" IVar="-1" Cut="0.0000000000000000e+00" cType="1" res="-2.4566454812884331e-02" rms="4.6782884001731873e-01" purity="5.6179404258728027e-01" nType="-99"/>
        </Node>
        <Node pos="r" depth="1" NCoef="0" IVar="1" Cut="2.0511451721191406e+02" cType="1" res="-1.6786678135395050e-01" rms="4.6001052856445312e-01" purity="3.0737495422363281e-01" nType="0">
          <Node pos="l" depth="2" NCoef="0" IVar="-1" Cut="0.0000000000000000e+00" cType="1" res="-3.4710701555013657e-02" rms="4.7843781113624573e-01" purity="3.6033093929290771e-01" nType="-99"/>
          <Node pos="r" depth="2" NCoef="0" IVar="-1" Cut="0.0000000000000000e+00" cType="1" res="-7.1228295564651489e-02" rms="3.8283410668373108e-01" purity="1.7929442226886749e-01" nType="-99"/>
        </Node>
      </Node>
    </BinaryTree>
    <BinaryTree type="DecisionTree" boostWeight="1.0000000000000000e+00" itree="2">
      <Node pos="s" depth="0" NCoef="0" IVar="0" Cut="2.8495470046997070e+01" cType="0" res="-2.6239804923534393e-02" rms="4.4585385918617249e-01" purity="5.3955507278442383e-01" nType="0">
        <Node pos="l" depth="1" NCoef="0" IVar="1" Cut="2.2439799499511719e+02" cType="1" res="7.5191006064414978e-02" rms="4.1301852464675903e-01" purity="7.2935593128204346e-01" nType="0">
          <Node pos="l" depth="2" NCoef="0" IVar="-1" Cut="0.0000000000000000e+00" cType="1" res="8.6456157267093658e-02" rms="3.9504361152648926e-01" purity="7.6760524511337280e-01" nType="-99"/>
          <Node pos="r" depth="2" NCoef="0" IVar="-1" Cut="0.0000000000000000e+00" cType="1" res="-3.2829210162162781e-02" rms="4.4678783416748047e-01" purity="5.8330380916595459e-01" nType="-99"/>
        </Node>
        <Node pos="r" depth="1" NCoef="0" IVar="2" Cut="5.5277427673339844e+01" cType="0" res="-1.5889634191989899e-01" rms="4.5234462618827820e-01" purity="2.9132351279258728e-01" nType="0">
          <Node pos="l" depth="2" NCoef="0" IVar="-1" Cut="0.0000000000000000e+00" cType="1" res="-3.0260900035500526e-02" rms="4.7355705499649048e-01" purity="3.4801101684570312e-01" nType="-99"/>
          <Node pos="r" depth="2" NCoef="0" IVar="-1" Cut="0.0000000000000000e+00" cType="1" res="-6.4430020749568939e-02" rms="3.9066562056541443e-01" purity="1.8965546786785126e-01" nType="-99"/>
        </Node>
      </Node>
    </BinaryTree>
    <BinaryTree type="DecisionTree" boostWeight="1.0000000000000000e+00" itree="3">
      <Node pos="s" depth="0" NCoef="0" IVar="0" Cut="4.1418106079101562e+01" cType="0" res="-3.1783252954483032e-02" rms="4.3838310241699219e-01" purity="5.3955507278442383e-01" nType="0">
        <Node pos="l" depth="1" NCoef="0" IVar="3" Cut="8.6801850795745850e-01" cType="1" res="9.9919460713863373e-02" rms="3.4984880685806274e-01" purity="8.4016257524490356e-01" nType="0">
          <Node pos="l" depth="2" NCoef="0" IVar="-1" Cut="0.0000000000000000e+00" cType="1" res="1.4206716418266296e-01" rms="3.3599075675010681e-01" purity="8.5753953456878662e-01" nType="-99"/>
          <Node pos="r" depth="2" NCoef="0" IVar="-1" Cut="0.0000000000000000e+00" cType="1" res="-6.3140183687210083e-02" rms="4.7834354639053345e-01" purity="5.3585761785507202e-01" nType="-99"/>
        </Node>
        <Node pos="r" depth="1" NCoef="0" IVar="1" Cut="2.0366941833496094e+02" cType="1" res="-1.0704759508371353e-01" rms="4.6527728438377380e-01" purity="3.6776646971702576e-01" nType="0">
          <Node pos="l" depth="2" NCoef="0" IVar="-1" Cut="0.0000000000000000e+00" cType="1" res="-1.8306963145732880e-02" rms="4.7807878255844116e-01" purity="4.2891731858253479e-01" nType="-99"/>
          <Node pos="r" depth="2" NCoef="0" IVar="-1" Cut="0.0000000000000000e+00" cType="1" res="-6.0305453836917877e-02" rms="4.0629592537879944e-01" purity="2.2274109721183777e-01" nType="-99"/>
        </Node>
      </Node>
    </BinaryTree>
    <BinaryTree type="DecisionTree" boostWeight="1.0000000000000000e+00" itree="4">
      <Node pos="s" depth="0" NCoef="0" IVar="0" Cut="2.0741886138916016e+01" cType="0" res="-3.8658455014228821e-02" rms="4.3121504783630371e-01" purity="5.3955507278442383e-01" nType="0">
        <Node pos="l" depth="1" NCoef="0" IVar="1" Cut="2.0556251525878906e+02" cType="1" res="1.0636549443006516e-02" rms="4.2215692996978760e-01" purity="6.5507817268371582e-01" nType="0">
          <Node pos="l" depth="2" NCoef="0" IVar="-1" Cut="0.0000000000000000e+00" cType="1" res="3.2994333654642105e-02" rms="4.1264781355857849e-01" purity="7.0806634426116943e-01" nType="-99"/>
          <Node pos="r" depth="2" NCoef="0" IVar="-1" Cut="0.0000000000000000e+00" cType="1" res="-3.7741832435131073e-02" rms="4.2931509017944336e-01" purity="5.2184820175170898e-01" nType="-99"/>
        </Node>
        <Node pos="r" depth="1" NCoef="0" IVar="2" Cut="5.8672275543212891e+01" cType="0" res="-1.6269978880882263e-01" rms="4.2883148789405823e-01" purity="2.4886357784271240e-01" nType="0">
          <Node pos="l" depth="2" NCoef="0" IVar="-1" Cut="0.0000000000000000e+00" cType="1" res="-2.9691170901060104e-02" rms="4.5882719755172729e-01" purity="3.1160295009613037e-01" nType="-99"/>
          <Node pos="r" depth="2" NCoef="0" IVar="-1" Cut="0.0000000000000000e+00" cType="1" res="-5.9542495757341385e-02" rms="3.7071570754051208e-01" purity="1.6608466207981110e-01" nType="-99"/>
        </Node>
      </Node>
    </BinaryTree>
    <BinaryTree type="DecisionTree" boostWeight="1.0000000000000000e+00" itree="5">
      <Node pos="s" depth="0" NCoef="0" IVar="0" Cut="5.4340747833251953e+01" cType="0" res="-3.6343682557344437e-02" rms="4.2776411771774292e-01" purity="5.3955507278442383e-01" nType="0">
        <Node pos="l" depth="1" NCoef="0" IVar="0" Cut="6.8228080749511719e+01" cType="0" res="9.1732911765575409e-02" rms="2.8020626306533813e-01" purity="9.1055154800415039e-01" nType="0">
          <Node pos="l" depth="2" NCoef="0" IVar="-1" Cut="0.0000000000000000e+00" cType="1" res="2.9434189200401306e-01" rms="2.4641688168048859e-01" purity="9.3382674455642700e-01" nType="-99"/>
          <Node pos="r" depth="2" NCoef="0" IVar="-1" Cut="0.0000000000000000e+00" cType="1" res="9.3648299574851990e-02" rms="3.1842553615570068e-01" purity="8.7724339962005615e-01" nType="-99"/>
        </Node>
        <Node pos="r" depth="1" NCoef="0" IVar="2" Cut="5.3107662200927734e+01" cType="0" res="-7.3678351938724518e-02" rms="4.5525690913200378e-01" purity="4.3140858411788940e-01" nType="0">
          <Node pos="l" depth="2" NCoef="0" IVar="-1" Cut="0.0000000000000000e+00" cType="1" res="-1.0915121994912624e-02" rms="4.6190083026885986e-01" purity="4.8319333791732788e-01" nType="-99"/>
          <Node pos="r" depth="2" NCoef="0" IVar="-1" Cut="0.0000000000000000e+00" cType="1" res="-5.4495859891176224e-02" rms="4.1905251145362854e-01" purity="3.0635952949523926e-01" nType="-99"/>
        </Node>
      </Node>
    </BinaryTree>
    <BinaryTree type="DecisionTree" boostWeight="1.0000000000000000e+00" itree="6">
      <Node pos="s" depth="0" NCoef="0" IVar="3" Cut="7.8074574470520020e-01" cType="1" res="-3.9896000176668167e-02" rms="4.2287352681159973e-01" purity="5.3955507278442383e-01" nType="0">
        <Node pos="l" depth="1" NCoef="0" IVar="1" Cut="2.2740608215332031e+02" cType="1" res="-8.9356824755668640e-03" rms="4.1902199387550354e-01" purity="5.8824962377548218e-01" nType="0">
          <Node pos="l" depth="2" NCoef="0" IVar="-1" Cut="0.0000000000000000e+00" cType="1" res="1.0225655511021614e-02" rms="4.1792982816696167e-01" purity="6.2628495693206787e-01" nType="-99"/>
          <Node pos="r" depth="2" NCoef="0" IVar="-1" Cut="0.0000000000000000e+00" cType="1" res="-4.7677583992481232e-02" rms="4.0165472030639648e-01" purity="4.2309099435806274e-01" nType="-99"/>
        </Node>
        <Node pos="r" depth="1" NCoef="0" IVar="0" Cut="7.2776679992675781e+01" cType="0" res="-1.6188088059425354e-01" rms="4.1586166620254517e-01" purity="3.4769666194915771e-01" nType="0">
          <Node pos="l" depth="2" NCoef="0" IVar="-1" Cut="0.0000000000000000e+00" cType="1" res="2.0697738230228424e-01" rms="2.5582128763198853e-01" purity="9.2452210187911987e-01" nType="-99"/>
          <Node pos="r" depth="2" NCoef="0" IVar="-1" Cut="0.0000000000000000e+00" cType="1" res="-5.4946321994066238e-02" rms="4.2088919878005981e-01" purity="2.8650632500648499e-01" nType="-99"/>
        </Node>
      </Node>
    </BinaryTree>
    <BinaryTree type="DecisionTree" boostWeight="1.0000000000000000e+00" itree="7">
      <Node pos="s" depth="0" NCoef="0" IVar="0" Cut="1.8157358169555664e+01" cType="0" res="-3.5932555794715881e-02" rms="4.2014989256858826e-01" purity="5.3955507278442383e-01" nType="0">
        <Node pos="l" depth="1" NCoef="0" IVar="3" Cut="7.0656394958496094e-01" cType="1" res="-4.6471459791064262e-03" rms="4.1683581471443176e-01" purity="6.3335877656936646e-01" nType="0">
          <Node pos="l" depth="2" NCoef="0" IVar="-1" Cut="0.0000000000000000e+00" cType="1" res="2.0686335861682892e-02" rms="4.0294072031974792e-01" purity="6.9108635187149048e-01" nType="-99"/>
          <Node pos="r" depth="2" NCoef="0" IVar="-1" Cut="0.0000000000000000e+00" cType="1" res="-3.6938525736331940e-02" rms="4.3534240126609802e-01" purity="5.0204032659530640e-01" nType="-99"/>
        </Node>
        <Node pos="r" depth="1" NCoef="0" IVar="2" Cut="5.6974849700927734e+01" cType="0" res="-1.3810957968235016e-01" rms="4.1466659307479858e-01" purity="2.3319572210311890e-01" nType="0">
          <Node pos="l" depth="2" NCoef="0" IVar="-1" Cut="0.0000000000000000e+00" cType="1" res="-2.6857361197471619e-02" rms="4.4771215319633484e-01" purity="2.9271203279495239e-01" nType="-99"/>
          <Node pos="r" depth="2" NCoef="0" IVar="-1" Cut="0.0000000000000000e+00" cType="1" res="-5.2198730409145355e-02" rms="3.5179549455642700e-01" purity="1.4817482233047485e-01" nType="-99"/>
        </Node>
      </Node>
    </BinaryTree>
    <BinaryTree type="DecisionTree" boostWeight="1.0000000000000000e+00" itree="8">
      <Node pos="s" depth="0" NCoef="0" IVar="1" Cut="1.3350375366210938e+02" cType="0" res="-3.2533936202526093e-02" rms="4.1804292798042297e-01" purity="5.3955507278442383e-01" nType="0">
        <Node pos="l" depth="1" NCoef="0" IVar="1" Cut="1.9740103149414062e+02" cType="1" res="-1.5236679464578629e-02" rms="4.1745179891586304e-01" purity="5.6499594449996948e-01" nType="0">
          <Node pos="l" depth="2" NCoef="0" IVar="-1" Cut="0.0000000000000000e+00" cType="1" res="1.9508015364408493e-02" rms="4.1706725955009460e-01" purity="6.4064472913742065e-01" nType="-99"/>
          <Node pos="r" depth="2" NCoef="0" IVar="-1" Cut="0.0000000000000000e+00" cType="1" res="-3.8481973111629486e-02" rms="4.0376168489456177e-01" purity="4.3490281701087952e-01" nType="-99"/>
        </Node>
        <Node pos="r" depth="1" NCoef="0" IVar="3" Cut="6.7782551050186157e-01" cType="1" res="-1.9593958556652069e-01" rms="3.8716623187065125e-01" purity="2.9921725392341614e-01" nType="0">
          <Node pos="l" depth="2" NCoef="0" IVar="-1" Cut="0.0000000000000000e+00" cType="1" res="-4.3773353099822998e-02" rms="4.1897097229957581e-01" purity="4.0970754623413086e-01" nType="-99"/>
          <Node pos="r" depth="2" NCoef="0" IVar="-1" Cut="0.0000000000000000e+00" cType="1" res="-6.9039374589920044e-02" rms="3.5193207859992981e-01" purity="2.1706059575080872e-01" nType="-99"/>
        </Node>
      </Node>
    </BinaryTree>
    <BinaryTree type="DecisionTree" boostWeight="1.0000000000000000e+00" itree="9">
      <Node pos="s" depth="0" NCoef="0" IVar="2" Cut="5.6762481689453125e+01" cType="0" res="-2.9346587136387825e-02" rms="4.1541168093681335e-01" purity="5.3955507278442383e-01" nType="0">
        <Node pos="l" depth="1" NCoef="0" IVar="1" Cut="1.8709706115722656e+02" cType="1" res="8.0019673332571983e-03" rms="4.1991052031517029e-01" purity="5.8878302574157715e-01" nType="0">
          <Node pos="l" depth="2" NCoef="0" IVar="-1" Cut="0.0000000000000000e+00" cType="1" res="4.6715363860130310e-02" rms="4.1429418325424194e-01" purity="6.8807965517044067e-01" nType="-99"/>
          <Node pos="r" depth="2" NCoef="0" IVar="-1" Cut="0.0000000000000000e+00" cType="1" res="-2.4289956316351891e-02" rms="4.1486766934394836e-01" purity="4.9118632078170776e-01" nType="-99"/>
        </Node>
        <Node pos="r" depth="1" NCoef="0" IVar="0" Cut="4.1515712738037109e+01" cType="0" res="-9.8627254366874695e-02" rms="3.9775437116622925e-01" purity="4.4823846220970154e-01" nType="0">
          <Node pos="l" depth="2" NCoef="0" IVar="-1" Cut="0.0000000000000000e+00" cType="1" res="1.7199553549289703e-02" rms="3.3315193653106689e-01" purity="8.4438127279281616e-01" nType="-99"/>
          <Node pos="r" depth="2" NCoef="0" IVar="-1" Cut="0.0000000000000000e+00" cType="1" res="-4.3819561600685120e-02" rms="4.1483080387115479e-01" purity="2.5958344340324402e-01" nType="-99"/>
        </Node>
      </Node>
    </BinaryTree>
    <BinaryTree type="DecisionTree" boostWeight="1.0000000000000000e+00" itree="10">
      <Node pos="s" depth="0" NCoef="0" IVar="0" Cut="1.8157358169555664e+01" cType="0" res="-2.7899770066142082e-02" rms="4.1243258118629456e-01" purity="5.3955507278442383e-01" nType="0">
        <Node pos="l" depth="1" NCoef="0" IVar="3" Cut="8.3310943841934204e-01" cType="1" res="-2.1662577055394650e-03" rms="4.1010031104087830e-01" purity="6.3335877656936646e-01" nType="0">
          <Node pos="l" depth="2" NCoef="0" IVar="-1" Cut="0.0000000000000000e+00" cType="1" res="8.2729822024703026e-03" rms="4.0583226084709167e-01" purity="6.6375440359115601e-01" nType="-99"/>
          <Node pos="r" depth="2" NCoef="0" IVar="-1" Cut="0.0000000000000000e+00" cType="1" res="-4.6601474285125732e-02" rms="4.2138358950614929e-01" purity="3.7951397895812988e-01" nType="-99"/>
        </Node>
        <Node pos="r" depth="1" NCoef="0" IVar="2" Cut="6.7159393310546875e+01" cType="0" res="-1.1194448918104172e-01" rms="4.0882715582847595e-01" purity="2.3319572210311890e-01" nType="0">
          <Node pos="l" depth="2" NCoef="0" IVar="-1" Cut="0.0000000000000000e+00" cType="1" res="-1.8747659400105476e-02" rms="4.4444599747657776e-01" purity="3.0364266037940979e-01" nType="-99"/>
          <Node pos="r" depth="2" NCoef="0" IVar="-1" Cut="0.0000000000000000e+00" cType="1" res="-4.1909426450729370e-02" rms="3.7456259131431580e-01" purity="1.7920385301113129e-01" nType="-99"/>
        </Node>
      </Node>
    </BinaryTree>
    <BinaryTree type="DecisionTree" boostWeight="1.0000000000000000e+00" itree="11">
      <Node pos="s" depth="0" NCoef="0" IVar="2" Cut="6.3467227935791016e+01" cType="0" res="-2.5132970884442329e-02" rms="4.1115060448646545e-01" purity="5.3955507278442383e-01" nType="0">
        <Node pos="l" depth="1" NCoef="0" IVar="1" Cut="1.8870225524902344e+02" cType="1" res="1.5891995280981064e-02" rms="4.1522324085235596e-01" purity="5.9490495920181274e-01" nType="0">
          <Node pos="l" depth="2" NCoef="0" IVar="-1" Cut="0.0000000000000000e+00" cType="1" res="6.2527574598789215e-02" rms="4.0382331609725952e-01" purity="7.2480571269989014e-01" nType="-99"/>
          <Node pos="r" depth="2" NCoef="0" IVar="-1" Cut="0.0000000000000000e+00" cType="1" res="-2.0366068929433823e-02" rms="4.1421294212341309e-01" purity="4.8159655928611755e-01" nType="-99"/>
        </Node>
        <Node pos="r" depth="1" NCoef="0" IVar="0" Cut="4.1515712738037109e+01" cType="0" res="-7.3484383523464203e-02" rms="4.0094488859176636e-01" purity="4.7432059049606323e-01" nType="0">
          <Node pos="l" depth="2" NCoef="0" IVar="-1" Cut="0.0000000000000000e+00" cType="1" res="1.4117629267275333e-02" rms="3.3179086446762085e-01" purity="8.4702515602111816e-01" nType="-99"/>
          <Node pos="r" depth="2" NCoef="0" IVar="-1" Cut="0.0000000000000000e+00" cType="1" res="-3.5216003656387329e-02" rms="4.2541137337684631e-01" purity="2.8749334812164307e-01" nType="-99"/>
        </Node>
      </Node>
    </BinaryTree>
    <BinaryTree type="DecisionTree" boostWeight="1.0000000000000000e+00" itree="12">
      <Node pos="s" depth="0" NCoef="0" IVar="1" Cut="1.3350375366210938e+02" cType="0" res="-2.4580234661698341e-02" rms="4.0839111804962158e-01" purity="5.3955507278442383e-01" nType="0">
        <Node pos="l" depth="1" NCoef="0" IVar="1" Cut="2.2136225891113281e+02" cType="1" res="-1.1076239868998528e-02" rms="4.0875262022018433e-01" purity="5.6499594449996948e-01" nType="0">
          <Node pos="l" depth="2" NCoef="0" IVar="-1" Cut="0.0000000000000000e+00" cType="1" res="6.8050585687160492e-03" rms="4.1049224138259888e-01" purity="6.1979055404663086e-01" nType="-99"/>
          <Node pos="r" depth="2" NCoef="0" IVar="-1" Cut="0.0000000000000000e+00" cType="1" res="-3.1705927103757858e-02" rms="3.9439827203750610e-01" purity="3.9453390240669250e-01" nType="-99"/>
        </Node>
        <Node pos="r" depth="1" NCoef="0" IVar="3" Cut="7.0263046026229858e-01" cType="1" res="-1.5215127170085907e-01" rms="3.8209390640258789e-01" purity="2.9921725392341614e-01" nType="0">
          <Node pos="l" depth="2" NCoef="0" IVar="-1" Cut="0.0000000000000000e+00" cType="1" res="-3.3138051629066467e-02" rms="4.0864276885986328e-01" purity="3.9790466427803040e-01" nType="-99"/>
          <Node pos="r" depth="2" NCoef="0" IVar="-1" Cut="0.0000000000000000e+00" cType="1" res="-6.1744201928377151e-02" rms="3.4578227996826172e-01" purity="2.0802889764308929e-01" nType="-99"/>
        </Node>
      </Node>
    </BinaryTree>
    <BinaryTree type="DecisionTree" boostWeight="1.0000000000000000e+00" itree="13">
      <Node pos="s" depth="0" NCoef="0" IVar="3" Cut="7.5020033121109009e-01" cType="1" res="-2.1720917895436287e-02" rms="4.0716344118118286e-01" purity="5.3955507278442383e-01" nType="0">
        <Node pos="l" depth="1" NCoef="0" IVar="0" Cut="2.1814342498779297e+01" cType="0" res="1.2922044843435287e-03" rms="4.0548470616340637e-01" purity="5.9450882673263550e-01" nType="0">
          <Node pos="l" depth="2" NCoef="0" IVar="-1" Cut="0.0000000000000000e+00" cType="1" res="1.8184658139944077e-02" rms="3.9129641652107239e-01" purity="7.1388828754425049e-01" nType="-99"/>
          <Node pos="r" depth="2" NCoef="0" IVar="-1" Cut="0.0000000000000000e+00" cType="1" res="-1.9357502460479736e-02" rms="4.3361911177635193e-01" purity="2.8747007250785828e-01" nType="-99"/>
        </Node>
        <Node pos="r" depth="1" NCoef="0" IVar="2" Cut="7.3530570983886719e+01" cType="0" res="-8.9901901781558990e-02" rms="4.0448266267776489e-01" purity="3.7674376368522644e-01" nType="0">
          <Node pos="l" depth="2" NCoef="0" IVar="-1" Cut="0.0000000000000000e+00" cType="1" res="-1.3019003905355930e-02" rms="4.2440721392631531e-01" purity="4.6293479204177856e-01" nType="-99"/>
          <Node pos="r" depth="2" NCoef="0" IVar="-1" Cut="0.0000000000000000e+00" cType="1" res="-4.7854442149400711e-02" rms="3.7647813558578491e-01" purity="2.9507198929786682e-01" nType="-99"/>
        </Node>
      </Node>
    </BinaryTree>
    <BinaryTree type="DecisionTree" boostWeight="1.0000000000000000e+00" itree="14">
      <Node pos="s" depth="0" NCoef="0" IVar="2" Cut="7.0171974182128906e+01" cType="0" res="-2.0269507542252541e-02" rms="4.0593871474266052e-01" purity="5.3955507278442383e-01" nType="0">
        <Node pos="l" depth="1" NCoef="0" IVar="1" Cut="1.9686122131347656e+02" cType="1" res="2.1131066605448723e-02" rms="4.0937823057174683e-01" purity="5.9593677520751953e-01" nType="0">
          <Node pos="l" depth="2" NCoef="0" IVar="-1" Cut="0.0000000000000000e+00" cType="1" res="5.9936217963695526e-02" rms="3.9950928092002869e-01" purity="7.3770105838775635e-01" nType="-99"/>
          <Node pos="r" depth="2" NCoef="0" IVar="-1" Cut="0.0000000000000000e+00" cType="1" res="-1.5408296138048172e-02" rms="4.1034394502639771e-01" purity="4.5860710740089417e-01" nType="-99"/>
        </Node>
        <Node pos="r" depth="1" NCoef="0" IVar="3" Cut="6.2438195943832397e-01" cType="1" res="-5.3336910903453827e-02" rms="4.0010491013526917e-01" purity="4.9452197551727295e-01" nType="0">
          <Node pos="l" depth="2" NCoef="0" IVar="-1" Cut="0.0000000000000000e+00" cType="1" res="-4.9168621189892292e-03" rms="3.9575669169425964e-01" purity="5.7875156402587891e-01" nType="-99"/>
          <Node pos="r" depth="2" NCoef="0" IVar="-1" Cut="0.0000000000000000e+00" cType="1" res="-4.2356107383966446e-02" rms="3.9841294288635254e-01" purity="3.8155603408813477e-01" nType="-99"/>
        </Node>
      </Node>
    </BinaryTree>
    <BinaryTree type="DecisionTree" boostWeight="1.0000000000000000e+00" itree="15">
      <Node pos="s" depth="0" NCoef="0" IVar="3" Cut="8.3310943841934204e-01" cType="1" res="-1.9375687465071678e-02" rms="4.0374681353569031e-01" purity="5.3955507278442383e-01" nType="0">
        <Node pos="l" depth="1" NCoef="0" IVar="2" Cut="7.2768241882324219e+01" cType="0" res="-6.4743538387119770e-03" rms="4.0418010950088501e-01" purity="5.7337284088134766e-01" nType="0">
          <Node pos="l" depth="2" NCoef="0" IVar="-1" Cut="0.0000000000000000e+00" cType="1" res="2.2059440612792969e-02" rms="4.0236136317253113e-01" purity="6.4199948310852051e-01" nType="-99"/>
          <Node pos="r" depth="2" NCoef="0" IVar="-1" Cut="0.0000000000000000e+00" cType="1" res="-1.6374725848436356e-02" rms="4.0281865000724792e-01" purity="5.2914988994598389e-01" nType="-99"/>
        </Node>
        <Node pos="r" depth="1" NCoef="0" IVar="1" Cut="1.2531292724609375e+02" cType="0" res="-1.1169007420539856e-01" rms="3.8832163810729980e-01" purity="2.9757496714591980e-01" nType="0">
          <Node pos="l" depth="2" NCoef="0" IVar="-1" Cut="0.0000000000000000e+00" cType="1" res="-3.1646028161048889e-02" rms="4.0368893742561340e-01" purity="3.3521586656570435e-01" nType="-99"/>
          <Node pos="r" depth="2" NCoef="0" IVar="-1" Cut="0.0000000000000000e+00" cType="1" res="-6.7203670740127563e-02" rms="2.5848731398582458e-01" purity="8.9365802705287933e-02" nType="-99"/>
        </Node>
      </Node>
    </BinaryTree>
    <BinaryTree type="DecisionTree" boostWeight="1.0000000000000000e+00" itree="16">
      <Node pos="s" depth="0" NCoef="0" IVar="0" Cut="2.3326414108276367e+01" cType="0" res="-1.7180781811475754e-02" rms="4.0269538760185242e-01" purity="5.3955507278442383e-01" nType="0">
        <Node pos="l" depth="1" NCoef="0" IVar="3" Cut="6.7601847648620605e-01" cType="1" res="6.2095331959426403e-03" rms="3.9352142810821533e-01" purity="6.7887467145919800e-01" nType="0">
          <Node pos="l" depth="2" NCoef="0" IVar="-1" Cut="0.0000000000000000e+00" cType="1" res="2.3514816537499428e-02" rms="3.7862405180931091e-01" purity="7.4295777082443237e-01" nType="-99"/>
          <Node pos="r" depth="2" NCoef="0" IVar="-1" Cut="0.0000000000000000e+00" cType="1" res="-1.8035795539617538e-02" rms="4.1553747653961182e-01" purity="5.6381261348724365e-01" nType="-99"/>
        </Node>
        <Node pos="r" depth="1" NCoef="0" IVar="1" Cut="1.4017921447753906e+02" cType="0" res="-6.3550069928169250e-02" rms="4.1642448306083679e-01" purity="2.6336592435836792e-01" nType="0">
          <Node pos="l" depth="2" NCoef="0" IVar="-1" Cut="0.0000000000000000e+00" cType="1" res="-1.5396264381706715e-02" rms="4.2989134788513184e-01" purity="2.9159682989120483e-01" nType="-99"/>
          <Node pos="r" depth="2" NCoef="0" IVar="-1" Cut="0.0000000000000000e+00" cType="1" res="-4.0791727602481842e-02" rms="3.4397110342979431e-01" purity="1.4230139553546906e-01" nType="-99"/>
        </Node>
      </Node>
    </BinaryTree>
    <BinaryTree type="DecisionTree" boostWeight="1.0000000000000000e+00" itree="17">
      <Node pos="s" depth="0" NCoef="0" IVar="1" Cut="1.4169459533691406e+02" cType="0" res="-1.6160108149051666e-02" rms="4.0192171931266785e-01" purity="5.3955507278442383e-01" nType="0">
        <Node pos="l" depth="1" NCoef="0" IVar="1" Cut="1.8937269592285156e+02" cType="1" res="-3.8312121760100126e-03" rms="4.0277716517448425e-01" purity="5.7086777687072754e-01" nType="0">
          <Node pos="l" depth="2" NCoef="0" IVar="-1" Cut="0.0000000000000000e+00" cType="1" res="2.0000133663415909e-02" rms="4.0170696377754211e-01" purity="6.6439372301101685e-01" nType="-99"/>
          <Node pos="r" depth="2" NCoef="0" IVar="-1" Cut="0.0000000000000000e+00" cType="1" res="-1.9983468577265739e-02" rms="3.9984712004661560e-01" purity="4.5928338170051575e-01" nType="-99"/>
        </Node>
        <Node pos="r" depth="1" NCoef="0" IVar="0" Cut="6.0849098205566406e+01" cType="0" res="-8.7434567511081696e-02" rms="3.8936188817024231e-01" purity="3.5853353142738342e-01" nType="0">
          <Node pos="l" depth="2" NCoef="0" IVar="-1" Cut="0.0000000000000000e+00" cType="1" res="1.7131902277469635e-01" rms="2.3167435824871063e-01" purity="9.3395912647247314e-01" nType="-99"/>
          <Node pos="r" depth="2" NCoef="0" IVar="-1" Cut="0.0000000000000000e+00" cType="1" res="-3.5104349255561829e-02" rms="3.9803421497344971e-01" purity="3.0604621767997742e-01" nType="-99"/>
        </Node>
      </Node>
    </BinaryTree>
    <BinaryTree type="DecisionTree" boostWeight="1.0000000000000000e+00" itree="18">
      <Node pos="s" depth="0" NCoef="0" IVar="0" Cut="1.5572831153869629e+01" cType="0" res="-1.5063065104186535e-02" rms="4.0086361765861511e-01" purity="5.3955507278442383e-01" nType="0">
        <Node pos="l" depth="1" NCoef="0" IVar="2" Cut="5.3410106658935547e+01" cType="0" res="-1.3352134265005589e-03" rms="4.0095168352127075e-01" purity="6.1063462495803833e-01" nType="0">
          <Node pos="l" depth="2" NCoef="0" IVar="-1" Cut="0.0000000000000000e+00" cType="1" res="9.1457711532711983e-03" rms="4.0052103996276855e-01" purity="6.4468604326248169e-01" nType="-99"/>
          <Node pos="r" depth="2" NCoef="0" IVar="-1" Cut="0.0000000000000000e+00" cType="1" res="-2.1447544917464256e-02" rms="3.9875736832618713e-01" purity="5.2029418945312500e-01" nType="-99"/>
        </Node>
        <Node pos="r" depth="1" NCoef="0" IVar="1" Cut="2.7068759155273438e+02" cType="1" res="-7.6384328305721283e-02" rms="3.9468225836753845e-01" purity="2.2204813361167908e-01" nType="0">
          <Node pos="l" depth="2" NCoef="0" IVar="-1" Cut="0.0000000000000000e+00" cType="1" res="-2.1379532292485237e-02" rms="4.0695351362228394e-01" purity="2.4114614725112915e-01" nType="-99"/>
          <Node pos="r" depth="2" NCoef="0" IVar="-1" Cut="0.0000000000000000e+00" cType="1" res="-4.6179171651601791e-02" rms="2.8145092725753784e-01" purity="8.6879909038543701e-02" nType="-99"/>
        </Node>
      </Node>
    </BinaryTree>
    <BinaryTree type="DecisionTree" boostWeight="1.0000000000000000e+00" itree="19">
      <Node pos="s" depth="0" NCoef="0" IVar="3" Cut="8.3747303485870361e-01" cType="1" res="-1.3553186319768429e-02" rms="4.0029630064964294e-01" purity="5.3955507278442383e-01" nType="0">
        <Node pos="l" depth="1" NCoef="0" IVar="2" Cut="7.9321769714355469e+01" cType="0" res="-3.8593155331909657e-03" rms="4.0112707018852234e-01" purity="5.7178491353988647e-01" nType="0">
          <Node pos="l" depth="2" NCoef="0" IVar="-1" Cut="0.0000000000000000e+00" cType="1" res="2.3163076490163803e-02" rms="3.9850398898124695e-01" purity="6.4113670587539673e-01" nType="-99"/>
          <Node pos="r" depth="2" NCoef="0" IVar="-1" Cut="0.0000000000000000e+00" cType="1" res="-1.1433590203523636e-02" rms="4.0081721544265747e-01" purity="5.4062831401824951e-01" nType="-99"/>
        </Node>
        <Node pos="r" depth="1" NCoef="0" IVar="0" Cut="7.7943161010742188e+01" cType="0" res="-8.7437413632869720e-02" rms="3.8598892092704773e-01" purity="2.9390764236450195e-01" nType="0">
          <Node pos="l" depth="2" NCoef="0" IVar="-1" Cut="0.0000000000000000e+00" cType="1" res="1.2073497474193573e-01" rms="3.1359425187110901e-01" purity="8.8823908567428589e-01" nType="-99"/>
          <Node pos="r" depth="2" NCoef="0" IVar="-1" Cut="0.0000000000000000e+00" cType="1" res="-3.3514782786369324e-02" rms="3.8870826363563538e-01" purity="2.4546676874160767e-01" nType="-99"/>
        </Node>
      </Node>
    </BinaryTree>
    <BinaryTree type="DecisionTree" boostWeight="1.0000000000000000e+00" itree="20">
      <Node pos="s" depth="0" NCoef="0" IVar="1" Cut="2.3179373168945312e+02" cType="1" res="-1.2234251014888287e-02" rms="3.9957895874977112e-01" purity="5.3955507278442383e-01" nType="0">
        <Node pos="l" depth="1" NCoef="0" IVar="1" Cut="1.4034844970703125e+02" cType="0" res="5.7200703304260969e-04" rms="4.0097165107727051e-01" purity="5.7557189464569092e-01" nType="0">
          <Node pos="l" depth="2" NCoef="0" IVar="-1" Cut="0.0000000000000000e+00" cType="1" res="9.0129720047116280e-03" rms="4.0242120623588562e-01" purity="6.2283027172088623e-01" nType="-99"/>
          <Node pos="r" depth="2" NCoef="0" IVar="-1" Cut="0.0000000000000000e+00" cType="1" res="-2.8150517493486404e-02" rms="3.8569217920303345e-01" purity="3.4809017181396484e-01" nType="-99"/>
        </Node>
        <Node pos="r" depth="1" NCoef="0" IVar="0" Cut="5.8105682373046875e+01" cType="0" res="-6.6897600889205933e-02" rms="3.8886526226997375e-01" purity="3.8581776618957520e-01" nType="0">
          <Node pos="l" depth="2" NCoef="0" IVar="-1" Cut="0.0000000000000000e+00" cType="1" res="8.2993201911449432e-02" rms="3.2957813143730164e-01" purity="8.6691439151763916e-01" nType="-99"/>
          <Node pos="r" depth="2" NCoef="0" IVar="-1" Cut="0.0000000000000000e+00" cType="1" res="-3.3163718879222870e-02" rms="3.9785733819007874e-01" purity="2.4567106366157532e-01" nType="-99"/>
        </Node>
      </Node>
    </BinaryTree>
    <BinaryTree type="DecisionTree" boostWeight="1.0000000000000000e+00" itree="21">
      <Node pos="s" depth="0" NCoef="0" IVar="1" Cut="3.0551119995117188e+02" cType="1" res="-1.2033420614898205e-02" rms="3.9871916174888611e-01" purity="5.3955507278442383e-01" nType="0">
        <Node pos="l" depth="1" NCoef="0" IVar="3" Cut="8.0692756175994873e-01" cType="1" res="-5.0429990515112877e-03" rms="4.0037325024604797e-01" purity="5.5360150337219238e-01" nType="0">
          <Node pos="l" depth="2" NCoef="0" IVar="-1" Cut="0.0000000000000000e+00" cType="1" res="3.2637971453368664e-03" rms="4.0119796991348267e-01" purity="5.9512537717819214e-01" nType="-99"/>
          <Node pos="r" depth="2" NCoef="0" IVar="-1" Cut="0.0000000000000000e+00" cType="1" res="-2.4675942957401276e-02" rms="3.9039629697799683e-01" purity="3.2621392607688904e-01" nType="-99"/>
        </Node>
        <Node pos="r" depth="1" NCoef="0" IVar="0" Cut="5.3826492309570312e+01" cType="0" res="-1.0005112737417221e-01" rms="3.6602175235748291e-01" purity="3.6269378662109375e-01" nType="0">
          <Node pos="l" depth="2" NCoef="0" IVar="-1" Cut="0.0000000000000000e+00" cType="1" res="4.4597487896680832e-02" rms="3.4085708856582642e-01" purity="8.5850131511688232e-01" nType="-99"/>
          <Node pos="r" depth="2" NCoef="0" IVar="-1" Cut="0.0000000000000000e+00" cType="1" res="-4.5538168400526047e-02" rms="3.6342266201972961e-01" purity="1.6844379901885986e-01" nType="-99"/>
        </Node>
      </Node>
    </BinaryTree>
    <BinaryTree type="DecisionTree" boostWeight="1.0000000000000000e+00" itree="22">
      <Node pos="s" depth="0" NCoef="0" IVar="0" Cut="1.2988304138183594e+01" cType="0" res="-1.0942249558866024e-02" rms="3.9818611741065979e-01" purity="5.3955507278442383e-01" nType="0">
        <Node pos="l" depth="1" NCoef="0" IVar="1" Cut="2.3179373168945312e+02" cType="1" res="-1.3105222024023533e-03" rms="3.9905765652656555e-01" purity="5.9144896268844604e-01" nType="0">
          <Node pos="l" depth="2" NCoef="0" IVar="-1" Cut="0.0000000000000000e+00" cType="1" res="5.9982789680361748e-03" rms="3.9880955219268799e-01" purity="6.2861031293869019e-01" nType="-99"/>
          <Node pos="r" depth="2" NCoef="0" IVar="-1" Cut="0.0000000000000000e+00" cType="1" res="-2.1875189617276192e-02" rms="3.9633935689926147e-01" purity="4.3162992596626282e-01" nType="-99"/>
        </Node>
        <Node pos="r" depth="1" NCoef="0" IVar="0" Cut="1.1636730194091797e+01" cType="0" res="-7.2129465639591217e-02" rms="3.8704633712768555e-01" purity="2.0989008247852325e-01" nType="0">
          <Node pos="l" depth="2" NCoef="0" IVar="-1" Cut="0.0000000000000000e+00" cType="1" res="-8.0987717956304550e-03" rms="4.1833710670471191e-01" purity="2.6336553692817688e-01" nType="-99"/>
          <Node pos="r" depth="2" NCoef="0" IVar="-1" Cut="0.0000000000000000e+00" cType="1" res="-2.6854878291487694e-02" rms="3.8028442859649658e-01" purity="2.0000495016574860e-01" nType="-99"/>
        </Node>
      </Node>
    </BinaryTree>
    <BinaryTree type="DecisionTree" boostWeight="1.0000000000000000e+00" itree="23">
      <Node pos="s" depth="0" NCoef="0" IVar="2" Cut="4.6705360412597656e+01" cType="0" res="-9.9064335227012634e-03" rms="3.9780777692794800e-01" purity="5.3955507278442383e-01" nType="0">
        <Node pos="l" depth="1" NCoef="0" IVar="1" Cut="4.5662188720703125e+02" cType="1" res="-4.1998582310043275e-04" rms="4.0062147378921509e-01" purity="5.6438815593719482e-01" nType="0">
          <Node pos="l" depth="2" NCoef="0" IVar="-1" Cut="0.0000000000000000e+00" cType="1" res="1.5809286851435900e-03" rms="4.0136623382568359e-01" purity="5.7051086425781250e-01" nType="-99"/>
          <Node pos="r" depth="2" NCoef="0" IVar="-1" Cut="0.0000000000000000e+00" cType="1" res="-6.2158726155757904e-02" rms="3.1880119442939758e-01" purity="2.6021558046340942e-01" nType="-99"/>
        </Node>
        <Node pos="r" depth="1" NCoef="0" IVar="0" Cut="4.9533836364746094e+01" cType="0" res="-6.2707498669624329e-02" rms="3.7743622064590454e-01" purity="4.0133529901504517e-01" nType="0">
          <Node pos="l" depth="2" NCoef="0" IVar="-1" Cut="0.0000000000000000e+00" cType="1" res="1.5617667697370052e-02" rms="3.0188909173011780e-01" purity="8.8032466173171997e-01" nType="-99"/>
          <Node pos="r" depth="2" NCoef="0" IVar="-1" Cut="0.0000000000000000e+00" cType="1" res="-2.9451992362737656e-02" rms="3.9503362774848938e-01" purity="2.5643378496170044e-01" nType="-99"/>
        </Node>
      </Node>
    </BinaryTree>
    <BinaryTree type="DecisionTree" boostWeight="1.0000000000000000e+00" itree="24">
      <Node pos="s" depth="0" NCoef="0" IVar="3" Cut="8.7674576044082642e-01" cType="1" res="-8.8226012885570526e-03" rms="3.9742878079414368e-01" purity="5.3955507278442383e-01" nType="0">
        <Node pos="l" depth="1" NCoef="0" IVar="2" Cut="8.0229103088378906e+01" cType="0" res="-3.1662734691053629e-03" rms="3.9845904707908630e-01" purity="5.5904924869537354e-01" nType="0">
          <Node pos="l" depth="2" NCoef="0" IVar="-1" Cut="0.0000000000000000e+00" cType="1" res="1.8973693251609802e-02" rms="3.9662957191467285e-01" purity="6.2330526113510132e-01" nType="-99"/>
          <Node pos="r" depth="2" NCoef="0" IVar="-1" Cut="0.0000000000000000e+00" cType="1" res="-9.4345686957240105e-03" rms="3.9826565980911255e-01" purity="5.3061932325363159e-01" nType="-99"/>
        </Node>
        <Node pos="r" depth="1" NCoef="0" IVar="0" Cut="9.0855812072753906e+01" cType="0" res="-9.1069802641868591e-02" rms="3.7255424261093140e-01" purity="2.5609517097473145e-01" nType="0">
          <Node pos="l" depth="2" NCoef="0" IVar="-1" Cut="0.0000000000000000e+00" cType="1" res="1.4540126919746399e-01" rms="2.7674862742424011e-01" purity="9.0904790163040161e-01" nType="-99"/>
          <Node pos="r" depth="2" NCoef="0" IVar="-1" Cut="0.0000000000000000e+00" cType="1" res="-3.5016484558582306e-02" rms="3.7533903121948242e-01" purity="2.1762435138225555e-01" nType="-99"/>
        </Node>
      </Node>
    </BinaryTree>
    <BinaryTree type="DecisionTree" boostWeight="1.0000000000000000e+00" itree="25">
      <Node pos="s" depth="0" NCoef="0" IVar="1" Cut="2.9732037353515625e+02" cType="1" res="-7.9450942575931549e-03" rms="3.9696913957595825e-01" purity="5.3955507278442383e-01" nType="0">
        <Node pos="l" depth="1" NCoef="0" IVar="3" Cut="6.7601847648620605e-01" cType="1" res="-1.7917266814038157e-03" rms="3.9916899800300598e-01" purity="5.5474680662155151e-01" nType="0">
          <Node pos="l" depth="2" NCoef="0" IVar="-1" Cut="0.0000000000000000e+00" cType="1" res="9.7443414852023125e-03" rms="3.9591246843338013e-01" purity="6.2678784132003784e-01" nType="-99"/>
          <Node pos="r" depth="2" NCoef="0" IVar="-1" Cut="0.0000000000000000e+00" cType="1" res="-1.4111162163317204e-02" rms="4.0270239114761353e-01" purity="4.3480041623115540e-01" nType="-99"/>
        </Node>
        <Node pos="r" depth="1" NCoef="0" IVar="0" Cut="7.7958312988281250e+01" cType="0" res="-7.7696278691291809e-02" rms="3.6391937732696533e-01" purity="3.6734950542449951e-01" nType="0">
          <Node pos="l" depth="2" NCoef="0" IVar="-1" Cut="0.0000000000000000e+00" cType="1" res="1.6417346894741058e-01" rms="2.6741626858711243e-01" purity="9.2164719104766846e-01" nType="-99"/>
          <Node pos="r" depth="2" NCoef="0" IVar="-1" Cut="0.0000000000000000e+00" cType="1" res="-3.8111392408609390e-02" rms="3.7520727515220642e-01" purity="2.4614337086677551e-01" nType="-99"/>
        </Node>
      </Node>
    </BinaryTree>
    <BinaryTree type="DecisionTree" boostWeight="1.0000000000000000e+00" itree="26">
      <Node pos="s" depth="0" NCoef="0" IVar="0" Cut="1.8157358169555664e+01" cType="0" res="-7.7076624147593975e-03" rms="3.9646875858306885e-01" purity="5.3955507278442383e-01" nType="0">
        <Node pos="l" depth="1" NCoef="0" IVar="1" Cut="3.1229693603515625e+02" cType="1" res="3.4513063728809357e-03" rms="3.9536690711975098e-01" purity="6.3335877656936646e-01" nType="0">
          <Node pos="l" depth="2" NCoef="0" IVar="-1" Cut="0.0000000000000000e+00" cType="1" res="5.5216653272509575e-03" rms="3.9582568407058716e-01" purity="6.4685207605361938e-01" nType="-99"/>
          <Node pos="r" depth="2" NCoef="0" IVar="-1" Cut="0.0000000000000000e+00" cType="1" res="-3.2833430916070938e-02" rms="3.8098803162574768e-01" purity="4.4777613878250122e-01" nType="-99"/>
        </Node>
        <Node pos="r" depth="1" NCoef="0" IVar="1" Cut="1.8096307373046875e+02" cType="1" res="-4.4152449816465378e-02" rms="3.9787200093269348e-01" purity="2.3319572210311890e-01" nType="0">
          <Node pos="l" depth="2" NCoef="0" IVar="-1" Cut="0.0000000000000000e+00" cType="1" res="-7.5241564773023129e-03" rms="4.1629531979560852e-01" purity="2.7412638068199158e-01" nType="-99"/>
          <Node pos="r" depth="2" NCoef="0" IVar="-1" Cut="0.0000000000000000e+00" cType="1" res="-2.4551169946789742e-02" rms="3.7251728773117065e-01" purity="1.8389627337455750e-01" nType="-99"/>
        </Node>
      </Node>
    </BinaryTree>
    <BinaryTree type="DecisionTree" boostWeight="1.0000000000000000e+00" itree="27">
      <Node pos="s" depth="0" NCoef="0" IVar="1" Cut="1.2531292724609375e+02" cType="0" res="-7.2047570720314980e-03" rms="3.9618411660194397e-01" purity="5.3955507278442383e-01" nType="0">
        <Node pos="l" depth="1" NCoef="0" IVar="1" Cut="1.8953703308105469e+02" cType="1" res="-2.2729076445102692e-03" rms="3.9859592914581299e-01" purity="5.5711466073989868e-01" nType="0">
          <Node pos="l" depth="2" NCoef="0" IVar="-1" Cut="0.0000000000000000e+00" cType="1" res="1.0051392018795013e-02" rms="4.0093737840652466e-01" purity="6.2539458274841309e-01" nType="-99"/>
          <Node pos="r" depth="2" NCoef="0" IVar="-1" Cut="0.0000000000000000e+00" cType="1" res="-1.3925584964454174e-02" rms="3.9353093504905701e-01" purity="4.5886418223381042e-01" nType="-99"/>
        </Node>
        <Node pos="r" depth="1" NCoef="0" IVar="3" Cut="6.7782551050186157e-01" cType="1" res="-9.1027669608592987e-02" rms="3.4196895360946655e-01" purity="2.4110811948776245e-01" nType="0">
          <Node pos="l" depth="2" NCoef="0" IVar="-1" Cut="0.0000000000000000e+00" cType="1" res="4.1482397355139256e-03" rms="3.9713457226753235e-01" purity="4.6280443668365479e-01" nType="-99"/>
          <Node pos="r" depth="2" NCoef="0" IVar="-1" Cut="0.0000000000000000e+00" cType="1" res="-4.7977954149246216e-02" rms="3.0970397591590881e-01" purity="1.5567141771316528e-01" nType="-99"/>
        </Node>
      </Node>
    </BinaryTree>
    <BinaryTree type="DecisionTree" boostWeight="1.0000000000000000e+00" itree="28">
      <Node pos="s" depth="0" NCoef="0" IVar="2" Cut="5.3410106658935547e+01" cType="0" res="-6.7089069634675980e-03" rms="3.9573910832405090e-01" purity="5.3955507278442383e-01" nType="0">
        <Node pos="l" depth="1" NCoef="0" IVar="1" Cut="1.7892964172363281e+02" cType="1" res="5.4880725219845772e-03" rms="4.0115809440612793e-01" purity="5.8387821912765503e-01" nType="0">
          <Node pos="l" depth="2" NCoef="0" IVar="-1" Cut="0.0000000000000000e+00" cType="1" res="2.0024169236421585e-02" rms="4.0109738707542419e-01" purity="6.6845589876174927e-01" nType="-99"/>
          <Node pos="r" depth="2" NCoef="0" IVar="-1" Cut="0.0000000000000000e+00" cType="1" res="-7.0260376669466496e-03" rms="4.0009033679962158e-01" purity="5.2016502618789673e-01" nType="-99"/>
        </Node>
        <Node pos="r" depth="1" NCoef="0" IVar="0" Cut="4.9533836364746094e+01" cType="0" res="-3.6707200109958649e-02" rms="3.8042441010475159e-01" purity="4.3054297566413879e-01" nType="0">
          <Node pos="l" depth="2" NCoef="0" IVar="-1" Cut="0.0000000000000000e+00" cType="1" res="5.1877275109291077e-02" rms="2.7806657552719116e-01" purity="8.9665842056274414e-01" nType="-99"/>
          <Node pos="r" depth="2" NCoef="0" IVar="-1" Cut="0.0000000000000000e+00" cType="1" res="-2.0475847646594048e-02" rms="4.0561008453369141e-01" purity="2.8349292278289795e-01" nType="-99"/>
        </Node>
      </Node>
    </BinaryTree>
    <BinaryTree type="DecisionTree" boostWeight="1.0000000000000000e+00" itree="29">
      <Node pos="s" depth="0" NCoef="0" IVar="2" Cut="7.6876724243164062e+01" cType="0" res="-6.9052889011800289e-03" rms="3.9531773328781128e-01" purity="5.3955507278442383e-01" nType="0">
        <Node pos="l" depth="1" NCoef="0" IVar="1" Cut="2.1317915344238281e+02" cType="1" res="1.8090950325131416e-02" rms="3.9723703265190125e-01" purity="5.9460049867630005e-01" nType="0">
          <Node pos="l" depth="2" NCoef="0" IVar="-1" Cut="0.0000000000000000e+00" cType="1" res="3.7176191806793213e-02" rms="3.9199334383010864e-01" purity="7.2223109006881714e-01" nType="-99"/>
          <Node pos="r" depth="2" NCoef="0" IVar="-1" Cut="0.0000000000000000e+00" cType="1" res="-9.8313819617033005e-03" rms="4.0016016364097595e-01" purity="4.3360692262649536e-01" nType="-99"/>
        </Node>
        <Node pos="r" depth="1" NCoef="0" IVar="3" Cut="5.7565480470657349e-01" cType="1" res="-2.0737357437610626e-02" rms="3.9356991648674011e-01" purity="5.0909483432769775e-01" nType="0">
          <Node pos="l" depth="2" NCoef="0" IVar="-1" Cut="0.0000000000000000e+00" cType="1" res="7.0595480501651764e-03" rms="3.8785874843597412e-01" purity="6.0307520627975464e-01" nType="-99"/>
          <Node pos="r" depth="2" NCoef="0" IVar="-1" Cut="0.0000000000000000e+00" cType="1" res="-2.3053959012031555e-02" rms="3.9634454250335693e-01" purity="4.2152419686317444e-01" nType="-99"/>
        </Node>
      </Node>
    </BinaryTree>
    <BinaryTree type="DecisionTree" boostWeight="1.0000000000000000e+00" itree="30">
      <Node pos="s" depth="0" NCoef="0" IVar="0" Cut="3.3664524078369141e+01" cType="0" res="-7.0003787986934185e-03" rms="3.9453676342964172e-01" purity="5.3955507278442383e-01" nType="0">
        <Node pos="l" depth="1" NCoef="0" IVar="3" Cut="4.9274572730064392e-01" cType="1" res="1.1968157254159451e-02" rms="3.5880887508392334e-01" purity="7.7390056848526001e-01" nType="0">
          <Node pos="l" depth="2" NCoef="0" IVar="-1" Cut="0.0000000000000000e+00" cType="1" res="7.3563225567340851e-02" rms="3.1218314170837402e-01" purity="8.6011469364166260e-01" nType="-99"/>
          <Node pos="r" depth="2" NCoef="0" IVar="-1" Cut="0.0000000000000000e+00" cType="1" res="-4.0646041743457317e-03" rms="3.7607711553573608e-01" purity="7.3635697364807129e-01" nType="-99"/>
        </Node>
        <Node pos="r" depth="1" NCoef="0" IVar="2" Cut="7.2555725097656250e+01" cType="0" res="-2.4481281638145447e-02" rms="4.2405971884727478e-01" purity="3.2358846068382263e-01" nType="0">
          <Node pos="l" depth="2" NCoef="0" IVar="-1" Cut="0.0000000000000000e+00" cType="1" res="1.5118436422199011e-03" rms="4.3329027295112610e-01" purity="4.0018281340599060e-01" nType="-99"/>
          <Node pos="r" depth="2" NCoef="0" IVar="-1" Cut="0.0000000000000000e+00" cType="1" res="-1.5177739784121513e-02" rms="4.1718739271163940e-01" purity="2.7554565668106079e-01" nType="-99"/>
        </Node>
      </Node>
    </BinaryTree>
    <BinaryTree type="DecisionTree" boostWeight="1.0000000000000000e+00" itree="31">
      <Node pos="s" depth="0" NCoef="0" IVar="0" Cut="1.2988304138183594e+01" cType="0" res="-7.5810155831277370e-03" rms="3.9403554797172546e-01" purity="5.3955507278442383e-01" nType="0">
        <Node pos="l" depth="1" NCoef="0" IVar="3" Cut="9.3347305059432983e-01" cType="1" res="-1.0286247124895453e-03" rms="3.9500439167022705e-01" purity="5.9144896268844604e-01" nType="0">
          <Node pos="l" depth="2" NCoef="0" IVar="-1" Cut="0.0000000000000000e+00" cType="1" res="6.5113866003230214e-04" rms="3.9512318372726440e-01" purity="5.9722161293029785e-01" nType="-99"/>
          <Node pos="r" depth="2" NCoef="0" IVar="-1" Cut="0.0000000000000000e+00" cType="1" res="-5.0243936479091644e-02" rms="3.6051183938980103e-01" purity="2.1602241694927216e-01" nType="-99"/>
        </Node>
        <Node pos="r" depth="1" NCoef="0" IVar="0" Cut="1.1636730194091797e+01" cType="0" res="-4.9206215888261795e-02" rms="3.8523024320602417e-01" purity="2.0989008247852325e-01" nType="0">
          <Node pos="l" depth="2" NCoef="0" IVar="-1" Cut="0.0000000000000000e+00" cType="1" res="-2.8226673603057861e-03" rms="4.1676470637321472e-01" purity="2.6336553692817688e-01" nType="-99"/>
          <Node pos="r" depth="2" NCoef="0" IVar="-1" Cut="0.0000000000000000e+00" cType="1" res="-2.0572246983647346e-02" rms="3.7861019372940063e-01" purity="2.0000495016574860e-01" nType="-99"/>
        </Node>
      </Node>
    </BinaryTree>
    <BinaryTree type="DecisionTree" boostWeight="1.0000000000000000e+00" itree="32">
      <Node pos="s" depth="0" NCoef="0" IVar="1" Cut="4.6113699340820312e+02" cType="1" res="-6.6934968344867229e-03" rms="3.9386373758316040e-01" purity="5.3955507278442383e-01" nType="0">
        <Node pos="l" depth="1" NCoef="0" IVar="1" Cut="1.4019612121582031e+02" cType="0" res="-4.6038511209189892e-03" rms="3.9463996887207031e-01" purity="5.4428642988204956e-01" nType="0">
          <Node pos="l" depth="2" NCoef="0" IVar="-1" Cut="0.0000000000000000e+00" cType="1" res="1.3922599609941244e-03" rms="3.9634412527084351e-01" purity="5.7675659656524658e-01" nType="-99"/>
          <Node pos="r" depth="2" NCoef="0" IVar="-1" Cut="0.0000000000000000e+00" cType="1" res="-2.0405137911438942e-02" rms="3.8121849298477173e-01" purity="3.4604251384735107e-01" nType="-99"/>
        </Node>
        <Node pos="r" depth="1" NCoef="0" IVar="-1" Cut="0.0000000000000000e+00" cType="1" res="-5.5504772812128067e-02" rms="3.2016938924789429e-01" purity="2.5602912902832031e-01" nType="-99"/>
      </Node>
    </BinaryTree>
    <BinaryTree type="DecisionTree" boostWeight="1.0000000000000000e+00" itree="33">
      <Node pos="s" depth="0" NCoef="0" IVar="3" Cut="8.7238216400146484e-01" cType="1" res="-5.8601000346243382e-03" rms="3.9366084337234497e-01" purity="5.3955507278442383e-01" nType="0">
        <Node pos="l" depth="1" NCoef="0" IVar="2" Cut="8.6933845520019531e+01" cType="0" res="-1.6735419631004333e-03" rms="3.9486783742904663e-01" purity="5.6015402078628540e-01" nType="0">
          <Node pos="l" depth="2" NCoef="0" IVar="-1" Cut="0.0000000000000000e+00" cType="1" res="1.7757356166839600e-02" rms="3.9165177941322327e-01" purity="6.1741727590560913e-01" nType="-99"/>
          <Node pos="r" depth="2" NCoef="0" IVar="-1" Cut="0.0000000000000000e+00" cType="1" res="-6.1086383648216724e-03" rms="3.9537775516510010e-01" purity="5.4197150468826294e-01" nType="-99"/>
        </Node>
        <Node pos="r" depth="1" NCoef="0" IVar="1" Cut="1.4169459533691406e+02" cType="0" res="-6.1998400837182999e-02" rms="3.7258577346801758e-01" purity="2.6333993673324585e-01" nType="0">
          <Node pos="l" depth="2" NCoef="0" IVar="-1" Cut="0.0000000000000000e+00" cType="1" res="-1.9149437546730042e-02" rms="3.8829758763313293e-01" purity="2.9716840386390686e-01" nType="-99"/>
          <Node pos="r" depth="2" NCoef="0" IVar="-1" Cut="0.0000000000000000e+00" cType="1" res="-4.3854948133230209e-02" rms="3.1284156441688538e-01" purity="1.5558888018131256e-01" nType="-99"/>
        </Node>
      </Node>
    </BinaryTree>
    <BinaryTree type="DecisionTree" boostWeight="1.0000000000000000e+00" itree="34">
      <Node pos="s" depth="0" NCoef="0" IVar="1" Cut="1.9083958435058594e+02" cType="1" res="-5.1930565387010574e-03" rms="3.9339736104011536e-01" purity="5.3955507278442383e-01" nType="0">
        <Node pos="l" depth="1" NCoef="0" IVar="2" Cut="6.8935745239257812e+01" cType="0" res="6.4068776555359364e-03" rms="3.9414939284324646e-01" purity="5.9136551618576050e-01" nType="0">
          <Node pos="l" depth="2" NCoef="0" IVar="-1" Cut="0.0000000000000000e+00" cType="1" res="3.3175427466630936e-02" rms="3.8397684693336487e-01" purity="7.5120002031326294e-01" nType="-99"/>
          <Node pos="r" depth="2" NCoef="0" IVar="-1" Cut="0.0000000000000000e+00" cType="1" res="-5.4349424317479134e-03" rms="3.9798280596733093e-01" purity="5.1235783100128174e-01" nType="-99"/>
        </Node>
        <Node pos="r" depth="1" NCoef="0" IVar="0" Cut="5.4385028839111328e+01" cType="0" res="-2.4375291541218758e-02" rms="3.9139696955680847e-01" purity="4.5387876033782959e-01" nType="0">
          <Node pos="l" depth="2" NCoef="0" IVar="-1" Cut="0.0000000000000000e+00" cType="1" res="6.3009299337863922e-02" rms="2.9856851696968079e-01" purity="8.8505864143371582e-01" nType="-99"/>
          <Node pos="r" depth="2" NCoef="0" IVar="-1" Cut="0.0000000000000000e+00" cType="1" res="-1.6374485567212105e-02" rms="4.1579791903495789e-01" purity="3.1161242723464966e-01" nType="-99"/>
        </Node>
      </Node>
    </BinaryTree>
    <BinaryTree type="DecisionTree" boostWeight="1.0000000000000000e+00" itree="35">
      <Node pos="s" depth="0" NCoef="0" IVar="1" Cut="4.0380117797851562e+02" cType="1" res="-6.2782922759652138e-03" rms="3.9290946722030640e-01" purity="5.3955507278442383e-01" nType="0">
        <Node pos="l" depth="1" NCoef="0" IVar="2" Cut="4.5271362304687500e+01" cType="0" res="-3.7969013210386038e-03" rms="3.9432543516159058e-01" purity="5.4630339145660400e-01" nType="0">
          <Node pos="l" depth="2" NCoef="0" IVar="-1" Cut="0.0000000000000000e+00" cType="1" res="1.2816730886697769e-03" rms="3.9705163240432739e-01" purity="5.6912332773208618e-01" nType="-99"/>
          <Node pos="r" depth="2" NCoef="0" IVar="-1" Cut="0.0000000000000000e+00" cType="1" res="-2.1981116384267807e-02" rms="3.7197920680046082e-01" purity="3.8711917400360107e-01" nType="-99"/>
        </Node>
        <Node pos="r" depth="1" NCoef="0" IVar="2" Cut="1.1715548706054688e+02" cType="0" res="-9.4120725989341736e-02" rms="3.2708212733268738e-01" purity="3.0066147446632385e-01" nType="0">
          <Node pos="l" depth="2" NCoef="0" IVar="-1" Cut="0.0000000000000000e+00" cType="1" res="-2.5776712223887444e-02" rms="3.8392469286918640e-01" purity="4.6345850825309753e-01" nType="-99"/>
          <Node pos="r" depth="2" NCoef="0" IVar="-1" Cut="0.0000000000000000e+00" cType="1" res="-5.3033880889415741e-02" rms="2.6111909747123718e-01" purity="1.5977296233177185e-01" nType="-99"/>
        </Node>
      </Node>
    </BinaryTree>
    <BinaryTree type="DecisionTree" boostWeight="1.0000000000000000e+00" itree="36">
      <Node pos="s" depth="0" NCoef="0" IVar="3" Cut="8.7674576044082642e-01" cType="1" res="-5.4856915958225727e-03" rms="3.9271515607833862e-01" purity="5.3955507278442383e-01" nType="0">
        <Node pos="l" depth="1" NCoef="0" IVar="1" Cut="3.0880926513671875e+02" cType="1" res="-1.8846447346732020e-03" rms="3.9401972293853760e-01" purity="5.5904924869537354e-01" nType="0">
          <Node pos="l" depth="2" NCoef="0" IVar="-1" Cut="0.0000000000000000e+00" cType="1" res="1.2139253085479140e-03" rms="3.9664196968078613e-01" purity="5.7276350259780884e-01" nType="-99"/>
          <Node pos="r" depth="2" NCoef="0" IVar="-1" Cut="0.0000000000000000e+00" cType="1" res="-2.7086175978183746e-02" rms="3.5090115666389465e-01" purity="3.6892905831336975e-01" nType="-99"/>
        </Node>
        <Node pos="r" depth="1" NCoef="0" IVar="3" Cut="9.3376314640045166e-01" cType="1" res="-5.7847585529088974e-02" rms="3.6928403377532959e-01" purity="2.5609517097473145e-01" nType="0">
          <Node pos="l" depth="2" NCoef="0" IVar="-1" Cut="0.0000000000000000e+00" cType="1" res="-1.8217289820313454e-02" rms="3.7436300516128540e-01" purity="2.7765959501266479e-01" nType="-99"/>
          <Node pos="r" depth="2" NCoef="0" IVar="-1" Cut="0.0000000000000000e+00" cType="1" res="-4.0615148842334747e-02" rms="3.5022810101509094e-01" purity="1.9272069633007050e-01" nType="-99"/>
        </Node>
      </Node>
    </BinaryTree>
    <BinaryTree type="DecisionTree" boostWeight="1.0000000000000000e+00" itree="37">
      <Node pos="s" depth="0" NCoef="0" IVar="0" Cut="1.2988304138183594e+01" cType="0" res="-4.8361090011894703e-03" rms="3.9254578948020935e-01" purity="5.3955507278442383e-01" nType="0">
        <Node pos="l" depth="1" NCoef="0" IVar="1" Cut="1.9083958435058594e+02" cType="1" res="5.7330745039507747e-04" rms="3.9351394772529602e-01" purity="5.9144896268844604e-01" nType="0">
          <Node pos="l" depth="2" NCoef="0" IVar="-1" Cut="0.0000000000000000e+00" cType="1" res="7.4927182868123055e-03" rms="3.9137673377990723e-01" purity="6.4746171236038208e-01" nType="-99"/>
          <Node pos="r" depth="2" NCoef="0" IVar="-1" Cut="0.0000000000000000e+00" cType="1" res="-8.7601142004132271e-03" rms="3.9633244276046753e-01" purity="4.9961763620376587e-01" nType="-99"/>
        </Node>
        <Node pos="r" depth="1" NCoef="0" IVar="0" Cut="1.0029637336730957e+01" cType="1" res="-3.9200365543365479e-02" rms="3.8456565141677856e-01" purity="2.0989008247852325e-01" nType="0">
          <Node pos="l" depth="2" NCoef="0" IVar="-1" Cut="0.0000000000000000e+00" cType="1" res="-1.0169927962124348e-02" rms="3.8578489422798157e-01" purity="2.1777555346488953e-01" nType="-99"/>
          <Node pos="r" depth="2" NCoef="0" IVar="-1" Cut="0.0000000000000000e+00" cType="1" res="-2.1535925567150116e-02" rms="3.8186851143836975e-01" purity="1.9806545972824097e-01" nType="-99"/>
        </Node>
      </Node>
    </BinaryTree>
    <BinaryTree type="DecisionTree" boostWeight="1.0000000000000000e+00" itree="38">
      <Node pos="s" depth="0" NCoef="0" IVar="1" Cut="1.2531292724609375e+02" cType="0" res="-4.5053716748952866e-03" rms="3.9239332079887390e-01" purity="5.3955507278442383e-01" nType="0">
        <Node pos="l" depth="1" NCoef="0" IVar="1" Cut="1.8150921630859375e+02" cType="1" res="-1.2835176894441247e-03" rms="3.9511865377426147e-01" purity="5.5711466073989868e-01" nType="0">
          <Node pos="l" depth="2" NCoef="0" IVar="-1" Cut="0.0000000000000000e+00" cType="1" res="7.1042343042790890e-03" rms="4.0025395154953003e-01" purity="6.1822533607482910e-01" nType="-99"/>
          <Node pos="r" depth="2" NCoef="0" IVar="-1" Cut="0.0000000000000000e+00" cType="1" res="-7.8219017013907433e-03" rms="3.8908728957176208e-01" purity="4.9204522371292114e-01" nType="-99"/>
        </Node>
        <Node pos="r" depth="1" NCoef="0" IVar="3" Cut="6.7782551050186157e-01" cType="1" res="-5.9264790266752243e-02" rms="3.3811154961585999e-01" purity="2.4110811948776245e-01" nType="0">
          <Node pos="l" depth="2" NCoef="0" IVar="-1" Cut="0.0000000000000000e+00" cType="1" res="1.2964151799678802e-02" rms="3.9417016506195068e-01" purity="4.6280443668365479e-01" nType="-99"/>
          <Node pos="r" depth="2" NCoef="0" IVar="-1" Cut="0.0000000000000000e+00" cType="1" res="-3.9438068866729736e-02" rms="3.0767253041267395e-01" purity="1.5567141771316528e-01" nType="-99"/>
        </Node>
      </Node>
    </BinaryTree>
    <BinaryTree type="DecisionTree" boostWeight="1.0000000000000000e+00" itree="39">
      <Node pos="s" depth="0" NCoef="0" IVar="1" Cut="5.2666363525390625e+02" cType="1" res="-4.1324682533740997e-03" rms="3.9218026399612427e-01" purity="5.3955507278442383e-01" nType="0">
        <Node pos="l" depth="1" NCoef="0" IVar="2" Cut="8.6933845520019531e+01" cType="0" res="-2.9571345075964928e-03" rms="3.9245170354843140e-01" purity="5.4245322942733765e-01" nType="0">
          <Node pos="l" depth="2" NCoef="0" IVar="-1" Cut="0.0000000000000000e+00" cType="1" res="1.2328807264566422e-02" rms="3.9178037643432617e-01" purity="5.8922731876373291e-01" nType="-99"/>
          <Node pos="r" depth="2" NCoef="0" IVar="-1" Cut="0.0000000000000000e+00" cType="1" res="-5.8050127699971199e-03" rms="3.9235654473304749e-01" purity="5.2689003944396973e-01" nType="-99"/>
        </Node>
        <Node pos="r" depth="1" NCoef="0" IVar="-1" Cut="0.0000000000000000e+00" cType="1" res="-6.0285490006208420e-02" rms="3.3974853157997131e-01" purity="2.3160526156425476e-01" nType="-99"/>
      </Node>
    </BinaryTree>
    <BinaryTree type="DecisionTree" boostWeight="1.0000000000000000e+00" itree="40">
      <Node pos="s" depth="0" NCoef="0" IVar="0" Cut="1.2988304138183594e+01" cType="0" res="-3.5535751376301050e-03" rms="3.9202713966369629e-01" purity="5.3955507278442383e-01" nType="0">
        <Node pos="l" depth="1" NCoef="0" IVar="3" Cut="9.3347305059432983e-01" cType="1" res="1.1261141626164317e-03" rms="3.9302238821983337e-01" purity="5.9144896268844604e-01" nType="0">
          <Node pos="l" depth="2" NCoef="0" IVar="-1" Cut="0.0000000000000000e+00" cType="1" res="1.5939893200993538e-03" rms="3.9332252740859985e-01" purity="5.9722161293029785e-01" nType="-99"/>
          <Node pos="r" depth="2" NCoef="0" IVar="-1" Cut="0.0000000000000000e+00" cType="1" res="-4.0172360837459564e-02" rms="3.5843956470489502e-01" purity="2.1602241694927216e-01" nType="-99"/>
        </Node>
        <Node pos="r" depth="1" NCoef="0" IVar="0" Cut="1.1636730194091797e+01" cType="0" res="-3.3282116055488586e-02" rms="3.8431629538536072e-01" purity="2.0989008247852325e-01" nType="0">
          <Node pos="l" depth="2" NCoef="0" IVar="-1" Cut="0.0000000000000000e+00" cType="1" res="2.0522444974631071e-03" rms="4.1599538922309875e-01" purity="2.6336553692817688e-01" nType="-99"/>
          <Node pos="r" depth="2" NCoef="0" IVar="-1" Cut="0.0000000000000000e+00" cType="1" res="-1.5619664452970028e-02" rms="3.7774172425270081e-01" purity="2.0000495016574860e-01" nType="-99"/>
        </Node>
      </Node>
    </BinaryTree>
    <BinaryTree type="DecisionTree" boostWeight="1.0000000000000000e+00" itree="41">
      <Node pos="s" depth="0" NCoef="0" IVar="0" Cut="6.2094329833984375e+01" cType="0" res="-3.2649850472807884e-03" rms="3.9192926883697510e-01" purity="5.3955507278442383e-01" nType="0">
        <Node pos="l" depth="1" NCoef="0" IVar="2" Cut="9.6995552062988281e+01" cType="1" res="2.2281982004642487e-02" rms="2.5165975093841553e-01" purity="9.2577207088470459e-01" nType="0">
          <Node pos="l" depth="2" NCoef="0" IVar="-1" Cut="0.0000000000000000e+00" cType="1" res="1.3945469260215759e-01" rms="2.2917370498180389e-01" purity="9.4070601463317871e-01" nType="-99"/>
          <Node pos="r" depth="2" NCoef="0" IVar="-1" Cut="0.0000000000000000e+00" cType="1" res="-3.3159065991640091e-02" rms="3.1621807813644409e-01" purity="8.7270581722259521e-01" nType="-99"/>
        </Node>
        <Node pos="r" depth="1" NCoef="0" IVar="2" Cut="7.9321769714355469e+01" cType="0" res="-8.4566380828619003e-03" rms="4.1448140144348145e-01" purity="4.6106809377670288e-01" nType="0">
          <Node pos="l" depth="2" NCoef="0" IVar="-1" Cut="0.0000000000000000e+00" cType="1" res="6.7089912481606007e-03" rms="4.1198235750198364e-01" purity="5.2160841226577759e-01" nType="-99"/>
          <Node pos="r" depth="2" NCoef="0" IVar="-1" Cut="0.0000000000000000e+00" cType="1" res="-8.5562402382493019e-03" rms="4.1526487469673157e-01" purity="4.3222486972808838e-01" nType="-99"/>
        </Node>
      </Node>
    </BinaryTree>
    <BinaryTree type="DecisionTree" boostWeight="1.0000000000000000e+00" itree="42">
      <Node pos="s" depth="0" NCoef="0" IVar="2" Cut="4.6705360412597656e+01" cType="0" res="-4.5907031744718552e-03" rms="3.9166453480720520e-01" purity="5.3955507278442383e-01" nType="0">
        <Node pos="l" depth="1" NCoef="0" IVar="1" Cut="1.7892964172363281e+02" cType="1" res="1.5595938020851463e-04" rms="3.9463952183723450e-01" purity="5.6438815593719482e-01" nType="0">
          <Node pos="l" depth="2" NCoef="0" IVar="-1" Cut="0.0000000000000000e+00" cType="1" res="8.7100295349955559e-03" rms="3.9770054817199707e-01" purity="6.2256026268005371e-01" nType="-99"/>
          <Node pos="r" depth="2" NCoef="0" IVar="-1" Cut="0.0000000000000000e+00" cType="1" res="-6.5511609427630901e-03" rms="3.9144322276115417e-01" purity="5.1223075389862061e-01" nType="-99"/>
        </Node>
        <Node pos="r" depth="1" NCoef="0" IVar="1" Cut="2.0462705993652344e+02" cType="1" res="-3.1010374426841736e-02" rms="3.7357419729232788e-01" purity="4.0133529901504517e-01" nType="0">
          <Node pos="l" depth="2" NCoef="0" IVar="-1" Cut="0.0000000000000000e+00" cType="1" res="-9.6470275893807411e-03" rms="3.7727966904640198e-01" purity="4.2833474278450012e-01" nType="-99"/>
          <Node pos="r" depth="2" NCoef="0" IVar="-1" Cut="0.0000000000000000e+00" cType="1" res="-4.9662273377180099e-02" rms="3.4002748131752014e-01" purity="2.3255255818367004e-01" nType="-99"/>
        </Node>
      </Node>
    </BinaryTree>
    <BinaryTree type="DecisionTree" boostWeight="1.0000000000000000e+00" itree="43">
      <Node pos="s" depth="0" NCoef="0" IVar="1" Cut="1.2531292724609375e+02" cType="0" res="-4.1335797868669033e-03" rms="3.9148646593093872e-01" purity="5.3955507278442383e-01" nType="0">
        <Node pos="l" depth="1" NCoef="0" IVar="1" Cut="1.8953703308105469e+02" cType="1" res="-1.4131939969956875e-03" rms="3.9432406425476074e-01" purity="5.5711466073989868e-01" nType="0">
          <Node pos="l" depth="2" NCoef="0" IVar="-1" Cut="0.0000000000000000e+00" cType="1" res="4.8306584358215332e-03" rms="3.9707520604133606e-01" purity="6.2539458274841309e-01" nType="-99"/>
          <Node pos="r" depth="2" NCoef="0" IVar="-1" Cut="0.0000000000000000e+00" cType="1" res="-7.3867063038051128e-03" rms="3.8994142413139343e-01" purity="4.5886418223381042e-01" nType="-99"/>
        </Node>
        <Node pos="r" depth="1" NCoef="0" IVar="3" Cut="6.7782551050186157e-01" cType="1" res="-5.0369922071695328e-02" rms="3.3630281686782837e-01" purity="2.4110811948776245e-01" nType="0">
          <Node pos="l" depth="2" NCoef="0" IVar="-1" Cut="0.0000000000000000e+00" cType="1" res="1.2940342538058758e-02" rms="3.9386734366416931e-01" purity="4.6280443668365479e-01" nType="-99"/>
          <Node pos="r" depth="2" NCoef="0" IVar="-1" Cut="0.0000000000000000e+00" cType="1" res="-3.6194782704114914e-02" rms="3.0634841322898865e-01" purity="1.5567141771316528e-01" nType="-99"/>
        </Node>
      </Node>
    </BinaryTree>
    <BinaryTree type="DecisionTree" boostWeight="1.0000000000000000e+00" itree="44">
      <Node pos="s" depth="0" NCoef="0" IVar="1" Cut="1.4988542175292969e+02" cType="0" res="-3.7818937562406063e-03" rms="3.9133149385452271e-01" purity="5.3955507278442383e-01" nType="0">
        <Node pos="l" depth="1" NCoef="0" IVar="1" Cut="1.6569885253906250e+02" cType="1" res="1.9243465503677726e-03" rms="3.9140635728836060e-01" purity="5.7157164812088013e-01" nType="0">
          <Node pos="l" depth="2" NCoef="0" IVar="-1" Cut="0.0000000000000000e+00" cType="1" res="2.4834904819726944e-02" rms="4.0025073289871216e-01" purity="6.7680889368057251e-01" nType="-99"/>
          <Node pos="r" depth="2" NCoef="0" IVar="-1" Cut="0.0000000000000000e+00" cType="1" res="-3.6345983389765024e-03" rms="3.8874965906143188e-01" purity="5.4579186439514160e-01" nType="-99"/>
        </Node>
        <Node pos="r" depth="1" NCoef="0" IVar="0" Cut="4.9520523071289062e+01" cType="0" res="-2.5063963606953621e-02" rms="3.9031714200973511e-01" purity="4.2014563083648682e-01" nType="0">
          <Node pos="l" depth="2" NCoef="0" IVar="-1" Cut="0.0000000000000000e+00" cType="1" res="5.0291866064071655e-02" rms="2.5276169180870056e-01" purity="9.0569162368774414e-01" nType="-99"/>
          <Node pos="r" depth="2" NCoef="0" IVar="-1" Cut="0.0000000000000000e+00" cType="1" res="-1.3974583707749844e-02" rms="4.1121780872344971e-01" purity="3.2537639141082764e-01" nType="-99"/>
        </Node>
      </Node>
    </BinaryTree>
    <BinaryTree type="DecisionTree" boostWeight="1.0000000000000000e+00" itree="45">
      <Node pos="s" depth="0" NCoef="0" IVar="2" Cut="1.0034334564208984e+02" cType="0" res="-3.7245359271764755e-03" rms="3.9111173152923584e-01" purity="5.3955507278442383e-01" nType="0">
        <Node pos="l" depth="1" NCoef="0" IVar="3" Cut="5.1133644580841064e-01" cType="0" res="2.1618589758872986e-02" rms="3.8881140947341919e-01" purity="5.5557608604431152e-01" nType="0">
          <Node pos="l" depth="2" NCoef="0" IVar="-1" Cut="0.0000000000000000e+00" cType="1" res="2.1891031414270401e-02" rms="3.7955018877983093e-01" purity="5.5677503347396851e-01" nType="-99"/>
          <Node pos="r" depth="2" NCoef="0" IVar="-1" Cut="0.0000000000000000e+00" cType="1" res="-5.1191218197345734e-02" rms="4.3189489841461182e-01" purity="5.4713445901870728e-01" nType="-99"/>
        </Node>
        <Node pos="r" depth="1" NCoef="0" IVar="3" Cut="6.0183662176132202e-01" cType="1" res="-8.5158376023173332e-03" rms="3.9136067032814026e-01" purity="5.3652620315551758e-01" nType="0">
          <Node pos="l" depth="2" NCoef="0" IVar="-1" Cut="0.0000000000000000e+00" cType="1" res="5.2793519571423531e-03" rms="3.8486185669898987e-01" purity="6.1641168594360352e-01" nType="-99"/>
          <Node pos="r" depth="2" NCoef="0" IVar="-1" Cut="0.0000000000000000e+00" cType="1" res="-1.3539261184632778e-02" rms="3.9750796556472778e-01" purity="4.4915863871574402e-01" nType="-99"/>
        </Node>
      </Node>
    </BinaryTree>
    <BinaryTree type="DecisionTree" boostWeight="1.0000000000000000e+00" itree="46">
      <Node pos="s" depth="0" NCoef="0" IVar="3" Cut="8.7238216400146484e-01" cType="1" res="-3.3864595461636782e-03" rms="3.9079770445823669e-01" purity="5.3955507278442383e-01" nType="0">
        <Node pos="l" depth="1" NCoef="0" IVar="2" Cut="1.0034334564208984e+02" cType="0" res="-4.4676291872747242e-04" rms="3.9216539263725281e-01" purity="5.6015402078628540e-01" nType="0">
          <Node pos="l" depth="2" NCoef="0" IVar="-1" Cut="0.0000000000000000e+00" cType="1" res="1.9983066245913506e-02" rms="3.8550734519958496e-01" purity="6.0677409172058105e-01" nType="-99"/>
          <Node pos="r" depth="2" NCoef="0" IVar="-1" Cut="0.0000000000000000e+00" cType="1" res="-3.3523691818118095e-03" rms="3.9300164580345154e-01" purity="5.5232965946197510e-01" nType="-99"/>
        </Node>
        <Node pos="r" depth="1" NCoef="0" IVar="0" Cut="9.0855812072753906e+01" cType="0" res="-4.2805373668670654e-02" rms="3.6972135305404663e-01" purity="2.6333993673324585e-01" nType="0">
          <Node pos="l" depth="2" NCoef="0" IVar="-1" Cut="0.0000000000000000e+00" cType="1" res="9.7431637346744537e-02" rms="2.5674870610237122e-01" purity="9.1705042123794556e-01" nType="-99"/>
          <Node pos="r" depth="2" NCoef="0" IVar="-1" Cut="0.0000000000000000e+00" cType="1" res="-2.0253252238035202e-02" rms="3.7485033273696899e-01" purity="2.2414524853229523e-01" nType="-99"/>
        </Node>
      </Node>
    </BinaryTree>
    <BinaryTree type="DecisionTree" boostWeight="1.0000000000000000e+00" itree="47">
      <Node pos="s" depth="0" NCoef="0" IVar="1" Cut="5.2666363525390625e+02" cType="1" res="-3.0619688332080841e-03" rms="3.9064905047416687e-01" purity="5.3955507278442383e-01" nType="0">
        <Node pos="l" depth="1" NCoef="0" IVar="0" Cut="1.2153846740722656e+02" cType="0" res="-2.0224570762366056e-03" rms="3.9093732833862305e-01" purity="5.4245322942733765e-01" nType="0">
          <Node pos="l" depth="2" NCoef="0" IVar="-1" Cut="0.0000000000000000e+00" cType="1" res="5.7193154096603394e-01" rms="1.0239426046609879e-01" purity="9.8985844850540161e-01" nType="-99"/>
          <Node pos="r" depth="2" NCoef="0" IVar="-1" Cut="0.0000000000000000e+00" cType="1" res="-1.8480253638699651e-03" rms="3.9378598332405090e-01" purity="5.3508335351943970e-01" nType="-99"/>
        </Node>
        <Node pos="r" depth="1" NCoef="0" IVar="-1" Cut="0.0000000000000000e+00" cType="1" res="-5.6752141565084457e-02" rms="3.4109902381896973e-01" purity="2.3160526156425476e-01" nType="-99"/>
      </Node>
    </BinaryTree>
    <BinaryTree type="DecisionTree" boostWeight="1.0000000000000000e+00" itree="48">
      <Node pos="s" depth="0" NCoef="0" IVar="1" Cut="2.8912954711914062e+02" cType="1" res="-3.2656639814376831e-03" rms="3.9046978950500488e-01" purity="5.3955507278442383e-01" nType="0">
        <Node pos="l" depth="1" NCoef="0" IVar="3" Cut="7.5020033121109009e-01" cType="1" res="9.6157382358796895e-05" rms="3.9324101805686951e-01" purity="5.5588436126708984e-01" nType="0">
          <Node pos="l" depth="2" NCoef="0" IVar="-1" Cut="0.0000000000000000e+00" cType="1" res="4.3004574254155159e-03" rms="3.9464297890663147e-01" purity="6.1296230554580688e-01" nType="-99"/>
          <Node pos="r" depth="2" NCoef="0" IVar="-1" Cut="0.0000000000000000e+00" cType="1" res="-1.0088039562106133e-02" rms="3.8804894685745239e-01" purity="3.7839445471763611e-01" nType="-99"/>
        </Node>
        <Node pos="r" depth="1" NCoef="0" IVar="3" Cut="6.6153198480606079e-01" cType="0" res="-3.7531193345785141e-02" rms="3.5922244191169739e-01" purity="3.7311813235282898e-01" nType="0">
          <Node pos="l" depth="2" NCoef="0" IVar="-1" Cut="0.0000000000000000e+00" cType="1" res="-3.6090079229325056e-03" rms="3.7017175555229187e-01" purity="3.8424301147460938e-01" nType="-99"/>
          <Node pos="r" depth="2" NCoef="0" IVar="-1" Cut="0.0000000000000000e+00" cType="1" res="-3.3671870827674866e-02" rms="3.4295699000358582e-01" purity="3.6043581366539001e-01" nType="-99"/>
        </Node>
      </Node>
    </BinaryTree>
    <BinaryTree type="DecisionTree" boostWeight="1.0000000000000000e+00" itree="49">
      <Node pos="s" depth="0" NCoef="0" IVar="1" Cut="4.0380117797851562e+02" cType="1" res="-3.0365905258804560e-03" rms="3.9032125473022461e-01" purity="5.3955507278442383e-01" nType="0">
        <Node pos="l" depth="1" NCoef="0" IVar="2" Cut="4.5271362304687500e+01" cType="0" res="-1.4088103780522943e-03" rms="3.9199927449226379e-01" purity="5.4630339145660400e-01" nType="0">
          <Node pos="l" depth="2" NCoef="0" IVar="-1" Cut="0.0000000000000000e+00" cType="1" res="1.6962945228442550e-03" rms="3.9489954710006714e-01" purity="5.6912332773208618e-01" nType="-99"/>
          <Node pos="r" depth="2" NCoef="0" IVar="-1" Cut="0.0000000000000000e+00" cType="1" res="-1.6275942325592041e-02" rms="3.6969766020774841e-01" purity="3.8711917400360107e-01" nType="-99"/>
        </Node>
        <Node pos="r" depth="1" NCoef="0" IVar="2" Cut="1.2050758361816406e+02" cType="0" res="-6.0660794377326965e-02" rms="3.2010000944137573e-01" purity="3.0066147446632385e-01" nType="0">
          <Node pos="l" depth="2" NCoef="0" IVar="-1" Cut="0.0000000000000000e+00" cType="1" res="-1.2998397462069988e-02" rms="3.8127025961875916e-01" purity="4.7193965315818787e-01" nType="-99"/>
          <Node pos="r" depth="2" NCoef="0" IVar="-1" Cut="0.0000000000000000e+00" cType="1" res="-4.3713252991437912e-02" rms="2.5539329648017883e-01" purity="1.6112755239009857e-01" nType="-99"/>
        </Node>
      </Node>
    </BinaryTree>
  </Weights>
</MethodSetup>
