<?xml version="1.0"?>
<MethodSetup Method="BDT::qcdBDTGrad_mu">
  <GeneralInfo>
    <Info name="TMVA Release" value="4.1.2 [262402]"/>
    <Info name="ROOT Release" value="5.32/00 [335872]"/>
    <Info name="Creator" value="andres"/>
    <Info name="Date" value="Fri Feb 28 14:50:47 2014"/>
    <Info name="Host" value="Linux lxbuild168.cern.ch 2.6.18-308.16.1.el5 #1 SMP Thu Oct 4 14:02:28 CEST 2012 x86_64 x86_64 x86_64 GNU/Linux"/>
    <Info name="Dir" value="/home/andres/single_top/stpol/src/qcd_mva"/>
    <Info name="Training events" value="92439"/>
    <Info name="TrainingTime" value="1.51160271e+01"/>
    <Info name="AnalysisType" value="Classification"/>
  </GeneralInfo>
  <Options>
    <Option name="V" modified="Yes">True</Option>
    <Option name="VerbosityLevel" modified="No">Verbose</Option>
    <Option name="VarTransform" modified="No">None</Option>
    <Option name="H" modified="Yes">False</Option>
    <Option name="CreateMVAPdfs" modified="No">False</Option>
    <Option name="IgnoreNegWeightsInTraining" modified="No">False</Option>
    <Option name="NTrees" modified="Yes">50</Option>
    <Option name="RenormByClass" modified="No">False</Option>
    <Option name="BoostType" modified="Yes">Grad</Option>
    <Option name="AdaBoostR2Loss" modified="No">quadratic</Option>
    <Option name="UseBaggedGrad" modified="Yes">False</Option>
    <Option name="GradBaggingFraction" modified="No">6.000000e-01</Option>
    <Option name="Shrinkage" modified="Yes">1.000000e-01</Option>
    <Option name="AdaBoostBeta" modified="No">1.000000e+00</Option>
    <Option name="UseRandomisedTrees" modified="No">False</Option>
    <Option name="UseNvars" modified="No">4</Option>
    <Option name="UsePoissonNvars" modified="No">True</Option>
    <Option name="UseNTrainEvents" modified="No">92439</Option>
    <Option name="UseWeightedTrees" modified="No">True</Option>
    <Option name="UseYesNoLeaf" modified="No">True</Option>
    <Option name="NodePurityLimit" modified="No">5.000000e-01</Option>
    <Option name="SeparationType" modified="Yes">crossentropy</Option>
    <Option name="nEventsMin" modified="Yes">250</Option>
    <Option name="nCuts" modified="Yes">200</Option>
    <Option name="UseFisherCuts" modified="No">False</Option>
    <Option name="MinLinCorrForFisher" modified="No">8.000000e-01</Option>
    <Option name="UseExclusiveVars" modified="No">False</Option>
    <Option name="PruneStrength" modified="Yes">7.000000e+00</Option>
    <Option name="PruneMethod" modified="Yes">costcomplexity</Option>
    <Option name="PruneBeforeBoost" modified="No">False</Option>
    <Option name="PruningValFraction" modified="No">5.000000e-01</Option>
    <Option name="NNodesMax" modified="No">100000</Option>
    <Option name="MaxDepth" modified="Yes">2</Option>
    <Option name="DoBoostMonitor" modified="No">False</Option>
    <Option name="NegWeightTreatment" modified="No">ignorenegweights</Option>
  </Options>
  <Variables NVar="13">
    <Variable VarIndex="0" Expression="met" Label="met" Title="met" Unit="" Internal="met" Type="D" Min="1.15134776e-01" Max="7.89096619e+02"/>
    <Variable VarIndex="1" Expression="c" Label="c" Title="c" Unit="" Internal="c" Type="D" Min="7.33649242e-04" Max="9.92477536e-01"/>
    <Variable VarIndex="2" Expression="top_mass" Label="top_mass" Title="top_mass" Unit="" Internal="top_mass" Type="D" Min="9.31125183e+01" Max="1.98851160e+03"/>
    <Variable VarIndex="3" Expression="top_eta" Label="top_eta" Title="top_eta" Unit="" Internal="top_eta" Type="D" Min="-5.79750395e+00" Max="6.46687460e+00"/>
    <Variable VarIndex="4" Expression="D" Label="D" Title="D" Unit="" Internal="D" Type="D" Min="3.18510871e-08" Max="9.77678359e-01"/>
    <Variable VarIndex="5" Expression="aplanarity" Label="aplanarity" Title="aplanarity" Unit="" Internal="aplanarity" Type="D" Min="8.35770265e-07" Max="4.26520288e-01"/>
    <Variable VarIndex="6" Expression="isotropy" Label="isotropy" Title="isotropy" Unit="" Internal="isotropy" Type="D" Min="1.13947958e-01" Max="9.92163837e-01"/>
    <Variable VarIndex="7" Expression="thrust" Label="thrust" Title="thrust" Unit="" Internal="thrust" Type="D" Min="5.79652905e-01" Max="9.95318830e-01"/>
    <Variable VarIndex="8" Expression="bjet_mass" Label="bjet_mass" Title="bjet_mass" Unit="" Internal="bjet_mass" Type="D" Min="2.35919189e+00" Max="1.32622147e+02"/>
    <Variable VarIndex="9" Expression="bjet_pt" Label="bjet_pt" Title="bjet_pt" Unit="" Internal="bjet_pt" Type="D" Min="4.00001602e+01" Max="1.03944324e+03"/>
    <Variable VarIndex="10" Expression="ljet_mass" Label="ljet_mass" Title="ljet_mass" Unit="" Internal="ljet_mass" Type="D" Min="5.98140180e-01" Max="1.67452393e+02"/>
    <Variable VarIndex="11" Expression="ljet_pt" Label="ljet_pt" Title="ljet_pt" Unit="" Internal="ljet_pt" Type="D" Min="4.00000534e+01" Max="7.67769470e+02"/>
    <Variable VarIndex="12" Expression="mu_mtw" Label="mu_mtw" Title="mu_mtw" Unit="" Internal="mu_mtw" Type="D" Min="9.95955197e-04" Max="6.60605652e+02"/>
  </Variables>
  <Spectators NSpec="0"/>
  <Classes NClass="2">
    <Class Name="Background" Index="0"/>
    <Class Name="Signal" Index="1"/>
  </Classes>
  <Transformations NTransformations="0"/>
  <MVAPdfs/>
  <Weights NTrees="50" AnalysisType="1">
    <BinaryTree type="DecisionTree" boostWeight="1.0000000000000000e+00" itree="0">
      <Node pos="s" depth="0" NCoef="0" IVar="12" Cut="4.9299850463867188e+01" cType="0" res="-1.0198713093996048e-01" rms="4.8948812484741211e-01" purity="3.9801287651062012e-01" nType="0">
        <Node pos="l" depth="1" NCoef="0" IVar="6" Cut="7.3437905311584473e-01" cType="1" res="1.4509066939353943e-01" rms="4.7848585247993469e-01" purity="6.4509063959121704e-01" nType="0">
          <Node pos="l" depth="2" NCoef="0" IVar="-1" Cut="0.0000000000000000e+00" cType="1" res="9.1746039688587189e-02" rms="4.5307087898254395e-01" purity="7.1148705482482910e-01" nType="-99"/>
          <Node pos="r" depth="2" NCoef="0" IVar="-1" Cut="0.0000000000000000e+00" cType="1" res="-1.4097747392952442e-02" rms="4.9786588549613953e-01" purity="4.5385298132896423e-01" nType="-99"/>
        </Node>
        <Node pos="r" depth="1" NCoef="0" IVar="0" Cut="5.5069068908691406e+01" cType="0" res="-2.8975683450698853e-01" rms="4.0748125314712524e-01" purity="2.1024315059185028e-01" nType="0">
          <Node pos="l" depth="2" NCoef="0" IVar="-1" Cut="0.0000000000000000e+00" cType="1" res="4.2404025793075562e-02" rms="4.8684215545654297e-01" purity="6.1395049095153809e-01" nType="-99"/>
          <Node pos="r" depth="2" NCoef="0" IVar="-1" Cut="0.0000000000000000e+00" cType="1" res="-7.6056286692619324e-02" rms="3.7406748533248901e-01" purity="1.6822670400142670e-01" nType="-99"/>
        </Node>
      </Node>
    </BinaryTree>
    <BinaryTree type="DecisionTree" boostWeight="1.0000000000000000e+00" itree="1">
      <Node pos="s" depth="0" NCoef="0" IVar="12" Cut="5.2586441040039062e+01" cType="0" res="-9.7467027604579926e-02" rms="4.7164401412010193e-01" purity="3.9801287651062012e-01" nType="0">
        <Node pos="l" depth="1" NCoef="0" IVar="8" Cut="2.4898082733154297e+01" cType="1" res="1.2877103686332703e-01" rms="4.6849891543388367e-01" purity="6.6114723682403564e-01" nType="0">
          <Node pos="l" depth="2" NCoef="0" IVar="-1" Cut="0.0000000000000000e+00" cType="1" res="6.3380233943462372e-02" rms="4.6060734987258911e-01" purity="6.8489187955856323e-01" nType="-99"/>
          <Node pos="r" depth="2" NCoef="0" IVar="-1" Cut="0.0000000000000000e+00" cType="1" res="-6.4179942011833191e-02" rms="4.3155905604362488e-01" purity="2.5392934679985046e-01" nType="-99"/>
        </Node>
        <Node pos="r" depth="1" NCoef="0" IVar="0" Cut="4.3293224334716797e+01" cType="0" res="-2.4881188571453094e-01" rms="4.0899983048439026e-01" purity="2.2198577225208282e-01" nType="0">
          <Node pos="l" depth="2" NCoef="0" IVar="-1" Cut="0.0000000000000000e+00" cType="1" res="4.6152956783771515e-03" rms="4.9200969934463501e-01" purity="5.1310014724731445e-01" nType="-99"/>
          <Node pos="r" depth="2" NCoef="0" IVar="-1" Cut="0.0000000000000000e+00" cType="1" res="-6.9306738674640656e-02" rms="3.6793306469917297e-01" purity="1.6315232217311859e-01" nType="-99"/>
        </Node>
      </Node>
    </BinaryTree>
    <BinaryTree type="DecisionTree" boostWeight="1.0000000000000000e+00" itree="2">
      <Node pos="s" depth="0" NCoef="0" IVar="12" Cut="5.5873031616210938e+01" cType="0" res="-9.1787040233612061e-02" rms="4.5852708816528320e-01" purity="3.9801287651062012e-01" nType="0">
        <Node pos="l" depth="1" NCoef="0" IVar="6" Cut="7.9035961627960205e-01" cType="1" res="1.1570340394973755e-01" rms="4.6035626530647278e-01" purity="6.7608904838562012e-01" nType="0">
          <Node pos="l" depth="2" NCoef="0" IVar="-1" Cut="0.0000000000000000e+00" cType="1" res="6.8936638534069061e-02" rms="4.4491770863533020e-01" purity="7.2195249795913696e-01" nType="-99"/>
          <Node pos="r" depth="2" NCoef="0" IVar="-1" Cut="0.0000000000000000e+00" cType="1" res="-2.5744404643774033e-02" rms="4.8930379748344421e-01" purity="4.2679440975189209e-01" nType="-99"/>
        </Node>
        <Node pos="r" depth="1" NCoef="0" IVar="0" Cut="5.5069068908691406e+01" cType="0" res="-2.1411278843879700e-01" rms="4.1098806262016296e-01" purity="2.3407334089279175e-01" nType="0">
          <Node pos="l" depth="2" NCoef="0" IVar="-1" Cut="0.0000000000000000e+00" cType="1" res="4.4128485023975372e-02" rms="4.7828811407089233e-01" purity="6.4132457971572876e-01" nType="-99"/>
          <Node pos="r" depth="2" NCoef="0" IVar="-1" Cut="0.0000000000000000e+00" cType="1" res="-5.9691719710826874e-02" rms="3.8564410805702209e-01" purity="1.8822595477104187e-01" nType="-99"/>
        </Node>
      </Node>
    </BinaryTree>
    <BinaryTree type="DecisionTree" boostWeight="1.0000000000000000e+00" itree="3">
      <Node pos="s" depth="0" NCoef="0" IVar="12" Cut="4.2726669311523438e+01" cType="0" res="-8.6476787924766541e-02" rms="4.4743531942367554e-01" purity="3.9801287651062012e-01" nType="0">
        <Node pos="l" depth="1" NCoef="0" IVar="12" Cut="6.7318923950195312e+01" cType="0" res="5.2700497210025787e-02" rms="4.6661740541458130e-01" purity="6.0831129550933838e-01" nType="0">
          <Node pos="l" depth="2" NCoef="0" IVar="-1" Cut="0.0000000000000000e+00" cType="1" res="5.9069328010082245e-02" rms="4.3973249197006226e-01" purity="7.1742320060729980e-01" nType="-99"/>
          <Node pos="r" depth="2" NCoef="0" IVar="-1" Cut="0.0000000000000000e+00" cType="1" res="-1.2419853359460831e-02" rms="4.8067680001258850e-01" purity="4.7989794611930847e-01" nType="-99"/>
        </Node>
        <Node pos="r" depth="1" NCoef="0" IVar="0" Cut="5.8994350433349609e+01" cType="0" res="-2.2337079048156738e-01" rms="3.8099876046180725e-01" purity="1.9116446375846863e-01" nType="0">
          <Node pos="l" depth="2" NCoef="0" IVar="-1" Cut="0.0000000000000000e+00" cType="1" res="2.9661642387509346e-02" rms="4.8448154330253601e-01" purity="6.2360274791717529e-01" nType="-99"/>
          <Node pos="r" depth="2" NCoef="0" IVar="-1" Cut="0.0000000000000000e+00" cType="1" res="-5.8546386659145355e-02" rms="3.6021545529365540e-01" purity="1.5571735799312592e-01" nType="-99"/>
        </Node>
      </Node>
    </BinaryTree>
    <BinaryTree type="DecisionTree" boostWeight="1.0000000000000000e+00" itree="4">
      <Node pos="s" depth="0" NCoef="0" IVar="12" Cut="4.2726669311523438e+01" cType="0" res="-8.0244809389114380e-02" rms="4.3964007496833801e-01" purity="3.9801287651062012e-01" nType="0">
        <Node pos="l" depth="1" NCoef="0" IVar="2" Cut="1.4217329406738281e+02" cType="0" res="4.0277320891618729e-02" rms="4.6391874551773071e-01" purity="6.0831129550933838e-01" nType="0">
          <Node pos="l" depth="2" NCoef="0" IVar="-1" Cut="0.0000000000000000e+00" cType="1" res="3.1621824949979782e-02" rms="4.5393279194831848e-01" purity="6.4846080541610718e-01" nType="-99"/>
          <Node pos="r" depth="2" NCoef="0" IVar="-1" Cut="0.0000000000000000e+00" cType="1" res="-4.3251272290945053e-02" rms="4.6940025687217712e-01" purity="4.0827333927154541e-01" nType="-99"/>
        </Node>
        <Node pos="r" depth="1" NCoef="0" IVar="0" Cut="3.9367946624755859e+01" cType="0" res="-1.9878971576690674e-01" rms="3.7863689661026001e-01" purity="1.9116446375846863e-01" nType="0">
          <Node pos="l" depth="2" NCoef="0" IVar="-1" Cut="0.0000000000000000e+00" cType="1" res="-1.1065521277487278e-02" rms="4.7586101293563843e-01" purity="4.3230891227722168e-01" nType="-99"/>
          <Node pos="r" depth="2" NCoef="0" IVar="-1" Cut="0.0000000000000000e+00" cType="1" res="-5.6671787053346634e-02" rms="3.3998680114746094e-01" purity="1.3338169455528259e-01" nType="-99"/>
        </Node>
      </Node>
    </BinaryTree>
    <BinaryTree type="DecisionTree" boostWeight="1.0000000000000000e+00" itree="5">
      <Node pos="s" depth="0" NCoef="0" IVar="12" Cut="4.6013259887695312e+01" cType="0" res="-7.3604911565780640e-02" rms="4.3384408950805664e-01" purity="3.9801287651062012e-01" nType="0">
        <Node pos="l" depth="1" NCoef="0" IVar="6" Cut="8.1739449501037598e-01" cType="1" res="3.8907796144485474e-02" rms="4.6108138561248779e-01" purity="6.2702029943466187e-01" nType="0">
          <Node pos="l" depth="2" NCoef="0" IVar="-1" Cut="0.0000000000000000e+00" cType="1" res="2.8723169118165970e-02" rms="4.5369252562522888e-01" purity="6.6680705547332764e-01" nType="-99"/>
          <Node pos="r" depth="2" NCoef="0" IVar="-1" Cut="0.0000000000000000e+00" cType="1" res="-4.4302813708782196e-02" rms="4.6302726864814758e-01" purity="3.4636494517326355e-01" nType="-99"/>
        </Node>
        <Node pos="r" depth="1" NCoef="0" IVar="0" Cut="3.9367946624755859e+01" cType="0" res="-1.7068277299404144e-01" rms="3.8320049643516541e-01" purity="2.0042145252227783e-01" nType="0">
          <Node pos="l" depth="2" NCoef="0" IVar="-1" Cut="0.0000000000000000e+00" cType="1" res="-5.6944908574223518e-03" rms="4.7750538587570190e-01" purity="4.4678640365600586e-01" nType="-99"/>
          <Node pos="r" depth="2" NCoef="0" IVar="-1" Cut="0.0000000000000000e+00" cType="1" res="-5.1293674856424332e-02" rms="3.4646335244178772e-01" purity="1.4042548835277557e-01" nType="-99"/>
        </Node>
      </Node>
    </BinaryTree>
    <BinaryTree type="DecisionTree" boostWeight="1.0000000000000000e+00" itree="6">
      <Node pos="s" depth="0" NCoef="0" IVar="12" Cut="6.2446212768554688e+01" cType="0" res="-6.7621037364006042e-02" rms="4.2916080355644226e-01" purity="3.9801287651062012e-01" nType="0">
        <Node pos="l" depth="1" NCoef="0" IVar="8" Cut="2.3335783004760742e+01" cType="1" res="7.0850037038326263e-02" rms="4.4371923804283142e-01" purity="6.9996929168701172e-01" nType="0">
          <Node pos="l" depth="2" NCoef="0" IVar="-1" Cut="0.0000000000000000e+00" cType="1" res="4.5435987412929535e-02" rms="4.3460321426391602e-01" purity="7.2907882928848267e-01" nType="-99"/>
          <Node pos="r" depth="2" NCoef="0" IVar="-1" Cut="0.0000000000000000e+00" cType="1" res="-6.4956128597259521e-02" rms="4.4646841287612915e-01" purity="3.0401307344436646e-01" nType="-99"/>
        </Node>
        <Node pos="r" depth="1" NCoef="0" IVar="0" Cut="5.1143787384033203e+01" cType="0" res="-1.3055992126464844e-01" rms="4.0709516406059265e-01" purity="2.6076540350914001e-01" nType="0">
          <Node pos="l" depth="2" NCoef="0" IVar="-1" Cut="0.0000000000000000e+00" cType="1" res="2.8924670070409775e-02" rms="4.7344437241554260e-01" purity="6.1874681711196899e-01" nType="-99"/>
          <Node pos="r" depth="2" NCoef="0" IVar="-1" Cut="0.0000000000000000e+00" cType="1" res="-4.2747020721435547e-02" rms="3.8659086823463440e-01" purity="2.0644229650497437e-01" nType="-99"/>
        </Node>
      </Node>
    </BinaryTree>
    <BinaryTree type="DecisionTree" boostWeight="1.0000000000000000e+00" itree="7">
      <Node pos="s" depth="0" NCoef="0" IVar="12" Cut="3.6153488159179688e+01" cType="0" res="-6.2843725085258484e-02" rms="4.2418825626373291e-01" purity="3.9801287651062012e-01" nType="0">
        <Node pos="l" depth="1" NCoef="0" IVar="2" Cut="1.3812567138671875e+02" cType="0" res="9.2848502099514008e-03" rms="4.5275783538818359e-01" purity="5.6816279888153076e-01" nType="0">
          <Node pos="l" depth="2" NCoef="0" IVar="-1" Cut="0.0000000000000000e+00" cType="1" res="1.4735083095729351e-02" rms="4.4853654503822327e-01" purity="6.0461235046386719e-01" nType="-99"/>
          <Node pos="r" depth="2" NCoef="0" IVar="-1" Cut="0.0000000000000000e+00" cType="1" res="-4.6674601733684540e-02" rms="4.4171404838562012e-01" purity="3.4267872571945190e-01" nType="-99"/>
        </Node>
        <Node pos="r" depth="1" NCoef="0" IVar="0" Cut="7.4695472717285156e+01" cType="0" res="-1.5635341405868530e-01" rms="3.6327144503593445e-01" purity="1.7742531001567841e-01" nType="0">
          <Node pos="l" depth="2" NCoef="0" IVar="-1" Cut="0.0000000000000000e+00" cType="1" res="6.7143328487873077e-02" rms="4.4976690411567688e-01" purity="7.1842557191848755e-01" nType="-99"/>
          <Node pos="r" depth="2" NCoef="0" IVar="-1" Cut="0.0000000000000000e+00" cType="1" res="-4.4429920613765717e-02" rms="3.5399046540260315e-01" purity="1.5615986287593842e-01" nType="-99"/>
        </Node>
      </Node>
    </BinaryTree>
    <BinaryTree type="DecisionTree" boostWeight="1.0000000000000000e+00" itree="8">
      <Node pos="s" depth="0" NCoef="0" IVar="12" Cut="6.5732803344726562e+01" cType="0" res="-5.7033758610486984e-02" rms="4.2105644941329956e-01" purity="3.9801287651062012e-01" nType="0">
        <Node pos="l" depth="1" NCoef="0" IVar="0" Cut="4.1663185119628906e+01" cType="1" res="5.9650436043739319e-02" rms="4.3564367294311523e-01" purity="7.1250981092453003e-01" nType="0">
          <Node pos="l" depth="2" NCoef="0" IVar="-1" Cut="0.0000000000000000e+00" cType="1" res="1.6061158478260040e-01" rms="2.8969854116439819e-01" purity="8.9082992076873779e-01" nType="-99"/>
          <Node pos="r" depth="2" NCoef="0" IVar="-1" Cut="0.0000000000000000e+00" cType="1" res="5.8030420914292336e-03" rms="4.5481866598129272e-01" purity="6.6600352525711060e-01" nType="-99"/>
        </Node>
        <Node pos="r" depth="1" NCoef="0" IVar="9" Cut="5.9889575958251953e+01" cType="0" res="-1.0301297903060913e-01" rms="4.0606033802032471e-01" purity="2.7408581972122192e-01" nType="0">
          <Node pos="l" depth="2" NCoef="0" IVar="-1" Cut="0.0000000000000000e+00" cType="1" res="-9.9335694685578346e-03" rms="4.4088107347488403e-01" purity="3.6013141274452209e-01" nType="-99"/>
          <Node pos="r" depth="2" NCoef="0" IVar="-1" Cut="0.0000000000000000e+00" cType="1" res="-4.7169554978609085e-02" rms="3.5428687930107117e-01" purity="1.8869540095329285e-01" nType="-99"/>
        </Node>
      </Node>
    </BinaryTree>
    <BinaryTree type="DecisionTree" boostWeight="1.0000000000000000e+00" itree="9">
      <Node pos="s" depth="0" NCoef="0" IVar="12" Cut="3.2866897583007812e+01" cType="0" res="-5.2728373557329178e-02" rms="4.1684922575950623e-01" purity="3.9801287651062012e-01" nType="0">
        <Node pos="l" depth="1" NCoef="0" IVar="6" Cut="7.2564059495925903e-01" cType="1" res="1.0190540924668312e-03" rms="4.4504240155220032e-01" purity="5.4871767759323120e-01" nType="0">
          <Node pos="l" depth="2" NCoef="0" IVar="-1" Cut="0.0000000000000000e+00" cType="1" res="1.7350750043988228e-02" rms="4.3818357586860657e-01" purity="6.1556786298751831e-01" nType="-99"/>
          <Node pos="r" depth="2" NCoef="0" IVar="-1" Cut="0.0000000000000000e+00" cType="1" res="-2.9503829777240753e-02" rms="4.4655448198318481e-01" purity="3.8551887869834900e-01" nType="-99"/>
        </Node>
        <Node pos="r" depth="1" NCoef="0" IVar="0" Cut="6.6844909667968750e+01" cType="0" res="-1.3383813202381134e-01" rms="3.5518291592597961e-01" purity="1.7058558762073517e-01" nType="0">
          <Node pos="l" depth="2" NCoef="0" IVar="-1" Cut="0.0000000000000000e+00" cType="1" res="3.5196252167224884e-02" rms="4.6960937976837158e-01" purity="6.5965545177459717e-01" nType="-99"/>
          <Node pos="r" depth="2" NCoef="0" IVar="-1" Cut="0.0000000000000000e+00" cType="1" res="-4.0389917790889740e-02" rms="3.4405589103698730e-01" purity="1.4447720348834991e-01" nType="-99"/>
        </Node>
      </Node>
    </BinaryTree>
    <BinaryTree type="DecisionTree" boostWeight="1.0000000000000000e+00" itree="10">
      <Node pos="s" depth="0" NCoef="0" IVar="9" Cut="5.4917221069335938e+01" cType="0" res="-4.7817602753639221e-02" rms="4.1460534930229187e-01" purity="3.9801287651062012e-01" nType="0">
        <Node pos="l" depth="1" NCoef="0" IVar="6" Cut="7.6933294534683228e-01" cType="1" res="5.4885167628526688e-04" rms="4.3048068881034851e-01" purity="4.7236809134483337e-01" nType="0">
          <Node pos="l" depth="2" NCoef="0" IVar="-1" Cut="0.0000000000000000e+00" cType="1" res="1.9147992134094238e-02" rms="4.3326780200004578e-01" purity="5.5119693279266357e-01" nType="-99"/>
          <Node pos="r" depth="2" NCoef="0" IVar="-1" Cut="0.0000000000000000e+00" cType="1" res="-3.4972794353961945e-02" rms="3.9847737550735474e-01" purity="2.6884084939956665e-01" nType="-99"/>
        </Node>
        <Node pos="r" depth="1" NCoef="0" IVar="0" Cut="5.7256687164306641e+01" cType="0" res="-1.2912736833095551e-01" rms="3.7255829572677612e-01" purity="2.7301290631294250e-01" nType="0">
          <Node pos="l" depth="2" NCoef="0" IVar="-1" Cut="0.0000000000000000e+00" cType="1" res="5.6075891479849815e-03" rms="4.7054117918014526e-01" purity="6.4412122964859009e-01" nType="-99"/>
          <Node pos="r" depth="2" NCoef="0" IVar="-1" Cut="0.0000000000000000e+00" cType="1" res="-4.5830339193344116e-02" rms="3.4116914868354797e-01" purity="1.9535826146602631e-01" nType="-99"/>
        </Node>
      </Node>
    </BinaryTree>
    <BinaryTree type="DecisionTree" boostWeight="1.0000000000000000e+00" itree="11">
      <Node pos="s" depth="0" NCoef="0" IVar="12" Cut="3.9440078735351562e+01" cType="0" res="-4.3287232518196106e-02" rms="4.1194343566894531e-01" purity="3.9801287651062012e-01" nType="0">
        <Node pos="l" depth="1" NCoef="0" IVar="8" Cut="2.7751712799072266e+01" cType="1" res="9.6268365159630775e-03" rms="4.4475954771041870e-01" purity="5.8782732486724854e-01" nType="0">
          <Node pos="l" depth="2" NCoef="0" IVar="-1" Cut="0.0000000000000000e+00" cType="1" res="8.7732151150703430e-03" rms="4.4316676259040833e-01" purity="6.0384732484817505e-01" nType="-99"/>
          <Node pos="r" depth="2" NCoef="0" IVar="-1" Cut="0.0000000000000000e+00" cType="1" res="-6.9708891212940216e-02" rms="3.7612497806549072e-01" purity="1.8463808298110962e-01" nType="-99"/>
        </Node>
        <Node pos="r" depth="1" NCoef="0" IVar="0" Cut="3.5442665100097656e+01" cType="0" res="-1.0287510603666306e-01" rms="3.6240050196647644e-01" purity="1.8425798416137695e-01" nType="0">
          <Node pos="l" depth="2" NCoef="0" IVar="-1" Cut="0.0000000000000000e+00" cType="1" res="-4.9332799389958382e-03" rms="4.5095312595367432e-01" purity="3.7856093049049377e-01" nType="-99"/>
          <Node pos="r" depth="2" NCoef="0" IVar="-1" Cut="0.0000000000000000e+00" cType="1" res="-3.8133777678012848e-02" rms="3.2511937618255615e-01" purity="1.2357425689697266e-01" nType="-99"/>
        </Node>
      </Node>
    </BinaryTree>
    <BinaryTree type="DecisionTree" boostWeight="1.0000000000000000e+00" itree="12">
      <Node pos="s" depth="0" NCoef="0" IVar="9" Cut="5.4917221069335938e+01" cType="0" res="-3.9286524057388306e-02" rms="4.1033884882926941e-01" purity="3.9801287651062012e-01" nType="0">
        <Node pos="l" depth="1" NCoef="0" IVar="5" Cut="1.4854746870696545e-02" cType="0" res="2.6723160408437252e-03" rms="4.2693406343460083e-01" purity="4.7236809134483337e-01" nType="0">
          <Node pos="l" depth="2" NCoef="0" IVar="-1" Cut="0.0000000000000000e+00" cType="1" res="3.2223984599113464e-02" rms="4.3427228927612305e-01" purity="6.0790824890136719e-01" nType="-99"/>
          <Node pos="r" depth="2" NCoef="0" IVar="-1" Cut="0.0000000000000000e+00" cType="1" res="-2.0487172529101372e-02" rms="4.0953284502029419e-01" purity="3.5022363066673279e-01" nType="-99"/>
        </Node>
        <Node pos="r" depth="1" NCoef="0" IVar="12" Cut="8.7741355895996094e+01" cType="0" res="-1.0982432216405869e-01" rms="3.7024855613708496e-01" purity="2.7301290631294250e-01" nType="0">
          <Node pos="l" depth="2" NCoef="0" IVar="-1" Cut="0.0000000000000000e+00" cType="1" res="6.2491592019796371e-02" rms="4.0467113256454468e-01" purity="7.8384512662887573e-01" nType="-99"/>
          <Node pos="r" depth="2" NCoef="0" IVar="-1" Cut="0.0000000000000000e+00" cType="1" res="-3.8947571069002151e-02" rms="3.6284235119819641e-01" purity="2.3791629076004028e-01" nType="-99"/>
        </Node>
      </Node>
    </BinaryTree>
    <BinaryTree type="DecisionTree" boostWeight="1.0000000000000000e+00" itree="13">
      <Node pos="s" depth="0" NCoef="0" IVar="9" Cut="6.4861930847167969e+01" cType="0" res="-3.5773515701293945e-02" rms="4.0796977281570435e-01" purity="3.9801287651062012e-01" nType="0">
        <Node pos="l" depth="1" NCoef="0" IVar="8" Cut="2.1803401947021484e+01" cType="1" res="1.7653726041316986e-02" rms="4.2896413803100586e-01" purity="4.9575224518775940e-01" nType="0">
          <Node pos="l" depth="2" NCoef="0" IVar="-1" Cut="0.0000000000000000e+00" cType="1" res="2.1140152588486671e-02" rms="4.2654350399971008e-01" purity="5.4245001077651978e-01" nType="-99"/>
          <Node pos="r" depth="2" NCoef="0" IVar="-1" Cut="0.0000000000000000e+00" cType="1" res="-4.6693779528141022e-02" rms="3.9504095911979675e-01" purity="2.4827796220779419e-01" nType="-99"/>
        </Node>
        <Node pos="r" depth="1" NCoef="0" IVar="12" Cut="7.2387092590332031e+01" cType="0" res="-8.1652648746967316e-02" rms="3.8313803076744080e-01" purity="3.1408193707466125e-01" nType="0">
          <Node pos="l" depth="2" NCoef="0" IVar="-1" Cut="0.0000000000000000e+00" cType="1" res="1.8455812707543373e-02" rms="4.3094852566719055e-01" purity="7.1820706129074097e-01" nType="-99"/>
          <Node pos="r" depth="2" NCoef="0" IVar="-1" Cut="0.0000000000000000e+00" cType="1" res="-3.3573836088180542e-02" rms="3.6693260073661804e-01" purity="2.2627587616443634e-01" nType="-99"/>
        </Node>
      </Node>
    </BinaryTree>
    <BinaryTree type="DecisionTree" boostWeight="1.0000000000000000e+00" itree="14">
      <Node pos="s" depth="0" NCoef="0" IVar="12" Cut="2.9580308914184570e+01" cType="0" res="-3.2689645886421204e-02" rms="4.0584656596183777e-01" purity="3.9801287651062012e-01" nType="0">
        <Node pos="l" depth="1" NCoef="0" IVar="2" Cut="1.4712829589843750e+02" cType="0" res="1.9189245067536831e-03" rms="4.3292358517646790e-01" purity="5.2908110618591309e-01" nType="0">
          <Node pos="l" depth="2" NCoef="0" IVar="-1" Cut="0.0000000000000000e+00" cType="1" res="1.1571956798434258e-02" rms="4.3266880512237549e-01" purity="5.7609581947326660e-01" nType="-99"/>
          <Node pos="r" depth="2" NCoef="0" IVar="-1" Cut="0.0000000000000000e+00" cType="1" res="-2.9740825295448303e-02" rms="4.2087507247924805e-01" purity="3.6216798424720764e-01" nType="-99"/>
        </Node>
        <Node pos="r" depth="1" NCoef="0" IVar="11" Cut="6.2797740936279297e+01" cType="0" res="-9.4177916646003723e-02" rms="3.4416821599006653e-01" purity="1.6514682769775391e-01" nType="0">
          <Node pos="l" depth="2" NCoef="0" IVar="-1" Cut="0.0000000000000000e+00" cType="1" res="-1.6015699133276939e-02" rms="3.8190293312072754e-01" purity="2.2525753080844879e-01" nType="-99"/>
          <Node pos="r" depth="2" NCoef="0" IVar="-1" Cut="0.0000000000000000e+00" cType="1" res="-4.0248792618513107e-02" rms="3.0593708157539368e-01" purity="1.1720953881740570e-01" nType="-99"/>
        </Node>
      </Node>
    </BinaryTree>
    <BinaryTree type="DecisionTree" boostWeight="1.0000000000000000e+00" itree="15">
      <Node pos="s" depth="0" NCoef="0" IVar="2" Cut="2.1570051574707031e+02" cType="1" res="-2.9586263000965118e-02" rms="4.0464368462562561e-01" purity="3.9801287651062012e-01" nType="0">
        <Node pos="l" depth="1" NCoef="0" IVar="2" Cut="1.4922227478027344e+02" cType="0" res="-4.7948164865374565e-03" rms="4.0573024749755859e-01" purity="4.2859503626823425e-01" nType="0">
          <Node pos="l" depth="2" NCoef="0" IVar="-1" Cut="0.0000000000000000e+00" cType="1" res="1.5294179320335388e-02" rms="4.1433483362197876e-01" purity="5.0390410423278809e-01" nType="-99"/>
          <Node pos="r" depth="2" NCoef="0" IVar="-1" Cut="0.0000000000000000e+00" cType="1" res="-3.1675718724727631e-02" rms="3.7064713239669800e-01" purity="2.6648110151290894e-01" nType="-99"/>
        </Node>
        <Node pos="r" depth="1" NCoef="0" IVar="4" Cut="4.2429894208908081e-02" cType="0" res="-1.0930565744638443e-01" rms="3.9060661196708679e-01" purity="2.9967275261878967e-01" nType="0">
          <Node pos="l" depth="2" NCoef="0" IVar="-1" Cut="0.0000000000000000e+00" cType="1" res="1.9405974075198174e-02" rms="4.3716958165168762e-01" purity="5.7976305484771729e-01" nType="-99"/>
          <Node pos="r" depth="2" NCoef="0" IVar="-1" Cut="0.0000000000000000e+00" cType="1" res="-4.9002889543771744e-02" rms="3.5684955120086670e-01" purity="2.0086079835891724e-01" nType="-99"/>
        </Node>
      </Node>
    </BinaryTree>
    <BinaryTree type="DecisionTree" boostWeight="1.0000000000000000e+00" itree="16">
      <Node pos="s" depth="0" NCoef="0" IVar="12" Cut="9.5312118530273438e+01" cType="0" res="-2.6946781203150749e-02" rms="4.0253224968910217e-01" purity="3.9801287651062012e-01" nType="0">
        <Node pos="l" depth="1" NCoef="0" IVar="0" Cut="8.0959686279296875e+01" cType="1" res="1.5091069042682648e-01" rms="3.4546062350273132e-01" purity="8.3482903242111206e-01" nType="0">
          <Node pos="l" depth="2" NCoef="0" IVar="-1" Cut="0.0000000000000000e+00" cType="1" res="1.8093149363994598e-01" rms="2.4003800749778748e-01" purity="9.2203575372695923e-01" nType="-99"/>
          <Node pos="r" depth="2" NCoef="0" IVar="-1" Cut="0.0000000000000000e+00" cType="1" res="2.9060957022011280e-03" rms="4.4732907414436340e-01" purity="6.7500394582748413e-01" nType="-99"/>
        </Node>
        <Node pos="r" depth="1" NCoef="0" IVar="11" Cut="6.8966003417968750e+01" cType="0" res="-3.7330470979213715e-02" rms="4.0319952368736267e-01" purity="3.7251061201095581e-01" nType="0">
          <Node pos="l" depth="2" NCoef="0" IVar="-1" Cut="0.0000000000000000e+00" cType="1" res="5.2357395179569721e-03" rms="4.2288872599601746e-01" purity="4.5062670111656189e-01" nType="-99"/>
          <Node pos="r" depth="2" NCoef="0" IVar="-1" Cut="0.0000000000000000e+00" cType="1" res="-2.4988293647766113e-02" rms="3.8528782129287720e-01" purity="3.1908914446830750e-01" nType="-99"/>
        </Node>
      </Node>
    </BinaryTree>
    <BinaryTree type="DecisionTree" boostWeight="1.0000000000000000e+00" itree="17">
      <Node pos="s" depth="0" NCoef="0" IVar="5" Cut="2.5464683771133423e-02" cType="0" res="-2.4795370176434517e-02" rms="4.0058699250221252e-01" purity="3.9801287651062012e-01" nType="0">
        <Node pos="l" depth="1" NCoef="0" IVar="2" Cut="1.5539901733398438e+02" cType="0" res="3.0425414443016052e-02" rms="4.1925308108329773e-01" purity="5.3520065546035767e-01" nType="0">
          <Node pos="l" depth="2" NCoef="0" IVar="-1" Cut="0.0000000000000000e+00" cType="1" res="3.6240056157112122e-02" rms="4.2057698965072632e-01" purity="6.2513959407806396e-01" nType="-99"/>
          <Node pos="r" depth="2" NCoef="0" IVar="-1" Cut="0.0000000000000000e+00" cType="1" res="-2.3899832740426064e-02" rms="3.9914789795875549e-01" purity="3.5069435834884644e-01" nType="-99"/>
        </Node>
        <Node pos="r" depth="1" NCoef="0" IVar="2" Cut="2.1570051574707031e+02" cType="1" res="-5.5510323494672775e-02" rms="3.8641747832298279e-01" purity="3.2170611619949341e-01" nType="0">
          <Node pos="l" depth="2" NCoef="0" IVar="-1" Cut="0.0000000000000000e+00" cType="1" res="-9.0983118861913681e-03" rms="3.9182820916175842e-01" purity="3.6448636651039124e-01" nType="-99"/>
          <Node pos="r" depth="2" NCoef="0" IVar="-1" Cut="0.0000000000000000e+00" cType="1" res="-4.2715121060609818e-02" rms="3.5901829600334167e-01" purity="2.0756645500659943e-01" nType="-99"/>
        </Node>
      </Node>
    </BinaryTree>
    <BinaryTree type="DecisionTree" boostWeight="1.0000000000000000e+00" itree="18">
      <Node pos="s" depth="0" NCoef="0" IVar="9" Cut="4.9944866180419922e+01" cType="0" res="-2.2674731910228729e-02" rms="3.9891329407691956e-01" purity="3.9801287651062012e-01" nType="0">
        <Node pos="l" depth="1" NCoef="0" IVar="6" Cut="6.8194830417633057e-01" cType="1" res="7.8467238927260041e-04" rms="4.1230431199073792e-01" purity="4.5312318205833435e-01" nType="0">
          <Node pos="l" depth="2" NCoef="0" IVar="-1" Cut="0.0000000000000000e+00" cType="1" res="1.9533339887857437e-02" rms="4.1473838686943054e-01" purity="5.4796731472015381e-01" nType="-99"/>
          <Node pos="r" depth="2" NCoef="0" IVar="-1" Cut="0.0000000000000000e+00" cType="1" res="-1.9299328327178955e-02" rms="4.0172019600868225e-01" purity="3.2758092880249023e-01" nType="-99"/>
        </Node>
        <Node pos="r" depth="1" NCoef="0" IVar="11" Cut="9.4842491149902344e+01" cType="0" res="-8.6345955729484558e-02" rms="3.5227933526039124e-01" purity="2.4843780696392059e-01" nType="0">
          <Node pos="l" depth="2" NCoef="0" IVar="-1" Cut="0.0000000000000000e+00" cType="1" res="3.1904838979244232e-02" rms="4.1783016920089722e-01" purity="5.0043636560440063e-01" nType="-99"/>
          <Node pos="r" depth="2" NCoef="0" IVar="-1" Cut="0.0000000000000000e+00" cType="1" res="-3.5395309329032898e-02" rms="3.4035566449165344e-01" purity="2.2226053476333618e-01" nType="-99"/>
        </Node>
      </Node>
    </BinaryTree>
    <BinaryTree type="DecisionTree" boostWeight="1.0000000000000000e+00" itree="19">
      <Node pos="s" depth="0" NCoef="0" IVar="12" Cut="2.3007127761840820e+01" cType="0" res="-2.0678197965025902e-02" rms="3.9756497740745544e-01" purity="3.9801287651062012e-01" nType="0">
        <Node pos="l" depth="1" NCoef="0" IVar="8" Cut="2.5162321090698242e+01" cType="1" res="2.3483878467231989e-03" rms="4.1898313164710999e-01" purity="4.9548277258872986e-01" nType="0">
          <Node pos="l" depth="2" NCoef="0" IVar="-1" Cut="0.0000000000000000e+00" cType="1" res="4.8632542602717876e-03" rms="4.1819640994071960e-01" purity="5.0998824834823608e-01" nType="-99"/>
          <Node pos="r" depth="2" NCoef="0" IVar="-1" Cut="0.0000000000000000e+00" cType="1" res="-5.1097735762596130e-02" rms="3.8800236582756042e-01" purity="2.0993773639202118e-01" nType="-99"/>
        </Node>
        <Node pos="r" depth="1" NCoef="0" IVar="0" Cut="7.8684768676757812e+01" cType="0" res="-7.8022055327892303e-02" rms="3.3150538802146912e-01" purity="1.5528038144111633e-01" nType="0">
          <Node pos="l" depth="2" NCoef="0" IVar="-1" Cut="0.0000000000000000e+00" cType="1" res="6.6083937883377075e-02" rms="4.4139090180397034e-01" purity="7.1589243412017822e-01" nType="-99"/>
          <Node pos="r" depth="2" NCoef="0" IVar="-1" Cut="0.0000000000000000e+00" cType="1" res="-2.9089767485857010e-02" rms="3.2471483945846558e-01" purity="1.3724586367607117e-01" nType="-99"/>
        </Node>
      </Node>
    </BinaryTree>
    <BinaryTree type="DecisionTree" boostWeight="1.0000000000000000e+00" itree="20">
      <Node pos="s" depth="0" NCoef="0" IVar="9" Cut="6.4861930847167969e+01" cType="0" res="-1.8885105848312378e-02" rms="3.9668723940849304e-01" purity="3.9801287651062012e-01" nType="0">
        <Node pos="l" depth="1" NCoef="0" IVar="8" Cut="1.9226221084594727e+01" cType="1" res="1.9967569038271904e-02" rms="4.1841450333595276e-01" purity="4.9575224518775940e-01" nType="0">
          <Node pos="l" depth="2" NCoef="0" IVar="-1" Cut="0.0000000000000000e+00" cType="1" res="2.3799564689397812e-02" rms="4.1627487540245056e-01" purity="5.5425208806991577e-01" nType="-99"/>
          <Node pos="r" depth="2" NCoef="0" IVar="-1" Cut="0.0000000000000000e+00" cType="1" res="-2.9778810217976570e-02" rms="4.0564274787902832e-01" purity="3.1122991442680359e-01" nType="-99"/>
        </Node>
        <Node pos="r" depth="1" NCoef="0" IVar="2" Cut="2.0649685668945312e+02" cType="1" res="-5.2248746156692505e-02" rms="3.7382277846336365e-01" purity="3.1408193707466125e-01" nType="0">
          <Node pos="l" depth="2" NCoef="0" IVar="-1" Cut="0.0000000000000000e+00" cType="1" res="-1.1667708866298199e-02" rms="3.8102284073829651e-01" purity="3.4431898593902588e-01" nType="-99"/>
          <Node pos="r" depth="2" NCoef="0" IVar="-1" Cut="0.0000000000000000e+00" cType="1" res="-4.8662114888429642e-02" rms="3.2362410426139832e-01" purity="1.8041622638702393e-01" nType="-99"/>
        </Node>
      </Node>
    </BinaryTree>
    <BinaryTree type="DecisionTree" boostWeight="1.0000000000000000e+00" itree="21">
      <Node pos="s" depth="0" NCoef="0" IVar="6" Cut="8.4360992908477783e-01" cType="1" res="-1.7292907461524010e-02" rms="3.9530590176582336e-01" purity="3.9801287651062012e-01" nType="0">
        <Node pos="l" depth="1" NCoef="0" IVar="11" Cut="7.0752120971679688e+01" cType="0" res="-4.3810666538774967e-03" rms="3.9991059899330139e-01" purity="4.2737635970115662e-01" nType="0">
          <Node pos="l" depth="2" NCoef="0" IVar="-1" Cut="0.0000000000000000e+00" cType="1" res="2.5315025821328163e-02" rms="4.2090338468551636e-01" purity="5.4454916715621948e-01" nType="-99"/>
          <Node pos="r" depth="2" NCoef="0" IVar="-1" Cut="0.0000000000000000e+00" cType="1" res="-1.5071161091327667e-02" rms="3.8302853703498840e-01" purity="3.6105945706367493e-01" nType="-99"/>
        </Node>
        <Node pos="r" depth="1" NCoef="0" IVar="0" Cut="7.8728439331054688e+01" cType="0" res="-1.1077235639095306e-01" rms="3.4613746404647827e-01" purity="1.8542632460594177e-01" nType="0">
          <Node pos="l" depth="2" NCoef="0" IVar="-1" Cut="0.0000000000000000e+00" cType="1" res="3.4818463027477264e-02" rms="4.8310178518295288e-01" purity="5.8735710382461548e-01" nType="-99"/>
          <Node pos="r" depth="2" NCoef="0" IVar="-1" Cut="0.0000000000000000e+00" cType="1" res="-4.0080137550830841e-02" rms="3.2694935798645020e-01" purity="1.5275727212429047e-01" nType="-99"/>
        </Node>
      </Node>
    </BinaryTree>
    <BinaryTree type="DecisionTree" boostWeight="1.0000000000000000e+00" itree="22">
      <Node pos="s" depth="0" NCoef="0" IVar="2" Cut="2.0627067565917969e+02" cType="1" res="-1.5879198908805847e-02" rms="3.9409214258193970e-01" purity="3.9801287651062012e-01" nType="0">
        <Node pos="l" depth="1" NCoef="0" IVar="2" Cut="1.4490560913085938e+02" cType="0" res="4.8069762997329235e-03" rms="3.9576661586761475e-01" purity="4.3014907836914062e-01" nType="0">
          <Node pos="l" depth="2" NCoef="0" IVar="-1" Cut="0.0000000000000000e+00" cType="1" res="1.5562746673822403e-02" rms="4.0492832660675049e-01" purity="5.0362712144851685e-01" nType="-99"/>
          <Node pos="r" depth="2" NCoef="0" IVar="-1" Cut="0.0000000000000000e+00" cType="1" res="-2.6708768680691719e-02" rms="3.5905537009239197e-01" purity="2.4326576292514801e-01" nType="-99"/>
        </Node>
        <Node pos="r" depth="1" NCoef="0" IVar="4" Cut="1.4143370091915131e-02" cType="0" res="-7.0138908922672272e-02" rms="3.8441237807273865e-01" purity="3.1371974945068359e-01" nType="0">
          <Node pos="l" depth="2" NCoef="0" IVar="-1" Cut="0.0000000000000000e+00" cType="1" res="1.2306777352932841e-04" rms="4.2962118983268738e-01" purity="4.8935899138450623e-01" nType="-99"/>
          <Node pos="r" depth="2" NCoef="0" IVar="-1" Cut="0.0000000000000000e+00" cType="1" res="-4.1568331420421600e-02" rms="3.3411109447479248e-01" purity="1.7478281259536743e-01" nType="-99"/>
        </Node>
      </Node>
    </BinaryTree>
    <BinaryTree type="DecisionTree" boostWeight="1.0000000000000000e+00" itree="23">
      <Node pos="s" depth="0" NCoef="0" IVar="11" Cut="1.4862236022949219e+02" cType="0" res="-1.4799844473600388e-02" rms="3.9280965924263000e-01" purity="3.9801287651062012e-01" nType="0">
        <Node pos="l" depth="1" NCoef="0" IVar="8" Cut="3.0723381042480469e+01" cType="1" res="1.2359546124935150e-01" rms="4.2920079827308655e-01" purity="6.0893547534942627e-01" nType="0">
          <Node pos="l" depth="2" NCoef="0" IVar="-1" Cut="0.0000000000000000e+00" cType="1" res="9.7732596099376678e-02" rms="4.1817319393157959e-01" purity="7.0415747165679932e-01" nType="-99"/>
          <Node pos="r" depth="2" NCoef="0" IVar="-1" Cut="0.0000000000000000e+00" cType="1" res="-5.4362580180168152e-02" rms="3.3361950516700745e-01" purity="1.2583926320075989e-01" nType="-99"/>
        </Node>
        <Node pos="r" depth="1" NCoef="0" IVar="6" Cut="6.2077903747558594e-01" cType="1" res="-2.2118112072348595e-02" rms="3.8942420482635498e-01" purity="3.8685941696166992e-01" nType="0">
          <Node pos="l" depth="2" NCoef="0" IVar="-1" Cut="0.0000000000000000e+00" cType="1" res="6.8755457177758217e-03" rms="3.9174062013626099e-01" purity="4.6961519122123718e-01" nType="-99"/>
          <Node pos="r" depth="2" NCoef="0" IVar="-1" Cut="0.0000000000000000e+00" cType="1" res="-2.1541772410273552e-02" rms="3.8320010900497437e-01" purity="3.0282697081565857e-01" nType="-99"/>
        </Node>
      </Node>
    </BinaryTree>
    <BinaryTree type="DecisionTree" boostWeight="1.0000000000000000e+00" itree="24">
      <Node pos="s" depth="0" NCoef="0" IVar="12" Cut="3.2866897583007812e+01" cType="0" res="-1.3754085637629032e-02" rms="3.9141488075256348e-01" purity="3.9801287651062012e-01" nType="0">
        <Node pos="l" depth="1" NCoef="0" IVar="0" Cut="9.2268915176391602e+00" cType="1" res="1.1135159060359001e-02" rms="4.2089253664016724e-01" purity="5.4871767759323120e-01" nType="0">
          <Node pos="l" depth="2" NCoef="0" IVar="-1" Cut="0.0000000000000000e+00" cType="1" res="4.7622507810592651e-01" rms="2.6654532551765442e-01" purity="9.2043924331665039e-01" nType="-99"/>
          <Node pos="r" depth="2" NCoef="0" IVar="-1" Cut="0.0000000000000000e+00" cType="1" res="3.3431781921535730e-03" rms="4.1944807767868042e-01" purity="5.4680073261260986e-01" nType="-99"/>
        </Node>
        <Node pos="r" depth="1" NCoef="0" IVar="0" Cut="3.5442665100097656e+01" cType="0" res="-5.1314219832420349e-02" rms="3.3871075510978699e-01" purity="1.7058558762073517e-01" nType="0">
          <Node pos="l" depth="2" NCoef="0" IVar="-1" Cut="0.0000000000000000e+00" cType="1" res="4.6964734792709351e-03" rms="4.2582356929779053e-01" purity="3.5494643449783325e-01" nType="-99"/>
          <Node pos="r" depth="2" NCoef="0" IVar="-1" Cut="0.0000000000000000e+00" cType="1" res="-2.6818541809916496e-02" rms="3.0368828773498535e-01" purity="1.1303724348545074e-01" nType="-99"/>
        </Node>
      </Node>
    </BinaryTree>
    <BinaryTree type="DecisionTree" boostWeight="1.0000000000000000e+00" itree="25">
      <Node pos="s" depth="0" NCoef="0" IVar="11" Cut="5.4483028411865234e+01" cType="0" res="-1.3049670495092869e-02" rms="3.9023840427398682e-01" purity="3.9801287651062012e-01" nType="0">
        <Node pos="l" depth="1" NCoef="0" IVar="6" Cut="8.1682580709457397e-01" cType="1" res="9.2036332935094833e-03" rms="4.0188410878181458e-01" purity="4.4621858000755310e-01" nType="0">
          <Node pos="l" depth="2" NCoef="0" IVar="-1" Cut="0.0000000000000000e+00" cType="1" res="1.3314480893313885e-02" rms="4.0935993194580078e-01" purity="5.0303101539611816e-01" nType="-99"/>
          <Node pos="r" depth="2" NCoef="0" IVar="-1" Cut="0.0000000000000000e+00" cType="1" res="-2.6641262695193291e-02" rms="3.5690701007843018e-01" purity="2.1604502201080322e-01" nType="-99"/>
        </Node>
        <Node pos="r" depth="1" NCoef="0" IVar="10" Cut="9.6141214370727539e+00" cType="1" res="-5.1193449646234512e-02" rms="3.6629253625869751e-01" purity="3.1538474559783936e-01" nType="0">
          <Node pos="l" depth="2" NCoef="0" IVar="-1" Cut="0.0000000000000000e+00" cType="1" res="-2.1728388674091548e-04" rms="3.8147202134132385e-01" purity="3.8599631190299988e-01" nType="-99"/>
          <Node pos="r" depth="2" NCoef="0" IVar="-1" Cut="0.0000000000000000e+00" cType="1" res="-3.3296015113592148e-02" rms="3.4789237380027771e-01" purity="2.5746980309486389e-01" nType="-99"/>
        </Node>
      </Node>
    </BinaryTree>
    <BinaryTree type="DecisionTree" boostWeight="1.0000000000000000e+00" itree="26">
      <Node pos="s" depth="0" NCoef="0" IVar="12" Cut="1.0517189025878906e+02" cType="0" res="-1.2031624093651772e-02" rms="3.8930359482765198e-01" purity="3.9801287651062012e-01" nType="0">
        <Node pos="l" depth="1" NCoef="0" IVar="10" Cut="2.5677461624145508e+01" cType="1" res="1.6047523915767670e-01" rms="2.8527507185935974e-01" purity="8.8418650627136230e-01" nType="0">
          <Node pos="l" depth="2" NCoef="0" IVar="-1" Cut="0.0000000000000000e+00" cType="1" res="1.4847552776336670e-01" rms="2.5739571452140808e-01" purity="9.1188168525695801e-01" nType="-99"/>
          <Node pos="r" depth="2" NCoef="0" IVar="-1" Cut="0.0000000000000000e+00" cType="1" res="-2.5585887953639030e-02" rms="4.4363498687744141e-01" purity="5.7520049810409546e-01" nType="-99"/>
        </Node>
        <Node pos="r" depth="1" NCoef="0" IVar="2" Cut="2.2513037109375000e+02" cType="1" res="-1.6877371817827225e-02" rms="3.9072895050048828e-01" purity="3.8435617089271545e-01" nType="0">
          <Node pos="l" depth="2" NCoef="0" IVar="-1" Cut="0.0000000000000000e+00" cType="1" res="-8.4971688920632005e-04" rms="3.9349442720413208e-01" purity="4.1232249140739441e-01" nType="-99"/>
          <Node pos="r" depth="2" NCoef="0" IVar="-1" Cut="0.0000000000000000e+00" cType="1" res="-2.6931596919894218e-02" rms="3.7436166405677795e-01" purity="2.7603060007095337e-01" nType="-99"/>
        </Node>
      </Node>
    </BinaryTree>
    <BinaryTree type="DecisionTree" boostWeight="1.0000000000000000e+00" itree="27">
      <Node pos="s" depth="0" NCoef="0" IVar="9" Cut="4.9944866180419922e+01" cType="0" res="-1.1105258949100971e-02" rms="3.8849899172782898e-01" purity="3.9801287651062012e-01" nType="0">
        <Node pos="l" depth="1" NCoef="0" IVar="8" Cut="2.1925579071044922e+01" cType="1" res="6.5953070297837257e-03" rms="4.0202903747558594e-01" purity="4.5312318205833435e-01" nType="0">
          <Node pos="l" depth="2" NCoef="0" IVar="-1" Cut="0.0000000000000000e+00" cType="1" res="7.8237336128950119e-03" rms="4.0175789594650269e-01" purity="4.7600305080413818e-01" nType="-99"/>
          <Node pos="r" depth="2" NCoef="0" IVar="-1" Cut="0.0000000000000000e+00" cType="1" res="-3.3504862338304520e-02" rms="3.8795483112335205e-01" purity="2.4529375135898590e-01" nType="-99"/>
        </Node>
        <Node pos="r" depth="1" NCoef="0" IVar="11" Cut="9.4842491149902344e+01" cType="0" res="-5.9146407991647720e-02" rms="3.4459170699119568e-01" purity="2.4843780696392059e-01" nType="0">
          <Node pos="l" depth="2" NCoef="0" IVar="-1" Cut="0.0000000000000000e+00" cType="1" res="2.8650607913732529e-02" rms="4.0532720088958740e-01" purity="5.0043636560440063e-01" nType="-99"/>
          <Node pos="r" depth="2" NCoef="0" IVar="-1" Cut="0.0000000000000000e+00" cType="1" res="-2.7324642986059189e-02" rms="3.3502915501594543e-01" purity="2.2226053476333618e-01" nType="-99"/>
        </Node>
      </Node>
    </BinaryTree>
    <BinaryTree type="DecisionTree" boostWeight="1.0000000000000000e+00" itree="28">
      <Node pos="s" depth="0" NCoef="0" IVar="9" Cut="6.9834281921386719e+01" cType="0" res="-1.0217561386525631e-02" rms="3.8776364922523499e-01" purity="3.9801287651062012e-01" nType="0">
        <Node pos="l" depth="1" NCoef="0" IVar="8" Cut="2.1159107208251953e+01" cType="1" res="2.3835485801100731e-02" rms="4.1032898426055908e-01" purity="4.9912518262863159e-01" nType="0">
          <Node pos="l" depth="2" NCoef="0" IVar="-1" Cut="0.0000000000000000e+00" cType="1" res="2.2910783067345619e-02" rms="4.1024902462959290e-01" purity="5.5890101194381714e-01" nType="-99"/>
          <Node pos="r" depth="2" NCoef="0" IVar="-1" Cut="0.0000000000000000e+00" cType="1" res="-2.7902819216251373e-02" rms="3.9318928122520447e-01" purity="2.6482233405113220e-01" nType="-99"/>
        </Node>
        <Node pos="r" depth="1" NCoef="0" IVar="2" Cut="2.1985357666015625e+02" cType="1" res="-3.2538138329982758e-02" rms="3.7053734064102173e-01" purity="3.3173727989196777e-01" nType="0">
          <Node pos="l" depth="2" NCoef="0" IVar="-1" Cut="0.0000000000000000e+00" cType="1" res="-6.7880623973906040e-03" rms="3.7784221768379211e-01" purity="3.6095979809761047e-01" nType="-99"/>
          <Node pos="r" depth="2" NCoef="0" IVar="-1" Cut="0.0000000000000000e+00" cType="1" res="-4.3427743017673492e-02" rms="3.1298583745956421e-01" purity="1.6888159513473511e-01" nType="-99"/>
        </Node>
      </Node>
    </BinaryTree>
    <BinaryTree type="DecisionTree" boostWeight="1.0000000000000000e+00" itree="29">
      <Node pos="s" depth="0" NCoef="0" IVar="7" Cut="9.1053128242492676e-01" cType="1" res="-9.6369097009301186e-03" rms="3.8682061433792114e-01" purity="3.9801287651062012e-01" nType="0">
        <Node pos="l" depth="1" NCoef="0" IVar="2" Cut="1.4425462341308594e+02" cType="0" res="4.9777138046920300e-03" rms="3.9861989021301270e-01" purity="4.4533756375312805e-01" nType="0">
          <Node pos="l" depth="2" NCoef="0" IVar="-1" Cut="0.0000000000000000e+00" cType="1" res="8.7952800095081329e-03" rms="4.0566501021385193e-01" purity="4.9265080690383911e-01" nType="-99"/>
          <Node pos="r" depth="2" NCoef="0" IVar="-1" Cut="0.0000000000000000e+00" cType="1" res="-2.0786285400390625e-02" rms="3.6330085992813110e-01" purity="2.5934156775474548e-01" nType="-99"/>
        </Node>
        <Node pos="r" depth="1" NCoef="0" IVar="6" Cut="7.3328471183776855e-01" cType="1" res="-5.8679547160863876e-02" rms="3.3971849083900452e-01" purity="2.3920430243015289e-01" nType="0">
          <Node pos="l" depth="2" NCoef="0" IVar="-1" Cut="0.0000000000000000e+00" cType="1" res="-1.0492612607777119e-02" rms="3.4987199306488037e-01" purity="2.9903098940849304e-01" nType="-99"/>
          <Node pos="r" depth="2" NCoef="0" IVar="-1" Cut="0.0000000000000000e+00" cType="1" res="-3.4417171031236649e-02" rms="3.2270959019660950e-01" purity="1.6711230576038361e-01" nType="-99"/>
        </Node>
      </Node>
    </BinaryTree>
    <BinaryTree type="DecisionTree" boostWeight="1.0000000000000000e+00" itree="30">
      <Node pos="s" depth="0" NCoef="0" IVar="5" Cut="5.0928533077239990e-02" cType="0" res="-8.9036440476775169e-03" rms="3.8629448413848877e-01" purity="3.9801287651062012e-01" nType="0">
        <Node pos="l" depth="1" NCoef="0" IVar="2" Cut="1.5473329162597656e+02" cType="0" res="4.2612209916114807e-02" rms="4.0960147976875305e-01" purity="5.8359688520431519e-01" nType="0">
          <Node pos="l" depth="2" NCoef="0" IVar="-1" Cut="0.0000000000000000e+00" cType="1" res="4.2888425290584564e-02" rms="4.0444859862327576e-01" purity="6.8349117040634155e-01" nType="-99"/>
          <Node pos="r" depth="2" NCoef="0" IVar="-1" Cut="0.0000000000000000e+00" cType="1" res="-1.4007717370986938e-02" rms="4.0887686610221863e-01" purity="3.7766525149345398e-01" nType="-99"/>
        </Node>
        <Node pos="r" depth="1" NCoef="0" IVar="11" Cut="1.2689789581298828e+02" cType="0" res="-2.1962659433484077e-02" rms="3.7904855608940125e-01" purity="3.5096824169158936e-01" nType="0">
          <Node pos="l" depth="2" NCoef="0" IVar="-1" Cut="0.0000000000000000e+00" cType="1" res="3.2343190163373947e-02" rms="4.1707348823547363e-01" purity="5.4113745689392090e-01" nType="-99"/>
          <Node pos="r" depth="2" NCoef="0" IVar="-1" Cut="0.0000000000000000e+00" cType="1" res="-1.2484720908105373e-02" rms="3.7343475222587585e-01" purity="3.3091658353805542e-01" nType="-99"/>
        </Node>
      </Node>
    </BinaryTree>
    <BinaryTree type="DecisionTree" boostWeight="1.0000000000000000e+00" itree="31">
      <Node pos="s" depth="0" NCoef="0" IVar="2" Cut="1.9684082031250000e+02" cType="1" res="-8.5181845352053642e-03" rms="3.8545751571655273e-01" purity="3.9801287651062012e-01" nType="0">
        <Node pos="l" depth="1" NCoef="0" IVar="2" Cut="1.5503979492187500e+02" cType="0" res="9.0833911672234535e-03" rms="3.8615539669990540e-01" purity="4.2986026406288147e-01" nType="0">
          <Node pos="l" depth="2" NCoef="0" IVar="-1" Cut="0.0000000000000000e+00" cType="1" res="2.0703634247183800e-02" rms="3.9731746912002563e-01" purity="5.3377646207809448e-01" nType="-99"/>
          <Node pos="r" depth="2" NCoef="0" IVar="-1" Cut="0.0000000000000000e+00" cType="1" res="-1.4768054708838463e-02" rms="3.6611869931221008e-01" purity="2.9707494378089905e-01" nType="-99"/>
        </Node>
        <Node pos="r" depth="1" NCoef="0" IVar="1" Cut="4.8398452997207642e-01" cType="0" res="-4.5044627040624619e-02" rms="3.8142219185829163e-01" purity="3.3192369341850281e-01" nType="0">
          <Node pos="l" depth="2" NCoef="0" IVar="-1" Cut="0.0000000000000000e+00" cType="1" res="1.9266894087195396e-02" rms="4.2167860269546509e-01" purity="5.7617378234863281e-01" nType="-99"/>
          <Node pos="r" depth="2" NCoef="0" IVar="-1" Cut="0.0000000000000000e+00" cType="1" res="-2.6127699762582779e-02" rms="3.6551210284233093e-01" purity="2.6299419999122620e-01" nType="-99"/>
        </Node>
      </Node>
    </BinaryTree>
    <BinaryTree type="DecisionTree" boostWeight="1.0000000000000000e+00" itree="32">
      <Node pos="s" depth="0" NCoef="0" IVar="12" Cut="1.9720537185668945e+01" cType="0" res="-8.2050990313291550e-03" rms="3.8457286357879639e-01" purity="3.9801287651062012e-01" nType="0">
        <Node pos="l" depth="1" NCoef="0" IVar="10" Cut="2.4671638488769531e+01" cType="1" res="5.8885896578431129e-03" rms="4.0249037742614746e-01" purity="4.7874721884727478e-01" nType="0">
          <Node pos="l" depth="2" NCoef="0" IVar="-1" Cut="0.0000000000000000e+00" cType="1" res="5.7373675517737865e-03" rms="3.9927774667739868e-01" purity="4.8454341292381287e-01" nType="-99"/>
          <Node pos="r" depth="2" NCoef="0" IVar="-1" Cut="0.0000000000000000e+00" cType="1" res="-3.8415879011154175e-02" rms="4.3221756815910339e-01" purity="3.9165791869163513e-01" nType="-99"/>
        </Node>
        <Node pos="r" depth="1" NCoef="0" IVar="11" Cut="1.5549353027343750e+02" cType="0" res="-5.1357433199882507e-02" rms="3.1976166367530823e-01" purity="1.5081880986690521e-01" nType="0">
          <Node pos="l" depth="2" NCoef="0" IVar="-1" Cut="0.0000000000000000e+00" cType="1" res="5.4419763386249542e-02" rms="4.1333603858947754e-01" purity="4.8983147740364075e-01" nType="-99"/>
          <Node pos="r" depth="2" NCoef="0" IVar="-1" Cut="0.0000000000000000e+00" cType="1" res="-2.2398876026272774e-02" rms="3.1512138247489929e-01" purity="1.4057868719100952e-01" nType="-99"/>
        </Node>
      </Node>
    </BinaryTree>
    <BinaryTree type="DecisionTree" boostWeight="1.0000000000000000e+00" itree="33">
      <Node pos="s" depth="0" NCoef="0" IVar="11" Cut="6.1724514007568359e+01" cType="0" res="-7.6249614357948303e-03" rms="3.8410538434982300e-01" purity="3.9801287651062012e-01" nType="0">
        <Node pos="l" depth="1" NCoef="0" IVar="10" Cut="1.3216788291931152e+01" cType="1" res="1.6078855842351913e-02" rms="3.9893656969070435e-01" purity="4.6191376447677612e-01" nType="0">
          <Node pos="l" depth="2" NCoef="0" IVar="-1" Cut="0.0000000000000000e+00" cType="1" res="3.9161615073680878e-02" rms="3.9922124147415161e-01" purity="5.4848301410675049e-01" nType="-99"/>
          <Node pos="r" depth="2" NCoef="0" IVar="-1" Cut="0.0000000000000000e+00" cType="1" res="-5.8240420185029507e-03" rms="3.9514440298080444e-01" purity="4.2218503355979919e-01" nType="-99"/>
        </Node>
        <Node pos="r" depth="1" NCoef="0" IVar="10" Cut="9.8742275238037109e+00" cType="1" res="-3.2156564295291901e-02" rms="3.6651688814163208e-01" purity="3.3188045024871826e-01" nType="0">
          <Node pos="l" depth="2" NCoef="0" IVar="-1" Cut="0.0000000000000000e+00" cType="1" res="5.5307038128376007e-03" rms="3.7835997343063354e-01" purity="4.0001273155212402e-01" nType="-99"/>
          <Node pos="r" depth="2" NCoef="0" IVar="-1" Cut="0.0000000000000000e+00" cType="1" res="-2.6014203205704689e-02" rms="3.5296171903610229e-01" purity="2.7844411134719849e-01" nType="-99"/>
        </Node>
      </Node>
    </BinaryTree>
    <BinaryTree type="DecisionTree" boostWeight="1.0000000000000000e+00" itree="34">
      <Node pos="s" depth="0" NCoef="0" IVar="6" Cut="8.5234838724136353e-01" cType="1" res="-7.1785845793783665e-03" rms="3.8314712047576904e-01" purity="3.9801287651062012e-01" nType="0">
        <Node pos="l" depth="1" NCoef="0" IVar="11" Cut="1.0406686401367188e+02" cType="0" res="1.0054600425064564e-03" rms="3.8805037736892700e-01" purity="4.2475360631942749e-01" nType="0">
          <Node pos="l" depth="2" NCoef="0" IVar="-1" Cut="0.0000000000000000e+00" cType="1" res="4.2107276618480682e-02" rms="4.2173793911933899e-01" purity="6.3425660133361816e-01" nType="-99"/>
          <Node pos="r" depth="2" NCoef="0" IVar="-1" Cut="0.0000000000000000e+00" cType="1" res="-4.9231243319809437e-03" rms="3.8107427954673767e-01" purity="3.9314296841621399e-01" nType="-99"/>
        </Node>
        <Node pos="r" depth="1" NCoef="0" IVar="0" Cut="1.1797529602050781e+02" cType="0" res="-7.4400320649147034e-02" rms="3.3267620205879211e-01" purity="1.7837089300155640e-01" nType="0">
          <Node pos="l" depth="2" NCoef="0" IVar="-1" Cut="0.0000000000000000e+00" cType="1" res="8.1039227545261383e-02" rms="4.4826421141624451e-01" purity="6.8777108192443848e-01" nType="-99"/>
          <Node pos="r" depth="2" NCoef="0" IVar="-1" Cut="0.0000000000000000e+00" cType="1" res="-3.0140023678541183e-02" rms="3.2500261068344116e-01" purity="1.6229693591594696e-01" nType="-99"/>
        </Node>
      </Node>
    </BinaryTree>
    <BinaryTree type="DecisionTree" boostWeight="1.0000000000000000e+00" itree="35">
      <Node pos="s" depth="0" NCoef="0" IVar="6" Cut="6.0767132043838501e-01" cType="1" res="-6.8665337748825550e-03" rms="3.8247171044349670e-01" purity="3.9801287651062012e-01" nType="0">
        <Node pos="l" depth="1" NCoef="0" IVar="11" Cut="6.9283325195312500e+01" cType="0" res="1.8736528232693672e-02" rms="3.8230666518211365e-01" purity="4.7486314177513123e-01" nType="0">
          <Node pos="l" depth="2" NCoef="0" IVar="-1" Cut="0.0000000000000000e+00" cType="1" res="4.1147131472826004e-02" rms="4.0890860557556152e-01" purity="6.5186524391174316e-01" nType="-99"/>
          <Node pos="r" depth="2" NCoef="0" IVar="-1" Cut="0.0000000000000000e+00" cType="1" res="-2.9187137261033058e-03" rms="3.6740261316299438e-01" purity="3.9903843402862549e-01" nType="-99"/>
        </Node>
        <Node pos="r" depth="1" NCoef="0" IVar="11" Cut="1.4500178527832031e+02" cType="0" res="-2.8524892404675484e-02" rms="3.8127127289772034e-01" purity="3.3300304412841797e-01" nType="0">
          <Node pos="l" depth="2" NCoef="0" IVar="-1" Cut="0.0000000000000000e+00" cType="1" res="3.8273662328720093e-02" rms="4.0849429368972778e-01" purity="5.8302414417266846e-01" nType="-99"/>
          <Node pos="r" depth="2" NCoef="0" IVar="-1" Cut="0.0000000000000000e+00" cType="1" res="-1.5332686714828014e-02" rms="3.7658426165580750e-01" purity="3.0740776658058167e-01" nType="-99"/>
        </Node>
      </Node>
    </BinaryTree>
    <BinaryTree type="DecisionTree" boostWeight="1.0000000000000000e+00" itree="36">
      <Node pos="s" depth="0" NCoef="0" IVar="8" Cut="2.7634094238281250e+01" cType="1" res="-6.7456741817295551e-03" rms="3.8166186213493347e-01" purity="3.9801287651062012e-01" nType="0">
        <Node pos="l" depth="1" NCoef="0" IVar="9" Cut="7.7819328308105469e+01" cType="0" res="-2.4618685711175203e-03" rms="3.8188144564628601e-01" purity="4.0613603591918945e-01" nType="0">
          <Node pos="l" depth="2" NCoef="0" IVar="-1" Cut="0.0000000000000000e+00" cType="1" res="1.9068676978349686e-02" rms="4.0696167945861816e-01" purity="5.3810387849807739e-01" nType="-99"/>
          <Node pos="r" depth="2" NCoef="0" IVar="-1" Cut="0.0000000000000000e+00" cType="1" res="-8.2376683130860329e-03" rms="3.7005242705345154e-01" purity="3.5387960076332092e-01" nType="-99"/>
        </Node>
        <Node pos="r" depth="1" NCoef="0" IVar="2" Cut="2.3379925537109375e+02" cType="0" res="-1.3105697929859161e-01" rms="3.5329142212867737e-01" purity="1.6228832304477692e-01" nType="0">
          <Node pos="l" depth="2" NCoef="0" IVar="-1" Cut="0.0000000000000000e+00" cType="1" res="2.5421765167266130e-03" rms="4.1351428627967834e-01" purity="2.9494050145149231e-01" nType="-99"/>
          <Node pos="r" depth="2" NCoef="0" IVar="-1" Cut="0.0000000000000000e+00" cType="1" res="-6.1056416481733322e-02" rms="2.8870445489883423e-01" purity="8.9521460235118866e-02" nType="-99"/>
        </Node>
      </Node>
    </BinaryTree>
    <BinaryTree type="DecisionTree" boostWeight="1.0000000000000000e+00" itree="37">
      <Node pos="s" depth="0" NCoef="0" IVar="2" Cut="2.0627067565917969e+02" cType="1" res="-6.2567354179918766e-03" rms="3.8111725449562073e-01" purity="3.9801287651062012e-01" nType="0">
        <Node pos="l" depth="1" NCoef="0" IVar="8" Cut="2.2997470855712891e+01" cType="1" res="7.6394597999751568e-03" rms="3.8270661234855652e-01" purity="4.3014907836914062e-01" nType="0">
          <Node pos="l" depth="2" NCoef="0" IVar="-1" Cut="0.0000000000000000e+00" cType="1" res="6.5048476681113243e-03" rms="3.8284200429916382e-01" purity="4.4157207012176514e-01" nType="-99"/>
          <Node pos="r" depth="2" NCoef="0" IVar="-1" Cut="0.0000000000000000e+00" cType="1" res="-4.9453418701887131e-02" rms="3.4073722362518311e-01" purity="1.6755291819572449e-01" nType="-99"/>
        </Node>
        <Node pos="r" depth="1" NCoef="0" IVar="4" Cut="1.4143370091915131e-02" cType="0" res="-4.2706366628408432e-02" rms="3.7447431683540344e-01" purity="3.1371974945068359e-01" nType="0">
          <Node pos="l" depth="2" NCoef="0" IVar="-1" Cut="0.0000000000000000e+00" cType="1" res="1.6832379624247551e-03" rms="4.2232552170753479e-01" purity="4.8935899138450623e-01" nType="-99"/>
          <Node pos="r" depth="2" NCoef="0" IVar="-1" Cut="0.0000000000000000e+00" cType="1" res="-3.0852215364575386e-02" rms="3.2708427309989929e-01" purity="1.7478281259536743e-01" nType="-99"/>
        </Node>
      </Node>
    </BinaryTree>
    <BinaryTree type="DecisionTree" boostWeight="1.0000000000000000e+00" itree="38">
      <Node pos="s" depth="0" NCoef="0" IVar="10" Cut="9.7294673919677734e+00" cType="1" res="-5.9307259507477283e-03" rms="3.8050439953804016e-01" purity="3.9801287651062012e-01" nType="0">
        <Node pos="l" depth="1" NCoef="0" IVar="11" Cut="4.7408061981201172e+01" cType="0" res="3.3069800585508347e-02" rms="3.8155373930931091e-01" purity="4.3406707048416138e-01" nType="0">
          <Node pos="l" depth="2" NCoef="0" IVar="-1" Cut="0.0000000000000000e+00" cType="1" res="3.8156535476446152e-02" rms="3.9218920469284058e-01" purity="5.1720130443572998e-01" nType="-99"/>
          <Node pos="r" depth="2" NCoef="0" IVar="-1" Cut="0.0000000000000000e+00" cType="1" res="-5.7163443416357040e-03" rms="3.6468696594238281e-01" purity="3.5096195340156555e-01" nType="-99"/>
        </Node>
        <Node pos="r" depth="1" NCoef="0" IVar="11" Cut="8.3450027465820312e+01" cType="0" res="-1.8243059515953064e-02" rms="3.7934067845344543e-01" purity="3.8663068413734436e-01" nType="0">
          <Node pos="l" depth="2" NCoef="0" IVar="-1" Cut="0.0000000000000000e+00" cType="1" res="8.0371098592877388e-03" rms="4.0031388401985168e-01" purity="4.9005731940269470e-01" nType="-99"/>
          <Node pos="r" depth="2" NCoef="0" IVar="-1" Cut="0.0000000000000000e+00" cType="1" res="-1.5444107353687286e-02" rms="3.6588785052299500e-01" purity="3.3021068572998047e-01" nType="-99"/>
        </Node>
      </Node>
    </BinaryTree>
    <BinaryTree type="DecisionTree" boostWeight="1.0000000000000000e+00" itree="39">
      <Node pos="s" depth="0" NCoef="0" IVar="10" Cut="2.4671638488769531e+01" cType="1" res="-5.5320966057479382e-03" rms="3.7986978888511658e-01" purity="3.9801287651062012e-01" nType="0">
        <Node pos="l" depth="1" NCoef="0" IVar="11" Cut="9.9968841552734375e+01" cType="0" res="7.1199872763827443e-05" rms="3.7700736522674561e-01" purity="4.0008279681205750e-01" nType="0">
          <Node pos="l" depth="2" NCoef="0" IVar="-1" Cut="0.0000000000000000e+00" cType="1" res="3.7678163498640060e-02" rms="3.8915634155273438e-01" purity="5.7926821708679199e-01" nType="-99"/>
          <Node pos="r" depth="2" NCoef="0" IVar="-1" Cut="0.0000000000000000e+00" cType="1" res="-4.7353329136967659e-03" rms="3.7385031580924988e-01" purity="3.7321421504020691e-01" nType="-99"/>
        </Node>
        <Node pos="r" depth="1" NCoef="0" IVar="11" Cut="1.6607066345214844e+02" cType="0" res="-9.6949823200702667e-02" rms="4.1325339674949646e-01" purity="3.6424240469932556e-01" nType="0">
          <Node pos="l" depth="2" NCoef="0" IVar="-1" Cut="0.0000000000000000e+00" cType="1" res="1.5441437251865864e-02" rms="4.1857552528381348e-01" purity="5.3672659397125244e-01" nType="-99"/>
          <Node pos="r" depth="2" NCoef="0" IVar="-1" Cut="0.0000000000000000e+00" cType="1" res="-6.0123752802610397e-02" rms="3.8828253746032715e-01" purity="2.5793623924255371e-01" nType="-99"/>
        </Node>
      </Node>
    </BinaryTree>
    <BinaryTree type="DecisionTree" boostWeight="1.0000000000000000e+00" itree="40">
      <Node pos="s" depth="0" NCoef="0" IVar="6" Cut="5.4650205373764038e-01" cType="1" res="-5.2263792604207993e-03" rms="3.7911412119865417e-01" purity="3.9801287651062012e-01" nType="0">
        <Node pos="l" depth="1" NCoef="0" IVar="9" Cut="6.0920715332031250e+01" cType="0" res="2.3897120729088783e-02" rms="3.7639939785003662e-01" purity="4.7803539037704468e-01" nType="0">
          <Node pos="l" depth="2" NCoef="0" IVar="-1" Cut="0.0000000000000000e+00" cType="1" res="3.8928292691707611e-02" rms="3.9800631999969482e-01" purity="6.6358923912048340e-01" nType="-99"/>
          <Node pos="r" depth="2" NCoef="0" IVar="-1" Cut="0.0000000000000000e+00" cType="1" res="-5.3638634271919727e-03" rms="3.5521009564399719e-01" purity="3.4025949239730835e-01" nType="-99"/>
        </Node>
        <Node pos="r" depth="1" NCoef="0" IVar="0" Cut="8.6570587158203125e+01" cType="0" res="-2.0983789116144180e-02" rms="3.7964457273483276e-01" purity="3.5471630096435547e-01" nType="0">
          <Node pos="l" depth="2" NCoef="0" IVar="-1" Cut="0.0000000000000000e+00" cType="1" res="3.8881521672010422e-02" rms="4.2988482117652893e-01" purity="7.1604096889495850e-01" nType="-99"/>
          <Node pos="r" depth="2" NCoef="0" IVar="-1" Cut="0.0000000000000000e+00" cType="1" res="-1.1513832025229931e-02" rms="3.7431049346923828e-01" purity="3.2620650529861450e-01" nType="-99"/>
        </Node>
      </Node>
    </BinaryTree>
    <BinaryTree type="DecisionTree" boostWeight="1.0000000000000000e+00" itree="41">
      <Node pos="s" depth="0" NCoef="0" IVar="12" Cut="2.3007127761840820e+01" cType="0" res="-5.3693847730755806e-03" rms="3.7843388319015503e-01" purity="3.9801287651062012e-01" nType="0">
        <Node pos="l" depth="1" NCoef="0" IVar="10" Cut="2.3011398315429688e+01" cType="1" res="7.6289069838821888e-03" rms="3.9925485849380493e-01" purity="4.9548277258872986e-01" nType="0">
          <Node pos="l" depth="2" NCoef="0" IVar="-1" Cut="0.0000000000000000e+00" cType="1" res="6.9259400479495525e-03" rms="3.9599823951721191e-01" purity="5.0201791524887085e-01" nType="-99"/>
          <Node pos="r" depth="2" NCoef="0" IVar="-1" Cut="0.0000000000000000e+00" cType="1" res="-3.3228371292352676e-02" rms="4.2405804991722107e-01" purity="4.1881650686264038e-01" nType="-99"/>
        </Node>
        <Node pos="r" depth="1" NCoef="0" IVar="0" Cut="7.3922973632812500e+01" cType="0" res="-3.7739455699920654e-02" rms="3.1846442818641663e-01" purity="1.5528038144111633e-01" nType="0">
          <Node pos="l" depth="2" NCoef="0" IVar="-1" Cut="0.0000000000000000e+00" cType="1" res="4.1060898452997208e-02" rms="4.3226450681686401e-01" purity="6.9120758771896362e-01" nType="-99"/>
          <Node pos="r" depth="2" NCoef="0" IVar="-1" Cut="0.0000000000000000e+00" cType="1" res="-1.8172683194279671e-02" rms="3.1216922402381897e-01" purity="1.3451077044010162e-01" nType="-99"/>
        </Node>
      </Node>
    </BinaryTree>
    <BinaryTree type="DecisionTree" boostWeight="1.0000000000000000e+00" itree="42">
      <Node pos="s" depth="0" NCoef="0" IVar="2" Cut="2.4399005126953125e+02" cType="1" res="-5.1961457356810570e-03" rms="3.7805315852165222e-01" purity="3.9801287651062012e-01" nType="0">
        <Node pos="l" depth="1" NCoef="0" IVar="8" Cut="2.5669172286987305e+01" cType="1" res="3.5838007461279631e-03" rms="3.8048467040061951e-01" purity="4.2021048069000244e-01" nType="0">
          <Node pos="l" depth="2" NCoef="0" IVar="-1" Cut="0.0000000000000000e+00" cType="1" res="3.9841891266405582e-03" rms="3.8156741857528687e-01" purity="4.3082931637763977e-01" nType="-99"/>
          <Node pos="r" depth="2" NCoef="0" IVar="-1" Cut="0.0000000000000000e+00" cType="1" res="-4.9395699054002762e-02" rms="3.1164756417274475e-01" purity="1.1959869414567947e-01" nType="-99"/>
        </Node>
        <Node pos="r" depth="1" NCoef="0" IVar="1" Cut="2.5662884116172791e-01" cType="0" res="-5.2249971777200699e-02" rms="3.6112666130065918e-01" purity="2.7905043959617615e-01" nType="0">
          <Node pos="l" depth="2" NCoef="0" IVar="-1" Cut="0.0000000000000000e+00" cType="1" res="7.7798520214855671e-03" rms="4.2245119810104370e-01" purity="4.8635587096214294e-01" nType="-99"/>
          <Node pos="r" depth="2" NCoef="0" IVar="-1" Cut="0.0000000000000000e+00" cType="1" res="-3.8535997271537781e-02" rms="3.0668324232101440e-01" purity="1.4476634562015533e-01" nType="-99"/>
        </Node>
      </Node>
    </BinaryTree>
    <BinaryTree type="DecisionTree" boostWeight="1.0000000000000000e+00" itree="43">
      <Node pos="s" depth="0" NCoef="0" IVar="12" Cut="9.2025527954101562e+01" cType="0" res="-4.9569224938750267e-03" rms="3.7750062346458435e-01" purity="3.9801287651062012e-01" nType="0">
        <Node pos="l" depth="1" NCoef="0" IVar="0" Cut="7.5205413818359375e+01" cType="1" res="6.5762534737586975e-02" rms="3.4167492389678955e-01" purity="8.1368070840835571e-01" nType="0">
          <Node pos="l" depth="2" NCoef="0" IVar="-1" Cut="0.0000000000000000e+00" cType="1" res="1.4308121800422668e-01" rms="2.3513959348201752e-01" purity="9.1535925865173340e-01" nType="-99"/>
          <Node pos="r" depth="2" NCoef="0" IVar="-1" Cut="0.0000000000000000e+00" cType="1" res="-2.6913363486528397e-02" rms="4.2502409219741821e-01" purity="6.6915708780288696e-01" nType="-99"/>
        </Node>
        <Node pos="r" depth="1" NCoef="0" IVar="2" Cut="1.4026174926757812e+02" cType="0" res="-1.0302475653588772e-02" rms="3.7953606247901917e-01" purity="3.6659330129623413e-01" nType="0">
          <Node pos="l" depth="2" NCoef="0" IVar="-1" Cut="0.0000000000000000e+00" cType="1" res="-2.8235997888259590e-04" rms="3.8682496547698975e-01" purity="4.0200293064117432e-01" nType="-99"/>
          <Node pos="r" depth="2" NCoef="0" IVar="-1" Cut="0.0000000000000000e+00" cType="1" res="-2.2534441202878952e-02" rms="3.3789801597595215e-01" purity="1.9409263134002686e-01" nType="-99"/>
        </Node>
      </Node>
    </BinaryTree>
    <BinaryTree type="DecisionTree" boostWeight="1.0000000000000000e+00" itree="44">
      <Node pos="s" depth="0" NCoef="0" IVar="10" Cut="1.0559588432312012e+01" cType="1" res="-5.2234581671655178e-03" rms="3.7669017910957336e-01" purity="3.9801287651062012e-01" nType="0">
        <Node pos="l" depth="1" NCoef="0" IVar="11" Cut="5.1300144195556641e+01" cType="0" res="2.2068135440349579e-02" rms="3.7698858976364136e-01" purity="4.1999793052673340e-01" nType="0">
          <Node pos="l" depth="2" NCoef="0" IVar="-1" Cut="0.0000000000000000e+00" cType="1" res="3.6270111799240112e-02" rms="3.9208161830902100e-01" purity="5.3251498937606812e-01" nType="-99"/>
          <Node pos="r" depth="2" NCoef="0" IVar="-1" Cut="0.0000000000000000e+00" cType="1" res="-4.7679375857114792e-03" rms="3.6314925551414490e-01" purity="3.4795975685119629e-01" nType="-99"/>
        </Node>
        <Node pos="r" depth="1" NCoef="0" IVar="11" Cut="7.2588401794433594e+01" cType="0" res="-1.8661357462406158e-02" rms="3.7581568956375122e-01" purity="3.8718780875205994e-01" nType="0">
          <Node pos="l" depth="2" NCoef="0" IVar="-1" Cut="0.0000000000000000e+00" cType="1" res="2.6075497735291719e-03" rms="3.9118313789367676e-01" purity="4.6825629472732544e-01" nType="-99"/>
          <Node pos="r" depth="2" NCoef="0" IVar="-1" Cut="0.0000000000000000e+00" cType="1" res="-1.8464017659425735e-02" rms="3.5679319500923157e-01" purity="3.0046245455741882e-01" nType="-99"/>
        </Node>
      </Node>
    </BinaryTree>
    <BinaryTree type="DecisionTree" boostWeight="1.0000000000000000e+00" itree="45">
      <Node pos="s" depth="0" NCoef="0" IVar="2" Cut="1.9684082031250000e+02" cType="1" res="-4.9072587862610817e-03" rms="3.7612485885620117e-01" purity="3.9801287651062012e-01" nType="0">
        <Node pos="l" depth="1" NCoef="0" IVar="2" Cut="1.5813615417480469e+02" cType="0" res="8.1051448360085487e-03" rms="3.7700763344764709e-01" purity="4.2986026406288147e-01" nType="0">
          <Node pos="l" depth="2" NCoef="0" IVar="-1" Cut="0.0000000000000000e+00" cType="1" res="1.8372753635048866e-02" rms="3.8842660188674927e-01" purity="5.3887921571731567e-01" nType="-99"/>
          <Node pos="r" depth="2" NCoef="0" IVar="-1" Cut="0.0000000000000000e+00" cType="1" res="-1.0226808488368988e-02" rms="3.6170136928558350e-01" purity="3.1444936990737915e-01" nType="-99"/>
        </Node>
        <Node pos="r" depth="1" NCoef="0" IVar="10" Cut="2.4691850662231445e+01" cType="1" res="-3.1910341233015060e-02" rms="3.7284004688262939e-01" purity="3.3192369341850281e-01" nType="0">
          <Node pos="l" depth="2" NCoef="0" IVar="-1" Cut="0.0000000000000000e+00" cType="1" res="-9.4903446733951569e-03" rms="3.7111896276473999e-01" purity="3.4053754806518555e-01" nType="-99"/>
          <Node pos="r" depth="2" NCoef="0" IVar="-1" Cut="0.0000000000000000e+00" cType="1" res="-5.1071606576442719e-02" rms="3.7375152111053467e-01" purity="2.3445212841033936e-01" nType="-99"/>
        </Node>
      </Node>
    </BinaryTree>
    <BinaryTree type="DecisionTree" boostWeight="1.0000000000000000e+00" itree="46">
      <Node pos="s" depth="0" NCoef="0" IVar="7" Cut="9.2293918132781982e-01" cType="1" res="-4.6979123726487160e-03" rms="3.7562972307205200e-01" purity="3.9801287651062012e-01" nType="0">
        <Node pos="l" depth="1" NCoef="0" IVar="3" Cut="-1.2822600603103638e+00" cType="0" res="3.6860457621514797e-03" rms="3.8591712713241577e-01" purity="4.3619987368583679e-01" nType="0">
          <Node pos="l" depth="2" NCoef="0" IVar="-1" Cut="0.0000000000000000e+00" cType="1" res="6.5863612107932568e-03" rms="3.8787737488746643e-01" purity="4.4994992017745972e-01" nType="-99"/>
          <Node pos="r" depth="2" NCoef="0" IVar="-1" Cut="0.0000000000000000e+00" cType="1" res="-1.4032564125955105e-02" rms="3.7696728110313416e-01" purity="3.9016386866569519e-01" nType="-99"/>
        </Node>
        <Node pos="r" depth="1" NCoef="0" IVar="12" Cut="6.6093025207519531e+01" cType="0" res="-4.3969340622425079e-02" rms="3.2020199298858643e-01" purity="2.1914054453372955e-01" nType="0">
          <Node pos="l" depth="2" NCoef="0" IVar="-1" Cut="0.0000000000000000e+00" cType="1" res="1.4730195514857769e-02" rms="3.8307282328605652e-01" purity="6.3670051097869873e-01" nType="-99"/>
          <Node pos="r" depth="2" NCoef="0" IVar="-1" Cut="0.0000000000000000e+00" cType="1" res="-2.2988550364971161e-02" rms="3.0807048082351685e-01" purity="1.5641519427299500e-01" nType="-99"/>
        </Node>
      </Node>
    </BinaryTree>
    <BinaryTree type="DecisionTree" boostWeight="1.0000000000000000e+00" itree="47">
      <Node pos="s" depth="0" NCoef="0" IVar="8" Cut="1.4672605514526367e+01" cType="1" res="-4.3805977329611778e-03" rms="3.7536486983299255e-01" purity="3.9801287651062012e-01" nType="0">
        <Node pos="l" depth="1" NCoef="0" IVar="9" Cut="5.6481765747070312e+01" cType="0" res="7.0509221404790878e-03" rms="3.6896458268165588e-01" purity="3.9816990494728088e-01" nType="0">
          <Node pos="l" depth="2" NCoef="0" IVar="-1" Cut="0.0000000000000000e+00" cType="1" res="1.9585104659199715e-02" rms="3.9083853363990784e-01" purity="5.3725564479827881e-01" nType="-99"/>
          <Node pos="r" depth="2" NCoef="0" IVar="-1" Cut="0.0000000000000000e+00" cType="1" res="-9.1176694259047508e-03" rms="3.4764283895492554e-01" purity="2.8483408689498901e-01" nType="-99"/>
        </Node>
        <Node pos="r" depth="1" NCoef="0" IVar="9" Cut="7.6525825500488281e+01" cType="0" res="-3.2533973455429077e-02" rms="3.8925161957740784e-01" purity="3.9762601256370544e-01" nType="0">
          <Node pos="l" depth="2" NCoef="0" IVar="-1" Cut="0.0000000000000000e+00" cType="1" res="-2.8561779763549566e-03" rms="3.9645576477050781e-01" purity="4.3569776415824890e-01" nType="-99"/>
          <Node pos="r" depth="2" NCoef="0" IVar="-1" Cut="0.0000000000000000e+00" cType="1" res="-4.1301008313894272e-02" rms="3.5492444038391113e-01" purity="2.8160190582275391e-01" nType="-99"/>
        </Node>
      </Node>
    </BinaryTree>
    <BinaryTree type="DecisionTree" boostWeight="1.0000000000000000e+00" itree="48">
      <Node pos="s" depth="0" NCoef="0" IVar="6" Cut="8.4360992908477783e-01" cType="1" res="-4.2708436958491802e-03" rms="3.7476989626884460e-01" purity="3.9801287651062012e-01" nType="0">
        <Node pos="l" depth="1" NCoef="0" IVar="11" Cut="1.0662953948974609e+02" cType="0" res="2.1957592107355595e-03" rms="3.8018846511840820e-01" purity="4.2737635970115662e-01" nType="0">
          <Node pos="l" depth="2" NCoef="0" IVar="-1" Cut="0.0000000000000000e+00" cType="1" res="3.0941620469093323e-02" rms="4.0995225310325623e-01" purity="6.4963304996490479e-01" nType="-99"/>
          <Node pos="r" depth="2" NCoef="0" IVar="-1" Cut="0.0000000000000000e+00" cType="1" res="-2.4530615191906691e-03" rms="3.7531861662864685e-01" purity="3.9740446209907532e-01" nType="-99"/>
        </Node>
        <Node pos="r" depth="1" NCoef="0" IVar="11" Cut="2.1379679870605469e+02" cType="0" res="-5.1087912172079086e-02" rms="3.2915240526199341e-01" purity="1.8542632460594177e-01" nType="0">
          <Node pos="l" depth="2" NCoef="0" IVar="-1" Cut="0.0000000000000000e+00" cType="1" res="5.5833503603935242e-02" rms="4.0859395265579224e-01" purity="4.9562087655067444e-01" nType="-99"/>
          <Node pos="r" depth="2" NCoef="0" IVar="-1" Cut="0.0000000000000000e+00" cType="1" res="-2.4633619934320450e-02" rms="3.2106223702430725e-01" purity="1.6697247326374054e-01" nType="-99"/>
        </Node>
      </Node>
    </BinaryTree>
    <BinaryTree type="DecisionTree" boostWeight="1.0000000000000000e+00" itree="49">
      <Node pos="s" depth="0" NCoef="0" IVar="10" Cut="1.6370431900024414e+01" cType="0" res="-4.1298572905361652e-03" rms="3.7442490458488464e-01" purity="3.9801287651062012e-01" nType="0">
        <Node pos="l" depth="1" NCoef="0" IVar="11" Cut="1.5659950256347656e+02" cType="0" res="-3.9465215057134628e-02" rms="3.8453599810600281e-01" purity="4.0009212493896484e-01" nType="0">
          <Node pos="l" depth="2" NCoef="0" IVar="-1" Cut="0.0000000000000000e+00" cType="1" res="3.1891927123069763e-02" rms="3.9932629466056824e-01" purity="6.0164934396743774e-01" nType="-99"/>
          <Node pos="r" depth="2" NCoef="0" IVar="-1" Cut="0.0000000000000000e+00" cType="1" res="-2.4971170350909233e-02" rms="3.7771657109260559e-01" purity="3.5673540830612183e-01" nType="-99"/>
        </Node>
        <Node pos="r" depth="1" NCoef="0" IVar="11" Cut="7.4085388183593750e+01" cType="0" res="5.9100873768329620e-03" rms="3.7088817358016968e-01" purity="3.9742207527160645e-01" nType="0">
          <Node pos="l" depth="2" NCoef="0" IVar="-1" Cut="0.0000000000000000e+00" cType="1" res="3.1911417841911316e-02" rms="3.8334220647811890e-01" purity="5.5516368150711060e-01" nType="-99"/>
          <Node pos="r" depth="2" NCoef="0" IVar="-1" Cut="0.0000000000000000e+00" cType="1" res="-4.0258956141769886e-03" rms="3.6603960394859314e-01" purity="3.5570481419563293e-01" nType="-99"/>
        </Node>
      </Node>
    </BinaryTree>
  </Weights>
</MethodSetup>
